~o
<STREAMINFO> 1 15
<VECSIZE> 15<NULLD><MFCC><DIAGC>
~h "Albi"
<BEGINHMM>
<NUMSTATES> 18
<STATE> 2
<MEAN> 15
 -3.287479e+01 -3.166497e+00 3.015212e-01 -1.154341e+00 -3.373494e-01 -1.499707e-01 -3.975087e-01 -1.291618e-01 -4.261327e-01 1.840861e-01 -2.315988e-01 -1.307332e-01 -3.631625e-01 -1.856442e-02 -2.194411e-01
<VARIANCE> 15
 3.970977e+01 1.895764e+00 5.831464e-01 5.921294e-01 3.161304e-01 1.859058e-01 1.856284e-01 1.910829e-01 1.348352e-01 1.426833e-01 1.261732e-01 1.320282e-01 1.220561e-01 9.638496e-02 1.158545e-01
<GCONST> 1.000909e+01
<STATE> 3
<MEAN> 15
 -3.163037e+01 -3.548246e+00 3.237107e-01 -1.231206e+00 -1.018994e+00 -1.455497e-01 -6.542721e-01 3.730595e-01 -8.087777e-01 2.287530e-01 -5.003995e-01 5.098191e-02 -3.666549e-01 2.013982e-01 -4.221879e-01
<VARIANCE> 15
 2.098746e+01 2.756650e+00 1.845748e+00 7.661847e-01 9.334855e-01 5.335377e-01 4.638053e-01 3.029037e-01 2.069697e-01 2.470481e-01 2.352012e-01 1.414103e-01 1.715884e-01 2.096081e-01 1.358249e-01
<GCONST> 1.761465e+01
<STATE> 4
<MEAN> 15
 -2.323083e+01 -2.466871e+00 2.128397e+00 -1.126586e+00 -2.979360e+00 -5.824941e-01 -1.353403e+00 -2.807844e-02 -6.186972e-01 -7.436111e-02 -9.921814e-01 3.436595e-01 -6.561215e-02 -2.575789e-01 -6.955708e-01
<VARIANCE> 15
 2.292954e+01 5.037333e+00 2.728208e+00 1.538738e+00 2.983443e+00 9.616901e-01 1.160247e+00 9.084501e-01 3.313217e-01 4.128165e-01 2.957202e-01 4.329038e-01 2.831075e-01 1.746305e-01 2.812813e-01
<GCONST> 2.653829e+01
<STATE> 5
<MEAN> 15
 -1.173526e+01 -2.328156e+00 4.792710e+00 2.777391e-01 -2.766727e+00 -1.441711e+00 -1.004664e+00 -9.765491e-01 -1.313214e+00 -1.273966e-01 -8.399694e-01 5.926944e-02 6.825127e-02 -2.097428e-02 -7.189701e-01
<VARIANCE> 15
 1.109668e+01 2.136374e+00 1.769325e+00 2.051984e+00 2.323432e+00 8.076984e-01 7.908116e-01 4.868931e-01 6.942636e-01 6.485096e-01 2.711188e-01 3.821891e-01 2.752262e-01 2.997363e-01 2.191414e-01
<GCONST> 2.462031e+01
<STATE> 6
<MEAN> 15
 -1.315423e+01 2.076303e+00 1.242328e+00 -8.073813e-01 -1.907141e+00 1.793570e+00 -2.846534e+00 -1.209427e+00 -1.605014e+00 -1.678063e-01 -1.407054e+00 4.951878e-01 5.363670e-02 2.426823e-01 -9.664387e-01
<VARIANCE> 15
 8.061936e+00 3.779574e+00 2.224422e+00 3.701288e+00 2.538503e+00 1.648643e+00 1.773472e+00 1.087622e+00 7.021436e-01 4.106653e-01 5.716537e-01 5.019706e-01 4.105042e-01 2.396986e-01 3.225474e-01
<GCONST> 2.923928e+01
<STATE> 7
<MEAN> 15
 -1.645671e+01 3.752297e-02 3.936932e+00 1.561617e+00 -8.701783e-01 9.798900e-01 -8.901520e-01 -2.042470e+00 -1.841494e+00 -2.198115e-01 -1.618015e+00 -9.498928e-01 4.066397e-01 -2.046124e-03 -4.594967e-01
<VARIANCE> 15
 7.859040e+00 5.368193e+00 1.117383e+01 8.671563e-01 1.002354e+00 1.691312e+00 1.673997e+00 3.764176e-01 5.829920e-01 3.355222e-01 4.383022e-01 6.510934e-01 4.439176e-01 2.944331e-01 4.768862e-01
<GCONST> 2.798647e+01
<STATE> 8
<MEAN> 15
 -1.891069e+01 -8.263366e-01 4.641744e+00 2.973520e+00 -2.401138e-01 5.899577e-01 -7.747505e-02 -5.290668e-01 -1.747699e+00 -5.752346e-01 -9.576082e-01 -1.218463e+00 -3.382943e-01 -1.839978e-01 -1.794023e-01
<VARIANCE> 15
 5.810092e+00 1.800833e+00 2.638042e+00 1.902498e+00 1.244461e+00 1.123960e+00 9.891023e-01 7.118659e-01 5.332070e-01 3.005542e-01 2.971102e-01 4.117424e-01 2.629109e-01 2.391210e-01 2.881571e-01
<GCONST> 2.357098e+01
<STATE> 9
<MEAN> 15
 -2.467502e+01 1.229865e+00 2.563969e+00 2.124602e+00 1.034713e+00 2.780064e+00 -1.871985e+00 -4.494403e-01 -1.122048e+00 -8.577798e-01 -8.831334e-01 -2.142039e-01 -4.920396e-01 4.462756e-01 -9.476915e-01
<VARIANCE> 15
 1.019488e+01 1.772430e+00 1.650972e+00 1.016117e+00 4.250923e-01 9.486039e-01 1.744722e+00 3.198098e-01 5.781866e-01 7.228969e-01 3.129815e-01 3.935336e-01 4.062485e-01 2.793619e-01 2.487739e-01
<GCONST> 2.295430e+01
<STATE> 10
<MEAN> 15
 -2.952118e+01 -1.052094e-01 3.172749e+00 1.022765e+00 1.505117e+00 1.126576e+00 3.277373e-01 1.773903e-01 -5.207443e-01 9.631398e-02 -5.089266e-01 -1.126521e-01 5.613770e-02 1.707210e-01 -2.323949e-01
<VARIANCE> 15
 7.986593e+00 3.208481e+00 2.035847e+00 1.071855e+00 4.025966e-01 3.372228e-01 4.921900e-01 3.508482e-01 2.246000e-01 1.911548e-01 2.523758e-01 2.295465e-01 1.849372e-01 2.070723e-01 1.144836e-01
<GCONST> 1.641256e+01
<STATE> 11
<MEAN> 15
 -2.186613e+01 -8.760374e-01 1.166355e+00 -7.545650e-01 1.143913e+00 1.739847e+00 -1.997660e-01 1.995533e+00 -1.017561e-01 7.318636e-01 -7.910305e-01 4.222896e-01 -2.801228e-01 3.663537e-02 -9.097487e-01
<VARIANCE> 15
 8.486394e+00 1.478522e+00 2.036912e+00 7.069849e-01 1.510568e+00 1.729276e+00 8.807478e-01 1.465689e+00 9.873896e-01 5.523012e-01 3.419996e-01 3.317825e-01 4.779591e-01 2.000532e-01 2.615387e-01
<GCONST> 2.520673e+01
<STATE> 12
<MEAN> 15
 -2.120953e+01 -3.240833e+00 2.958216e+00 3.896179e-01 9.445873e-01 1.975514e+00 1.963995e+00 1.490493e-01 1.365641e-01 4.899934e-02 -2.994803e-01 4.203507e-01 -5.588214e-02 2.404077e-01 -6.506127e-01
<VARIANCE> 15
 8.173338e+00 1.062018e+00 1.320245e+00 6.122358e-01 9.071345e-01 5.293406e-01 6.012310e-01 6.354072e-01 5.918989e-01 5.190257e-01 3.334847e-01 3.693436e-01 3.939093e-01 1.662099e-01 2.729510e-01
<GCONST> 2.052152e+01
<STATE> 13
<MEAN> 15
 -2.544671e+01 -2.609419e+00 1.964491e+00 -1.343310e-02 1.457908e+00 2.177426e+00 9.631628e-01 9.727931e-01 -2.525536e-01 4.740271e-01 -1.234733e-01 8.234844e-01 1.010003e-02 1.986586e-01 -3.679286e-01
<VARIANCE> 15
 2.970066e+00 1.706146e+00 5.692064e-01 5.363552e-01 4.683985e-01 6.217424e-01 3.961100e-01 5.336421e-01 3.066574e-01 2.161845e-01 3.498437e-01 1.832905e-01 2.105472e-01 2.137649e-01 1.716474e-01
<GCONST> 1.489291e+01
<STATE> 14
<MEAN> 15
 -2.778240e+01 -2.213487e+00 1.700999e+00 -5.027678e-01 4.214190e-01 2.275408e+00 4.013278e-01 1.313158e+00 -4.135103e-01 6.474656e-01 1.714711e-01 1.040100e+00 1.787141e-01 -8.939116e-02 -1.963650e-01
<VARIANCE> 15
 3.756353e+00 1.250347e+00 4.463634e-01 5.349941e-01 2.960635e-01 9.660480e-01 4.253892e-01 5.858731e-01 2.100285e-01 4.049224e-01 2.527930e-01 3.128319e-01 1.481829e-01 2.563478e-01 1.545177e-01
<GCONST> 1.490195e+01
<STATE> 15
<MEAN> 15
 -3.158326e+01 -1.012775e+00 7.496626e-01 -1.579662e-02 4.964846e-01 1.229233e+00 3.883493e-01 8.537363e-01 1.675991e-02 1.030147e+00 1.650678e-01 4.526961e-01 -5.846960e-02 6.963178e-02 -3.931658e-01
<VARIANCE> 15
 6.736519e+00 1.491706e+00 5.536088e-01 6.168990e-01 3.191313e-01 3.140784e-01 4.321231e-01 3.659909e-01 2.947918e-01 1.942915e-01 1.358058e-01 1.247863e-01 1.457303e-01 1.050262e-01 1.749618e-01
<GCONST> 1.179652e+01
<STATE> 16
<MEAN> 15
 -3.421502e+01 -1.767309e+00 -2.995375e-01 -3.748507e-01 -2.240102e-01 2.018088e-01 -2.184231e-01 2.500713e-01 -1.167054e-01 4.628652e-01 -1.705399e-01 -9.802996e-02 -2.823785e-01 5.797929e-02 -2.823211e-01
<VARIANCE> 15
 4.330478e+00 5.868105e-01 6.889937e-01 2.808149e-01 1.670926e-01 2.260497e-01 1.490551e-01 1.921842e-01 1.989955e-01 1.571254e-01 1.677005e-01 1.390580e-01 1.029224e-01 9.830683e-02 1.221373e-01
<GCONST> 6.109573e+00
<STATE> 17
<MEAN> 15
 -3.283293e+01 -3.230630e+00 7.468035e-01 -1.208139e+00 -3.631924e-01 -1.931533e-01 -5.074602e-01 -1.906018e-01 -5.105334e-01 1.533007e-01 -2.895158e-01 -2.399041e-01 -3.522460e-01 3.779897e-02 -2.690853e-01
<VARIANCE> 15
 1.060826e+01 1.136454e+00 1.470135e+00 3.972149e-01 2.915029e-01 2.220443e-01 2.277694e-01 1.626943e-01 1.860459e-01 1.650045e-01 1.484371e-01 1.755679e-01 1.480983e-01 1.197937e-01 1.060329e-01
<GCONST> 1.008015e+01
<TRANSP> 18
 0.000000e+00 1.000000e+00 0.000000e+00 0.000000e+00 0.000000e+00 0.000000e+00 0.000000e+00 0.000000e+00 0.000000e+00 0.000000e+00 0.000000e+00 0.000000e+00 0.000000e+00 0.000000e+00 0.000000e+00 0.000000e+00 0.000000e+00 0.000000e+00
 0.000000e+00 9.621928e-01 3.780719e-02 0.000000e+00 0.000000e+00 0.000000e+00 0.000000e+00 0.000000e+00 0.000000e+00 0.000000e+00 0.000000e+00 0.000000e+00 0.000000e+00 0.000000e+00 0.000000e+00 0.000000e+00 0.000000e+00 0.000000e+00
 0.000000e+00 0.000000e+00 6.491228e-01 3.508772e-01 0.000000e+00 0.000000e+00 0.000000e+00 0.000000e+00 0.000000e+00 0.000000e+00 0.000000e+00 0.000000e+00 0.000000e+00 0.000000e+00 0.000000e+00 0.000000e+00 0.000000e+00 0.000000e+00
 0.000000e+00 0.000000e+00 0.000000e+00 5.918368e-01 4.081633e-01 0.000000e+00 0.000000e+00 0.000000e+00 0.000000e+00 0.000000e+00 0.000000e+00 0.000000e+00 0.000000e+00 0.000000e+00 0.000000e+00 0.000000e+00 0.000000e+00 0.000000e+00
 0.000000e+00 0.000000e+00 0.000000e+00 0.000000e+00 8.290598e-01 1.709402e-01 0.000000e+00 0.000000e+00 0.000000e+00 0.000000e+00 0.000000e+00 0.000000e+00 0.000000e+00 0.000000e+00 0.000000e+00 0.000000e+00 0.000000e+00 0.000000e+00
 0.000000e+00 0.000000e+00 0.000000e+00 0.000000e+00 0.000000e+00 8.449612e-01 1.550387e-01 0.000000e+00 0.000000e+00 0.000000e+00 0.000000e+00 0.000000e+00 0.000000e+00 0.000000e+00 0.000000e+00 0.000000e+00 0.000000e+00 0.000000e+00
 0.000000e+00 0.000000e+00 0.000000e+00 0.000000e+00 0.000000e+00 0.000000e+00 7.468355e-01 2.531646e-01 0.000000e+00 0.000000e+00 0.000000e+00 0.000000e+00 0.000000e+00 0.000000e+00 0.000000e+00 0.000000e+00 0.000000e+00 0.000000e+00
 0.000000e+00 0.000000e+00 0.000000e+00 0.000000e+00 0.000000e+00 0.000000e+00 0.000000e+00 8.214286e-01 1.785714e-01 0.000000e+00 0.000000e+00 0.000000e+00 0.000000e+00 0.000000e+00 0.000000e+00 0.000000e+00 0.000000e+00 0.000000e+00
 0.000000e+00 0.000000e+00 0.000000e+00 0.000000e+00 0.000000e+00 0.000000e+00 0.000000e+00 0.000000e+00 7.916667e-01 2.083333e-01 0.000000e+00 0.000000e+00 0.000000e+00 0.000000e+00 0.000000e+00 0.000000e+00 0.000000e+00 0.000000e+00
 0.000000e+00 0.000000e+00 0.000000e+00 0.000000e+00 0.000000e+00 0.000000e+00 0.000000e+00 0.000000e+00 0.000000e+00 8.561151e-01 1.438849e-01 0.000000e+00 0.000000e+00 0.000000e+00 0.000000e+00 0.000000e+00 0.000000e+00 0.000000e+00
 0.000000e+00 0.000000e+00 0.000000e+00 0.000000e+00 0.000000e+00 0.000000e+00 0.000000e+00 0.000000e+00 0.000000e+00 0.000000e+00 8.019802e-01 1.980198e-01 0.000000e+00 0.000000e+00 0.000000e+00 0.000000e+00 0.000000e+00 0.000000e+00
 0.000000e+00 0.000000e+00 0.000000e+00 0.000000e+00 0.000000e+00 0.000000e+00 0.000000e+00 0.000000e+00 0.000000e+00 0.000000e+00 0.000000e+00 8.387097e-01 1.612903e-01 0.000000e+00 0.000000e+00 0.000000e+00 0.000000e+00 0.000000e+00
 0.000000e+00 0.000000e+00 0.000000e+00 0.000000e+00 0.000000e+00 0.000000e+00 0.000000e+00 0.000000e+00 0.000000e+00 0.000000e+00 0.000000e+00 0.000000e+00 7.647059e-01 2.352941e-01 0.000000e+00 0.000000e+00 0.000000e+00 0.000000e+00
 0.000000e+00 0.000000e+00 0.000000e+00 0.000000e+00 0.000000e+00 0.000000e+00 0.000000e+00 0.000000e+00 0.000000e+00 0.000000e+00 0.000000e+00 0.000000e+00 0.000000e+00 6.610169e-01 3.389831e-01 0.000000e+00 0.000000e+00 0.000000e+00
 0.000000e+00 0.000000e+00 0.000000e+00 0.000000e+00 0.000000e+00 0.000000e+00 0.000000e+00 0.000000e+00 0.000000e+00 0.000000e+00 0.000000e+00 0.000000e+00 0.000000e+00 0.000000e+00 6.296296e-01 3.703704e-01 0.000000e+00 0.000000e+00
 0.000000e+00 0.000000e+00 0.000000e+00 0.000000e+00 0.000000e+00 0.000000e+00 0.000000e+00 0.000000e+00 0.000000e+00 0.000000e+00 0.000000e+00 0.000000e+00 0.000000e+00 0.000000e+00 0.000000e+00 8.275862e-01 1.724138e-01 0.000000e+00
 0.000000e+00 0.000000e+00 0.000000e+00 0.000000e+00 0.000000e+00 0.000000e+00 0.000000e+00 0.000000e+00 0.000000e+00 0.000000e+00 0.000000e+00 0.000000e+00 0.000000e+00 0.000000e+00 0.000000e+00 0.000000e+00 9.369085e-01 6.309148e-02
 0.000000e+00 0.000000e+00 0.000000e+00 0.000000e+00 0.000000e+00 0.000000e+00 0.000000e+00 0.000000e+00 0.000000e+00 0.000000e+00 0.000000e+00 0.000000e+00 0.000000e+00 0.000000e+00 0.000000e+00 0.000000e+00 0.000000e+00 0.000000e+00
<ENDHMM>
