~o
<STREAMINFO> 1 20
<VECSIZE> 20<NULLD><MFCC><DIAGC>
~h "Albi"
<BEGINHMM>
<NUMSTATES> 18
<STATE> 2
<MEAN> 20
 -3.695679e+01 -4.049563e+00 1.769700e-01 -8.418046e-01 -1.155720e+00 3.879671e-01 -9.491308e-01 1.942563e-01 -7.951503e-01 1.477319e-01 -1.675143e-01 -1.102807e-01 -4.467778e-01 -2.820817e-01 -1.202003e-01 -1.897053e-01 -2.060170e-01 -6.095645e-02 -1.703334e-01 -1.645110e-01
<VARIANCE> 20
 5.642102e+01 2.092218e+00 6.060305e-01 5.534285e-01 5.740697e-01 2.614794e-01 3.246605e-01 2.720555e-01 1.906272e-01 1.684751e-01 1.769197e-01 1.580127e-01 1.703629e-01 1.388543e-01 1.322915e-01 1.596862e-01 1.270859e-01 1.368274e-01 1.216913e-01 1.170113e-01
<GCONST> 1.319236e+01
<STATE> 3
<MEAN> 20
 -4.086489e+01 -1.751155e+00 -1.221363e+00 2.644151e-01 -1.657043e+00 6.163333e-01 -1.017854e+00 4.756574e-01 -7.453960e-01 -1.465081e-02 -1.987853e-01 -1.256366e-01 -1.712370e-01 -2.240037e-01 -4.253908e-02 -3.000381e-01 -3.467115e-01 -1.514998e-01 -7.672842e-02 -1.588752e-01
<VARIANCE> 20
 1.656538e+01 1.907111e+00 1.049924e+00 4.609281e-01 1.183947e+00 5.415288e-01 6.836210e-01 3.281006e-01 2.341265e-01 1.952968e-01 2.911278e-01 1.960592e-01 1.389520e-01 1.621367e-01 1.575990e-01 1.380218e-01 1.808106e-01 1.388543e-01 1.474271e-01 1.492429e-01
<GCONST> 1.647468e+01
<STATE> 4
<MEAN> 20
 -2.903463e+01 -1.672354e+00 2.090186e-01 1.124600e+00 -4.920746e+00 4.722542e-01 -2.650749e+00 6.463839e-01 -1.281911e+00 4.388684e-01 -1.148963e+00 -1.186312e-01 -6.815318e-02 1.520157e-01 -5.417837e-01 -4.477745e-01 -6.452419e-01 4.936375e-02 1.862897e-01 1.074497e-01
<VARIANCE> 20
 3.354561e+01 8.151207e+00 3.570051e+00 1.841247e+00 3.503992e+00 1.543383e+00 2.302249e+00 6.646054e-01 4.836604e-01 3.718240e-01 8.580455e-01 3.445380e-01 4.107397e-01 3.728847e-01 2.133579e-01 2.815790e-01 5.318751e-01 2.125126e-01 1.700100e-01 2.429135e-01
<GCONST> 3.337502e+01
<STATE> 5
<MEAN> 20
 -1.396091e+01 -2.595975e+00 4.204202e+00 2.343573e+00 -3.676186e+00 -1.229927e+00 -1.909604e+00 -3.402261e-01 -2.073576e+00 -2.491883e-01 -7.716249e-01 -4.474178e-01 -9.448266e-02 2.504633e-01 -3.063639e-01 -6.364582e-01 -5.921332e-01 2.788642e-01 1.618500e-01 -3.692995e-02
<VARIANCE> 20
 1.987321e+01 3.664025e+00 2.794702e+00 2.094720e+00 2.682353e+00 1.814029e+00 9.803107e-01 8.956035e-01 6.715295e-01 7.695818e-01 6.234764e-01 3.086676e-01 3.950709e-01 4.064844e-01 3.496250e-01 3.016465e-01 2.986762e-01 2.798006e-01 3.289196e-01 2.073149e-01
<GCONST> 3.271085e+01
<STATE> 6
<MEAN> 20
 -1.635785e+01 3.905966e+00 -1.454813e-01 1.172307e+00 -4.517961e+00 2.842804e+00 -2.662589e+00 -1.501451e+00 -2.077184e+00 -5.244092e-01 -1.096661e+00 -8.212187e-01 5.793946e-01 5.744849e-02 1.880757e-01 -9.802611e-01 -2.256707e-01 2.165753e-02 2.395613e-01 -1.348630e-01
<VARIANCE> 20
 9.456562e+00 6.536599e+00 3.850950e+00 3.956998e+00 3.161067e+00 2.710023e+00 2.470993e+00 1.409536e+00 8.658307e-01 1.011978e+00 4.356647e-01 7.488710e-01 7.471429e-01 5.056238e-01 2.948057e-01 4.297171e-01 4.161252e-01 2.197166e-01 3.980874e-01 4.753377e-01
<GCONST> 3.865246e+01
<STATE> 7
<MEAN> 20
 -2.005564e+01 2.598578e+00 4.712831e-01 3.274848e+00 -1.983070e+00 2.318666e+00 -1.165713e+00 -1.922775e+00 -2.720545e+00 -9.599398e-01 -9.699706e-01 -1.698911e+00 -1.694677e-01 5.083318e-01 -1.453689e-01 -9.268470e-01 -4.072315e-01 4.699301e-01 3.909654e-01 -3.192804e-01
<VARIANCE> 20
 1.383420e+01 9.984866e+00 1.065840e+01 2.237244e+00 1.457631e+00 2.913698e+00 1.040752e+00 7.159916e-01 4.801320e-01 8.652210e-01 4.975482e-01 4.218497e-01 5.933533e-01 4.308975e-01 3.242632e-01 4.808118e-01 2.630287e-01 2.988096e-01 2.583607e-01 3.423789e-01
<GCONST> 3.537880e+01
<STATE> 8
<MEAN> 20
 -2.122842e+01 -1.384382e+00 4.963540e+00 4.236584e+00 -7.347323e-01 4.280986e-01 7.608885e-02 -2.208684e-01 -2.015830e+00 -1.177390e+00 -5.966939e-01 -1.523751e+00 -1.434171e+00 -2.116663e-02 -3.527620e-01 -6.602844e-02 -7.438372e-01 -2.539259e-01 -2.156293e-01 -2.102892e-01
<VARIANCE> 20
 9.817871e+00 2.430817e+00 3.989829e+00 2.672516e+00 1.338595e+00 1.839139e+00 1.102526e+00 9.012713e-01 9.236113e-01 7.774830e-01 5.090008e-01 5.293108e-01 4.342490e-01 5.702503e-01 4.407795e-01 3.099003e-01 3.009697e-01 3.060738e-01 2.094922e-01 1.597226e-01
<GCONST> 3.238008e+01
<STATE> 9
<MEAN> 20
 -2.956409e+01 2.288736e+00 1.332979e+00 4.069969e+00 -5.293103e-01 3.926755e+00 -1.238160e+00 -7.999611e-01 -1.147153e+00 -9.660323e-01 -1.237723e+00 -5.032884e-01 -5.675657e-01 -2.821634e-01 2.180795e-01 -1.042040e+00 -4.024532e-01 -5.667279e-01 1.388274e-01 -3.236331e-01
<VARIANCE> 20
 1.728830e+01 2.710141e+00 1.981795e+00 1.495420e+00 1.238264e+00 2.209416e+00 1.184481e+00 1.345855e+00 6.442751e-01 7.097484e-01 7.597169e-01 5.294791e-01 4.225830e-01 4.844384e-01 4.011773e-01 3.068880e-01 2.360659e-01 2.770293e-01 2.828284e-01 2.844283e-01
<GCONST> 3.254238e+01
<STATE> 10
<MEAN> 20
 -3.415808e+01 -2.388140e-01 2.919263e+00 1.855672e+00 6.970247e-01 2.048668e+00 -8.602732e-02 9.030963e-01 -8.402877e-01 1.161569e-01 -4.275742e-01 -3.232417e-01 -3.142430e-01 2.116736e-01 -3.830290e-02 -1.719125e-01 -3.977131e-01 -2.239734e-01 -6.559847e-02 -2.807145e-01
<VARIANCE> 20
 1.413470e+01 5.501356e+00 3.065524e+00 1.192857e+00 4.525353e-01 3.890299e-01 2.702218e-01 8.405527e-01 3.369196e-01 3.913736e-01 2.294186e-01 2.943169e-01 2.644885e-01 2.357848e-01 2.592627e-01 1.382424e-01 1.522463e-01 1.195146e-01 1.491177e-01 1.281344e-01
<GCONST> 2.039952e+01
<STATE> 11
<MEAN> 20
 -2.633561e+01 2.188550e-01 -9.021655e-02 7.617826e-01 -9.690424e-01 3.628677e+00 -1.288429e+00 2.512349e+00 1.580023e-01 7.650020e-01 -1.960495e-01 -4.483755e-01 1.380050e-01 -2.651823e-01 -1.484863e-01 -1.051675e+00 -9.098716e-01 -4.889356e-01 -3.584267e-01 -7.022499e-01
<VARIANCE> 20
 1.484809e+01 2.449562e+00 3.345631e+00 1.276767e+00 1.877166e+00 3.034575e+00 8.563425e-01 2.027870e+00 1.437002e+00 7.495244e-01 5.998506e-01 5.001611e-01 5.306564e-01 5.090095e-01 2.802847e-01 3.618559e-01 4.764596e-01 2.938604e-01 2.423410e-01 3.985862e-01
<GCONST> 3.506474e+01
<STATE> 12
<MEAN> 20
 -2.417075e+01 -3.758102e+00 2.661635e+00 1.277623e+00 7.675122e-02 2.304666e+00 1.907542e+00 1.353144e+00 -5.777661e-01 7.653040e-01 -7.119650e-01 2.975147e-01 9.417138e-02 1.685739e-01 2.866280e-02 -7.406003e-01 -4.229372e-01 -3.987472e-01 -3.187861e-01 -2.302871e-01
<VARIANCE> 20
 1.263849e+01 2.033161e+00 2.078605e+00 7.404620e-01 1.264865e+00 9.132405e-01 1.364152e+00 6.911834e-01 6.520048e-01 5.806426e-01 5.700033e-01 4.658457e-01 4.239646e-01 4.622720e-01 2.289687e-01 3.025282e-01 2.704687e-01 2.643959e-01 2.422735e-01 4.804101e-01
<GCONST> 2.913498e+01
<STATE> 13
<MEAN> 20
 -3.108059e+01 -1.195154e+00 2.050148e-01 1.639907e+00 -1.169041e+00 4.345991e+00 -1.850972e-01 2.334794e+00 -4.993271e-01 8.335760e-01 -4.023958e-01 6.184492e-01 6.345670e-01 3.634200e-01 -3.167677e-01 -2.044118e-01 -9.786848e-01 -2.087923e-01 -3.548599e-01 -5.441859e-01
<VARIANCE> 20
 6.320086e+00 1.815830e+00 1.034588e+00 6.701319e-01 1.129160e+00 1.296188e+00 5.618906e-01 5.923336e-01 4.004914e-01 4.462015e-01 5.104082e-01 2.974391e-01 2.927123e-01 2.586558e-01 3.589908e-01 1.864235e-01 2.914853e-01 3.312234e-01 1.827184e-01 1.734209e-01
<GCONST> 2.343059e+01
<STATE> 14
<MEAN> 20
 -3.088949e+01 -3.272690e+00 1.744996e+00 6.426759e-01 -1.592839e-01 2.266812e+00 5.602413e-01 1.624889e+00 -7.146416e-01 5.288824e-01 3.434751e-01 7.369232e-01 3.129840e-01 1.087825e-01 1.022263e-01 3.758528e-02 -3.256074e-01 1.595484e-01 -2.920301e-01 1.964107e-02
<VARIANCE> 20
 1.257376e+01 5.108597e+00 1.723821e+00 1.245826e+00 1.118904e+00 7.698420e-01 9.805221e-01 4.792616e-01 3.249756e-01 4.596153e-01 1.506934e-01 2.353430e-01 3.208970e-01 2.338981e-01 3.304746e-01 3.114582e-01 2.863740e-01 1.564903e-01 1.268432e-01 1.401388e-01
<GCONST> 2.354107e+01
<STATE> 15
<MEAN> 20
 -3.720318e+01 -7.045791e-01 -5.486662e-02 9.623123e-01 -8.007590e-01 2.084709e+00 -1.423135e-01 1.527984e+00 -2.410477e-01 8.513355e-01 5.604116e-01 3.926089e-01 2.557715e-01 1.947560e-01 3.399157e-03 -2.645589e-01 -1.908645e-01 -1.305507e-01 -7.080352e-02 -3.012955e-01
<VARIANCE> 20
 8.665327e+00 1.827680e+00 1.007601e+00 7.145979e-01 5.014477e-01 8.399646e-01 3.097827e-01 4.695006e-01 4.315349e-01 4.003351e-01 2.019207e-01 1.341824e-01 1.403758e-01 1.623887e-01 1.541166e-01 1.828265e-01 9.852052e-02 1.922498e-01 1.675956e-01 1.005763e-01
<GCONST> 1.563459e+01
<STATE> 16
<MEAN> 20
 -4.022500e+01 -1.112908e+00 -1.405957e+00 4.286660e-01 -1.224076e+00 9.895437e-01 -8.801460e-01 7.153903e-01 -4.546784e-01 6.142434e-01 -2.025403e-03 3.517844e-02 -3.028317e-01 -9.357168e-02 -2.979561e-02 -2.159952e-01 -1.890947e-01 -2.572307e-01 -1.888264e-01 -3.714722e-01
<VARIANCE> 20
 6.163886e+00 6.702062e-01 1.034749e+00 3.243008e-01 3.223167e-01 3.730500e-01 3.707505e-01 2.685563e-01 2.553952e-01 3.221025e-01 2.781594e-01 1.963669e-01 2.419633e-01 1.356881e-01 1.372739e-01 1.466455e-01 1.549558e-01 1.718079e-01 1.647521e-01 1.202479e-01
<GCONST> 1.238443e+01
<STATE> 17
<MEAN> 20
 -3.777880e+01 -3.599135e+00 4.018410e-01 -6.076997e-01 -1.220024e+00 3.824342e-01 -9.912429e-01 1.315511e-01 -8.283041e-01 6.586883e-02 -1.546937e-01 -1.734409e-01 -5.167878e-01 -1.883896e-01 -7.693328e-02 -2.081504e-01 -2.477029e-01 -1.481642e-01 -1.680448e-01 -1.944825e-01
<VARIANCE> 20
 1.506734e+01 1.989044e+00 1.977918e+00 3.663301e-01 5.276248e-01 2.817374e-01 2.646280e-01 1.877502e-01 2.190626e-01 2.080977e-01 2.115924e-01 1.806247e-01 2.655044e-01 1.707039e-01 1.527474e-01 1.513547e-01 1.426749e-01 1.434838e-01 1.526507e-01 1.631848e-01
<GCONST> 1.413251e+01
<TRANSP> 18
 0.000000e+00 1.000000e+00 0.000000e+00 0.000000e+00 0.000000e+00 0.000000e+00 0.000000e+00 0.000000e+00 0.000000e+00 0.000000e+00 0.000000e+00 0.000000e+00 0.000000e+00 0.000000e+00 0.000000e+00 0.000000e+00 0.000000e+00 0.000000e+00
 0.000000e+00 9.563318e-01 4.366812e-02 0.000000e+00 0.000000e+00 0.000000e+00 0.000000e+00 0.000000e+00 0.000000e+00 0.000000e+00 0.000000e+00 0.000000e+00 0.000000e+00 0.000000e+00 0.000000e+00 0.000000e+00 0.000000e+00 0.000000e+00
 0.000000e+00 0.000000e+00 8.630137e-01 1.369863e-01 0.000000e+00 0.000000e+00 0.000000e+00 0.000000e+00 0.000000e+00 0.000000e+00 0.000000e+00 0.000000e+00 0.000000e+00 0.000000e+00 0.000000e+00 0.000000e+00 0.000000e+00 0.000000e+00
 0.000000e+00 0.000000e+00 0.000000e+00 6.078432e-01 3.921569e-01 0.000000e+00 0.000000e+00 0.000000e+00 0.000000e+00 0.000000e+00 0.000000e+00 0.000000e+00 0.000000e+00 0.000000e+00 0.000000e+00 0.000000e+00 0.000000e+00 0.000000e+00
 0.000000e+00 0.000000e+00 0.000000e+00 0.000000e+00 8.319328e-01 1.680672e-01 0.000000e+00 0.000000e+00 0.000000e+00 0.000000e+00 0.000000e+00 0.000000e+00 0.000000e+00 0.000000e+00 0.000000e+00 0.000000e+00 0.000000e+00 0.000000e+00
 0.000000e+00 0.000000e+00 0.000000e+00 0.000000e+00 0.000000e+00 8.275862e-01 1.724138e-01 0.000000e+00 0.000000e+00 0.000000e+00 0.000000e+00 0.000000e+00 0.000000e+00 0.000000e+00 0.000000e+00 0.000000e+00 0.000000e+00 0.000000e+00
 0.000000e+00 0.000000e+00 0.000000e+00 0.000000e+00 0.000000e+00 0.000000e+00 7.014925e-01 2.985075e-01 0.000000e+00 0.000000e+00 0.000000e+00 0.000000e+00 0.000000e+00 0.000000e+00 0.000000e+00 0.000000e+00 0.000000e+00 0.000000e+00
 0.000000e+00 0.000000e+00 0.000000e+00 0.000000e+00 0.000000e+00 0.000000e+00 0.000000e+00 8.473282e-01 1.526718e-01 0.000000e+00 0.000000e+00 0.000000e+00 0.000000e+00 0.000000e+00 0.000000e+00 0.000000e+00 0.000000e+00 0.000000e+00
 0.000000e+00 0.000000e+00 0.000000e+00 0.000000e+00 0.000000e+00 0.000000e+00 0.000000e+00 0.000000e+00 8.165138e-01 1.834862e-01 0.000000e+00 0.000000e+00 0.000000e+00 0.000000e+00 0.000000e+00 0.000000e+00 0.000000e+00 0.000000e+00
 0.000000e+00 0.000000e+00 0.000000e+00 0.000000e+00 0.000000e+00 0.000000e+00 0.000000e+00 0.000000e+00 0.000000e+00 8.507463e-01 1.492537e-01 0.000000e+00 0.000000e+00 0.000000e+00 0.000000e+00 0.000000e+00 0.000000e+00 0.000000e+00
 0.000000e+00 0.000000e+00 0.000000e+00 0.000000e+00 0.000000e+00 0.000000e+00 0.000000e+00 0.000000e+00 0.000000e+00 0.000000e+00 7.916667e-01 2.083333e-01 0.000000e+00 0.000000e+00 0.000000e+00 0.000000e+00 0.000000e+00 0.000000e+00
 0.000000e+00 0.000000e+00 0.000000e+00 0.000000e+00 0.000000e+00 0.000000e+00 0.000000e+00 0.000000e+00 0.000000e+00 0.000000e+00 0.000000e+00 8.290598e-01 1.709402e-01 0.000000e+00 0.000000e+00 0.000000e+00 0.000000e+00 0.000000e+00
 0.000000e+00 0.000000e+00 0.000000e+00 0.000000e+00 0.000000e+00 0.000000e+00 0.000000e+00 0.000000e+00 0.000000e+00 0.000000e+00 0.000000e+00 0.000000e+00 8.130841e-01 1.869159e-01 0.000000e+00 0.000000e+00 0.000000e+00 0.000000e+00
 0.000000e+00 0.000000e+00 0.000000e+00 0.000000e+00 0.000000e+00 0.000000e+00 0.000000e+00 0.000000e+00 0.000000e+00 0.000000e+00 0.000000e+00 0.000000e+00 0.000000e+00 6.428571e-01 3.571429e-01 0.000000e+00 0.000000e+00 0.000000e+00
 0.000000e+00 0.000000e+00 0.000000e+00 0.000000e+00 0.000000e+00 0.000000e+00 0.000000e+00 0.000000e+00 0.000000e+00 0.000000e+00 0.000000e+00 0.000000e+00 0.000000e+00 0.000000e+00 5.555556e-01 4.444444e-01 0.000000e+00 0.000000e+00
 0.000000e+00 0.000000e+00 0.000000e+00 0.000000e+00 0.000000e+00 0.000000e+00 0.000000e+00 0.000000e+00 0.000000e+00 0.000000e+00 0.000000e+00 0.000000e+00 0.000000e+00 0.000000e+00 0.000000e+00 8.019802e-01 1.980198e-01 0.000000e+00
 0.000000e+00 0.000000e+00 0.000000e+00 0.000000e+00 0.000000e+00 0.000000e+00 0.000000e+00 0.000000e+00 0.000000e+00 0.000000e+00 0.000000e+00 0.000000e+00 0.000000e+00 0.000000e+00 0.000000e+00 0.000000e+00 9.354839e-01 6.451613e-02
 0.000000e+00 0.000000e+00 0.000000e+00 0.000000e+00 0.000000e+00 0.000000e+00 0.000000e+00 0.000000e+00 0.000000e+00 0.000000e+00 0.000000e+00 0.000000e+00 0.000000e+00 0.000000e+00 0.000000e+00 0.000000e+00 0.000000e+00 0.000000e+00
<ENDHMM>
