~o
<STREAMINFO> 1 15
<VECSIZE> 15<NULLD><MFCC><DIAGC>
~h "Albi"
<BEGINHMM>
<NUMSTATES> 10
<STATE> 2
<MEAN> 15
 -3.284058e+01 -3.232418e+00 3.169183e-01 -1.142048e+00 -3.843722e-01 -1.298322e-01 -4.168796e-01 -7.880576e-02 -4.604234e-01 1.871212e-01 -2.562267e-01 -1.157140e-01 -3.716038e-01 1.067187e-02 -2.404328e-01
<VARIANCE> 15
 3.551123e+01 1.963887e+00 6.648359e-01 5.889441e-01 3.663968e-01 2.186251e-01 2.053772e-01 2.129385e-01 1.491534e-01 1.532524e-01 1.373943e-01 1.338796e-01 1.273893e-01 1.126931e-01 1.217885e-01
<GCONST> 1.109797e+01
<STATE> 3
<MEAN> 15
 -1.462758e+01 -2.511462e+00 4.327551e+00 9.889092e-02 -2.807032e+00 -1.200896e+00 -1.000393e+00 -8.779831e-01 -1.197932e+00 -1.486378e-01 -9.046941e-01 6.651959e-02 5.522998e-02 -4.674090e-02 -7.306585e-01
<VARIANCE> 15
 3.689614e+01 2.291376e+00 3.177206e+00 2.080065e+00 2.542604e+00 9.197454e-01 7.552950e-01 8.216779e-01 6.717513e-01 5.773903e-01 2.499337e-01 3.929886e-01 2.977650e-01 2.800325e-01 2.458982e-01
<GCONST> 2.711151e+01
<STATE> 4
<MEAN> 15
 -1.500200e+01 2.189470e+00 1.093968e+00 -2.512496e-01 -1.252751e+00 1.865706e+00 -2.727814e+00 -1.201895e+00 -1.676964e+00 -2.474040e-01 -1.481905e+00 2.695270e-01 1.103381e-01 1.694477e-01 -9.048525e-01
<VARIANCE> 15
 1.548887e+01 2.714957e+00 1.957635e+00 4.217871e+00 3.104301e+00 1.546798e+00 1.510176e+00 1.151547e+00 7.264678e-01 4.156164e-01 4.976195e-01 6.332539e-01 4.922505e-01 2.709293e-01 3.308678e-01
<GCONST> 3.006738e+01
<STATE> 5
<MEAN> 15
 -1.976768e+01 -5.147045e-01 4.617469e+00 2.622083e+00 -2.090836e-01 1.220128e+00 -5.561342e-01 -7.538203e-01 -1.530734e+00 -6.510376e-01 -1.019704e+00 -1.044372e+00 -3.196900e-01 3.747120e-02 -3.874615e-01
<VARIANCE> 15
 1.184081e+01 1.996512e+00 3.567434e+00 1.716714e+00 1.381765e+00 2.455215e+00 1.889308e+00 9.525555e-01 6.813998e-01 5.916026e-01 4.228433e-01 6.476477e-01 4.066735e-01 3.659402e-01 4.524893e-01
<GCONST> 2.945084e+01
<STATE> 6
<MEAN> 15
 -2.924108e+01 1.543433e-01 3.072658e+00 1.254913e+00 1.484740e+00 1.282198e+00 1.641844e-01 5.321147e-02 -6.324010e-01 1.227313e-02 -5.510554e-01 -1.645315e-01 -1.402489e-02 1.770622e-01 -3.133232e-01
<VARIANCE> 15
 8.685733e+00 3.036661e+00 2.097215e+00 1.129675e+00 4.029398e-01 4.914583e-01 6.669909e-01 3.877969e-01 2.208926e-01 1.999556e-01 2.434636e-01 2.507630e-01 1.847538e-01 2.313841e-01 1.593873e-01
<GCONST> 1.782694e+01
<STATE> 7
<MEAN> 15
 -2.219276e+01 -2.328573e+00 2.191598e+00 -1.186227e-01 1.140921e+00 1.870552e+00 9.945447e-01 9.625044e-01 -7.078154e-03 3.779252e-01 -4.354078e-01 4.643752e-01 -1.175217e-01 1.435667e-01 -7.014970e-01
<VARIANCE> 15
 9.552847e+00 2.584093e+00 2.182390e+00 9.468862e-01 1.101374e+00 1.042972e+00 1.616232e+00 1.696413e+00 7.149289e-01 5.650845e-01 4.456864e-01 3.194889e-01 4.083455e-01 2.018541e-01 2.914597e-01
<GCONST> 2.606323e+01
<STATE> 8
<MEAN> 15
 -2.885387e+01 -1.586023e+00 1.257075e+00 -1.618697e-01 6.273730e-01 1.924774e+00 5.061071e-01 1.109575e+00 -2.110054e-01 7.714012e-01 5.548928e-02 8.377761e-01 4.750058e-02 8.214682e-02 -2.910918e-01
<VARIANCE> 15
 1.084396e+01 1.282981e+00 7.560179e-01 5.149400e-01 5.047066e-01 8.838980e-01 4.642025e-01 3.388341e-01 2.864355e-01 3.287847e-01 2.432809e-01 2.615188e-01 1.828135e-01 1.944507e-01 1.499681e-01
<GCONST> 1.624910e+01
<STATE> 9
<MEAN> 15
 -3.312834e+01 -2.860561e+00 4.801259e-01 -1.002799e+00 -3.222931e-01 -1.010267e-01 -4.334541e-01 -9.175016e-02 -4.008265e-01 2.283959e-01 -2.490650e-01 -2.108180e-01 -3.256497e-01 3.045322e-02 -2.705710e-01
<VARIANCE> 15
 9.784560e+00 1.380500e+00 1.548890e+00 5.088711e-01 2.642734e-01 2.326868e-01 2.127829e-01 1.816898e-01 2.099453e-01 1.766478e-01 1.479744e-01 1.639952e-01 1.355363e-01 1.109585e-01 1.105890e-01
<GCONST> 1.047943e+01
<TRANSP> 10
 0.000000e+00 1.000000e+00 0.000000e+00 0.000000e+00 0.000000e+00 0.000000e+00 0.000000e+00 0.000000e+00 0.000000e+00 0.000000e+00
 0.000000e+00 9.672131e-01 3.278688e-02 0.000000e+00 0.000000e+00 0.000000e+00 0.000000e+00 0.000000e+00 0.000000e+00 0.000000e+00
 0.000000e+00 0.000000e+00 8.830410e-01 1.169591e-01 0.000000e+00 0.000000e+00 0.000000e+00 0.000000e+00 0.000000e+00 0.000000e+00
 0.000000e+00 0.000000e+00 0.000000e+00 8.947368e-01 1.052632e-01 0.000000e+00 0.000000e+00 0.000000e+00 0.000000e+00 0.000000e+00
 0.000000e+00 0.000000e+00 0.000000e+00 0.000000e+00 8.952880e-01 1.047120e-01 0.000000e+00 0.000000e+00 0.000000e+00 0.000000e+00
 0.000000e+00 0.000000e+00 0.000000e+00 0.000000e+00 0.000000e+00 8.765432e-01 1.234568e-01 0.000000e+00 0.000000e+00 0.000000e+00
 0.000000e+00 0.000000e+00 0.000000e+00 0.000000e+00 0.000000e+00 0.000000e+00 9.275362e-01 7.246377e-02 0.000000e+00 0.000000e+00
 0.000000e+00 0.000000e+00 0.000000e+00 0.000000e+00 0.000000e+00 0.000000e+00 0.000000e+00 8.701299e-01 1.298701e-01 0.000000e+00
 0.000000e+00 0.000000e+00 0.000000e+00 0.000000e+00 0.000000e+00 0.000000e+00 0.000000e+00 0.000000e+00 9.511002e-01 4.889975e-02
 0.000000e+00 0.000000e+00 0.000000e+00 0.000000e+00 0.000000e+00 0.000000e+00 0.000000e+00 0.000000e+00 0.000000e+00 0.000000e+00
<ENDHMM>
