~o
<STREAMINFO> 1 15
<VECSIZE> 15<NULLD><MFCC><DIAGC>
~h "Alejandro"
<BEGINHMM>
<NUMSTATES> 10
<STATE> 2
<MEAN> 15
 -3.102904e+01 -4.052035e+00 9.433202e-02 -1.393706e+00 -8.362124e-01 -6.033536e-03 -6.848819e-01 7.400180e-02 -5.906441e-01 2.362624e-01 -3.644960e-01 -7.346068e-02 -3.742723e-01 3.071813e-02 -4.230182e-01
<VARIANCE> 15
 1.081078e+01 2.423412e+00 1.290727e+00 8.362708e-01 9.932795e-01 5.672298e-01 4.954330e-01 4.890411e-01 2.241969e-01 3.039477e-01 1.993291e-01 1.961240e-01 1.670881e-01 1.856139e-01 2.275342e-01
<GCONST> 1.803720e+01
<STATE> 3
<MEAN> 15
 -1.488167e+01 1.980805e+00 8.865122e-01 -6.190053e-01 -2.265706e+00 2.009852e+00 -3.096025e+00 -3.962568e-01 -3.713551e-01 -4.049276e-01 -1.816561e+00 7.271389e-01 3.347026e-01 -2.592063e-01 -1.238929e+00
<VARIANCE> 15
 1.326096e+01 5.323191e+00 2.058344e+00 2.442968e+00 1.744732e+00 2.571040e+00 1.935390e+00 9.482188e-01 6.016952e-01 4.992069e-01 4.506876e-01 6.869566e-01 7.368385e-01 6.728199e-01 3.157976e-01
<GCONST> 3.131870e+01
<STATE> 4
<MEAN> 15
 -1.407192e+01 -2.267695e+00 4.410628e+00 8.372843e-01 -1.710799e+00 -1.015948e+00 -4.486592e-01 -9.126996e-01 -8.863648e-01 2.133604e-01 -5.840265e-01 3.204028e-02 -3.982057e-01 -3.453114e-01 -6.612978e-01
<VARIANCE> 15
 8.069201e+00 2.410065e+00 4.174719e+00 2.577309e+00 1.222866e+00 1.347447e+00 7.781820e-01 4.281285e-01 4.165328e-01 9.228549e-01 3.828111e-01 2.925566e-01 4.219860e-01 3.058758e-01 3.023242e-01
<GCONST> 2.592294e+01
<STATE> 5
<MEAN> 15
 -1.641067e+01 8.884243e-01 1.783288e+00 -1.201720e+00 -1.819341e+00 9.050305e-01 -1.267631e+00 -6.052864e-01 1.668603e-01 1.333899e+00 -8.588438e-01 -4.507560e-01 -8.759409e-02 -4.225071e-01 -1.119029e+00
<VARIANCE> 15
 6.986308e+00 3.081404e+00 1.326889e+00 1.583244e+00 7.808969e-01 1.854921e+00 9.659970e-01 8.793437e-01 5.430039e-01 6.329424e-01 4.043661e-01 4.952913e-01 3.765016e-01 2.296847e-01 2.505231e-01
<GCONST> 2.507901e+01
<STATE> 6
<MEAN> 15
 -2.337915e+01 -8.443355e-01 2.755120e+00 2.325027e-01 -6.016057e-01 1.407547e+00 2.772683e-01 3.717909e-02 1.752286e-01 1.083925e+00 1.915108e-01 -4.540323e-02 -3.310917e-01 -2.136718e-02 -2.594907e-01
<VARIANCE> 15
 5.554135e+00 2.470454e+00 2.656658e+00 1.406239e+00 1.327441e+00 6.896741e-01 6.031461e-01 5.248210e-01 4.518347e-01 3.042981e-01 3.036408e-01 2.346559e-01 2.985497e-01 3.081848e-01 2.202448e-01
<GCONST> 2.174189e+01
<STATE> 7
<MEAN> 15
 -2.215565e+01 -2.809526e-01 4.241348e+00 1.587859e+00 -2.186262e+00 1.400203e-01 -7.598769e-01 -3.249582e-01 8.290587e-01 1.746524e+00 -1.634369e-01 -4.164121e-01 -9.881542e-01 -3.539611e-02 -1.382796e+00
<VARIANCE> 15
 5.123992e+00 5.180661e+00 3.185928e+00 9.185463e-01 9.864112e-01 1.116614e+00 1.345832e+00 5.282923e-01 1.002122e+00 3.345994e-01 3.512154e-01 5.232769e-01 2.267534e-01 2.829119e-01 2.225912e-01
<GCONST> 2.464070e+01
<STATE> 8
<MEAN> 15
 -2.817617e+01 -9.164070e-01 2.955453e+00 1.197131e-01 -3.535277e-01 2.765654e-01 -1.651656e-01 6.387259e-01 3.054225e-01 1.104067e+00 -3.771620e-01 -1.486146e-01 -3.669872e-02 3.299719e-01 -6.800240e-02
<VARIANCE> 15
 6.261251e+00 2.621530e+00 2.034376e+00 4.517343e-01 5.625294e-01 3.807138e-01 5.178050e-01 4.042892e-01 3.648695e-01 8.066746e-01 3.200491e-01 2.199218e-01 3.373484e-01 2.939719e-01 1.874023e-01
<GCONST> 1.931480e+01
<STATE> 9
<MEAN> 15
 -3.279630e+01 -2.072639e+00 1.047154e-01 -7.462692e-01 -5.258925e-01 -9.309276e-02 -5.949807e-01 1.841006e-02 -2.760794e-01 5.033832e-01 -3.268336e-01 -1.449270e-01 -3.808207e-01 2.545658e-02 -2.296568e-01
<VARIANCE> 15
 3.016834e+00 1.318365e+00 1.048261e+00 4.101990e-01 2.426644e-01 2.561353e-01 2.048094e-01 1.867762e-01 1.702630e-01 2.169750e-01 1.712732e-01 1.188032e-01 1.549476e-01 1.379533e-01 1.328853e-01
<GCONST> 9.006186e+00
<TRANSP> 10
 0.000000e+00 1.000000e+00 0.000000e+00 0.000000e+00 0.000000e+00 0.000000e+00 0.000000e+00 0.000000e+00 0.000000e+00 0.000000e+00
 0.000000e+00 9.288256e-01 7.117437e-02 0.000000e+00 0.000000e+00 0.000000e+00 0.000000e+00 0.000000e+00 0.000000e+00 0.000000e+00
 0.000000e+00 0.000000e+00 9.126638e-01 8.733625e-02 0.000000e+00 0.000000e+00 0.000000e+00 0.000000e+00 0.000000e+00 0.000000e+00
 0.000000e+00 0.000000e+00 0.000000e+00 9.540230e-01 4.597702e-02 0.000000e+00 0.000000e+00 0.000000e+00 0.000000e+00 0.000000e+00
 0.000000e+00 0.000000e+00 0.000000e+00 0.000000e+00 8.870056e-01 1.129943e-01 0.000000e+00 0.000000e+00 0.000000e+00 0.000000e+00
 0.000000e+00 0.000000e+00 0.000000e+00 0.000000e+00 0.000000e+00 9.382716e-01 6.172839e-02 0.000000e+00 0.000000e+00 0.000000e+00
 0.000000e+00 0.000000e+00 0.000000e+00 0.000000e+00 0.000000e+00 0.000000e+00 9.354839e-01 6.451613e-02 0.000000e+00 0.000000e+00
 0.000000e+00 0.000000e+00 0.000000e+00 0.000000e+00 0.000000e+00 0.000000e+00 0.000000e+00 8.989899e-01 1.010101e-01 0.000000e+00
 0.000000e+00 0.000000e+00 0.000000e+00 0.000000e+00 0.000000e+00 0.000000e+00 0.000000e+00 0.000000e+00 9.371069e-01 6.289309e-02
 0.000000e+00 0.000000e+00 0.000000e+00 0.000000e+00 0.000000e+00 0.000000e+00 0.000000e+00 0.000000e+00 0.000000e+00 0.000000e+00
<ENDHMM>
