~o
<STREAMINFO> 1 15
<VECSIZE> 15<NULLD><MFCC><DIAGC>
~h "Alejandro"
<BEGINHMM>
<NUMSTATES> 18
<STATE> 2
<MEAN> 15
 -3.153572e+01 -3.977491e+00 -9.946001e-02 -1.298155e+00 -7.341781e-01 4.438419e-02 -5.913208e-01 7.953085e-02 -6.078860e-01 2.310335e-01 -3.355524e-01 -8.699626e-02 -3.626562e-01 -4.700180e-03 -4.214827e-01
<VARIANCE> 15
 9.278705e+00 2.170406e+00 9.120589e-01 7.185085e-01 8.571776e-01 5.246047e-01 4.138591e-01 4.200554e-01 2.144952e-01 2.562391e-01 1.740883e-01 1.640231e-01 1.570190e-01 1.566491e-01 2.220780e-01
<GCONST> 1.593243e+01
<STATE> 3
<MEAN> 15
 -2.636331e+01 -3.763232e+00 1.565439e+00 -1.843775e+00 -1.890024e+00 -4.102519e-01 -1.481193e+00 8.831393e-02 -5.629290e-01 1.041795e-01 -7.807595e-01 9.695640e-02 -3.271801e-01 2.360015e-01 -5.729502e-01
<VARIANCE> 15
 1.029917e+01 4.561625e+00 2.983413e+00 1.039617e+00 1.990451e+00 8.126304e-01 7.056980e-01 9.149037e-01 2.552975e-01 5.961824e-01 4.338940e-01 6.364799e-01 3.376143e-01 3.877046e-01 2.780959e-01
<GCONST> 2.611076e+01
<STATE> 4
<MEAN> 15
 -1.770646e+01 -4.453711e+00 4.465260e+00 -1.035456e+00 -3.445875e+00 -1.291878e+00 -1.232562e+00 -9.572263e-01 -9.910684e-01 3.636380e-01 -1.162290e+00 1.573001e-01 -1.242126e-01 -1.424205e-01 -4.461048e-01
<VARIANCE> 15
 9.252900e+00 4.786252e+00 3.979521e+00 1.555098e+00 9.527193e-01 2.376152e+00 1.026590e+00 7.180459e-01 5.281996e-01 3.346716e-01 3.690315e-01 2.609815e-01 3.310350e-01 1.703597e-01 2.331718e-01
<GCONST> 2.528918e+01
<STATE> 5
<MEAN> 15
 -1.374104e+01 2.436423e+00 8.828474e-01 -4.857659e-01 -2.123734e+00 2.234293e+00 -3.194287e+00 -4.692152e-01 -3.439048e-01 -4.153120e-01 -1.870561e+00 7.605580e-01 3.858161e-01 -3.106547e-01 -1.287989e+00
<VARIANCE> 15
 4.955820e+00 3.400327e+00 2.641887e+00 2.558408e+00 1.529165e+00 2.234816e+00 1.988945e+00 9.094480e-01 6.164385e-01 5.296412e-01 4.308669e-01 6.459754e-01 7.514697e-01 6.869177e-01 2.880277e-01
<GCONST> 2.982076e+01
<STATE> 6
<MEAN> 15
 -1.433905e+01 -2.023122e+00 5.340264e+00 6.318704e-01 -2.190885e+00 1.010350e-01 -9.634205e-01 -5.662058e-01 -8.703092e-01 2.408203e-01 -9.461521e-01 2.718531e-01 -1.315778e-01 -1.728377e-01 -8.212196e-01
<VARIANCE> 15
 4.459627e+00 2.052986e+00 7.356048e+00 1.896892e+00 6.719561e-01 1.158394e+00 1.111599e+00 3.534077e-01 3.344689e-01 3.401583e-01 2.092796e-01 2.126166e-01 2.371045e-01 2.647699e-01 4.134800e-01
<GCONST> 2.229619e+01
<STATE> 7
<MEAN> 15
 -1.202696e+01 -1.734382e+00 3.578012e+00 1.629532e+00 -1.490960e+00 -1.298916e+00 -1.872318e-01 -7.121364e-01 -1.154697e+00 -5.585794e-01 -4.806375e-01 3.737548e-02 -3.397207e-01 -3.134656e-01 -7.079414e-01
<VARIANCE> 15
 4.961930e+00 9.573046e-01 3.226733e+00 2.361571e+00 6.852790e-01 1.087062e+00 5.897142e-01 4.066465e-01 3.135270e-01 6.267185e-01 2.717148e-01 3.335813e-01 4.891790e-01 3.454747e-01 2.778434e-01
<GCONST> 2.234818e+01
<STATE> 8
<MEAN> 15
 -1.526083e+01 6.938494e-01 1.754640e+00 -1.428057e+00 -1.878997e+00 8.654604e-01 -1.459712e+00 -6.667833e-01 2.307383e-01 1.183793e+00 -1.051019e+00 -4.590811e-01 5.318289e-02 -4.893378e-01 -1.233021e+00
<VARIANCE> 15
 3.961434e+00 4.189002e+00 1.077822e+00 9.967864e-01 7.972946e-01 2.015712e+00 8.740101e-01 9.704660e-01 5.091696e-01 6.398389e-01 2.611047e-01 5.119678e-01 2.951640e-01 1.865553e-01 2.427449e-01
<GCONST> 2.330991e+01
<STATE> 9
<MEAN> 15
 -1.653248e+01 -1.445485e+00 3.968562e+00 5.595143e-01 -1.227613e+00 -8.681952e-01 -2.398787e-01 -1.173519e+00 -4.178250e-01 1.247704e+00 -2.463159e-01 -2.161573e-01 -7.573113e-01 -5.222987e-01 -6.154212e-01
<VARIANCE> 15
 6.452954e+00 2.479049e+00 2.491796e+00 1.866840e+00 8.208228e-01 1.009266e+00 4.512215e-01 3.521998e-01 3.781375e-01 4.642515e-01 3.189810e-01 2.912522e-01 2.984426e-01 2.738818e-01 2.250379e-01
<GCONST> 2.173850e+01
<STATE> 10
<MEAN> 15
 -2.382545e+01 -6.337401e-01 3.737685e+00 5.589259e-01 -2.591466e-01 1.128449e+00 6.184891e-01 -2.413033e-01 -2.234689e-01 9.194379e-01 3.215445e-01 4.327989e-02 -2.964333e-01 -1.951381e-01 -1.100373e-01
<VARIANCE> 15
 5.673507e+00 1.838701e+00 1.413558e+00 1.518004e+00 8.840120e-01 6.541135e-01 5.820665e-01 3.948110e-01 3.683929e-01 3.104564e-01 2.260330e-01 2.658767e-01 3.481081e-01 3.337919e-01 2.166875e-01
<GCONST> 1.999636e+01
<STATE> 11
<MEAN> 15
 -2.355421e+01 4.918465e-02 2.151289e+00 -6.869175e-01 -1.842294e-01 2.103466e+00 -3.659220e-01 1.698130e-01 4.709555e-01 1.418700e+00 2.346622e-01 -2.807171e-01 -2.320125e-01 1.381622e-01 -3.083330e-01
<VARIANCE> 15
 5.281169e+00 2.401297e+00 9.324054e-01 1.046704e+00 7.257367e-01 4.484963e-01 3.410679e-01 3.617806e-01 1.434248e-01 2.889949e-01 2.980469e-01 2.123169e-01 2.111283e-01 1.788753e-01 2.072049e-01
<GCONST> 1.607528e+01
<STATE> 12
<MEAN> 15
 -2.141392e+01 -2.118483e+00 2.307289e+00 9.407580e-01 -2.114295e+00 1.021442e+00 2.322303e-01 7.330494e-02 6.219508e-01 1.194447e+00 -1.674599e-01 -1.151376e-02 -6.835167e-01 1.313013e-01 -7.520421e-01
<VARIANCE> 15
 3.558434e+00 2.270364e+00 5.078955e+00 1.433941e+00 6.957710e-01 3.953298e-01 3.149501e-01 8.705171e-01 3.599432e-01 2.317208e-01 2.744872e-01 1.960877e-01 2.752716e-01 2.137016e-01 1.721327e-01
<GCONST> 1.905943e+01
<STATE> 13
<MEAN> 15
 -2.200070e+01 6.315871e-01 3.899552e+00 1.682719e+00 -2.502667e+00 1.643923e-01 -1.216311e+00 -3.358729e-01 1.026631e+00 1.867565e+00 -1.020020e-01 -6.072413e-01 -1.002577e+00 -1.478219e-01 -1.477993e+00
<VARIANCE> 15
 5.446636e+00 4.103710e+00 3.410223e+00 7.830332e-01 8.239224e-01 1.387397e+00 1.240103e+00 5.439799e-01 1.234033e+00 3.377803e-01 3.800445e-01 5.814895e-01 2.152103e-01 2.707015e-01 2.088125e-01
<GCONST> 2.460345e+01
<STATE> 14
<MEAN> 15
 -2.390299e+01 -2.205220e+00 5.104737e+00 9.404696e-01 -8.955930e-01 -3.359593e-01 2.489738e-01 -8.251622e-02 2.160465e-01 1.130323e+00 -2.887346e-01 -6.280522e-02 -5.500000e-01 3.539997e-01 -8.745724e-01
<VARIANCE> 15
 3.680152e+00 1.916201e+00 1.140920e+00 9.727373e-01 5.436714e-01 2.685937e-01 4.168210e-01 3.754428e-01 3.841021e-01 5.551013e-01 3.236242e-01 2.526680e-01 7.347606e-01 3.870729e-01 4.761324e-01
<GCONST> 1.979822e+01
<STATE> 15
<MEAN> 15
 -2.800056e+01 -2.994564e-01 2.856439e+00 4.945058e-02 -4.739589e-01 4.312581e-01 -3.857909e-01 8.574673e-01 5.116020e-01 1.436694e+00 -5.066314e-01 -2.402487e-01 -1.636653e-01 2.113151e-01 -3.346606e-02
<VARIANCE> 15
 2.172136e+00 2.906994e+00 9.442617e-01 3.240069e-01 5.267482e-01 2.863008e-01 6.259454e-01 3.521818e-01 3.229095e-01 9.250079e-01 3.580185e-01 1.864098e-01 2.424851e-01 2.903937e-01 2.317343e-01
<GCONST> 1.679199e+01
<STATE> 16
<MEAN> 15
 -3.176929e+01 -1.031743e+00 9.657011e-01 -2.455967e-01 -2.149200e-01 2.878440e-01 -3.696697e-01 4.017793e-01 9.225670e-02 8.160897e-01 -2.175145e-01 -6.124929e-02 -8.070590e-02 1.732968e-01 -9.130698e-02
<VARIANCE> 15
 1.621628e+00 8.830826e-01 9.532115e-01 2.491167e-01 3.425418e-01 2.448673e-01 2.187615e-01 2.709469e-01 2.290908e-01 3.661604e-01 1.719545e-01 1.392786e-01 1.999734e-01 1.609178e-01 1.147273e-01
<GCONST> 9.373737e+00
<STATE> 17
<MEAN> 15
 -3.295630e+01 -2.342979e+00 -2.849273e-02 -8.666096e-01 -5.684925e-01 -1.680394e-01 -6.466201e-01 -5.557349e-02 -3.686676e-01 4.347095e-01 -3.684683e-01 -1.581246e-01 -4.527549e-01 1.090328e-02 -2.620613e-01
<VARIANCE> 15
 3.456136e+00 1.216238e+00 1.064947e+00 3.990808e-01 2.177449e-01 2.524096e-01 1.964625e-01 1.582639e-01 1.428875e-01 1.774559e-01 1.696712e-01 1.237653e-01 1.132028e-01 1.396629e-01 1.341016e-01
<GCONST> 8.082247e+00
<TRANSP> 18
 0.000000e+00 1.000000e+00 0.000000e+00 0.000000e+00 0.000000e+00 0.000000e+00 0.000000e+00 0.000000e+00 0.000000e+00 0.000000e+00 0.000000e+00 0.000000e+00 0.000000e+00 0.000000e+00 0.000000e+00 0.000000e+00 0.000000e+00 0.000000e+00
 0.000000e+00 9.180328e-01 8.196721e-02 0.000000e+00 0.000000e+00 0.000000e+00 0.000000e+00 0.000000e+00 0.000000e+00 0.000000e+00 0.000000e+00 0.000000e+00 0.000000e+00 0.000000e+00 0.000000e+00 0.000000e+00 0.000000e+00 0.000000e+00
 0.000000e+00 0.000000e+00 6.296296e-01 3.703704e-01 0.000000e+00 0.000000e+00 0.000000e+00 0.000000e+00 0.000000e+00 0.000000e+00 0.000000e+00 0.000000e+00 0.000000e+00 0.000000e+00 0.000000e+00 0.000000e+00 0.000000e+00 0.000000e+00
 0.000000e+00 0.000000e+00 0.000000e+00 6.551724e-01 3.448276e-01 0.000000e+00 0.000000e+00 0.000000e+00 0.000000e+00 0.000000e+00 0.000000e+00 0.000000e+00 0.000000e+00 0.000000e+00 0.000000e+00 0.000000e+00 0.000000e+00 0.000000e+00
 0.000000e+00 0.000000e+00 0.000000e+00 0.000000e+00 9.024390e-01 9.756098e-02 0.000000e+00 0.000000e+00 0.000000e+00 0.000000e+00 0.000000e+00 0.000000e+00 0.000000e+00 0.000000e+00 0.000000e+00 0.000000e+00 0.000000e+00 0.000000e+00
 0.000000e+00 0.000000e+00 0.000000e+00 0.000000e+00 0.000000e+00 7.938144e-01 2.061855e-01 0.000000e+00 0.000000e+00 0.000000e+00 0.000000e+00 0.000000e+00 0.000000e+00 0.000000e+00 0.000000e+00 0.000000e+00 0.000000e+00 0.000000e+00
 0.000000e+00 0.000000e+00 0.000000e+00 0.000000e+00 0.000000e+00 0.000000e+00 8.773006e-01 1.226994e-01 0.000000e+00 0.000000e+00 0.000000e+00 0.000000e+00 0.000000e+00 0.000000e+00 0.000000e+00 0.000000e+00 0.000000e+00 0.000000e+00
 0.000000e+00 0.000000e+00 0.000000e+00 0.000000e+00 0.000000e+00 0.000000e+00 0.000000e+00 8.518519e-01 1.481482e-01 0.000000e+00 0.000000e+00 0.000000e+00 0.000000e+00 0.000000e+00 0.000000e+00 0.000000e+00 0.000000e+00 0.000000e+00
 0.000000e+00 0.000000e+00 0.000000e+00 0.000000e+00 0.000000e+00 0.000000e+00 0.000000e+00 0.000000e+00 8.717949e-01 1.282051e-01 0.000000e+00 0.000000e+00 0.000000e+00 0.000000e+00 0.000000e+00 0.000000e+00 0.000000e+00 0.000000e+00
 0.000000e+00 0.000000e+00 0.000000e+00 0.000000e+00 0.000000e+00 0.000000e+00 0.000000e+00 0.000000e+00 0.000000e+00 8.709677e-01 1.290323e-01 0.000000e+00 0.000000e+00 0.000000e+00 0.000000e+00 0.000000e+00 0.000000e+00 0.000000e+00
 0.000000e+00 0.000000e+00 0.000000e+00 0.000000e+00 0.000000e+00 0.000000e+00 0.000000e+00 0.000000e+00 0.000000e+00 0.000000e+00 8.113208e-01 1.886792e-01 0.000000e+00 0.000000e+00 0.000000e+00 0.000000e+00 0.000000e+00 0.000000e+00
 0.000000e+00 0.000000e+00 0.000000e+00 0.000000e+00 0.000000e+00 0.000000e+00 0.000000e+00 0.000000e+00 0.000000e+00 0.000000e+00 0.000000e+00 8.198198e-01 1.801802e-01 0.000000e+00 0.000000e+00 0.000000e+00 0.000000e+00 0.000000e+00
 0.000000e+00 0.000000e+00 0.000000e+00 0.000000e+00 0.000000e+00 0.000000e+00 0.000000e+00 0.000000e+00 0.000000e+00 0.000000e+00 0.000000e+00 0.000000e+00 9.009901e-01 9.900989e-02 0.000000e+00 0.000000e+00 0.000000e+00 0.000000e+00
 0.000000e+00 0.000000e+00 0.000000e+00 0.000000e+00 0.000000e+00 0.000000e+00 0.000000e+00 0.000000e+00 0.000000e+00 0.000000e+00 0.000000e+00 0.000000e+00 0.000000e+00 8.181818e-01 1.818182e-01 0.000000e+00 0.000000e+00 0.000000e+00
 0.000000e+00 0.000000e+00 0.000000e+00 0.000000e+00 0.000000e+00 0.000000e+00 0.000000e+00 0.000000e+00 0.000000e+00 0.000000e+00 0.000000e+00 0.000000e+00 0.000000e+00 0.000000e+00 8.095238e-01 1.904762e-01 0.000000e+00 0.000000e+00
 0.000000e+00 0.000000e+00 0.000000e+00 0.000000e+00 0.000000e+00 0.000000e+00 0.000000e+00 0.000000e+00 0.000000e+00 0.000000e+00 0.000000e+00 0.000000e+00 0.000000e+00 0.000000e+00 0.000000e+00 8.473282e-01 1.526718e-01 0.000000e+00
 0.000000e+00 0.000000e+00 0.000000e+00 0.000000e+00 0.000000e+00 0.000000e+00 0.000000e+00 0.000000e+00 0.000000e+00 0.000000e+00 0.000000e+00 0.000000e+00 0.000000e+00 0.000000e+00 0.000000e+00 0.000000e+00 9.166667e-01 8.333333e-02
 0.000000e+00 0.000000e+00 0.000000e+00 0.000000e+00 0.000000e+00 0.000000e+00 0.000000e+00 0.000000e+00 0.000000e+00 0.000000e+00 0.000000e+00 0.000000e+00 0.000000e+00 0.000000e+00 0.000000e+00 0.000000e+00 0.000000e+00 0.000000e+00
<ENDHMM>
