~o
<STREAMINFO> 1 20
<VECSIZE> 20<NULLD><MFCC><DIAGC>
~h "Alejandro"
<BEGINHMM>
<NUMSTATES> 18
<STATE> 2
<MEAN> 20
 -3.677974e+01 -3.861545e+00 -1.151575e+00 -2.433783e-01 -2.126533e+00 9.442469e-01 -1.372869e+00 5.945367e-01 -1.022185e+00 2.074650e-01 -3.174995e-01 -4.463621e-02 -4.684815e-01 -1.623158e-01 -2.203089e-01 -3.464049e-01 -2.396519e-01 1.750316e-02 -8.650602e-02 -2.099485e-01
<VARIANCE> 20
 1.238820e+01 3.286947e+00 2.012255e+00 1.262156e+00 2.315864e+00 1.046002e+00 6.569110e-01 5.420955e-01 3.558698e-01 2.904777e-01 2.819777e-01 2.572773e-01 2.289404e-01 2.515151e-01 2.286262e-01 2.383597e-01 1.664127e-01 2.036853e-01 1.754233e-01 1.370644e-01
<GCONST> 2.347910e+01
<STATE> 3
<MEAN> 20
 -3.109966e+01 -3.496608e+00 2.474951e-01 -1.070413e-01 -3.842181e+00 6.848319e-01 -2.633422e+00 3.871884e-01 -1.112599e+00 4.286742e-01 -7.806673e-01 -1.990777e-01 -2.984032e-01 -9.050259e-02 -4.442410e-02 -5.320736e-01 -5.841588e-01 5.017086e-02 6.575712e-02 -9.486995e-02
<VARIANCE> 20
 1.290255e+01 8.730106e+00 4.184556e+00 2.288743e+00 2.849386e+00 1.547322e+00 1.423208e+00 7.377052e-01 7.639841e-01 4.303304e-01 8.974143e-01 3.848215e-01 7.924319e-01 4.420598e-01 4.558617e-01 3.160246e-01 2.353946e-01 3.485072e-01 2.128700e-01 2.311531e-01
<GCONST> 3.459906e+01
<STATE> 4
<MEAN> 20
 -1.998199e+01 -4.734732e+00 4.275945e+00 1.299297e+00 -4.454674e+00 -9.668654e-01 -2.151566e+00 -5.121835e-01 -1.878246e+00 4.474877e-01 -5.525070e-01 -8.070602e-01 8.520579e-02 -6.693289e-02 -3.176433e-01 -3.580783e-01 -5.832000e-01 2.229109e-01 1.209973e-01 1.363475e-01
<VARIANCE> 20
 1.668594e+01 7.811707e+00 7.325553e+00 1.586505e+00 2.384455e+00 3.833297e+00 6.970804e-01 8.662249e-01 7.734956e-01 6.431563e-01 5.002994e-01 3.102094e-01 4.138401e-01 4.091997e-01 2.582119e-01 3.549444e-01 2.841039e-01 2.253162e-01 2.794236e-01 3.091100e-01
<GCONST> 3.386426e+01
<STATE> 5
<MEAN> 20
 -1.756003e+01 4.459467e+00 -7.616780e-01 1.833735e+00 -4.507587e+00 3.253924e+00 -2.483393e+00 -1.921940e+00 -4.651013e-01 -1.118462e-01 -1.545306e+00 -1.269370e+00 9.773751e-01 3.063544e-01 -4.745957e-01 -1.386612e+00 -4.433390e-01 -1.947646e-01 -1.413858e-01 -1.899434e-01
<VARIANCE> 20
 7.060799e+00 5.585615e+00 3.498704e+00 3.146421e+00 2.596347e+00 2.955185e+00 1.594058e+00 1.810055e+00 1.764904e+00 9.041888e-01 5.883569e-01 4.956347e-01 8.090264e-01 7.422891e-01 9.253671e-01 3.985230e-01 4.901561e-01 4.758814e-01 2.505809e-01 3.411522e-01
<GCONST> 3.974079e+01
<STATE> 6
<MEAN> 20
 -1.542360e+01 -1.929070e+00 4.406970e+00 4.028804e+00 -2.294727e+00 -6.356192e-01 -1.194735e+00 -2.759586e-01 -1.450273e+00 -7.613402e-01 -9.683309e-01 -2.454648e-01 -5.562560e-02 -8.512180e-02 -4.525441e-01 -6.065140e-01 -1.008036e+00 -4.593446e-01 -2.367038e-01 -9.015240e-02
<VARIANCE> 20
 7.940797e+00 2.979421e+00 5.797632e+00 1.760617e+00 1.601390e+00 2.456054e+00 8.302379e-01 7.769048e-01 4.244654e-01 5.333450e-01 5.041916e-01 5.360197e-01 4.797130e-01 4.475133e-01 5.835364e-01 4.465220e-01 4.733024e-01 3.710020e-01 2.288158e-01 3.952180e-01
<GCONST> 3.335520e+01
<STATE> 7
<MEAN> 20
 -1.445793e+01 -2.092806e+00 2.370271e+00 1.194557e+00 -1.869869e+00 -4.964560e-01 -1.130818e+00 3.874064e-01 -1.936799e+00 6.470214e-01 -5.787419e-01 -1.700727e-01 -4.073483e-01 -3.690874e-01 -6.399188e-01 -8.935688e-01 -3.590496e-01 7.400180e-01 5.948510e-01 2.281799e-01
<VARIANCE> 20
 6.013750e+00 4.154215e+00 3.906690e+00 1.993933e+00 2.141747e+00 1.371727e+00 6.307525e-01 3.312102e-01 3.847236e-01 6.751756e-01 4.808222e-01 4.256539e-01 3.904679e-01 3.583315e-01 2.710311e-01 2.921633e-01 3.584327e-01 3.033471e-01 2.202315e-01 2.071497e-01
<GCONST> 2.879701e+01
<STATE> 8
<MEAN> 20
 -1.913042e+01 2.305941e+00 -2.029156e-02 1.224560e+00 -4.641212e+00 1.957785e+00 -2.161165e+00 1.620647e-01 -1.692684e+00 1.955033e+00 -4.242369e-01 -5.466964e-01 -7.160710e-01 2.959308e-01 -1.000168e+00 -1.049772e+00 -9.593744e-02 3.043032e-01 3.282270e-01 -4.140247e-01
<VARIANCE> 20
 5.981838e+00 5.570107e+00 1.542971e+00 1.635272e+00 1.890867e+00 2.062254e+00 9.236644e-01 2.565973e+00 7.602972e-01 5.420269e-01 8.740073e-01 6.721300e-01 6.643012e-01 6.773852e-01 4.522099e-01 3.797221e-01 6.442088e-01 4.873587e-01 2.436898e-01 2.462735e-01
<GCONST> 3.546240e+01
<STATE> 9
<MEAN> 20
 -1.964029e+01 -1.608318e+00 4.055918e+00 2.623389e+00 -1.917768e+00 -6.675534e-01 -9.382975e-01 -2.368474e-01 -1.999295e+00 1.244039e+00 6.051679e-01 -4.920042e-02 -6.837566e-01 -7.774881e-01 -7.956005e-01 -4.148802e-01 -5.386858e-01 3.801678e-01 1.072091e-01 -2.707731e-01
<VARIANCE> 20
 9.648563e+00 4.506215e+00 3.047128e+00 1.489451e+00 1.413214e+00 2.098280e+00 5.717586e-01 5.357017e-01 4.566389e-01 6.044055e-01 4.524620e-01 6.073387e-01 4.248519e-01 3.818983e-01 3.156855e-01 3.576541e-01 1.853868e-01 4.849535e-01 2.045153e-01 2.045618e-01
<GCONST> 2.978427e+01
<STATE> 10
<MEAN> 20
 -2.709262e+01 -1.038873e+00 3.368659e+00 1.733325e+00 -1.287054e+00 1.324039e+00 4.645382e-01 4.435371e-01 -9.634010e-01 7.234495e-01 4.833631e-01 2.875364e-01 -3.645877e-01 -2.246425e-01 -4.245965e-01 -8.107625e-02 -3.166452e-01 -1.125657e-01 7.951272e-02 -4.459967e-01
<VARIANCE> 20
 7.490411e+00 3.174481e+00 2.429189e+00 1.654524e+00 1.260277e+00 9.222319e-01 9.246937e-01 4.678224e-01 6.198158e-01 6.156786e-01 3.351642e-01 3.128671e-01 3.617443e-01 2.982160e-01 3.361649e-01 2.853909e-01 2.029252e-01 2.714922e-01 1.690268e-01 2.119223e-01
<GCONST> 2.661254e+01
<STATE> 11
<MEAN> 20
 -2.850801e+01 1.167120e+00 9.262114e-01 1.432785e+00 -2.412477e+00 3.194247e+00 -5.925782e-01 6.326360e-01 -7.217056e-01 1.732493e+00 6.128654e-01 4.034768e-01 -8.993276e-01 5.089489e-02 -2.111228e-01 -3.136805e-01 -8.018122e-01 -6.754517e-01 -3.539785e-01 -7.650559e-01
<VARIANCE> 20
 8.315578e+00 3.477757e+00 6.876230e-01 1.632635e+00 1.010372e+00 1.189800e+00 4.736718e-01 4.337156e-01 4.107327e-01 3.676887e-01 3.276002e-01 5.232080e-01 2.303748e-01 3.803757e-01 2.366819e-01 2.254888e-01 2.528217e-01 2.030523e-01 1.667191e-01 2.027194e-01
<GCONST> 2.346326e+01
<STATE> 12
<MEAN> 20
 -2.592881e+01 -8.990251e-01 9.577292e-01 3.680370e+00 -3.601025e+00 1.170772e+00 -2.969604e-01 8.153710e-01 -6.840799e-01 1.872694e+00 1.277099e-01 1.602126e-01 -5.689582e-01 -5.566730e-01 -6.859136e-02 -9.201608e-01 -9.019237e-01 -5.221570e-01 -2.268632e-01 -5.598770e-01
<VARIANCE> 20
 4.778714e+00 3.930766e+00 8.560503e+00 2.079865e+00 1.257004e+00 1.113293e+00 6.555085e-01 1.175486e+00 8.989055e-01 5.218880e-01 2.545409e-01 2.834957e-01 2.439817e-01 3.866892e-01 4.404398e-01 3.691625e-01 2.123719e-01 2.272074e-01 3.215760e-01 2.122731e-01
<GCONST> 2.936666e+01
<STATE> 13
<MEAN> 20
 -2.663815e+01 1.561547e+00 2.663144e+00 4.115070e+00 -3.727375e+00 5.389730e-01 -1.588852e+00 -2.652735e-01 -4.500260e-01 2.426527e+00 8.278058e-01 -8.372498e-03 -1.277104e+00 -7.105063e-01 -3.984935e-01 -1.636533e+00 -1.126345e+00 -5.750802e-01 -9.463482e-02 -6.405887e-01
<VARIANCE> 20
 8.025476e+00 7.189409e+00 4.309638e+00 1.450226e+00 1.332714e+00 1.182663e+00 8.776533e-01 1.385305e+00 1.809728e+00 1.007469e+00 4.617912e-01 5.723194e-01 5.992043e-01 2.616868e-01 3.491530e-01 2.701729e-01 3.848239e-01 3.096918e-01 2.690020e-01 3.131766e-01
<GCONST> 3.375079e+01
<STATE> 14
<MEAN> 20
 -3.081688e+01 -2.153029e-01 2.940976e+00 2.637314e+00 -2.243947e+00 1.133208e+00 -1.343180e+00 1.445216e+00 -6.327422e-01 2.369042e+00 3.496695e-01 -1.824700e-01 -5.189748e-01 -2.880507e-01 -8.016331e-02 -5.589207e-01 -4.732562e-01 -4.837938e-01 -3.198939e-01 -4.305528e-01
<VARIANCE> 20
 1.105469e+01 7.311068e+00 3.754676e+00 8.508438e-01 9.052106e-01 1.235196e+00 6.951650e-01 8.405715e-01 5.909113e-01 3.163406e-01 4.899710e-01 5.672228e-01 2.319172e-01 3.378910e-01 3.799744e-01 5.516377e-01 2.188402e-01 3.093638e-01 1.661871e-01 2.855178e-01
<GCONST> 2.907853e+01
<STATE> 15
<MEAN> 20
 -3.192715e+01 -2.270484e+00 3.109983e+00 1.370485e+00 -1.089701e+00 6.628493e-01 -5.235099e-01 8.055226e-01 -3.990445e-01 5.751694e-01 -4.331877e-02 -1.174397e-01 -3.489617e-01 5.670363e-01 2.917354e-01 1.710444e-01 -1.024900e-01 1.072746e-02 2.519681e-01 -1.725450e-01
<VARIANCE> 20
 1.024732e+01 2.333554e+00 2.482267e+00 1.055453e+00 4.983107e-01 6.482163e-01 4.013553e-01 3.360407e-01 4.985750e-01 4.101833e-01 4.844188e-01 2.306769e-01 2.349634e-01 4.490414e-01 3.237313e-01 2.223386e-01 1.633629e-01 2.025117e-01 2.091549e-01 1.936196e-01
<GCONST> 2.248726e+01
<STATE> 16
<MEAN> 20
 -3.711081e+01 -4.433857e-01 -5.600699e-01 1.017314e+00 -1.747290e+00 1.534233e+00 -1.415655e+00 8.965278e-01 -4.008943e-01 1.337699e+00 1.108916e-01 1.994439e-01 -4.973285e-01 1.740587e-01 8.976649e-02 2.151539e-02 -3.133739e-01 -2.680155e-01 4.333712e-02 -2.584261e-01
<VARIANCE> 20
 2.186590e+00 4.080928e+00 1.362739e+00 2.817583e-01 3.715287e-01 4.105729e-01 4.168980e-01 3.445460e-01 3.831747e-01 2.618848e-01 5.506798e-01 3.328734e-01 2.436920e-01 2.528769e-01 2.477785e-01 1.594371e-01 1.894176e-01 1.589435e-01 1.650264e-01 1.251054e-01
<GCONST> 1.677124e+01
<STATE> 17
<MEAN> 20
 -3.857332e+01 -1.874102e+00 -7.073440e-01 -6.225798e-02 -1.527083e+00 5.092674e-01 -1.217268e+00 2.960764e-01 -7.909130e-01 3.858412e-01 -3.504268e-02 -2.499934e-01 -4.070856e-01 -2.954500e-01 -1.173804e-01 -2.012701e-01 -2.281646e-01 -7.403088e-02 -9.447287e-02 -1.413880e-01
<VARIANCE> 20
 4.562405e+00 1.787644e+00 1.821324e+00 4.366218e-01 4.631287e-01 4.550843e-01 3.307907e-01 2.756871e-01 2.055759e-01 2.738733e-01 1.890972e-01 1.727218e-01 1.813211e-01 1.698860e-01 1.689046e-01 1.726235e-01 1.495987e-01 1.654564e-01 1.512754e-01 1.157214e-01
<GCONST> 1.361754e+01
<TRANSP> 18
 0.000000e+00 1.000000e+00 0.000000e+00 0.000000e+00 0.000000e+00 0.000000e+00 0.000000e+00 0.000000e+00 0.000000e+00 0.000000e+00 0.000000e+00 0.000000e+00 0.000000e+00 0.000000e+00 0.000000e+00 0.000000e+00 0.000000e+00 0.000000e+00
 0.000000e+00 9.170125e-01 8.298755e-02 0.000000e+00 0.000000e+00 0.000000e+00 0.000000e+00 0.000000e+00 0.000000e+00 0.000000e+00 0.000000e+00 0.000000e+00 0.000000e+00 0.000000e+00 0.000000e+00 0.000000e+00 0.000000e+00 0.000000e+00
 0.000000e+00 0.000000e+00 6.363636e-01 3.636364e-01 0.000000e+00 0.000000e+00 0.000000e+00 0.000000e+00 0.000000e+00 0.000000e+00 0.000000e+00 0.000000e+00 0.000000e+00 0.000000e+00 0.000000e+00 0.000000e+00 0.000000e+00 0.000000e+00
 0.000000e+00 0.000000e+00 0.000000e+00 7.297298e-01 2.702703e-01 0.000000e+00 0.000000e+00 0.000000e+00 0.000000e+00 0.000000e+00 0.000000e+00 0.000000e+00 0.000000e+00 0.000000e+00 0.000000e+00 0.000000e+00 0.000000e+00 0.000000e+00
 0.000000e+00 0.000000e+00 0.000000e+00 0.000000e+00 8.984771e-01 1.015228e-01 0.000000e+00 0.000000e+00 0.000000e+00 0.000000e+00 0.000000e+00 0.000000e+00 0.000000e+00 0.000000e+00 0.000000e+00 0.000000e+00 0.000000e+00 0.000000e+00
 0.000000e+00 0.000000e+00 0.000000e+00 0.000000e+00 0.000000e+00 8.675497e-01 1.324503e-01 0.000000e+00 0.000000e+00 0.000000e+00 0.000000e+00 0.000000e+00 0.000000e+00 0.000000e+00 0.000000e+00 0.000000e+00 0.000000e+00 0.000000e+00
 0.000000e+00 0.000000e+00 0.000000e+00 0.000000e+00 0.000000e+00 0.000000e+00 8.130841e-01 1.869159e-01 0.000000e+00 0.000000e+00 0.000000e+00 0.000000e+00 0.000000e+00 0.000000e+00 0.000000e+00 0.000000e+00 0.000000e+00 0.000000e+00
 0.000000e+00 0.000000e+00 0.000000e+00 0.000000e+00 0.000000e+00 0.000000e+00 0.000000e+00 8.795181e-01 1.204819e-01 0.000000e+00 0.000000e+00 0.000000e+00 0.000000e+00 0.000000e+00 0.000000e+00 0.000000e+00 0.000000e+00 0.000000e+00
 0.000000e+00 0.000000e+00 0.000000e+00 0.000000e+00 0.000000e+00 0.000000e+00 0.000000e+00 0.000000e+00 8.319328e-01 1.680672e-01 0.000000e+00 0.000000e+00 0.000000e+00 0.000000e+00 0.000000e+00 0.000000e+00 0.000000e+00 0.000000e+00
 0.000000e+00 0.000000e+00 0.000000e+00 0.000000e+00 0.000000e+00 0.000000e+00 0.000000e+00 0.000000e+00 0.000000e+00 8.787879e-01 1.212121e-01 0.000000e+00 0.000000e+00 0.000000e+00 0.000000e+00 0.000000e+00 0.000000e+00 0.000000e+00
 0.000000e+00 0.000000e+00 0.000000e+00 0.000000e+00 0.000000e+00 0.000000e+00 0.000000e+00 0.000000e+00 0.000000e+00 0.000000e+00 8.245614e-01 1.754386e-01 0.000000e+00 0.000000e+00 0.000000e+00 0.000000e+00 0.000000e+00 0.000000e+00
 0.000000e+00 0.000000e+00 0.000000e+00 0.000000e+00 0.000000e+00 0.000000e+00 0.000000e+00 0.000000e+00 0.000000e+00 0.000000e+00 0.000000e+00 8.198198e-01 1.801802e-01 0.000000e+00 0.000000e+00 0.000000e+00 0.000000e+00 0.000000e+00
 0.000000e+00 0.000000e+00 0.000000e+00 0.000000e+00 0.000000e+00 0.000000e+00 0.000000e+00 0.000000e+00 0.000000e+00 0.000000e+00 0.000000e+00 0.000000e+00 9.043062e-01 9.569378e-02 0.000000e+00 0.000000e+00 0.000000e+00 0.000000e+00
 0.000000e+00 0.000000e+00 0.000000e+00 0.000000e+00 0.000000e+00 0.000000e+00 0.000000e+00 0.000000e+00 0.000000e+00 0.000000e+00 0.000000e+00 0.000000e+00 0.000000e+00 8.305085e-01 1.694915e-01 0.000000e+00 0.000000e+00 0.000000e+00
 0.000000e+00 0.000000e+00 0.000000e+00 0.000000e+00 0.000000e+00 0.000000e+00 0.000000e+00 0.000000e+00 0.000000e+00 0.000000e+00 0.000000e+00 0.000000e+00 0.000000e+00 0.000000e+00 7.938144e-01 2.061855e-01 0.000000e+00 0.000000e+00
 0.000000e+00 0.000000e+00 0.000000e+00 0.000000e+00 0.000000e+00 0.000000e+00 0.000000e+00 0.000000e+00 0.000000e+00 0.000000e+00 0.000000e+00 0.000000e+00 0.000000e+00 0.000000e+00 0.000000e+00 7.894737e-01 2.105263e-01 0.000000e+00
 0.000000e+00 0.000000e+00 0.000000e+00 0.000000e+00 0.000000e+00 0.000000e+00 0.000000e+00 0.000000e+00 0.000000e+00 0.000000e+00 0.000000e+00 0.000000e+00 0.000000e+00 0.000000e+00 0.000000e+00 0.000000e+00 9.209486e-01 7.905138e-02
 0.000000e+00 0.000000e+00 0.000000e+00 0.000000e+00 0.000000e+00 0.000000e+00 0.000000e+00 0.000000e+00 0.000000e+00 0.000000e+00 0.000000e+00 0.000000e+00 0.000000e+00 0.000000e+00 0.000000e+00 0.000000e+00 0.000000e+00 0.000000e+00
<ENDHMM>
