~o
<STREAMINFO> 1 15
<VECSIZE> 15<NULLD><MFCC><DIAGC>
~h "Alexander"
<BEGINHMM>
<NUMSTATES> 18
<STATE> 2
<MEAN> 15
 -3.348821e+01 -3.091323e+00 -1.387658e-01 -8.748736e-01 -5.750161e-01 -6.306215e-02 -5.414852e-01 7.066057e-02 -5.420681e-01 1.811886e-01 -4.050452e-01 -7.242972e-02 -2.785664e-01 5.574820e-02 -3.385949e-01
<VARIANCE> 15
 4.801048e+00 1.631489e+00 7.634465e-01 4.529036e-01 3.021710e-01 2.807610e-01 2.117677e-01 2.323818e-01 1.468917e-01 1.840145e-01 1.617644e-01 1.371030e-01 1.146737e-01 1.256961e-01 1.194894e-01
<GCONST> 9.302323e+00
<STATE> 3
<MEAN> 15
 -2.866924e+01 -4.172313e+00 2.170089e-01 -1.639374e+00 -1.679360e+00 -1.012513e-01 -1.057577e+00 1.883117e-01 -5.660090e-01 4.152224e-01 -6.575336e-01 -7.548061e-02 -2.765048e-01 -5.959009e-02 -5.521508e-01
<VARIANCE> 15
 1.466660e+01 2.917588e+00 2.493839e+00 1.163877e+00 1.612865e+00 1.060109e+00 6.515691e-01 6.490498e-01 6.014484e-01 3.073744e-01 4.759424e-01 2.523019e-01 3.337179e-01 2.207041e-01 2.045458e-01
<GCONST> 2.406278e+01
<STATE> 4
<MEAN> 15
 -1.469803e+01 -2.937566e+00 5.380856e+00 8.352919e-01 -2.397283e+00 -1.075594e+00 -8.267919e-01 -7.495667e-01 -1.289866e+00 -3.935542e-02 -7.552413e-01 -1.411384e-01 9.642801e-02 8.968356e-02 -5.380002e-01
<VARIANCE> 15
 1.095787e+01 3.456220e+00 2.227355e+00 3.148052e+00 1.047406e+00 2.105008e+00 5.921091e-01 4.553596e-01 3.216770e-01 4.717394e-01 2.229716e-01 2.516663e-01 3.088511e-01 3.807661e-01 2.321504e-01
<GCONST> 2.426316e+01
<STATE> 5
<MEAN> 15
 -1.743973e+01 -7.762994e-01 3.415607e+00 5.911101e-01 -3.069815e+00 7.332426e-01 -1.218277e+00 -5.378276e-01 -1.003068e+00 3.514083e-01 -1.090282e+00 7.904534e-02 7.622811e-01 -2.722698e-01 -1.204680e+00
<VARIANCE> 15
 8.458267e+00 4.436076e+00 8.189013e+00 3.581545e+00 3.072500e+00 1.525956e+00 9.331243e-01 7.444783e-01 5.022745e-01 7.207524e-01 2.988260e-01 4.253795e-01 6.587477e-01 2.911162e-01 3.597641e-01
<GCONST> 2.999999e+01
<STATE> 6
<MEAN> 15
 -1.496988e+01 2.707498e+00 3.771804e-01 -6.375933e-02 -2.458960e+00 2.798782e+00 -2.943771e+00 -4.979185e-01 -2.672125e-01 8.866604e-02 -1.714163e+00 5.442201e-01 3.387951e-01 -1.309846e-01 -1.547728e+00
<VARIANCE> 15
 4.074902e+00 2.264108e+00 2.956549e+00 2.460257e+00 1.559479e+00 1.639959e+00 2.241297e+00 1.071571e+00 7.238592e-01 4.468857e-01 6.084795e-01 5.798541e-01 5.843489e-01 4.121989e-01 5.327122e-01
<GCONST> 2.936601e+01
<STATE> 7
<MEAN> 15
 -2.070538e+01 1.554915e+00 1.547320e-01 3.666547e-01 -2.413566e-01 1.470519e+00 -5.599993e-01 1.294827e+00 2.892179e-01 2.762070e-01 -1.390170e+00 1.679213e-01 -4.984023e-02 -2.933924e-01 -1.317714e+00
<VARIANCE> 15
 2.363192e+01 3.036150e+00 3.575667e+00 1.034182e+00 1.670121e+00 6.272302e-01 1.068875e+00 5.850616e-01 3.631497e-01 4.230524e-01 5.251137e-01 4.132610e-01 2.327538e-01 4.658935e-01 3.420305e-01
<GCONST> 2.603069e+01
<STATE> 8
<MEAN> 15
 -1.848932e+01 -4.131712e+00 1.568428e+00 1.593208e-01 -1.865760e+00 2.742165e-01 -2.766095e-01 8.163355e-01 -2.763545e-01 9.466716e-01 -6.993307e-01 1.909229e-02 -4.082220e-01 -3.497511e-01 -9.334813e-01
<VARIANCE> 15
 6.964325e+00 6.437243e+00 1.806964e+00 1.123380e+00 6.441952e-01 6.501099e-01 9.555882e-01 3.282036e-01 4.634631e-01 3.243329e-01 2.418982e-01 4.000602e-01 2.741202e-01 2.310023e-01 2.174904e-01
<GCONST> 2.153362e+01
<STATE> 9
<MEAN> 15
 -1.933230e+01 -2.994995e+00 2.586643e+00 3.267657e-01 -4.297574e-01 -6.351938e-01 4.923541e-02 3.840268e-02 -5.470653e-01 2.106401e-01 -2.750906e-01 -1.413477e-01 -7.667819e-01 -5.074920e-01 -6.975080e-01
<VARIANCE> 15
 2.319571e+01 6.960791e+00 1.753077e+00 2.348814e+00 5.030125e-01 1.525120e+00 8.892727e-01 6.370764e-01 6.299390e-01 2.850355e-01 2.308414e-01 3.253843e-01 2.841713e-01 3.428370e-01 2.860649e-01
<GCONST> 2.534815e+01
<STATE> 10
<MEAN> 15
 -1.739613e+01 -2.639955e+00 4.505540e+00 9.691961e-01 -1.462095e+00 -2.454029e-01 -3.133456e-01 -1.021480e+00 -4.755869e-01 9.496002e-01 -1.067985e-01 -1.056034e-01 -6.470403e-01 -3.617916e-01 -6.220823e-01
<VARIANCE> 15
 5.655697e+00 5.476682e+00 2.253611e+00 1.880415e+00 7.432362e-01 9.873116e-01 5.581855e-01 5.766629e-01 4.261174e-01 4.455419e-01 3.973723e-01 3.885325e-01 3.606585e-01 2.726219e-01 3.888372e-01
<GCONST> 2.420842e+01
<STATE> 11
<MEAN> 15
 -1.629882e+01 1.756708e+00 8.571562e-01 -5.880343e-01 -6.067929e-01 1.179153e+00 -2.310673e+00 -3.494889e-01 4.003341e-01 1.050578e+00 -1.258849e+00 7.151468e-02 9.411187e-03 -7.798365e-01 -1.117581e+00
<VARIANCE> 15
 8.680442e+00 1.871169e+00 2.140380e+00 8.592130e-01 1.412546e+00 1.002015e+00 2.059124e+00 6.994448e-01 5.703039e-01 5.957658e-01 5.939459e-01 7.670746e-01 4.041605e-01 5.300953e-01 6.090425e-01
<GCONST> 2.777511e+01
<STATE> 12
<MEAN> 15
 -2.443694e+01 1.370527e+00 1.664665e+00 -7.438173e-01 -1.828258e-01 1.775649e+00 -2.445370e-02 4.191464e-01 5.925885e-01 1.145172e+00 1.293158e-01 4.615539e-01 -2.936922e-01 -1.155495e-01 -8.149081e-01
<VARIANCE> 15
 6.480319e+00 2.070868e+00 1.604860e+00 1.136321e+00 7.180879e-01 5.280873e-01 7.078607e-01 4.465811e-01 4.074060e-01 4.751340e-01 2.135050e-01 2.277661e-01 1.734348e-01 1.492973e-01 1.408010e-01
<GCONST> 1.836461e+01
<STATE> 13
<MEAN> 15
 -2.524032e+01 -1.107383e+00 2.672093e+00 1.240394e-01 7.101426e-01 9.724514e-01 4.935509e-01 3.283475e-01 -3.597856e-01 5.476288e-01 -1.503796e-01 4.679780e-01 -3.292191e-01 -1.920747e-03 -3.663980e-01
<VARIANCE> 15
 1.454108e+01 8.492301e-01 4.756906e+00 5.953608e-01 7.810019e-01 5.344592e-01 1.190665e+00 4.851491e-01 3.517554e-01 2.771724e-01 2.245456e-01 2.999787e-01 1.827329e-01 2.221213e-01 1.522471e-01
<GCONST> 1.958809e+01
<STATE> 14
<MEAN> 15
 -2.278604e+01 4.526124e-01 9.938294e-01 1.600149e+00 -1.540057e+00 1.415080e+00 -5.405141e-01 2.105586e-01 -2.836020e-01 1.261172e+00 -9.784813e-01 6.681610e-01 -8.093379e-01 -4.464320e-01 -1.640203e+00
<VARIANCE> 15
 3.947262e+00 1.318294e+00 1.412534e+00 7.713754e-01 1.311370e+00 5.047004e-01 1.112375e+00 4.321036e-01 6.243561e-01 5.245189e-01 4.984865e-01 3.293767e-01 4.473607e-01 3.203087e-01 3.618168e-01
<GCONST> 2.227549e+01
<STATE> 15
<MEAN> 15
 -2.308263e+01 -1.921782e+00 4.265502e+00 5.898126e-01 -8.075716e-01 5.653768e-02 2.184545e-01 -9.260663e-01 -2.929268e-01 9.957188e-01 -2.101704e-01 2.250232e-02 -1.429875e-01 6.871501e-02 -1.233611e+00
<VARIANCE> 15
 4.079403e+00 1.454434e+00 1.322040e+00 6.157156e-01 4.420545e-01 4.988432e-01 3.227876e-01 4.067324e-01 4.442130e-01 5.134956e-01 3.218813e-01 2.860429e-01 4.069083e-01 3.859526e-01 5.213481e-01
<GCONST> 1.923509e+01
<STATE> 16
<MEAN> 15
 -2.841132e+01 -1.755355e+00 2.568894e+00 -1.668287e-01 -7.049560e-01 -2.533441e-01 -4.733503e-01 -2.310906e-01 -6.025093e-01 1.232020e+00 -3.716975e-01 8.872025e-02 -1.250754e-01 -9.186731e-02 -2.638681e-01
<VARIANCE> 15
 2.804130e+00 1.427398e+00 8.268886e-01 5.847546e-01 2.728393e-01 4.669219e-01 5.266182e-01 2.828477e-01 2.976849e-01 2.458837e-01 2.294927e-01 1.356466e-01 3.010606e-01 1.558564e-01 4.287775e-01
<GCONST> 1.427358e+01
<STATE> 17
<MEAN> 15
 -3.351881e+01 -2.070303e+00 1.106205e-01 -7.162860e-01 -5.149511e-01 -1.329820e-01 -5.344833e-01 -3.365009e-02 -3.843529e-01 4.767691e-01 -2.862042e-01 -1.121628e-01 -3.334602e-01 -4.554975e-02 -2.997768e-01
<VARIANCE> 15
 3.201731e+00 1.181709e+00 9.028355e-01 6.603264e-01 2.769255e-01 2.700797e-01 2.334358e-01 1.802965e-01 1.281314e-01 2.255959e-01 1.287836e-01 1.497470e-01 1.550719e-01 1.419924e-01 1.305789e-01
<GCONST> 9.276762e+00
<TRANSP> 18
 0.000000e+00 1.000000e+00 0.000000e+00 0.000000e+00 0.000000e+00 0.000000e+00 0.000000e+00 0.000000e+00 0.000000e+00 0.000000e+00 0.000000e+00 0.000000e+00 0.000000e+00 0.000000e+00 0.000000e+00 0.000000e+00 0.000000e+00 0.000000e+00
 0.000000e+00 9.038461e-01 9.615386e-02 0.000000e+00 0.000000e+00 0.000000e+00 0.000000e+00 0.000000e+00 0.000000e+00 0.000000e+00 0.000000e+00 0.000000e+00 0.000000e+00 0.000000e+00 0.000000e+00 0.000000e+00 0.000000e+00 0.000000e+00
 0.000000e+00 0.000000e+00 8.290598e-01 1.709402e-01 0.000000e+00 0.000000e+00 0.000000e+00 0.000000e+00 0.000000e+00 0.000000e+00 0.000000e+00 0.000000e+00 0.000000e+00 0.000000e+00 0.000000e+00 0.000000e+00 0.000000e+00 0.000000e+00
 0.000000e+00 0.000000e+00 0.000000e+00 8.692811e-01 1.307190e-01 0.000000e+00 0.000000e+00 0.000000e+00 0.000000e+00 0.000000e+00 0.000000e+00 0.000000e+00 0.000000e+00 0.000000e+00 0.000000e+00 0.000000e+00 0.000000e+00 0.000000e+00
 0.000000e+00 0.000000e+00 0.000000e+00 0.000000e+00 7.142857e-01 2.857143e-01 0.000000e+00 0.000000e+00 0.000000e+00 0.000000e+00 0.000000e+00 0.000000e+00 0.000000e+00 0.000000e+00 0.000000e+00 0.000000e+00 0.000000e+00 0.000000e+00
 0.000000e+00 0.000000e+00 0.000000e+00 0.000000e+00 0.000000e+00 8.717949e-01 1.282051e-01 0.000000e+00 0.000000e+00 0.000000e+00 0.000000e+00 0.000000e+00 0.000000e+00 0.000000e+00 0.000000e+00 0.000000e+00 0.000000e+00 0.000000e+00
 0.000000e+00 0.000000e+00 0.000000e+00 0.000000e+00 0.000000e+00 0.000000e+00 7.530864e-01 2.469136e-01 0.000000e+00 0.000000e+00 0.000000e+00 0.000000e+00 0.000000e+00 0.000000e+00 0.000000e+00 0.000000e+00 0.000000e+00 0.000000e+00
 0.000000e+00 0.000000e+00 0.000000e+00 0.000000e+00 0.000000e+00 0.000000e+00 0.000000e+00 7.701150e-01 2.298851e-01 0.000000e+00 0.000000e+00 0.000000e+00 0.000000e+00 0.000000e+00 0.000000e+00 0.000000e+00 0.000000e+00 0.000000e+00
 0.000000e+00 0.000000e+00 0.000000e+00 0.000000e+00 0.000000e+00 0.000000e+00 0.000000e+00 0.000000e+00 8.717949e-01 1.282051e-01 0.000000e+00 0.000000e+00 0.000000e+00 0.000000e+00 0.000000e+00 0.000000e+00 0.000000e+00 0.000000e+00
 0.000000e+00 0.000000e+00 0.000000e+00 0.000000e+00 0.000000e+00 0.000000e+00 0.000000e+00 0.000000e+00 0.000000e+00 8.684211e-01 1.315790e-01 0.000000e+00 0.000000e+00 0.000000e+00 0.000000e+00 0.000000e+00 0.000000e+00 0.000000e+00
 0.000000e+00 0.000000e+00 0.000000e+00 0.000000e+00 0.000000e+00 0.000000e+00 0.000000e+00 0.000000e+00 0.000000e+00 0.000000e+00 8.461539e-01 1.538462e-01 0.000000e+00 0.000000e+00 0.000000e+00 0.000000e+00 0.000000e+00 0.000000e+00
 0.000000e+00 0.000000e+00 0.000000e+00 0.000000e+00 0.000000e+00 0.000000e+00 0.000000e+00 0.000000e+00 0.000000e+00 0.000000e+00 0.000000e+00 8.165138e-01 1.834862e-01 0.000000e+00 0.000000e+00 0.000000e+00 0.000000e+00 0.000000e+00
 0.000000e+00 0.000000e+00 0.000000e+00 0.000000e+00 0.000000e+00 0.000000e+00 0.000000e+00 0.000000e+00 0.000000e+00 0.000000e+00 0.000000e+00 0.000000e+00 8.924731e-01 1.075269e-01 0.000000e+00 0.000000e+00 0.000000e+00 0.000000e+00
 0.000000e+00 0.000000e+00 0.000000e+00 0.000000e+00 0.000000e+00 0.000000e+00 0.000000e+00 0.000000e+00 0.000000e+00 0.000000e+00 0.000000e+00 0.000000e+00 0.000000e+00 8.148148e-01 1.851852e-01 0.000000e+00 0.000000e+00 0.000000e+00
 0.000000e+00 0.000000e+00 0.000000e+00 0.000000e+00 0.000000e+00 0.000000e+00 0.000000e+00 0.000000e+00 0.000000e+00 0.000000e+00 0.000000e+00 0.000000e+00 0.000000e+00 0.000000e+00 8.639456e-01 1.360544e-01 0.000000e+00 0.000000e+00
 0.000000e+00 0.000000e+00 0.000000e+00 0.000000e+00 0.000000e+00 0.000000e+00 0.000000e+00 0.000000e+00 0.000000e+00 0.000000e+00 0.000000e+00 0.000000e+00 0.000000e+00 0.000000e+00 0.000000e+00 7.802198e-01 2.197802e-01 0.000000e+00
 0.000000e+00 0.000000e+00 0.000000e+00 0.000000e+00 0.000000e+00 0.000000e+00 0.000000e+00 0.000000e+00 0.000000e+00 0.000000e+00 0.000000e+00 0.000000e+00 0.000000e+00 0.000000e+00 0.000000e+00 0.000000e+00 8.979592e-01 1.020408e-01
 0.000000e+00 0.000000e+00 0.000000e+00 0.000000e+00 0.000000e+00 0.000000e+00 0.000000e+00 0.000000e+00 0.000000e+00 0.000000e+00 0.000000e+00 0.000000e+00 0.000000e+00 0.000000e+00 0.000000e+00 0.000000e+00 0.000000e+00 0.000000e+00
<ENDHMM>
