~o
<STREAMINFO> 1 15
<VECSIZE> 15<NULLD><MFCC><DIAGC>
~h "Alex"
<BEGINHMM>
<NUMSTATES> 10
<STATE> 2
<MEAN> 15
 -3.318114e+01 -3.121202e+00 -2.663642e-01 -8.773315e-01 -6.280879e-01 -3.229604e-02 -4.813103e-01 1.197470e-01 -5.085011e-01 2.237666e-01 -4.056129e-01 -1.751122e-02 -3.422632e-01 4.512696e-02 -3.862171e-01
<VARIANCE> 15
 7.482933e+00 2.044281e+00 1.024366e+00 7.776015e-01 4.417820e-01 3.035825e-01 2.532918e-01 2.170629e-01 1.789099e-01 1.843406e-01 1.701192e-01 1.624997e-01 1.400708e-01 1.458482e-01 1.586867e-01
<GCONST> 1.242674e+01
<STATE> 3
<MEAN> 15
 -1.577670e+01 -2.148212e+00 3.928106e+00 1.145767e+00 -2.152272e+00 -1.203255e+00 -8.512186e-01 -4.250205e-01 -1.292594e+00 -3.116590e-01 -6.083199e-01 -1.057979e-01 -2.495179e-01 -1.160959e-01 -3.855098e-01
<VARIANCE> 15
 2.523429e+01 3.997101e+00 4.310243e+00 3.256606e+00 1.638200e+00 2.594791e+00 6.372305e-01 6.584544e-01 3.531848e-01 3.775430e-01 4.036335e-01 3.653962e-01 3.498695e-01 3.788578e-01 2.660215e-01
<GCONST> 2.812841e+01
<STATE> 4
<MEAN> 15
 -1.417016e+01 -2.541592e-02 3.088816e+00 -3.779941e-01 -3.043083e+00 1.266146e+00 -1.828341e+00 -1.140159e+00 -5.585606e-01 -1.293579e-01 -1.223367e+00 4.513335e-01 1.479561e-01 -1.255471e-01 -9.129662e-01
<VARIANCE> 15
 4.804363e+00 9.878424e+00 8.625002e+00 2.950152e+00 1.180440e+00 2.143509e+00 2.016317e+00 6.637800e-01 3.888580e-01 4.171924e-01 4.259239e-01 5.424862e-01 5.200098e-01 3.677570e-01 5.360480e-01
<GCONST> 3.032274e+01
<STATE> 5
<MEAN> 15
 -1.852970e+01 1.779429e+00 9.791666e-01 6.586727e-01 -1.781517e+00 2.331350e+00 -2.043151e+00 -1.799542e-01 -5.839813e-01 -4.283062e-02 -1.521066e+00 4.676048e-01 9.719047e-02 -2.576452e-01 -1.649641e+00
<VARIANCE> 15
 5.285385e+00 2.423598e+00 2.854278e+00 2.253421e+00 1.386743e+00 2.880886e+00 2.758121e+00 1.667903e+00 6.628085e-01 7.806169e-01 6.210296e-01 8.682225e-01 1.031896e+00 5.039842e-01 4.326689e-01
<GCONST> 3.212257e+01
<STATE> 6
<MEAN> 15
 -2.574116e+01 -1.460299e+00 2.840008e+00 -1.352372e-01 -6.706854e-01 2.233394e-01 2.599202e-01 4.303315e-01 -1.440918e-01 1.055743e-01 -8.692786e-01 -5.396144e-01 -7.759721e-01 -3.188142e-01 -9.751809e-01
<VARIANCE> 15
 2.330412e+01 5.098986e+00 2.911397e+00 8.163482e-01 7.524213e-01 3.777155e-01 5.956436e-01 4.624748e-01 3.707802e-01 2.320633e-01 2.497364e-01 2.403513e-01 1.690372e-01 1.553602e-01 2.874169e-01
<GCONST> 2.051184e+01
<STATE> 7
<MEAN> 15
 -3.329414e+01 -1.779008e+00 3.075633e-01 -2.555345e-01 -2.474784e-01 6.507272e-02 -3.686284e-01 2.943809e-02 -5.132662e-01 1.046147e-01 -4.983271e-01 -2.704847e-01 -4.921224e-01 -2.645567e-01 -5.607547e-01
<VARIANCE> 15
 2.177394e+00 2.464269e+00 4.893476e-01 4.636183e-01 3.561173e-01 2.633272e-01 2.489636e-01 1.809637e-01 1.841429e-01 1.589065e-01 1.746766e-01 1.570489e-01 1.675659e-01 1.528135e-01 1.769931e-01
<GCONST> 9.773981e+00
<STATE> 8
<MEAN> 15
 -2.137878e+01 -7.027712e+00 5.292342e-01 -4.467442e-01 -1.543973e+00 -7.834330e-01 -1.004692e+00 -4.396123e-01 -9.104592e-01 1.394176e-01 -3.937351e-01 2.161109e-02 -1.991839e-01 -3.348294e-03 -3.738213e-01
<VARIANCE> 15
 7.716524e+00 5.084503e+00 3.466012e+00 1.111134e+00 1.216487e+00 7.719525e-01 5.572983e-01 7.763397e-01 5.342193e-01 3.711448e-01 2.775629e-01 2.979764e-01 2.131537e-01 2.360324e-01 2.367627e-01
<GCONST> 2.314463e+01
<STATE> 9
<MEAN> 15
 -3.269360e+01 -2.568087e+00 5.373561e-03 -9.759256e-01 -4.569485e-01 -3.178652e-02 -5.350003e-01 -1.419368e-01 -5.857813e-01 1.519230e-01 -4.346768e-01 -2.536667e-01 -3.034073e-01 4.052992e-02 -2.575208e-01
<VARIANCE> 15
 1.222552e+01 2.172148e+00 1.027719e+00 5.601140e-01 3.681830e-01 2.637607e-01 1.787139e-01 1.840396e-01 2.395510e-01 1.584788e-01 1.694575e-01 1.619845e-01 1.462125e-01 1.554893e-01 1.321273e-01
<GCONST> 1.187427e+01
<TRANSP> 10
 0.000000e+00 1.000000e+00 0.000000e+00 0.000000e+00 0.000000e+00 0.000000e+00 0.000000e+00 0.000000e+00 0.000000e+00 0.000000e+00
 0.000000e+00 9.452055e-01 5.479452e-02 0.000000e+00 0.000000e+00 0.000000e+00 0.000000e+00 0.000000e+00 0.000000e+00 0.000000e+00
 0.000000e+00 0.000000e+00 9.200000e-01 8.000000e-02 0.000000e+00 0.000000e+00 0.000000e+00 0.000000e+00 0.000000e+00 0.000000e+00
 0.000000e+00 0.000000e+00 0.000000e+00 9.069768e-01 9.302325e-02 0.000000e+00 0.000000e+00 0.000000e+00 0.000000e+00 0.000000e+00
 0.000000e+00 0.000000e+00 0.000000e+00 0.000000e+00 8.979592e-01 1.020408e-01 0.000000e+00 0.000000e+00 0.000000e+00 0.000000e+00
 0.000000e+00 0.000000e+00 0.000000e+00 0.000000e+00 0.000000e+00 8.657718e-01 1.342282e-01 0.000000e+00 0.000000e+00 0.000000e+00
 0.000000e+00 0.000000e+00 0.000000e+00 0.000000e+00 0.000000e+00 0.000000e+00 9.215686e-01 7.843138e-02 0.000000e+00 0.000000e+00
 0.000000e+00 0.000000e+00 0.000000e+00 0.000000e+00 0.000000e+00 0.000000e+00 0.000000e+00 9.484536e-01 5.154639e-02 0.000000e+00
 0.000000e+00 0.000000e+00 0.000000e+00 0.000000e+00 0.000000e+00 0.000000e+00 0.000000e+00 0.000000e+00 8.941799e-01 1.058201e-01
 0.000000e+00 0.000000e+00 0.000000e+00 0.000000e+00 0.000000e+00 0.000000e+00 0.000000e+00 0.000000e+00 0.000000e+00 0.000000e+00
<ENDHMM>
