~o
<STREAMINFO> 1 20
<VECSIZE> 20<NULLD><MFCC><DIAGC>
~h "Alex"
<BEGINHMM>
<NUMSTATES> 18
<STATE> 2
<MEAN> 20
 -4.080836e+01 -1.604865e+00 -1.791510e+00 4.951930e-01 -1.669290e+00 7.508733e-01 -1.017113e+00 3.529913e-01 -7.101445e-01 5.354974e-02 -2.052234e-01 -2.703379e-01 -2.794820e-01 -2.166691e-01 1.447943e-02 -3.481840e-01 -1.701387e-01 -9.738536e-02 -6.814812e-02 -2.327288e-01
<VARIANCE> 20
 1.589660e+00 1.041849e+00 4.739419e-01 3.701929e-01 3.045665e-01 1.654785e-01 2.617988e-01 1.823931e-01 1.748587e-01 1.418018e-01 1.555826e-01 1.343516e-01 1.374417e-01 1.424765e-01 1.327751e-01 1.511056e-01 1.061765e-01 1.293869e-01 1.169667e-01 1.211317e-01
<GCONST> 5.540772e+00
<STATE> 3
<MEAN> 20
 -3.712543e+01 -4.369921e+00 2.238954e-02 -7.452707e-01 -1.205734e+00 3.326875e-01 -9.631425e-01 4.190286e-01 -7.299508e-01 1.033900e-01 -2.261650e-01 -7.395812e-02 -2.866023e-01 -2.616857e-01 -1.170614e-01 -2.862053e-01 -4.114343e-01 -1.030168e-01 -6.855715e-02 -1.071761e-01
<VARIANCE> 20
 7.650990e+00 1.925026e+00 1.253197e+00 6.395005e-01 7.025483e-01 3.890992e-01 3.805969e-01 3.738264e-01 3.149170e-01 2.942730e-01 2.043806e-01 2.038516e-01 2.170693e-01 2.025802e-01 2.191774e-01 1.918191e-01 2.024238e-01 1.306326e-01 1.548711e-01 1.792485e-01
<GCONST> 1.691204e+01
<STATE> 4
<MEAN> 20
 -3.098557e+01 -3.490291e+00 -1.172628e+00 4.340370e-01 -4.115768e+00 8.055450e-01 -2.267320e+00 1.085228e+00 -1.425171e+00 6.347612e-01 -8.684760e-01 -4.237323e-02 -3.353302e-01 -9.175440e-02 -4.385889e-01 -5.266740e-01 -4.346912e-01 1.340105e-01 5.399067e-02 1.957654e-01
<VARIANCE> 20
 2.760226e+01 6.788957e+00 6.154718e+00 1.446573e+00 3.181723e+00 1.167766e+00 6.905195e-01 1.194109e+00 4.314710e-01 4.529237e-01 4.758725e-01 4.426595e-01 4.750862e-01 2.690287e-01 3.904469e-01 3.569029e-01 2.413843e-01 2.293707e-01 2.747469e-01 1.933656e-01
<GCONST> 3.224981e+01
<STATE> 5
<MEAN> 20
 -1.463292e+01 -2.358508e+00 3.189324e+00 2.586004e+00 -2.942957e+00 -2.091096e+00 -2.219539e+00 3.998463e-01 -1.675265e+00 -5.901320e-01 -7.944137e-01 1.159145e-01 -4.449860e-01 -3.006386e-01 -5.529753e-01 -1.798132e-01 -4.252836e-01 2.097609e-02 1.174847e-01 2.620903e-01
<VARIANCE> 20
 1.344980e+01 5.737525e+00 3.249123e+00 1.017365e+00 4.709247e+00 2.299214e+00 7.584269e-01 9.379598e-01 5.608904e-01 7.570266e-01 3.317199e-01 2.972957e-01 4.557762e-01 2.234334e-01 4.931459e-01 2.150308e-01 4.064741e-01 2.066873e-01 1.837669e-01 2.297045e-01
<GCONST> 3.099744e+01
<STATE> 6
<MEAN> 20
 -1.690854e+01 3.707710e+00 -2.498855e-01 9.822841e-01 -5.633662e+00 1.875826e+00 -2.423687e+00 -1.070218e+00 -1.380047e+00 1.784919e-01 -1.509297e+00 -4.625149e-01 4.307238e-01 -1.699830e-01 -9.671000e-02 -7.856480e-01 -1.781881e-01 -2.474125e-01 4.753156e-01 8.463308e-02
<VARIANCE> 20
 3.907038e+00 8.800269e+00 4.244266e+00 2.504143e+00 2.936739e+00 2.442545e+00 1.169612e+00 1.563855e+00 6.310079e-01 1.058162e+00 6.416019e-01 4.336078e-01 6.426744e-01 7.599712e-01 5.185605e-01 5.735483e-01 3.498872e-01 3.661707e-01 2.343237e-01 4.536906e-01
<GCONST> 3.732409e+01
<STATE> 7
<MEAN> 20
 -2.080429e+01 3.722280e+00 -5.349161e-01 3.009067e+00 -4.362410e+00 3.352936e+00 -1.238291e+00 -2.849131e+00 -8.560275e-01 -6.372600e-01 -1.149508e+00 -1.377189e+00 9.879435e-01 5.002807e-01 -3.892107e-01 -1.310444e+00 -3.873535e-01 4.132003e-02 -3.491198e-01 -4.632472e-01
<VARIANCE> 20
 1.295122e+01 5.061371e+00 3.861773e+00 2.802286e+00 2.758703e+00 3.503501e+00 8.658910e-01 1.488193e+00 1.357284e+00 7.385977e-01 4.432532e-01 4.689726e-01 1.047378e+00 6.094854e-01 5.473996e-01 7.237187e-01 3.834023e-01 2.873162e-01 3.134461e-01 6.560371e-01
<GCONST> 3.911338e+01
<STATE> 8
<MEAN> 20
 -1.912539e+01 -1.910615e+00 4.782396e+00 4.466236e+00 -2.898852e+00 5.856417e-01 -7.017750e-01 -1.097814e+00 -1.593593e+00 -3.415839e-01 -6.069864e-01 -9.930227e-01 -3.623360e-02 4.863786e-01 -2.384679e-01 -6.114732e-01 -9.033077e-01 -2.639207e-01 -3.586733e-01 -5.087879e-01
<VARIANCE> 20
 1.074349e+01 5.036432e+00 4.826675e+00 1.696547e+00 1.507003e+00 2.105112e+00 8.228323e-01 8.820660e-01 4.900543e-01 8.191122e-01 3.363378e-01 3.676985e-01 4.020802e-01 3.988785e-01 4.560904e-01 5.807436e-01 2.772346e-01 3.687127e-01 2.408748e-01 2.556503e-01
<GCONST> 3.245563e+01
<STATE> 9
<MEAN> 20
 -2.307168e+01 3.353189e+00 -4.336376e-01 1.979747e+00 -3.282804e+00 2.266927e+00 -1.783420e+00 1.002931e+00 -8.498386e-01 6.802357e-01 -8.994519e-01 -9.188863e-01 1.706455e-01 -5.538951e-01 -6.421238e-01 -2.013211e+00 -6.867100e-01 -4.656189e-01 3.341879e-01 -2.333595e-01
<VARIANCE> 20
 8.898993e+00 5.219213e+00 4.637179e+00 2.751909e+00 1.330268e+00 1.989838e+00 2.574012e+00 2.507417e+00 8.923538e-01 7.877601e-01 5.360023e-01 5.804572e-01 1.046463e+00 7.098806e-01 7.955844e-01 5.559705e-01 3.931096e-01 6.202698e-01 4.891811e-01 4.938868e-01
<GCONST> 4.051568e+01
<STATE> 10
<MEAN> 20
 -2.403191e+01 -2.379745e+00 3.689719e+00 2.253975e+00 -2.647971e+00 6.442448e-01 -2.447263e-01 1.192352e+00 -1.015417e+00 7.433813e-01 -9.499796e-01 -2.334890e-01 -1.062729e+00 -2.967654e-01 -7.866565e-01 -1.067047e+00 -1.066164e+00 -8.185475e-02 -9.715073e-02 -3.159255e-01
<VARIANCE> 20
 2.564461e+01 6.890083e+00 4.097833e+00 1.058043e+00 1.104078e+00 1.141216e+00 9.488891e-01 6.616600e-01 4.614677e-01 3.833784e-01 3.094715e-01 3.102534e-01 3.947025e-01 2.610520e-01 4.482069e-01 4.267600e-01 3.020997e-01 2.603261e-01 1.685988e-01 2.472916e-01
<GCONST> 2.944222e+01
<STATE> 11
<MEAN> 20
 -3.698802e+01 -3.743973e-01 2.628557e-01 9.268552e-01 -1.448918e+00 8.990809e-01 -9.676902e-01 5.653344e-01 -7.072744e-01 1.332889e-01 -5.432528e-01 -6.355686e-01 -7.934867e-01 -6.962876e-01 -6.464800e-01 -9.597833e-01 -8.031676e-01 -4.604400e-01 -2.842721e-01 -3.468132e-01
<VARIANCE> 20
 6.374016e+00 5.768734e+00 1.954632e+00 5.833846e-01 9.448411e-01 3.962393e-01 4.878198e-01 4.543793e-01 2.558333e-01 2.621927e-01 2.332267e-01 2.769288e-01 2.387596e-01 1.816363e-01 1.678376e-01 2.536185e-01 1.555819e-01 1.779919e-01 1.727306e-01 1.592065e-01
<GCONST> 1.908786e+01
<STATE> 12
<MEAN> 20
 -3.888688e+01 -2.482367e+00 -3.233073e-01 8.659165e-02 -8.579043e-01 5.038707e-01 -8.003172e-01 3.630768e-01 -7.791519e-01 9.916185e-04 -2.511976e-01 -3.212236e-01 -4.199852e-01 -3.498606e-01 -2.613393e-01 -3.816582e-01 -4.137124e-01 -2.748405e-01 -2.457789e-01 -2.913611e-01
<VARIANCE> 20
 3.375514e+00 2.276670e+00 7.684694e-01 6.012988e-01 4.044514e-01 2.912910e-01 2.547034e-01 2.369634e-01 1.800013e-01 1.835000e-01 1.843258e-01 2.065957e-01 1.698784e-01 1.838385e-01 1.605986e-01 1.448500e-01 1.417449e-01 1.352948e-01 1.077248e-01 1.156039e-01
<GCONST> 1.083319e+01
<STATE> 13
<MEAN> 20
 -2.749661e+01 -2.363122e+00 1.429565e+00 1.984237e+00 -2.900774e+00 -2.222563e-01 -2.743872e+00 -3.095891e-01 -2.044286e+00 -9.552342e-01 -4.909233e-01 -9.668912e-02 -6.711566e-02 -4.743623e-06 -2.132464e-01 -6.487052e-03 -9.285743e-01 -4.698699e-01 -5.456369e-01 -5.771583e-01
<VARIANCE> 20
 1.407413e+01 3.982627e+00 4.710226e+00 1.463793e+00 1.644449e+00 1.033319e+00 8.457203e-01 1.539194e+00 4.595138e-01 7.160521e-01 3.898738e-01 5.028826e-01 3.558362e-01 2.323264e-01 3.342719e-01 3.584737e-01 4.017968e-01 2.274064e-01 1.405416e-01 2.265569e-01
<GCONST> 3.031310e+01
<STATE> 14
<MEAN> 20
 -2.239732e+01 -8.661474e+00 7.510955e-01 -1.746827e-01 -1.863149e+00 -6.662185e-01 -1.507361e+00 -6.898151e-01 -1.504045e+00 -1.035662e-01 -4.144574e-01 2.747376e-02 -3.142589e-01 -1.638323e-03 -3.083720e-01 -2.283496e-01 -6.188296e-01 -6.923018e-02 8.656840e-03 -1.659612e-01
<VARIANCE> 20
 4.773595e+00 5.556649e+00 4.464160e+00 1.052091e+00 1.840518e+00 1.124431e+00 8.424736e-01 8.219576e-01 4.982259e-01 3.086688e-01 2.061337e-01 3.585505e-01 2.949101e-01 2.725226e-01 2.711696e-01 3.335916e-01 3.054824e-01 2.944554e-01 2.643313e-01 2.723071e-01
<GCONST> 2.750140e+01
<STATE> 15
<MEAN> 20
 -2.597555e+01 -7.201210e+00 -3.457397e+00 2.392127e+00 -4.086729e+00 7.461140e-01 -2.558326e+00 1.355274e+00 -1.907222e+00 8.177451e-01 -6.458657e-01 2.369834e-01 -6.146276e-01 2.032671e-01 -2.884240e-01 -2.408038e-01 -4.412837e-01 7.165900e-02 -3.707736e-02 -9.892865e-02
<VARIANCE> 20
 6.826600e+00 2.201164e+00 2.297529e+00 1.915910e+00 1.868214e+00 4.906765e-01 8.772840e-01 7.254473e-01 4.076112e-01 5.236077e-01 3.549590e-01 3.427877e-01 5.865675e-01 3.657349e-01 3.157902e-01 2.548303e-01 2.394971e-01 3.249658e-01 2.135519e-01 1.838200e-01
<GCONST> 2.690958e+01
<STATE> 16
<MEAN> 20
 -3.362000e+01 -3.524292e+00 -2.312505e+00 9.392208e-01 -2.558310e+00 1.518210e+00 -2.081572e+00 9.538609e-01 -1.568772e+00 5.140795e-01 -7.256216e-01 -7.562506e-02 -5.956619e-01 1.600295e-01 -1.444533e-01 -1.664051e-01 -4.598836e-01 -1.576236e-01 -1.040275e-01 -1.796195e-01
<VARIANCE> 20
 1.779601e+01 4.587182e+00 2.870177e+00 1.421948e+00 1.154305e+00 1.009069e+00 6.416484e-01 4.959272e-01 1.695798e-01 4.928389e-01 2.922462e-01 2.024947e-01 2.790907e-01 2.506643e-01 2.677716e-01 2.188681e-01 1.035522e-01 2.052770e-01 1.389358e-01 1.045180e-01
<GCONST> 2.268449e+01
<STATE> 17
<MEAN> 20
 -3.858909e+01 -2.428771e+00 -3.546983e-01 -4.195045e-01 -1.336645e+00 4.573501e-01 -1.004382e+00 1.236661e-01 -8.711162e-01 -4.836691e-02 -2.627395e-01 -2.726548e-01 -5.367383e-01 -2.097246e-01 -1.617251e-01 -1.871359e-01 -1.938822e-01 -1.028606e-01 -1.171243e-01 -1.954189e-01
<VARIANCE> 20
 1.824326e+01 3.709535e+00 2.163204e+00 8.548461e-01 4.047680e-01 3.195176e-01 3.629553e-01 2.772389e-01 2.762074e-01 2.798876e-01 2.370946e-01 2.201104e-01 2.353296e-01 1.644610e-01 2.116348e-01 1.474221e-01 1.237020e-01 1.340432e-01 1.131596e-01 1.550365e-01
<GCONST> 1.687065e+01
<TRANSP> 18
 0.000000e+00 1.000000e+00 0.000000e+00 0.000000e+00 0.000000e+00 0.000000e+00 0.000000e+00 0.000000e+00 0.000000e+00 0.000000e+00 0.000000e+00 0.000000e+00 0.000000e+00 0.000000e+00 0.000000e+00 0.000000e+00 0.000000e+00 0.000000e+00
 0.000000e+00 8.895028e-01 1.104972e-01 0.000000e+00 0.000000e+00 0.000000e+00 0.000000e+00 0.000000e+00 0.000000e+00 0.000000e+00 0.000000e+00 0.000000e+00 0.000000e+00 0.000000e+00 0.000000e+00 0.000000e+00 0.000000e+00 0.000000e+00
 0.000000e+00 0.000000e+00 8.529412e-01 1.470588e-01 0.000000e+00 0.000000e+00 0.000000e+00 0.000000e+00 0.000000e+00 0.000000e+00 0.000000e+00 0.000000e+00 0.000000e+00 0.000000e+00 0.000000e+00 0.000000e+00 0.000000e+00 0.000000e+00
 0.000000e+00 0.000000e+00 0.000000e+00 7.916667e-01 2.083333e-01 0.000000e+00 0.000000e+00 0.000000e+00 0.000000e+00 0.000000e+00 0.000000e+00 0.000000e+00 0.000000e+00 0.000000e+00 0.000000e+00 0.000000e+00 0.000000e+00 0.000000e+00
 0.000000e+00 0.000000e+00 0.000000e+00 0.000000e+00 8.387097e-01 1.612903e-01 0.000000e+00 0.000000e+00 0.000000e+00 0.000000e+00 0.000000e+00 0.000000e+00 0.000000e+00 0.000000e+00 0.000000e+00 0.000000e+00 0.000000e+00 0.000000e+00
 0.000000e+00 0.000000e+00 0.000000e+00 0.000000e+00 0.000000e+00 7.872341e-01 2.127660e-01 0.000000e+00 0.000000e+00 0.000000e+00 0.000000e+00 0.000000e+00 0.000000e+00 0.000000e+00 0.000000e+00 0.000000e+00 0.000000e+00 0.000000e+00
 0.000000e+00 0.000000e+00 0.000000e+00 0.000000e+00 0.000000e+00 0.000000e+00 8.518519e-01 1.481482e-01 0.000000e+00 0.000000e+00 0.000000e+00 0.000000e+00 0.000000e+00 0.000000e+00 0.000000e+00 0.000000e+00 0.000000e+00 0.000000e+00
 0.000000e+00 0.000000e+00 0.000000e+00 0.000000e+00 0.000000e+00 0.000000e+00 0.000000e+00 8.540146e-01 1.459854e-01 0.000000e+00 0.000000e+00 0.000000e+00 0.000000e+00 0.000000e+00 0.000000e+00 0.000000e+00 0.000000e+00 0.000000e+00
 0.000000e+00 0.000000e+00 0.000000e+00 0.000000e+00 0.000000e+00 0.000000e+00 0.000000e+00 0.000000e+00 8.019802e-01 1.980198e-01 0.000000e+00 0.000000e+00 0.000000e+00 0.000000e+00 0.000000e+00 0.000000e+00 0.000000e+00 0.000000e+00
 0.000000e+00 0.000000e+00 0.000000e+00 0.000000e+00 0.000000e+00 0.000000e+00 0.000000e+00 0.000000e+00 0.000000e+00 8.019802e-01 1.980198e-01 0.000000e+00 0.000000e+00 0.000000e+00 0.000000e+00 0.000000e+00 0.000000e+00 0.000000e+00
 0.000000e+00 0.000000e+00 0.000000e+00 0.000000e+00 0.000000e+00 0.000000e+00 0.000000e+00 0.000000e+00 0.000000e+00 0.000000e+00 8.773006e-01 1.226994e-01 0.000000e+00 0.000000e+00 0.000000e+00 0.000000e+00 0.000000e+00 0.000000e+00
 0.000000e+00 0.000000e+00 0.000000e+00 0.000000e+00 0.000000e+00 0.000000e+00 0.000000e+00 0.000000e+00 0.000000e+00 0.000000e+00 0.000000e+00 8.765432e-01 1.234568e-01 0.000000e+00 0.000000e+00 0.000000e+00 0.000000e+00 0.000000e+00
 0.000000e+00 0.000000e+00 0.000000e+00 0.000000e+00 0.000000e+00 0.000000e+00 0.000000e+00 0.000000e+00 0.000000e+00 0.000000e+00 0.000000e+00 0.000000e+00 5.238096e-01 4.761905e-01 0.000000e+00 0.000000e+00 0.000000e+00 0.000000e+00
 0.000000e+00 0.000000e+00 0.000000e+00 0.000000e+00 0.000000e+00 0.000000e+00 0.000000e+00 0.000000e+00 0.000000e+00 0.000000e+00 0.000000e+00 0.000000e+00 0.000000e+00 8.773006e-01 1.226994e-01 0.000000e+00 0.000000e+00 0.000000e+00
 0.000000e+00 0.000000e+00 0.000000e+00 0.000000e+00 0.000000e+00 0.000000e+00 0.000000e+00 0.000000e+00 0.000000e+00 0.000000e+00 0.000000e+00 0.000000e+00 0.000000e+00 0.000000e+00 8.709677e-01 1.290323e-01 0.000000e+00 0.000000e+00
 0.000000e+00 0.000000e+00 0.000000e+00 0.000000e+00 0.000000e+00 0.000000e+00 0.000000e+00 0.000000e+00 0.000000e+00 0.000000e+00 0.000000e+00 0.000000e+00 0.000000e+00 0.000000e+00 0.000000e+00 7.014925e-01 2.985075e-01 0.000000e+00
 0.000000e+00 0.000000e+00 0.000000e+00 0.000000e+00 0.000000e+00 0.000000e+00 0.000000e+00 0.000000e+00 0.000000e+00 0.000000e+00 0.000000e+00 0.000000e+00 0.000000e+00 0.000000e+00 0.000000e+00 0.000000e+00 8.666667e-01 1.333333e-01
 0.000000e+00 0.000000e+00 0.000000e+00 0.000000e+00 0.000000e+00 0.000000e+00 0.000000e+00 0.000000e+00 0.000000e+00 0.000000e+00 0.000000e+00 0.000000e+00 0.000000e+00 0.000000e+00 0.000000e+00 0.000000e+00 0.000000e+00 0.000000e+00
<ENDHMM>
