~o
<STREAMINFO> 1 20
<VECSIZE> 20<NULLD><MFCC><DIAGC>
~h "Alexander"
<BEGINHMM>
<NUMSTATES> 18
<STATE> 2
<MEAN> 20
 -3.846282e+01 -3.172362e+00 -9.864917e-01 -1.742638e-01 -1.657118e+00 6.354102e-01 -1.169680e+00 4.014881e-01 -7.997128e-01 1.443181e-01 -2.839369e-01 -2.029997e-01 -3.582766e-01 -1.591609e-01 -7.050610e-02 -3.052797e-01 -2.047487e-01 -1.081669e-01 -4.488638e-02 -1.655272e-01
<VARIANCE> 20
 1.104282e+01 3.480492e+00 1.326696e+00 1.123061e+00 7.856763e-01 5.488779e-01 3.993378e-01 3.147615e-01 2.138934e-01 2.232467e-01 2.429830e-01 2.187121e-01 1.750115e-01 1.640643e-01 1.682393e-01 1.731253e-01 1.528305e-01 1.803654e-01 1.407783e-01 1.265959e-01
<GCONST> 1.720872e+01
<STATE> 3
<MEAN> 20
 -3.430915e+01 -2.918761e+00 -1.543161e+00 4.555674e-01 -3.921286e+00 1.128191e+00 -2.316770e+00 8.847352e-01 -1.130256e+00 5.483394e-01 -4.833917e-01 -2.353654e-01 -3.619282e-01 1.073657e-01 -3.203005e-01 -4.844786e-01 -4.232026e-01 -1.187833e-01 4.596667e-02 -1.120872e-01
<VARIANCE> 20
 1.788891e+01 4.313314e+00 2.731328e+00 1.659943e+00 3.008181e+00 1.332846e+00 8.608655e-01 1.037889e+00 7.585108e-01 6.417547e-01 5.530488e-01 4.315580e-01 3.104388e-01 5.008445e-01 2.543365e-01 2.072167e-01 2.383546e-01 3.081135e-01 1.912130e-01 2.416758e-01
<GCONST> 3.124829e+01
<STATE> 4
<MEAN> 20
 -2.007518e+01 -4.675697e+00 3.907827e+00 1.081897e+00 -4.118269e+00 -1.116463e+00 -2.221081e+00 1.915944e-01 -1.964377e+00 1.552629e-01 -5.216170e-01 -5.848522e-01 -2.828193e-01 4.544712e-02 -3.494264e-01 -3.727694e-01 -5.260450e-01 2.329196e-02 1.873820e-01 1.960250e-01
<VARIANCE> 20
 2.982956e+01 1.015101e+01 6.040500e+00 1.953094e+00 3.449669e+00 2.910819e+00 7.683201e-01 9.984388e-01 7.728647e-01 4.501444e-01 6.309144e-01 4.442992e-01 4.688500e-01 6.224754e-01 6.495307e-01 3.373726e-01 2.214972e-01 2.225514e-01 3.044708e-01 1.472877e-01
<GCONST> 3.578835e+01
<STATE> 5
<MEAN> 20
 -1.712411e+01 -2.062135e+00 4.610172e+00 3.979833e+00 -3.274088e+00 -2.923534e-02 -1.175138e+00 -1.911913e-01 -1.635317e+00 -2.411241e-01 -4.302720e-01 -7.303431e-01 -1.567158e-01 4.217167e-01 -2.041594e-01 -9.615386e-01 -1.314083e+00 -3.276152e-01 -2.707129e-01 -5.465317e-01
<VARIANCE> 20
 9.810574e+00 2.152473e+00 3.590843e+00 1.393854e+00 2.375110e+00 1.917234e+00 8.113784e-01 9.706107e-01 5.756931e-01 7.654250e-01 4.724949e-01 4.171322e-01 4.037102e-01 5.022094e-01 4.731017e-01 5.537513e-01 5.221140e-01 4.874391e-01 2.741760e-01 3.473406e-01
<GCONST> 3.359639e+01
<STATE> 6
<MEAN> 20
 -1.953353e+01 4.708651e+00 -1.580759e+00 1.940852e+00 -4.307027e+00 3.093511e+00 -1.570726e+00 -1.469699e+00 -2.517948e-01 1.633263e-01 -9.157552e-01 -1.379806e+00 6.851785e-01 1.623417e-01 -3.834600e-01 -1.664149e+00 -7.464099e-01 -2.342995e-01 -1.957930e-01 -4.138404e-01
<VARIANCE> 20
 7.773673e+00 4.159400e+00 3.675150e+00 2.977502e+00 3.534736e+00 2.721884e+00 2.230049e+00 3.372416e+00 1.858745e+00 8.352723e-01 6.904853e-01 6.266819e-01 7.676595e-01 7.219235e-01 5.823851e-01 7.291128e-01 4.638637e-01 3.250528e-01 3.939336e-01 3.728986e-01
<GCONST> 4.125343e+01
<STATE> 7
<MEAN> 20
 -2.777372e+01 4.108120e-01 1.333292e+00 1.912450e+00 -1.251711e+00 1.404264e+00 -2.633840e-01 1.249522e+00 1.331739e-01 5.459949e-01 -5.321285e-01 -5.781078e-01 -4.604227e-01 -3.590876e-01 -3.575808e-01 -1.061081e+00 -8.903928e-01 -4.848739e-01 -4.072402e-01 -5.570681e-01
<VARIANCE> 20
 2.522778e+01 5.748127e+00 4.752692e+00 9.994484e-01 1.136490e+00 1.229180e+00 9.117412e-01 7.618827e-01 4.685184e-01 4.196987e-01 3.563635e-01 3.392243e-01 7.016549e-01 4.639567e-01 3.319852e-01 2.337414e-01 2.654369e-01 2.203324e-01 1.469167e-01 1.430834e-01
<GCONST> 2.914347e+01
<STATE> 8
<MEAN> 20
 -2.049740e+01 -6.387824e+00 2.563740e+00 1.177842e-01 -1.641941e+00 1.151648e-01 -1.633921e+00 -8.931175e-03 -1.357626e+00 3.994490e-01 -2.531186e-02 -6.182887e-02 -2.179447e-01 -3.250251e-01 -5.337421e-01 -5.593404e-01 -8.356313e-01 -1.295236e-01 -7.750144e-02 -2.205845e-01
<VARIANCE> 20
 8.298308e+00 9.481383e+00 4.376824e+00 1.631460e+00 2.122743e+00 1.341616e+00 7.853610e-01 5.917087e-01 5.584670e-01 6.182746e-01 4.585138e-01 3.447577e-01 3.340820e-01 2.899867e-01 2.808837e-01 3.163784e-01 2.177111e-01 4.217090e-01 3.546391e-01 3.140138e-01
<GCONST> 3.112297e+01
<STATE> 9
<MEAN> 20
 -2.222277e+01 -3.721533e+00 -7.827868e-01 2.589210e+00 -3.795526e+00 1.333851e+00 -1.750536e+00 1.432903e+00 -1.278734e+00 1.293328e+00 -3.958404e-01 -1.422388e-02 -3.712396e-01 -1.103824e-01 -9.182101e-01 -7.393789e-01 -9.802470e-01 -6.807774e-02 -1.583278e-01 -2.256584e-01
<VARIANCE> 20
 4.497876e+00 7.920044e+00 3.821467e+00 1.689076e+00 1.250986e+00 9.121414e-01 1.018989e+00 1.265682e+00 4.725056e-01 5.234745e-01 5.193614e-01 4.403820e-01 6.238475e-01 3.765718e-01 3.128764e-01 3.666914e-01 3.413209e-01 3.117781e-01 2.488014e-01 2.353335e-01
<GCONST> 3.101759e+01
<STATE> 10
<MEAN> 20
 -1.913098e+01 -1.822108e+00 3.797312e+00 3.192732e+00 -1.667481e+00 -7.697920e-01 -7.555308e-01 2.507751e-02 -1.804003e+00 6.626929e-01 3.647973e-01 2.050508e-01 -6.205401e-01 -8.481931e-01 -7.852315e-01 -4.136751e-01 -6.227906e-01 1.644307e-01 -3.358906e-01 -3.981347e-01
<VARIANCE> 20
 8.788694e+00 1.500245e+00 3.713597e+00 8.674520e-01 1.473877e+00 1.484559e+00 8.356278e-01 1.371328e+00 3.796607e-01 6.489261e-01 8.336169e-01 4.388502e-01 5.098475e-01 6.008722e-01 5.091953e-01 5.135788e-01 3.909517e-01 2.069863e-01 2.675351e-01 3.493235e-01
<GCONST> 3.161034e+01
<STATE> 11
<MEAN> 20
 -2.015131e+01 3.589191e+00 -7.154179e-01 1.379572e+00 -2.929874e+00 2.712981e+00 -2.788234e+00 -7.507109e-01 -7.487829e-01 1.649517e+00 -4.016759e-01 -1.014863e+00 9.651473e-03 -3.189003e-02 -1.154204e+00 -1.142812e+00 -8.185070e-02 -2.610935e-01 -2.363672e-01 -6.764293e-01
<VARIANCE> 20
 9.234584e+00 3.642794e+00 3.375094e+00 1.483473e+00 2.274693e+00 1.628942e+00 1.858628e+00 1.569720e+00 7.864167e-01 6.318603e-01 1.156224e+00 5.246199e-01 7.695300e-01 7.212368e-01 7.850107e-01 8.165874e-01 3.548083e-01 3.734125e-01 2.456930e-01 4.156985e-01
<GCONST> 3.772913e+01
<STATE> 12
<MEAN> 20
 -2.997669e+01 2.103410e+00 7.219837e-01 1.055333e+00 -2.006099e+00 2.810419e+00 -4.062122e-01 1.005831e+00 -3.911537e-01 1.599138e+00 8.108272e-02 5.131845e-01 -6.212637e-02 -1.056648e-01 -3.593824e-01 -7.759952e-01 -4.065750e-01 -7.241511e-01 -4.459036e-01 -4.487764e-01
<VARIANCE> 20
 1.156101e+01 3.457095e+00 1.586451e+00 1.733039e+00 1.024355e+00 1.057322e+00 9.112161e-01 9.753199e-01 3.726675e-01 4.506989e-01 5.760528e-01 4.258969e-01 2.907256e-01 3.167062e-01 2.128916e-01 2.011983e-01 1.947379e-01 3.226219e-01 1.847351e-01 2.532572e-01
<GCONST> 2.686454e+01
<STATE> 13
<MEAN> 20
 -2.887813e+01 -1.427103e+00 2.630162e+00 9.788070e-01 -2.631683e-01 1.653664e+00 -5.548003e-02 1.109974e+00 -9.455184e-01 3.581704e-01 -2.005344e-02 1.883201e-01 6.530870e-02 -2.835255e-01 -1.421398e-01 -2.340741e-01 -3.826105e-01 2.799342e-01 -4.339982e-02 -1.482530e-01
<VARIANCE> 20
 1.767502e+01 1.747894e+00 7.378057e+00 1.085609e+00 1.111583e+00 7.230477e-01 1.678565e+00 8.673491e-01 3.343964e-01 3.069757e-01 4.327793e-01 2.217321e-01 5.009288e-01 2.619416e-01 2.970799e-01 1.792730e-01 2.178423e-01 1.933015e-01 1.616361e-01 1.603908e-01
<GCONST> 2.602209e+01
<STATE> 14
<MEAN> 20
 -2.812258e+01 1.896303e+00 -6.444610e-01 3.534702e+00 -2.920893e+00 2.008772e+00 -8.586943e-01 6.755827e-01 -1.102804e+00 1.229041e+00 7.506593e-02 -5.100169e-01 3.371554e-01 -7.642077e-01 -6.192108e-01 -1.675584e+00 -6.982860e-01 9.863736e-02 6.685552e-02 -4.019515e-01
<VARIANCE> 20
 6.426423e+00 2.362867e+00 2.407898e+00 1.369460e+00 1.740206e+00 7.916062e-01 8.703513e-01 1.051777e+00 8.521608e-01 4.088320e-01 5.093501e-01 6.886083e-01 7.824717e-01 7.674505e-01 3.854284e-01 6.465458e-01 5.326567e-01 2.832522e-01 1.988075e-01 3.264545e-01
<GCONST> 3.227513e+01
<STATE> 15
<MEAN> 20
 -2.627968e+01 -1.940447e+00 3.727813e+00 2.364547e+00 -1.606398e+00 5.414705e-01 -2.779057e-01 2.005407e-01 -1.649092e+00 1.254262e+00 -8.955723e-03 3.059900e-01 -4.573557e-01 1.141048e-01 -2.346805e-01 -1.339512e+00 -9.992108e-01 3.208009e-01 8.086060e-02 -4.119352e-02
<VARIANCE> 20
 5.891278e+00 2.449440e+00 2.380401e+00 7.659568e-01 8.232023e-01 7.788088e-01 4.786147e-01 7.427236e-01 5.168605e-01 4.778101e-01 5.509292e-01 3.520550e-01 2.911124e-01 4.181962e-01 4.524898e-01 4.391899e-01 4.930507e-01 2.895243e-01 2.625174e-01 3.057681e-01
<GCONST> 2.731935e+01
<STATE> 16
<MEAN> 20
 -3.229687e+01 -1.867183e+00 2.390101e+00 1.588555e+00 -1.936496e+00 6.511384e-01 -1.381839e+00 7.431012e-01 -1.779676e+00 1.135236e+00 5.195802e-01 -1.272283e-01 -9.716829e-02 2.638481e-01 -2.272495e-01 5.439919e-03 -1.348023e-01 1.932390e-01 2.030455e-01 -1.108073e-01
<VARIANCE> 20
 7.946715e+00 3.624589e+00 3.008965e+00 1.234941e+00 6.299394e-01 8.281133e-01 4.051856e-01 8.005750e-01 3.582163e-01 5.797290e-01 3.672681e-01 3.246122e-01 1.511504e-01 3.239336e-01 3.172107e-01 5.089667e-01 3.311256e-01 3.253180e-01 1.712390e-01 2.039061e-01
<GCONST> 2.553223e+01
<STATE> 17
<MEAN> 20
 -3.889032e+01 -1.832097e+00 -5.393785e-01 7.002651e-02 -1.478482e+00 5.163039e-01 -1.169902e+00 3.331767e-01 -7.980670e-01 3.981299e-01 2.132740e-02 -1.434004e-01 -3.223566e-01 -2.324180e-01 -1.326045e-01 -2.463344e-01 -2.629543e-01 -1.281759e-01 -5.448188e-02 -8.222178e-02
<VARIANCE> 20
 4.926090e+00 2.469594e+00 1.515616e+00 9.502745e-01 6.325622e-01 4.802615e-01 4.033984e-01 2.595607e-01 2.427731e-01 2.729900e-01 2.144345e-01 1.856224e-01 2.115688e-01 1.942821e-01 1.724676e-01 1.899512e-01 1.461583e-01 1.729682e-01 1.517684e-01 1.385536e-01
<GCONST> 1.608543e+01
<TRANSP> 18
 0.000000e+00 1.000000e+00 0.000000e+00 0.000000e+00 0.000000e+00 0.000000e+00 0.000000e+00 0.000000e+00 0.000000e+00 0.000000e+00 0.000000e+00 0.000000e+00 0.000000e+00 0.000000e+00 0.000000e+00 0.000000e+00 0.000000e+00 0.000000e+00
 0.000000e+00 9.107143e-01 8.928571e-02 0.000000e+00 0.000000e+00 0.000000e+00 0.000000e+00 0.000000e+00 0.000000e+00 0.000000e+00 0.000000e+00 0.000000e+00 0.000000e+00 0.000000e+00 0.000000e+00 0.000000e+00 0.000000e+00 0.000000e+00
 0.000000e+00 0.000000e+00 7.938144e-01 2.061855e-01 0.000000e+00 0.000000e+00 0.000000e+00 0.000000e+00 0.000000e+00 0.000000e+00 0.000000e+00 0.000000e+00 0.000000e+00 0.000000e+00 0.000000e+00 0.000000e+00 0.000000e+00 0.000000e+00
 0.000000e+00 0.000000e+00 0.000000e+00 7.222222e-01 2.777778e-01 0.000000e+00 0.000000e+00 0.000000e+00 0.000000e+00 0.000000e+00 0.000000e+00 0.000000e+00 0.000000e+00 0.000000e+00 0.000000e+00 0.000000e+00 0.000000e+00 0.000000e+00
 0.000000e+00 0.000000e+00 0.000000e+00 0.000000e+00 8.692811e-01 1.307190e-01 0.000000e+00 0.000000e+00 0.000000e+00 0.000000e+00 0.000000e+00 0.000000e+00 0.000000e+00 0.000000e+00 0.000000e+00 0.000000e+00 0.000000e+00 0.000000e+00
 0.000000e+00 0.000000e+00 0.000000e+00 0.000000e+00 0.000000e+00 8.994975e-01 1.005025e-01 0.000000e+00 0.000000e+00 0.000000e+00 0.000000e+00 0.000000e+00 0.000000e+00 0.000000e+00 0.000000e+00 0.000000e+00 0.000000e+00 0.000000e+00
 0.000000e+00 0.000000e+00 0.000000e+00 0.000000e+00 0.000000e+00 0.000000e+00 8.181818e-01 1.818182e-01 0.000000e+00 0.000000e+00 0.000000e+00 0.000000e+00 0.000000e+00 0.000000e+00 0.000000e+00 0.000000e+00 0.000000e+00 0.000000e+00
 0.000000e+00 0.000000e+00 0.000000e+00 0.000000e+00 0.000000e+00 0.000000e+00 0.000000e+00 7.959183e-01 2.040816e-01 0.000000e+00 0.000000e+00 0.000000e+00 0.000000e+00 0.000000e+00 0.000000e+00 0.000000e+00 0.000000e+00 0.000000e+00
 0.000000e+00 0.000000e+00 0.000000e+00 0.000000e+00 0.000000e+00 0.000000e+00 0.000000e+00 0.000000e+00 7.701150e-01 2.298851e-01 0.000000e+00 0.000000e+00 0.000000e+00 0.000000e+00 0.000000e+00 0.000000e+00 0.000000e+00 0.000000e+00
 0.000000e+00 0.000000e+00 0.000000e+00 0.000000e+00 0.000000e+00 0.000000e+00 0.000000e+00 0.000000e+00 0.000000e+00 8.518519e-01 1.481482e-01 0.000000e+00 0.000000e+00 0.000000e+00 0.000000e+00 0.000000e+00 0.000000e+00 0.000000e+00
 0.000000e+00 0.000000e+00 0.000000e+00 0.000000e+00 0.000000e+00 0.000000e+00 0.000000e+00 0.000000e+00 0.000000e+00 0.000000e+00 8.412699e-01 1.587302e-01 0.000000e+00 0.000000e+00 0.000000e+00 0.000000e+00 0.000000e+00 0.000000e+00
 0.000000e+00 0.000000e+00 0.000000e+00 0.000000e+00 0.000000e+00 0.000000e+00 0.000000e+00 0.000000e+00 0.000000e+00 0.000000e+00 0.000000e+00 8.571429e-01 1.428571e-01 0.000000e+00 0.000000e+00 0.000000e+00 0.000000e+00 0.000000e+00
 0.000000e+00 0.000000e+00 0.000000e+00 0.000000e+00 0.000000e+00 0.000000e+00 0.000000e+00 0.000000e+00 0.000000e+00 0.000000e+00 0.000000e+00 0.000000e+00 8.692811e-01 1.307190e-01 0.000000e+00 0.000000e+00 0.000000e+00 0.000000e+00
 0.000000e+00 0.000000e+00 0.000000e+00 0.000000e+00 0.000000e+00 0.000000e+00 0.000000e+00 0.000000e+00 0.000000e+00 0.000000e+00 0.000000e+00 0.000000e+00 0.000000e+00 8.461539e-01 1.538462e-01 0.000000e+00 0.000000e+00 0.000000e+00
 0.000000e+00 0.000000e+00 0.000000e+00 0.000000e+00 0.000000e+00 0.000000e+00 0.000000e+00 0.000000e+00 0.000000e+00 0.000000e+00 0.000000e+00 0.000000e+00 0.000000e+00 0.000000e+00 8.387097e-01 1.612903e-01 0.000000e+00 0.000000e+00
 0.000000e+00 0.000000e+00 0.000000e+00 0.000000e+00 0.000000e+00 0.000000e+00 0.000000e+00 0.000000e+00 0.000000e+00 0.000000e+00 0.000000e+00 0.000000e+00 0.000000e+00 0.000000e+00 0.000000e+00 7.916667e-01 2.083333e-01 0.000000e+00
 0.000000e+00 0.000000e+00 0.000000e+00 0.000000e+00 0.000000e+00 0.000000e+00 0.000000e+00 0.000000e+00 0.000000e+00 0.000000e+00 0.000000e+00 0.000000e+00 0.000000e+00 0.000000e+00 0.000000e+00 0.000000e+00 9.014778e-01 9.852217e-02
 0.000000e+00 0.000000e+00 0.000000e+00 0.000000e+00 0.000000e+00 0.000000e+00 0.000000e+00 0.000000e+00 0.000000e+00 0.000000e+00 0.000000e+00 0.000000e+00 0.000000e+00 0.000000e+00 0.000000e+00 0.000000e+00 0.000000e+00 0.000000e+00
<ENDHMM>
