~o
<STREAMINFO> 1 15
<VECSIZE> 15<NULLD><MFCC><DIAGC>
~h "Alex"
<BEGINHMM>
<NUMSTATES> 18
<STATE> 2
<MEAN> 15
 -3.471602e+01 -2.374247e+00 -5.981989e-01 -4.745476e-01 -6.732298e-01 1.368593e-01 -5.266349e-01 8.794461e-02 -5.421975e-01 1.861227e-01 -4.053240e-01 -9.411908e-02 -3.635678e-01 7.024983e-02 -3.423771e-01
<VARIANCE> 15
 1.100256e+00 8.866354e-01 4.544577e-01 3.798731e-01 2.072421e-01 1.786798e-01 1.545828e-01 1.493763e-01 1.166043e-01 1.252061e-01 1.153787e-01 1.111228e-01 1.117342e-01 1.041095e-01 1.107605e-01
<GCONST> 3.484720e+00
<STATE> 3
<MEAN> 15
 -3.011741e+01 -4.396218e+00 1.819155e-01 -1.493186e+00 -7.401896e-01 -2.991219e-01 -4.543343e-01 1.983913e-01 -5.043907e-01 3.058423e-01 -4.406968e-01 1.446577e-01 -3.071182e-01 2.397606e-02 -4.919971e-01
<VARIANCE> 15
 1.254206e+01 2.012041e+00 1.574985e+00 8.135006e-01 1.065475e+00 4.050747e-01 4.177339e-01 3.316286e-01 2.864778e-01 2.596343e-01 2.798725e-01 2.255985e-01 1.811089e-01 2.257659e-01 2.368599e-01
<GCONST> 1.822912e+01
<STATE> 4
<MEAN> 15
 -1.717413e+01 -3.689212e+00 4.088809e+00 -8.140261e-01 -3.631999e+00 -9.897477e-01 -8.520241e-01 -8.182080e-01 -8.114597e-01 2.354465e-01 -8.193240e-01 -1.855843e-01 -1.776570e-01 -2.182304e-01 -6.291440e-01
<VARIANCE> 15
 2.385531e+01 4.760969e+00 3.577232e+00 1.063818e+00 1.623664e+00 1.231243e+00 6.771890e-01 1.080840e+00 3.855208e-01 4.913907e-01 4.637505e-01 3.181344e-01 4.096914e-01 3.567010e-01 2.586306e-01
<GCONST> 2.716478e+01
<STATE> 5
<MEAN> 15
 -1.189058e+01 -1.556330e+00 3.569297e+00 1.277823e+00 -1.890222e+00 -2.407473e+00 -8.377371e-01 -2.527033e-01 -1.325446e+00 -6.467909e-01 -3.461915e-01 5.053100e-02 -4.950093e-01 -2.700774e-01 -2.976910e-01
<VARIANCE> 15
 8.374380e+00 2.088207e+00 2.624853e+00 1.503350e+00 1.626712e+00 1.655614e+00 5.975555e-01 4.556345e-01 4.347308e-01 2.397287e-01 3.617940e-01 3.640543e-01 2.086456e-01 3.790298e-01 1.712406e-01
<GCONST> 2.290177e+01
<STATE> 6
<MEAN> 15
 -1.652226e+01 -1.631056e+00 5.525974e+00 2.152090e+00 -1.988283e+00 4.756209e-01 -1.173727e+00 -9.961594e-01 -1.169150e+00 -3.568914e-01 -1.047728e+00 -2.471453e-01 2.582839e-01 1.301437e-01 -2.616226e-01
<VARIANCE> 15
 7.361068e+00 2.256770e+00 2.784185e+00 2.596268e+00 8.021472e-01 1.197916e+00 5.900421e-01 6.059933e-01 4.262688e-01 1.789782e-01 2.212468e-01 3.097481e-01 3.781424e-01 2.657000e-01 1.499086e-01
<GCONST> 2.183875e+01
<STATE> 7
<MEAN> 15
 -1.370410e+01 2.226475e+00 1.074715e+00 -9.619668e-01 -3.041817e+00 2.103219e+00 -2.775561e+00 -1.159909e+00 -7.120537e-01 -2.801500e-01 -1.471856e+00 9.132025e-01 1.104519e-01 -8.096831e-02 -9.399062e-01
<VARIANCE> 15
 3.233196e+00 3.406813e+00 3.056117e+00 2.255159e+00 1.070030e+00 2.500988e+00 1.402402e+00 6.895062e-01 4.326624e-01 3.434318e-01 6.174303e-01 5.407479e-01 5.727012e-01 3.450601e-01 5.850275e-01
<GCONST> 2.768747e+01
<STATE> 8
<MEAN> 15
 -1.855775e+01 1.710776e+00 1.288427e+00 1.593810e+00 -2.172075e+00 3.185490e+00 -2.667094e+00 -8.675648e-01 -5.486536e-01 -4.695002e-01 -1.360992e+00 3.724710e-01 7.873539e-01 -2.557980e-01 -1.489312e+00
<VARIANCE> 15
 3.950769e+00 3.188016e+00 4.293691e+00 1.351973e+00 9.786643e-01 2.050170e+00 1.644406e+00 7.492597e-01 6.695225e-01 7.891915e-01 7.730576e-01 7.010594e-01 5.304029e-01 4.488190e-01 3.962686e-01
<GCONST> 2.915382e+01
<STATE> 9
<MEAN> 15
 -1.897849e+01 1.420942e+00 1.200195e+00 -1.044721e-01 -1.186678e+00 8.830484e-01 -9.014791e-01 7.418681e-01 -5.332078e-01 5.024427e-01 -1.443152e+00 3.227144e-01 -5.831275e-01 -3.289551e-01 -1.814935e+00
<VARIANCE> 15
 8.655880e+00 2.515235e+00 3.623942e+00 1.966246e+00 1.510739e+00 9.962240e-01 1.805109e+00 1.190713e+00 7.244406e-01 3.832992e-01 4.084625e-01 7.295784e-01 6.060911e-01 5.375649e-01 3.801565e-01
<GCONST> 2.920589e+01
<STATE> 10
<MEAN> 15
 -2.041550e+01 -2.444479e+00 4.513589e+00 2.991516e-01 -1.424530e+00 3.222768e-01 6.086672e-01 6.388733e-02 -1.321992e-01 5.338567e-02 -7.072944e-01 -4.440421e-01 -6.062784e-01 -2.982024e-01 -1.155867e+00
<VARIANCE> 15
 1.987737e+01 3.669372e+00 3.039803e+00 6.843174e-01 1.038756e+00 7.106233e-01 5.993247e-01 5.544053e-01 4.258356e-01 1.703207e-01 1.936547e-01 2.559654e-01 1.821242e-01 2.427256e-01 3.809554e-01
<GCONST> 2.147269e+01
<STATE> 11
<MEAN> 15
 -3.155468e+01 -9.496741e-01 1.091019e+00 -9.457135e-02 -3.605924e-01 2.342631e-01 -2.928202e-01 2.160064e-01 -3.640612e-01 7.637635e-02 -7.542585e-01 -4.533174e-01 -7.306067e-01 -4.205107e-01 -8.927065e-01
<VARIANCE> 15
 4.110966e+00 3.536660e+00 1.286932e+00 5.518109e-01 4.860667e-01 2.569054e-01 3.401607e-01 2.662527e-01 1.914731e-01 1.922197e-01 1.998381e-01 1.979358e-01 1.637534e-01 1.390020e-01 1.823637e-01
<GCONST> 1.340401e+01
<STATE> 12
<MEAN> 15
 -3.369779e+01 -2.373178e+00 1.754072e-01 -4.512233e-01 -1.593054e-01 -3.959420e-02 -3.100914e-01 -1.393354e-02 -5.572486e-01 1.292228e-01 -4.202361e-01 -2.129393e-01 -4.040307e-01 -1.678426e-01 -3.753735e-01
<VARIANCE> 15
 1.664613e+00 1.227290e+00 4.227346e-01 4.341598e-01 2.533706e-01 2.377609e-01 2.045026e-01 1.552525e-01 1.915016e-01 1.350167e-01 1.688292e-01 1.352798e-01 1.556746e-01 1.180827e-01 1.165941e-01
<GCONST> 6.748027e+00
<STATE> 13
<MEAN> 15
 -2.365834e+01 -2.450150e+00 2.326346e+00 1.759711e-01 -1.746768e+00 -9.611703e-01 -1.787671e+00 -5.902525e-01 -1.753896e+00 -1.079840e-01 -4.102550e-01 2.030061e-01 -9.136895e-02 -4.703578e-04 -1.616242e-01
<VARIANCE> 15
 1.172050e+01 1.258986e+00 2.278227e+00 6.840852e-01 7.844524e-01 7.120528e-01 6.052985e-01 7.454361e-01 4.659270e-01 5.535477e-01 3.989112e-01 3.287248e-01 1.215795e-01 2.548581e-01 3.253896e-01
<GCONST> 2.134168e+01
<STATE> 14
<MEAN> 15
 -1.945987e+01 -7.590507e+00 1.347571e+00 -1.084990e+00 -1.282537e+00 -1.033864e+00 -1.016976e+00 -1.073755e+00 -6.246795e-01 -1.411308e-01 -2.105810e-01 -6.562669e-02 -1.210663e-01 -1.053268e-01 -3.559662e-01
<VARIANCE> 15
 2.672246e+00 2.521497e+00 3.179179e+00 6.844513e-01 8.020955e-01 1.009592e+00 4.935667e-01 5.206299e-01 3.628373e-01 1.873456e-01 2.276241e-01 2.403732e-01 2.095886e-01 2.450673e-01 2.714849e-01
<GCONST> 1.881672e+01
<STATE> 15
<MEAN> 15
 -2.192239e+01 -8.030139e+00 -7.155326e-01 6.249723e-02 -1.894491e+00 -5.875740e-01 -7.869583e-01 1.487086e-01 -9.156454e-01 5.170137e-01 -5.600632e-01 8.236669e-02 -2.983197e-01 1.068113e-01 -4.671502e-01
<VARIANCE> 15
 4.651196e+00 1.805440e+00 1.007100e+00 7.709082e-01 1.462910e+00 4.012513e-01 3.939143e-01 3.418212e-01 4.638996e-01 2.588819e-01 2.460157e-01 3.298483e-01 2.320855e-01 1.813571e-01 1.707133e-01
<GCONST> 1.733849e+01
<STATE> 16
<MEAN> 15
 -2.753170e+01 -4.570274e+00 5.363180e-01 -1.215414e+00 -4.965051e-01 -2.630991e-01 -8.302369e-01 -2.021126e-01 -9.365531e-01 5.907761e-02 -3.794780e-01 -2.300249e-01 -3.492040e-01 1.524849e-02 -2.541944e-01
<VARIANCE> 15
 7.393732e+00 1.391330e+00 2.000267e+00 1.278138e+00 6.440165e-01 4.861961e-01 3.040067e-01 3.047060e-01 3.150438e-01 2.427574e-01 2.321834e-01 2.149916e-01 1.584640e-01 2.412092e-01 1.258584e-01
<GCONST> 1.639240e+01
<STATE> 17
<MEAN> 15
 -3.389172e+01 -2.106156e+00 -2.045158e-01 -8.303226e-01 -4.856047e-01 4.120817e-02 -4.642174e-01 -1.067483e-01 -4.951729e-01 1.538581e-01 -4.591252e-01 -2.401422e-01 -2.627495e-01 2.902860e-02 -2.693489e-01
<VARIANCE> 15
 9.240747e+00 1.814180e+00 7.648721e-01 3.150281e-01 3.194841e-01 2.334405e-01 1.565868e-01 1.637227e-01 1.892115e-01 1.506955e-01 1.365051e-01 1.494568e-01 1.404397e-01 1.466391e-01 1.403041e-01
<GCONST> 9.408443e+00
<TRANSP> 18
 0.000000e+00 1.000000e+00 0.000000e+00 0.000000e+00 0.000000e+00 0.000000e+00 0.000000e+00 0.000000e+00 0.000000e+00 0.000000e+00 0.000000e+00 0.000000e+00 0.000000e+00 0.000000e+00 0.000000e+00 0.000000e+00 0.000000e+00 0.000000e+00
 0.000000e+00 9.107143e-01 8.928571e-02 0.000000e+00 0.000000e+00 0.000000e+00 0.000000e+00 0.000000e+00 0.000000e+00 0.000000e+00 0.000000e+00 0.000000e+00 0.000000e+00 0.000000e+00 0.000000e+00 0.000000e+00 0.000000e+00 0.000000e+00
 0.000000e+00 0.000000e+00 8.726115e-01 1.273885e-01 0.000000e+00 0.000000e+00 0.000000e+00 0.000000e+00 0.000000e+00 0.000000e+00 0.000000e+00 0.000000e+00 0.000000e+00 0.000000e+00 0.000000e+00 0.000000e+00 0.000000e+00 0.000000e+00
 0.000000e+00 0.000000e+00 0.000000e+00 7.368421e-01 2.631579e-01 0.000000e+00 0.000000e+00 0.000000e+00 0.000000e+00 0.000000e+00 0.000000e+00 0.000000e+00 0.000000e+00 0.000000e+00 0.000000e+00 0.000000e+00 0.000000e+00 0.000000e+00
 0.000000e+00 0.000000e+00 0.000000e+00 0.000000e+00 8.039216e-01 1.960784e-01 0.000000e+00 0.000000e+00 0.000000e+00 0.000000e+00 0.000000e+00 0.000000e+00 0.000000e+00 0.000000e+00 0.000000e+00 0.000000e+00 0.000000e+00 0.000000e+00
 0.000000e+00 0.000000e+00 0.000000e+00 0.000000e+00 0.000000e+00 8.214286e-01 1.785714e-01 0.000000e+00 0.000000e+00 0.000000e+00 0.000000e+00 0.000000e+00 0.000000e+00 0.000000e+00 0.000000e+00 0.000000e+00 0.000000e+00 0.000000e+00
 0.000000e+00 0.000000e+00 0.000000e+00 0.000000e+00 0.000000e+00 0.000000e+00 8.507463e-01 1.492537e-01 0.000000e+00 0.000000e+00 0.000000e+00 0.000000e+00 0.000000e+00 0.000000e+00 0.000000e+00 0.000000e+00 0.000000e+00 0.000000e+00
 0.000000e+00 0.000000e+00 0.000000e+00 0.000000e+00 0.000000e+00 0.000000e+00 0.000000e+00 7.959183e-01 2.040816e-01 0.000000e+00 0.000000e+00 0.000000e+00 0.000000e+00 0.000000e+00 0.000000e+00 0.000000e+00 0.000000e+00 0.000000e+00
 0.000000e+00 0.000000e+00 0.000000e+00 0.000000e+00 0.000000e+00 0.000000e+00 0.000000e+00 0.000000e+00 8.095238e-01 1.904762e-01 0.000000e+00 0.000000e+00 0.000000e+00 0.000000e+00 0.000000e+00 0.000000e+00 0.000000e+00 0.000000e+00
 0.000000e+00 0.000000e+00 0.000000e+00 0.000000e+00 0.000000e+00 0.000000e+00 0.000000e+00 0.000000e+00 0.000000e+00 8.000000e-01 2.000000e-01 0.000000e+00 0.000000e+00 0.000000e+00 0.000000e+00 0.000000e+00 0.000000e+00 0.000000e+00
 0.000000e+00 0.000000e+00 0.000000e+00 0.000000e+00 0.000000e+00 0.000000e+00 0.000000e+00 0.000000e+00 0.000000e+00 0.000000e+00 8.773006e-01 1.226994e-01 0.000000e+00 0.000000e+00 0.000000e+00 0.000000e+00 0.000000e+00 0.000000e+00
 0.000000e+00 0.000000e+00 0.000000e+00 0.000000e+00 0.000000e+00 0.000000e+00 0.000000e+00 0.000000e+00 0.000000e+00 0.000000e+00 0.000000e+00 8.726115e-01 1.273885e-01 0.000000e+00 0.000000e+00 0.000000e+00 0.000000e+00 0.000000e+00
 0.000000e+00 0.000000e+00 0.000000e+00 0.000000e+00 0.000000e+00 0.000000e+00 0.000000e+00 0.000000e+00 0.000000e+00 0.000000e+00 0.000000e+00 0.000000e+00 5.652174e-01 4.347826e-01 0.000000e+00 0.000000e+00 0.000000e+00 0.000000e+00
 0.000000e+00 0.000000e+00 0.000000e+00 0.000000e+00 0.000000e+00 0.000000e+00 0.000000e+00 0.000000e+00 0.000000e+00 0.000000e+00 0.000000e+00 0.000000e+00 0.000000e+00 8.684211e-01 1.315790e-01 0.000000e+00 0.000000e+00 0.000000e+00
 0.000000e+00 0.000000e+00 0.000000e+00 0.000000e+00 0.000000e+00 0.000000e+00 0.000000e+00 0.000000e+00 0.000000e+00 0.000000e+00 0.000000e+00 0.000000e+00 0.000000e+00 0.000000e+00 8.765432e-01 1.234568e-01 0.000000e+00 0.000000e+00
 0.000000e+00 0.000000e+00 0.000000e+00 0.000000e+00 0.000000e+00 0.000000e+00 0.000000e+00 0.000000e+00 0.000000e+00 0.000000e+00 0.000000e+00 0.000000e+00 0.000000e+00 0.000000e+00 0.000000e+00 7.368421e-01 2.631579e-01 0.000000e+00
 0.000000e+00 0.000000e+00 0.000000e+00 0.000000e+00 0.000000e+00 0.000000e+00 0.000000e+00 0.000000e+00 0.000000e+00 0.000000e+00 0.000000e+00 0.000000e+00 0.000000e+00 0.000000e+00 0.000000e+00 0.000000e+00 8.601398e-01 1.398601e-01
 0.000000e+00 0.000000e+00 0.000000e+00 0.000000e+00 0.000000e+00 0.000000e+00 0.000000e+00 0.000000e+00 0.000000e+00 0.000000e+00 0.000000e+00 0.000000e+00 0.000000e+00 0.000000e+00 0.000000e+00 0.000000e+00 0.000000e+00 0.000000e+00
<ENDHMM>
