~o
<STREAMINFO> 1 15
<VECSIZE> 15<NULLD><MFCC><DIAGC>
~h "Alexander"
<BEGINHMM>
<NUMSTATES> 10
<STATE> 2
<MEAN> 15
 -3.210975e+01 -3.402928e+00 -1.404789e-01 -1.125559e+00 -9.062474e-01 -4.473516e-02 -7.178445e-01 1.345653e-01 -5.319375e-01 2.486159e-01 -4.580699e-01 -8.784543e-02 -2.666660e-01 3.333671e-02 -4.174591e-01
<VARIANCE> 15
 1.065078e+01 2.185695e+00 9.085209e-01 8.248429e-01 9.159344e-01 5.209141e-01 4.266816e-01 3.552140e-01 2.901969e-01 2.302728e-01 2.522574e-01 1.644891e-01 1.874453e-01 1.524167e-01 1.623123e-01
<GCONST> 1.653895e+01
<STATE> 3
<MEAN> 15
 -1.563210e+01 -2.767067e+00 5.145982e+00 7.468156e-01 -2.443190e+00 -6.686217e-01 -8.516476e-01 -6.493658e-01 -1.162976e+00 1.367420e-01 -8.415669e-01 -8.219963e-02 2.034506e-01 -2.343342e-02 -7.058718e-01
<VARIANCE> 15
 1.453612e+01 3.573920e+00 2.765974e+00 3.175004e+00 1.131497e+00 2.185544e+00 6.758577e-01 5.518971e-01 3.799077e-01 5.550854e-01 2.363209e-01 2.996517e-01 5.034005e-01 3.751105e-01 3.667688e-01
<GCONST> 2.673631e+01
<STATE> 4
<MEAN> 15
 -1.682970e+01 2.184328e+00 1.449260e-01 1.585294e-02 -2.015398e+00 2.298900e+00 -2.244879e+00 -9.119346e-04 -2.345436e-01 2.402703e-01 -1.617884e+00 4.835995e-01 2.498912e-01 -2.204081e-01 -1.472964e+00
<VARIANCE> 15
 1.550245e+01 3.969670e+00 2.831959e+00 2.238333e+00 3.194456e+00 1.866413e+00 2.659467e+00 1.686029e+00 8.187580e-01 6.792452e-01 5.576245e-01 5.409836e-01 5.175291e-01 4.242646e-01 4.917470e-01
<GCONST> 3.280943e+01
<STATE> 5
<MEAN> 15
 -1.848564e+01 -3.100775e+00 3.128649e+00 5.063139e-01 -1.062150e+00 -2.871047e-01 -1.099618e-01 -1.734314e-01 -4.368957e-01 6.146245e-01 -2.783007e-01 -1.374384e-01 -6.469978e-01 -4.126729e-01 -7.056667e-01
<VARIANCE> 15
 1.490641e+01 6.542554e+00 3.402576e+00 2.025494e+00 9.713264e-01 1.239402e+00 8.024465e-01 1.041973e+00 5.300200e-01 4.843911e-01 3.448675e-01 3.370322e-01 3.268582e-01 3.056113e-01 3.081450e-01
<GCONST> 2.709246e+01
<STATE> 6
<MEAN> 15
 -1.941488e+01 1.801520e+00 9.511639e-01 -4.910507e-01 -6.548663e-01 1.382712e+00 -1.585335e+00 -1.341061e-01 4.009136e-01 1.084298e+00 -8.622769e-01 2.389083e-01 -1.465773e-01 -5.403795e-01 -1.060194e+00
<VARIANCE> 15
 1.829833e+01 1.552623e+00 1.714697e+00 1.514866e+00 1.449436e+00 9.236045e-01 2.014644e+00 5.880996e-01 5.756795e-01 4.603868e-01 8.243008e-01 6.034032e-01 3.589261e-01 4.871512e-01 4.670019e-01
<GCONST> 2.779924e+01
<STATE> 7
<MEAN> 15
 -2.530152e+01 -8.494318e-01 2.725283e+00 8.197290e-02 5.702068e-01 1.056630e+00 4.977198e-01 3.775637e-01 -1.969950e-01 6.384502e-01 -8.035816e-02 4.975966e-01 -3.463129e-01 -3.045447e-02 -4.681077e-01
<VARIANCE> 15
 1.167327e+01 9.731610e-01 3.595034e+00 5.843012e-01 8.885124e-01 5.263470e-01 9.740563e-01 4.920800e-01 4.663952e-01 3.504845e-01 2.298553e-01 3.036287e-01 1.887468e-01 2.206232e-01 2.064670e-01
<GCONST> 2.001539e+01
<STATE> 8
<MEAN> 15
 -2.379664e+01 -1.318639e+00 3.118890e+00 8.661202e-01 -9.804147e-01 3.911530e-01 5.508687e-02 -4.525056e-01 -3.468454e-01 1.151796e+00 -4.203898e-01 2.112594e-01 -3.059043e-01 -1.070108e-01 -1.178533e+00
<VARIANCE> 15
 5.607693e+00 2.157082e+00 3.155513e+00 9.686735e-01 6.518098e-01 8.617869e-01 4.700701e-01 7.126709e-01 5.217170e-01 4.966739e-01 4.090164e-01 3.094442e-01 5.552133e-01 3.648401e-01 6.880620e-01
<GCONST> 2.412001e+01
<STATE> 9
<MEAN> 15
 -3.274561e+01 -2.010578e+00 4.995400e-01 -6.601115e-01 -5.464715e-01 -1.761420e-01 -5.716487e-01 -5.919868e-02 -4.090899e-01 5.917549e-01 -3.072609e-01 -9.127025e-02 -3.419512e-01 -4.076494e-02 -2.923675e-01
<VARIANCE> 15
 5.382157e+00 1.231290e+00 1.488892e+00 6.682290e-01 2.803191e-01 3.033046e-01 2.904356e-01 1.994837e-01 1.489927e-01 2.820206e-01 1.411517e-01 1.467124e-01 1.677395e-01 1.409308e-01 1.455954e-01
<GCONST> 1.142239e+01
<TRANSP> 10
 0.000000e+00 1.000000e+00 0.000000e+00 0.000000e+00 0.000000e+00 0.000000e+00 0.000000e+00 0.000000e+00 0.000000e+00 0.000000e+00
 0.000000e+00 9.358974e-01 6.410257e-02 0.000000e+00 0.000000e+00 0.000000e+00 0.000000e+00 0.000000e+00 0.000000e+00 0.000000e+00
 0.000000e+00 0.000000e+00 9.078341e-01 9.216590e-02 0.000000e+00 0.000000e+00 0.000000e+00 0.000000e+00 0.000000e+00 0.000000e+00
 0.000000e+00 0.000000e+00 0.000000e+00 9.239544e-01 7.604563e-02 0.000000e+00 0.000000e+00 0.000000e+00 0.000000e+00 0.000000e+00
 0.000000e+00 0.000000e+00 0.000000e+00 0.000000e+00 9.488491e-01 5.115090e-02 0.000000e+00 0.000000e+00 0.000000e+00 0.000000e+00
 0.000000e+00 0.000000e+00 0.000000e+00 0.000000e+00 0.000000e+00 9.095023e-01 9.049775e-02 0.000000e+00 0.000000e+00 0.000000e+00
 0.000000e+00 0.000000e+00 0.000000e+00 0.000000e+00 0.000000e+00 0.000000e+00 9.130435e-01 8.695652e-02 0.000000e+00 0.000000e+00
 0.000000e+00 0.000000e+00 0.000000e+00 0.000000e+00 0.000000e+00 0.000000e+00 0.000000e+00 9.259259e-01 7.407407e-02 0.000000e+00
 0.000000e+00 0.000000e+00 0.000000e+00 0.000000e+00 0.000000e+00 0.000000e+00 0.000000e+00 0.000000e+00 9.176955e-01 8.230452e-02
 0.000000e+00 0.000000e+00 0.000000e+00 0.000000e+00 0.000000e+00 0.000000e+00 0.000000e+00 0.000000e+00 0.000000e+00 0.000000e+00
<ENDHMM>
