~o
<STREAMINFO> 1 15
<VECSIZE> 15<NULLD><MFCC><DIAGC>
~h "Aurelie"
<BEGINHMM>
<NUMSTATES> 10
<STATE> 2
<MEAN> 15
 -3.444116e+01 -2.447859e+00 -5.426975e-01 -6.040803e-01 -6.119512e-01 8.139052e-02 -5.166582e-01 7.140514e-02 -6.144498e-01 2.149900e-01 -4.142091e-01 -1.248471e-01 -2.947690e-01 8.046498e-02 -2.746202e-01
<VARIANCE> 15
 1.695287e+00 1.163820e+00 5.994365e-01 4.067280e-01 3.941106e-01 2.305537e-01 1.922469e-01 1.829087e-01 1.376408e-01 1.574503e-01 1.585505e-01 1.374733e-01 1.374824e-01 1.345766e-01 1.210204e-01
<GCONST> 7.330762e+00
<STATE> 3
<MEAN> 15
 -2.853580e+01 -3.905771e+00 3.283551e+00 -1.293357e+00 -2.979491e-03 -3.505929e-01 -7.130834e-01 -5.398753e-01 -1.076327e+00 6.310436e-02 -1.193021e+00 -2.632270e-01 -6.747805e-01 5.249758e-02 -4.783900e-02
<VARIANCE> 15
 1.246508e+01 5.565310e+00 5.745583e+00 1.199426e+00 8.797571e-01 5.940912e-01 6.149985e-01 6.257784e-01 5.465660e-01 4.983325e-01 7.305833e-01 2.963265e-01 4.294961e-01 3.139796e-01 2.518729e-01
<GCONST> 2.592099e+01
<STATE> 4
<MEAN> 15
 -1.838177e+01 -1.064978e+00 6.405632e+00 2.773900e+00 -1.096902e+00 -1.121635e-01 -6.202282e-01 -1.523592e+00 -7.323672e-01 4.144440e-01 -6.424854e-01 -2.815249e-01 -1.174950e+00 -1.844440e-01 -4.303945e-01
<VARIANCE> 15
 5.913190e+00 1.185274e+00 1.578191e+00 1.120779e+00 1.669390e+00 8.550925e-01 1.083840e+00 5.845737e-01 7.482700e-01 8.864798e-01 5.370994e-01 4.061322e-01 6.902211e-01 2.631214e-01 2.876055e-01
<GCONST> 2.509998e+01
<STATE> 5
<MEAN> 15
 -1.769248e+01 3.102867e+00 1.852170e+00 1.195673e+00 -1.972939e+00 9.850852e-01 -2.321782e+00 -1.004548e+00 1.485333e-01 1.151067e+00 -1.245348e+00 -7.952534e-01 -1.236077e-01 5.090420e-01 -1.277645e+00
<VARIANCE> 15
 8.959859e+00 2.034323e+00 3.835457e+00 2.261756e+00 1.687010e+00 2.061124e+00 1.236970e+00 7.787395e-01 8.598942e-01 1.292413e+00 6.117666e-01 8.343145e-01 9.165746e-01 3.057351e-01 4.655606e-01
<GCONST> 3.123665e+01
<STATE> 6
<MEAN> 15
 -1.551513e+01 -7.577299e-01 4.042209e+00 2.406993e+00 -1.612021e+00 -9.060982e-01 -5.259052e-01 -4.947096e-01 -1.036124e+00 8.925546e-02 -2.638457e-01 -2.233250e-01 -4.954929e-01 -4.384377e-02 -8.681184e-01
<VARIANCE> 15
 1.077339e+01 2.317837e+00 2.935217e+00 1.868087e+00 1.356120e+00 3.648950e+00 6.501572e-01 4.281166e-01 6.740228e-01 6.037362e-01 2.724807e-01 2.853881e-01 1.341815e+00 3.952817e-01 2.509196e-01
<GCONST> 2.733778e+01
<STATE> 7
<MEAN> 15
 -2.069845e+01 -1.100356e+00 1.946575e+00 4.031664e-01 6.489605e-02 2.018345e+00 7.725133e-01 7.758936e-01 3.687575e-02 -1.252231e-01 -6.478403e-01 2.289605e-01 7.311022e-02 -2.709292e-01 -1.102750e+00
<VARIANCE> 15
 4.082547e+00 2.594125e+00 2.347004e+00 1.808180e+00 2.128052e+00 7.203351e-01 1.412105e+00 1.399126e+00 5.597961e-01 5.496188e-01 5.821773e-01 5.107399e-01 4.069247e-01 3.494439e-01 3.941989e-01
<GCONST> 2.720865e+01
<STATE> 8
<MEAN> 15
 -2.657688e+01 -1.531800e+00 2.253635e+00 2.604619e-01 7.663106e-01 1.441825e+00 9.235930e-01 4.938834e-01 -4.431540e-01 5.536705e-01 2.229853e-01 4.347804e-01 1.167758e-01 2.925850e-03 -2.602704e-01
<VARIANCE> 15
 9.463129e+00 1.102579e+00 1.090445e+00 5.428395e-01 3.350788e-01 6.072236e-01 5.199295e-01 3.795839e-01 4.075888e-01 3.762339e-01 2.620748e-01 3.069309e-01 1.781972e-01 2.188859e-01 2.886716e-01
<GCONST> 1.729203e+01
<STATE> 9
<MEAN> 15
 -3.234609e+01 -2.336817e+00 4.542255e-01 -6.269308e-01 -4.588287e-01 -2.101772e-02 -6.033919e-01 3.167481e-02 -4.866154e-01 3.765189e-01 -2.947441e-01 -1.235155e-01 -3.326018e-01 -1.988018e-02 -2.948786e-01
<VARIANCE> 15
 4.444657e+00 1.211439e+00 9.345502e-01 4.133577e-01 2.719351e-01 3.322010e-01 2.573475e-01 2.481802e-01 1.874758e-01 2.001918e-01 1.518914e-01 1.628462e-01 1.444502e-01 1.104329e-01 1.472950e-01
<GCONST> 1.010979e+01
<TRANSP> 10
 0.000000e+00 1.000000e+00 0.000000e+00 0.000000e+00 0.000000e+00 0.000000e+00 0.000000e+00 0.000000e+00 0.000000e+00 0.000000e+00
 0.000000e+00 9.272727e-01 7.272726e-02 0.000000e+00 0.000000e+00 0.000000e+00 0.000000e+00 0.000000e+00 0.000000e+00 0.000000e+00
 0.000000e+00 0.000000e+00 8.620690e-01 1.379310e-01 0.000000e+00 0.000000e+00 0.000000e+00 0.000000e+00 0.000000e+00 0.000000e+00
 0.000000e+00 0.000000e+00 0.000000e+00 8.888889e-01 1.111111e-01 0.000000e+00 0.000000e+00 0.000000e+00 0.000000e+00 0.000000e+00
 0.000000e+00 0.000000e+00 0.000000e+00 0.000000e+00 9.380805e-01 6.191950e-02 0.000000e+00 0.000000e+00 0.000000e+00 0.000000e+00
 0.000000e+00 0.000000e+00 0.000000e+00 0.000000e+00 0.000000e+00 9.115044e-01 8.849557e-02 0.000000e+00 0.000000e+00 0.000000e+00
 0.000000e+00 0.000000e+00 0.000000e+00 0.000000e+00 0.000000e+00 0.000000e+00 9.038461e-01 9.615386e-02 0.000000e+00 0.000000e+00
 0.000000e+00 0.000000e+00 0.000000e+00 0.000000e+00 0.000000e+00 0.000000e+00 0.000000e+00 9.004975e-01 9.950249e-02 0.000000e+00
 0.000000e+00 0.000000e+00 0.000000e+00 0.000000e+00 0.000000e+00 0.000000e+00 0.000000e+00 0.000000e+00 9.300699e-01 6.993008e-02
 0.000000e+00 0.000000e+00 0.000000e+00 0.000000e+00 0.000000e+00 0.000000e+00 0.000000e+00 0.000000e+00 0.000000e+00 0.000000e+00
<ENDHMM>
