~o
<STREAMINFO> 1 15
<VECSIZE> 15<NULLD><MFCC><DIAGC>
~h "Aurelie"
<BEGINHMM>
<NUMSTATES> 18
<STATE> 2
<MEAN> 15
 -3.487350e+01 -2.164604e+00 -6.834477e-01 -4.926023e-01 -6.024746e-01 9.947696e-02 -4.894691e-01 5.388514e-02 -5.671230e-01 2.123483e-01 -4.356911e-01 -1.050206e-01 -2.999596e-01 4.324236e-02 -2.914362e-01
<VARIANCE> 15
 9.199820e-01 6.331195e-01 4.113969e-01 3.124547e-01 2.428237e-01 2.089824e-01 1.758016e-01 1.531533e-01 1.125763e-01 1.274351e-01 1.451683e-01 1.442176e-01 1.418825e-01 1.158774e-01 1.054748e-01
<GCONST> 3.912697e+00
<STATE> 3
<MEAN> 15
 -3.266655e+01 -3.475236e+00 3.254452e-01 -1.016257e+00 -5.183154e-01 3.020077e-03 -6.847786e-01 6.602209e-02 -8.507983e-01 1.287518e-01 -4.878682e-01 -2.559982e-01 -2.518429e-01 1.162747e-01 -1.523016e-01
<VARIANCE> 15
 2.991560e+00 1.910417e+00 1.338676e+00 5.089833e-01 7.358342e-01 3.251194e-01 3.021636e-01 3.063278e-01 2.565344e-01 3.057792e-01 2.843865e-01 1.415712e-01 1.402320e-01 1.926272e-01 1.750548e-01
<GCONST> 1.400554e+01
<STATE> 4
<MEAN> 15
 -2.889463e+01 -4.450020e+00 2.958552e+00 -1.692918e+00 1.391346e-01 -4.299912e-01 -6.344546e-01 -4.300225e-01 -1.121539e+00 1.075310e-01 -1.096665e+00 -2.588113e-01 -5.594607e-01 7.975981e-02 -1.538095e-01
<VARIANCE> 15
 9.919204e+00 5.225449e+00 4.676659e+00 1.108724e+00 8.780752e-01 4.252276e-01 6.889677e-01 3.676760e-01 5.142273e-01 4.022838e-01 7.439411e-01 3.271177e-01 2.150174e-01 2.729042e-01 2.681182e-01
<GCONST> 2.366278e+01
<STATE> 5
<MEAN> 15
 -2.441383e+01 -1.889204e+00 5.580623e+00 -1.025297e-01 -1.563590e-01 -3.929366e-01 -8.108729e-01 -1.066861e+00 -9.922246e-01 2.254723e-01 -1.558955e+00 -2.913652e-01 -1.375960e+00 1.865323e-01 8.478156e-02
<VARIANCE> 15
 5.361725e+00 1.000401e+01 4.287398e+00 1.489635e+00 1.849093e+00 9.052712e-01 1.205225e+00 8.345110e-01 7.072855e-01 7.233739e-01 6.553694e-01 3.875498e-01 4.535755e-01 4.252017e-01 2.726229e-01
<GCONST> 2.893950e+01
<STATE> 6
<MEAN> 15
 -1.834969e+01 -9.800310e-01 6.352739e+00 2.894857e+00 -1.074161e+00 -5.341132e-03 -6.147875e-01 -1.588934e+00 -6.542621e-01 2.921912e-01 -6.735992e-01 -2.419337e-01 -1.142139e+00 -2.144413e-01 -4.123175e-01
<VARIANCE> 15
 4.012022e+00 1.595786e+00 1.616095e+00 9.872072e-01 1.499751e+00 8.096254e-01 1.084289e+00 5.584932e-01 7.149474e-01 7.322533e-01 4.460040e-01 3.635931e-01 7.335413e-01 2.636401e-01 2.484293e-01
<GCONST> 2.408252e+01
<STATE> 7
<MEAN> 15
 -1.954776e+01 2.789568e+00 3.726730e+00 1.722525e+00 -1.465691e+00 4.804359e-01 -2.539451e+00 -1.263904e+00 3.791353e-01 1.472552e+00 -1.087893e+00 -6.484456e-01 -3.850651e-01 5.477266e-01 -9.924527e-01
<VARIANCE> 15
 3.391345e+00 1.982618e+00 1.099948e+00 1.582268e+00 1.315873e+00 9.995271e-01 1.220758e+00 7.645858e-01 7.882500e-01 1.351531e+00 6.685085e-01 2.309236e-01 4.801141e-01 2.595348e-01 4.213222e-01
<GCONST> 2.548097e+01
<STATE> 8
<MEAN> 15
 -1.572513e+01 4.034543e+00 9.424860e-01 8.381621e-03 -2.070451e+00 1.046371e-01 -1.734203e+00 -9.877970e-01 2.285791e-01 1.778710e+00 -1.083402e+00 -1.577958e+00 -7.279466e-01 6.640422e-01 -1.347223e+00
<VARIANCE> 15
 3.133503e+00 3.026195e+00 4.606337e+00 2.207568e+00 1.360357e+00 1.471496e+00 1.275086e+00 7.889527e-01 1.030580e+00 6.272610e-01 8.256220e-01 9.751842e-01 4.182200e-01 3.755268e-01 2.583331e-01
<GCONST> 2.897923e+01
<STATE> 9
<MEAN> 15
 -1.308588e+01 1.002596e-01 3.623518e+00 1.522292e+00 -1.238367e+00 -2.015134e+00 -6.876920e-01 -3.399448e-01 -1.093898e+00 3.266509e-01 -2.171293e-01 -3.546151e-01 -1.187842e+00 -2.038717e-01 -8.565045e-01
<VARIANCE> 15
 2.534508e+00 2.732386e+00 3.885116e+00 1.195399e+00 1.531966e+00 2.532347e+00 6.056011e-01 3.683039e-01 5.828912e-01 7.419901e-01 3.897882e-01 3.231693e-01 9.367316e-01 2.805336e-01 1.997987e-01
<GCONST> 2.503751e+01
<STATE> 10
<MEAN> 15
 -1.662168e+01 1.691094e+00 9.373729e-01 1.960477e+00 -2.689940e+00 2.268152e+00 -2.281056e+00 -6.612892e-01 -4.707621e-01 9.066251e-02 -1.380563e+00 -1.483467e-01 8.270441e-01 1.978834e-01 -1.656156e+00
<VARIANCE> 15
 1.105106e+01 2.043565e+00 3.033685e+00 1.307726e+00 1.232133e+00 1.883628e+00 1.030680e+00 4.730586e-01 7.515170e-01 4.650675e-01 4.596218e-01 7.186939e-01 6.398231e-01 2.521195e-01 3.424900e-01
<GCONST> 2.713224e+01
<STATE> 11
<MEAN> 15
 -1.887584e+01 -1.438465e+00 3.988714e+00 3.305151e+00 -2.248927e+00 8.386710e-01 -3.672476e-01 -6.881787e-01 -6.966473e-01 -4.559204e-02 -4.102621e-01 -7.617379e-02 3.354460e-01 1.797575e-01 -9.881184e-01
<VARIANCE> 15
 4.462671e+00 1.466948e+00 2.889423e+00 1.175768e+00 5.849629e-01 1.124352e+00 8.583742e-01 5.291492e-01 9.527299e-01 4.326945e-01 2.676791e-01 4.276498e-01 4.003161e-01 4.636832e-01 3.933106e-01
<GCONST> 2.379109e+01
<STATE> 12
<MEAN> 15
 -2.115898e+01 -1.897436e-01 1.175277e+00 -2.482463e-01 2.698460e-01 2.057876e+00 2.245398e-01 1.531925e+00 -7.805410e-04 2.832233e-01 -1.025064e+00 3.733526e-01 1.652001e-01 -5.286168e-01 -1.120667e+00
<VARIANCE> 15
 4.720892e+00 1.633595e+00 1.370546e+00 1.365575e+00 2.152540e+00 7.993813e-01 9.025940e-01 8.829420e-01 5.627959e-01 3.573356e-01 4.978698e-01 5.651115e-01 4.604608e-01 2.662769e-01 5.595171e-01
<GCONST> 2.500198e+01
<STATE> 13
<MEAN> 15
 -2.109742e+01 -2.259309e+00 2.928040e+00 7.195050e-01 4.589562e-01 1.915255e+00 1.632159e+00 4.393617e-02 -1.309164e-01 -6.056411e-01 -9.507441e-02 1.737126e-01 -6.781168e-02 2.221548e-02 -8.690231e-01
<VARIANCE> 15
 6.783041e+00 1.033679e+00 1.676335e+00 9.063489e-01 7.614337e-01 5.773605e-01 4.789493e-01 4.682810e-01 5.853949e-01 2.942616e-01 2.270013e-01 3.830442e-01 2.810704e-01 2.446840e-01 1.304172e-01
<GCONST> 1.870218e+01
<STATE> 14
<MEAN> 15
 -2.471844e+01 -2.072895e+00 2.911934e+00 5.795110e-01 8.781508e-01 1.169074e+00 1.299164e+00 1.743271e-01 -7.765653e-01 4.596209e-01 3.683461e-01 1.333137e-01 1.340676e-01 -1.380607e-01 -1.033175e-01
<VARIANCE> 15
 5.066563e+00 1.057399e+00 8.071564e-01 6.214129e-01 2.626048e-01 5.169674e-01 4.447100e-01 2.747069e-01 3.163370e-01 2.781318e-01 2.972336e-01 2.904780e-01 1.814723e-01 9.668821e-02 2.697280e-01
<GCONST> 1.422404e+01
<STATE> 15
<MEAN> 15
 -2.896524e+01 -1.139562e+00 1.528443e+00 8.196691e-03 6.167269e-01 1.511915e+00 5.357088e-01 7.230519e-01 -8.704456e-02 8.533580e-01 2.502630e-01 5.723128e-01 1.139635e-01 1.665799e-01 -2.676804e-01
<VARIANCE> 15
 3.921988e+00 6.570995e-01 4.903249e-01 2.713239e-01 3.741343e-01 6.546293e-01 2.880861e-01 2.842056e-01 2.504387e-01 2.468984e-01 1.479124e-01 2.009222e-01 1.965547e-01 2.760046e-01 2.633708e-01
<GCONST> 1.204069e+01
<STATE> 16
<MEAN> 15
 -3.309331e+01 -1.645091e+00 8.064622e-02 -2.016268e-01 -3.126327e-01 5.005894e-01 -2.912716e-01 4.290938e-01 -3.289905e-01 6.521561e-01 -3.303939e-01 3.030017e-02 -2.913412e-01 5.060984e-02 -3.585633e-01
<VARIANCE> 15
 3.278149e+00 5.181982e-01 8.066545e-01 2.651564e-01 2.102149e-01 1.656742e-01 2.308289e-01 1.764102e-01 1.474198e-01 1.870346e-01 1.117681e-01 9.870563e-02 1.124552e-01 9.155657e-02 1.290480e-01
<GCONST> 5.275916e+00
<STATE> 17
<MEAN> 15
 -3.199567e+01 -2.687819e+00 6.515068e-01 -8.416730e-01 -5.295089e-01 -2.852311e-01 -7.559115e-01 -1.664241e-01 -5.860062e-01 2.344212e-01 -2.813196e-01 -2.003391e-01 -3.482025e-01 -5.179534e-02 -2.642133e-01
<VARIANCE> 15
 4.599160e+00 1.230815e+00 8.918645e-01 3.629078e-01 2.948317e-01 2.162733e-01 2.163419e-01 1.692216e-01 1.808972e-01 1.491728e-01 1.611268e-01 1.787121e-01 1.582086e-01 1.194763e-01 1.524565e-01
<GCONST> 9.104280e+00
<TRANSP> 18
 0.000000e+00 1.000000e+00 0.000000e+00 0.000000e+00 0.000000e+00 0.000000e+00 0.000000e+00 0.000000e+00 0.000000e+00 0.000000e+00 0.000000e+00 0.000000e+00 0.000000e+00 0.000000e+00 0.000000e+00 0.000000e+00 0.000000e+00 0.000000e+00
 0.000000e+00 9.038461e-01 9.615386e-02 0.000000e+00 0.000000e+00 0.000000e+00 0.000000e+00 0.000000e+00 0.000000e+00 0.000000e+00 0.000000e+00 0.000000e+00 0.000000e+00 0.000000e+00 0.000000e+00 0.000000e+00 0.000000e+00 0.000000e+00
 0.000000e+00 0.000000e+00 7.938144e-01 2.061855e-01 0.000000e+00 0.000000e+00 0.000000e+00 0.000000e+00 0.000000e+00 0.000000e+00 0.000000e+00 0.000000e+00 0.000000e+00 0.000000e+00 0.000000e+00 0.000000e+00 0.000000e+00 0.000000e+00
 0.000000e+00 0.000000e+00 0.000000e+00 7.468355e-01 2.531646e-01 0.000000e+00 0.000000e+00 0.000000e+00 0.000000e+00 0.000000e+00 0.000000e+00 0.000000e+00 0.000000e+00 0.000000e+00 0.000000e+00 0.000000e+00 0.000000e+00 0.000000e+00
 0.000000e+00 0.000000e+00 0.000000e+00 0.000000e+00 6.153846e-01 3.846154e-01 0.000000e+00 0.000000e+00 0.000000e+00 0.000000e+00 0.000000e+00 0.000000e+00 0.000000e+00 0.000000e+00 0.000000e+00 0.000000e+00 0.000000e+00 0.000000e+00
 0.000000e+00 0.000000e+00 0.000000e+00 0.000000e+00 0.000000e+00 8.734177e-01 1.265823e-01 0.000000e+00 0.000000e+00 0.000000e+00 0.000000e+00 0.000000e+00 0.000000e+00 0.000000e+00 0.000000e+00 0.000000e+00 0.000000e+00 0.000000e+00
 0.000000e+00 0.000000e+00 0.000000e+00 0.000000e+00 0.000000e+00 0.000000e+00 8.601398e-01 1.398601e-01 0.000000e+00 0.000000e+00 0.000000e+00 0.000000e+00 0.000000e+00 0.000000e+00 0.000000e+00 0.000000e+00 0.000000e+00 0.000000e+00
 0.000000e+00 0.000000e+00 0.000000e+00 0.000000e+00 0.000000e+00 0.000000e+00 0.000000e+00 7.701150e-01 2.298851e-01 0.000000e+00 0.000000e+00 0.000000e+00 0.000000e+00 0.000000e+00 0.000000e+00 0.000000e+00 0.000000e+00 0.000000e+00
 0.000000e+00 0.000000e+00 0.000000e+00 0.000000e+00 0.000000e+00 0.000000e+00 0.000000e+00 0.000000e+00 8.484849e-01 1.515152e-01 0.000000e+00 0.000000e+00 0.000000e+00 0.000000e+00 0.000000e+00 0.000000e+00 0.000000e+00 0.000000e+00
 0.000000e+00 0.000000e+00 0.000000e+00 0.000000e+00 0.000000e+00 0.000000e+00 0.000000e+00 0.000000e+00 0.000000e+00 8.039216e-01 1.960784e-01 0.000000e+00 0.000000e+00 0.000000e+00 0.000000e+00 0.000000e+00 0.000000e+00 0.000000e+00
 0.000000e+00 0.000000e+00 0.000000e+00 0.000000e+00 0.000000e+00 0.000000e+00 0.000000e+00 0.000000e+00 0.000000e+00 0.000000e+00 8.113208e-01 1.886792e-01 0.000000e+00 0.000000e+00 0.000000e+00 0.000000e+00 0.000000e+00 0.000000e+00
 0.000000e+00 0.000000e+00 0.000000e+00 0.000000e+00 0.000000e+00 0.000000e+00 0.000000e+00 0.000000e+00 0.000000e+00 0.000000e+00 0.000000e+00 8.305085e-01 1.694915e-01 0.000000e+00 0.000000e+00 0.000000e+00 0.000000e+00 0.000000e+00
 0.000000e+00 0.000000e+00 0.000000e+00 0.000000e+00 0.000000e+00 0.000000e+00 0.000000e+00 0.000000e+00 0.000000e+00 0.000000e+00 0.000000e+00 0.000000e+00 8.095238e-01 1.904762e-01 0.000000e+00 0.000000e+00 0.000000e+00 0.000000e+00
 0.000000e+00 0.000000e+00 0.000000e+00 0.000000e+00 0.000000e+00 0.000000e+00 0.000000e+00 0.000000e+00 0.000000e+00 0.000000e+00 0.000000e+00 0.000000e+00 0.000000e+00 7.560976e-01 2.439025e-01 0.000000e+00 0.000000e+00 0.000000e+00
 0.000000e+00 0.000000e+00 0.000000e+00 0.000000e+00 0.000000e+00 0.000000e+00 0.000000e+00 0.000000e+00 0.000000e+00 0.000000e+00 0.000000e+00 0.000000e+00 0.000000e+00 0.000000e+00 7.752809e-01 2.247191e-01 0.000000e+00 0.000000e+00
 0.000000e+00 0.000000e+00 0.000000e+00 0.000000e+00 0.000000e+00 0.000000e+00 0.000000e+00 0.000000e+00 0.000000e+00 0.000000e+00 0.000000e+00 0.000000e+00 0.000000e+00 0.000000e+00 0.000000e+00 7.979798e-01 2.020202e-01 0.000000e+00
 0.000000e+00 0.000000e+00 0.000000e+00 0.000000e+00 0.000000e+00 0.000000e+00 0.000000e+00 0.000000e+00 0.000000e+00 0.000000e+00 0.000000e+00 0.000000e+00 0.000000e+00 0.000000e+00 0.000000e+00 0.000000e+00 8.930481e-01 1.069519e-01
 0.000000e+00 0.000000e+00 0.000000e+00 0.000000e+00 0.000000e+00 0.000000e+00 0.000000e+00 0.000000e+00 0.000000e+00 0.000000e+00 0.000000e+00 0.000000e+00 0.000000e+00 0.000000e+00 0.000000e+00 0.000000e+00 0.000000e+00 0.000000e+00
<ENDHMM>
