~o
<STREAMINFO> 1 20
<VECSIZE> 20<NULLD><MFCC><DIAGC>
~h "Aurelie"
<BEGINHMM>
<NUMSTATES> 18
<STATE> 2
<MEAN> 20
 -4.067662e+01 -1.784774e+00 -1.600471e+00 2.249463e-01 -1.474378e+00 6.433588e-01 -9.824047e-01 3.564886e-01 -7.825795e-01 5.526268e-02 -2.177355e-01 -2.848312e-01 -2.963157e-01 -2.026053e-01 -4.605014e-02 -2.767099e-01 -2.459912e-01 -1.087293e-01 -5.487548e-02 -1.830732e-01
<VARIANCE> 20
 1.451106e+00 1.228416e+00 7.573124e-01 4.797966e-01 4.373522e-01 3.021937e-01 2.370291e-01 1.727525e-01 1.774671e-01 1.786242e-01 1.861258e-01 1.555643e-01 1.959063e-01 1.799685e-01 1.609087e-01 1.279098e-01 1.434615e-01 1.315979e-01 1.312367e-01 1.493740e-01
<GCONST> 8.980394e+00
<STATE> 3
<MEAN> 20
 -3.735662e+01 -4.089878e+00 -9.990449e-02 -4.742229e-01 -1.443521e+00 7.044305e-01 -1.268003e+00 4.314228e-01 -1.065013e+00 -1.671034e-01 -1.817413e-01 -3.579752e-01 -3.507326e-01 -1.396836e-01 -9.067334e-03 -1.027985e-01 -2.263025e-01 -1.207656e-01 -3.440791e-02 -2.149547e-01
<VARIANCE> 20
 7.486712e+00 4.152342e+00 2.366323e+00 8.645838e-01 1.169094e+00 3.368263e-01 5.458208e-01 3.951620e-01 5.243986e-01 3.746349e-01 5.004328e-01 3.580663e-01 2.724966e-01 1.707880e-01 2.402740e-01 1.953928e-01 1.820783e-01 1.498515e-01 2.124909e-01 9.755447e-02
<GCONST> 2.149384e+01
<STATE> 4
<MEAN> 20
 -3.167896e+01 -5.002446e+00 4.376027e+00 1.373962e-01 -1.308180e+00 1.021547e+00 -1.915626e+00 3.925982e-01 -2.440439e+00 1.279074e-01 -1.376299e+00 -1.223880e+00 -6.851922e-01 -9.100719e-01 -1.453967e-01 7.659695e-02 -3.114830e-01 2.024501e-01 -1.491676e-01 -6.726689e-03
<VARIANCE> 20
 1.293825e+01 7.716036e+00 6.132390e+00 1.409786e+00 6.859358e-01 7.322604e-01 5.098042e-01 5.830026e-01 6.903972e-01 4.635743e-01 5.609837e-01 4.629080e-01 3.620234e-01 5.608309e-01 4.016674e-01 4.276418e-01 3.340554e-01 2.465370e-01 2.315942e-01 2.757117e-01
<GCONST> 3.052477e+01
<STATE> 5
<MEAN> 20
 -2.875954e+01 -4.771558e-01 3.601102e+00 2.178592e+00 -2.183855e+00 1.189799e+00 -2.279979e+00 1.037448e-01 -1.838688e+00 8.782396e-01 -9.062616e-01 -3.751265e-01 -1.116855e+00 -7.109311e-01 2.388584e-01 7.688971e-02 -7.349356e-03 -2.362237e-01 -1.398637e-01 -4.061187e-01
<VARIANCE> 20
 1.100015e+01 1.824093e+01 1.063367e+01 2.271184e+00 2.914174e+00 1.147649e+00 1.693174e+00 7.506161e-01 9.712884e-01 8.106220e-01 9.392760e-01 8.541687e-01 4.267743e-01 5.495031e-01 3.238799e-01 4.100271e-01 3.126656e-01 4.207540e-01 1.798652e-01 2.674955e-01
<GCONST> 3.769944e+01
<STATE> 6
<MEAN> 20
 -2.150891e+01 -1.139836e+00 5.725684e+00 5.002001e+00 -1.460129e+00 1.980325e-01 -6.627169e-01 -9.783385e-01 -2.126897e+00 5.193234e-01 -6.616083e-01 -3.625108e-01 -8.497290e-01 -1.071892e+00 -4.150051e-01 -3.974826e-01 -7.030000e-01 1.449269e-01 1.737547e-01 -1.345921e-01
<VARIANCE> 20
 5.408735e+00 2.542254e+00 2.112631e+00 1.564120e+00 1.969292e+00 6.179075e-01 1.095883e+00 1.422295e+00 8.937512e-01 5.669020e-01 7.347482e-01 4.676617e-01 6.549854e-01 7.269741e-01 3.830715e-01 2.980161e-01 3.652240e-01 3.672204e-01 2.398812e-01 2.775321e-01
<GCONST> 3.183521e+01
<STATE> 7
<MEAN> 20
 -2.405426e+01 4.202945e+00 2.551870e+00 4.093261e+00 -2.888912e+00 1.414176e+00 -2.549860e+00 -1.747164e+00 -1.241054e+00 1.899982e+00 5.056697e-02 -1.077186e+00 -9.322762e-01 -7.118043e-02 3.692609e-01 -1.188069e+00 -6.279040e-01 -4.779541e-01 2.868917e-01 -7.183645e-01
<VARIANCE> 20
 4.558126e+00 3.357386e+00 1.446799e+00 2.437661e+00 1.643234e+00 1.433909e+00 1.182269e+00 9.564214e-01 1.563481e+00 1.768660e+00 7.208658e-01 7.071814e-01 3.803291e-01 6.435333e-01 3.190527e-01 5.237954e-01 3.217890e-01 3.183444e-01 2.939712e-01 1.653990e-01
<GCONST> 3.357063e+01
<STATE> 8
<MEAN> 20
 -2.001585e+01 5.755990e+00 2.742191e-01 1.833947e+00 -3.396312e+00 4.923113e-01 -2.205792e+00 -1.001284e+00 -1.164901e+00 1.697100e+00 7.485893e-01 -1.487632e+00 -1.827347e+00 -3.438635e-01 3.988490e-01 -1.507452e+00 -1.292258e+00 -2.525847e-01 7.748145e-02 -2.994974e-01
<VARIANCE> 20
 3.874216e+00 5.612680e+00 5.608618e+00 5.168361e+00 1.318020e+00 1.403001e+00 1.273524e+00 9.380115e-01 1.370511e+00 1.638829e+00 1.096806e+00 8.658900e-01 1.202814e+00 5.215501e-01 3.879671e-01 3.178065e-01 3.165506e-01 3.861630e-01 2.856969e-01 3.232745e-01
<GCONST> 3.771061e+01
<STATE> 9
<MEAN> 20
 -1.609405e+01 7.391714e-01 2.941803e+00 3.432707e+00 -1.946341e+00 -1.212295e+00 -2.422871e+00 7.191133e-01 -2.064983e+00 3.029645e-01 -2.527552e-01 2.277926e-01 -1.244059e+00 -9.193638e-01 -5.426278e-01 -7.540052e-01 -1.458638e+00 -5.576599e-01 -3.738130e-01 6.233809e-02
<VARIANCE> 20
 4.186631e+00 4.072573e+00 4.621883e+00 2.034117e+00 3.090183e+00 1.813346e+00 8.686746e-01 9.967641e-01 6.384412e-01 9.957860e-01 1.000517e+00 7.143694e-01 4.419709e-01 1.035904e+00 3.897513e-01 2.864025e-01 3.489114e-01 3.015945e-01 2.546834e-01 1.789842e-01
<GCONST> 3.431152e+01
<STATE> 10
<MEAN> 20
 -2.012281e+01 3.683798e+00 -1.104591e+00 3.895244e+00 -4.188056e+00 2.209133e+00 -1.040199e+00 -1.796587e+00 -7.148655e-01 -4.571901e-02 -4.806268e-01 -1.666888e+00 1.787460e-01 8.127443e-01 -1.266603e-02 -1.921674e+00 -9.774055e-01 -8.405308e-02 -4.859174e-01 -5.140151e-01
<VARIANCE> 20
 1.289661e+01 4.581513e+00 4.569287e+00 2.294679e+00 1.593979e+00 2.012811e+00 1.311411e+00 1.542783e+00 1.170598e+00 8.085347e-01 3.929037e-01 6.757269e-01 8.114833e-01 7.317876e-01 3.300368e-01 3.941644e-01 2.302458e-01 3.169626e-01 2.293630e-01 2.164911e-01
<GCONST> 3.549483e+01
<STATE> 11
<MEAN> 20
 -2.238344e+01 -1.179134e+00 2.972379e+00 5.351676e+00 -2.466047e+00 2.324226e-01 1.229007e-01 -7.366036e-01 -1.028648e+00 -4.168364e-01 -2.623473e-01 -4.555245e-01 -1.410284e-01 5.254208e-01 4.842022e-02 -1.082495e+00 -1.116920e+00 -6.770373e-01 -6.050025e-01 -5.299002e-01
<VARIANCE> 20
 6.669244e+00 3.276160e+00 4.224777e+00 1.519594e+00 1.224202e+00 1.685539e+00 8.566691e-01 6.118336e-01 8.503601e-01 8.413077e-01 5.885909e-01 4.100490e-01 5.187650e-01 5.159829e-01 4.456023e-01 5.266121e-01 2.521943e-01 3.700440e-01 2.437912e-01 1.927230e-01
<GCONST> 3.182587e+01
<STATE> 12
<MEAN> 20
 -2.578756e+01 1.085319e+00 -1.167969e-01 1.816774e+00 -1.887510e+00 3.461985e+00 -4.995369e-01 1.955865e+00 -4.964809e-02 7.321370e-01 -8.506413e-01 -4.018017e-01 1.628500e-01 3.025917e-01 -9.963459e-01 -1.189503e+00 -7.319118e-01 -3.557096e-01 -7.164834e-01 -8.082278e-01
<VARIANCE> 20
 6.151421e+00 2.978035e+00 1.675965e+00 2.271067e+00 1.698369e+00 2.263297e+00 9.913267e-01 2.284986e+00 7.648832e-01 4.577768e-01 4.906166e-01 6.714427e-01 7.249370e-01 7.214171e-01 3.971483e-01 6.514667e-01 4.039418e-01 3.558159e-01 3.510103e-01 2.308403e-01
<GCONST> 3.455346e+01
<STATE> 13
<MEAN> 20
 -2.408663e+01 -2.588830e+00 2.645574e+00 1.637090e+00 -3.100883e-01 2.053220e+00 1.954638e+00 8.741976e-01 -3.067623e-01 1.363306e-01 -1.083909e+00 4.482951e-01 -2.966014e-01 1.484114e-01 -2.593343e-01 -9.140146e-01 -6.254591e-01 5.631593e-02 -5.006937e-01 -4.076339e-01
<VARIANCE> 20
 1.090193e+01 2.485898e+00 2.670457e+00 6.768434e-01 1.407355e+00 1.228803e+00 9.427060e-01 5.987966e-01 4.721514e-01 4.930930e-01 3.269357e-01 2.155896e-01 5.149841e-01 4.229556e-01 3.526322e-01 1.952127e-01 2.235670e-01 2.308857e-01 2.190413e-01 3.667634e-01
<GCONST> 2.682957e+01
<STATE> 14
<MEAN> 20
 -2.786299e+01 -2.620054e+00 2.703411e+00 1.545326e+00 1.857290e-01 1.588202e+00 1.032588e+00 1.385023e+00 -1.089480e+00 1.659874e-02 3.371284e-01 4.723750e-01 -6.150648e-02 2.705843e-01 -3.583280e-01 -6.400724e-02 -2.915118e-01 1.151304e-01 9.579164e-02 -1.118741e-01
<VARIANCE> 20
 1.046818e+01 1.989961e+00 1.399815e+00 6.793487e-01 5.977546e-01 8.965976e-01 6.651511e-01 3.198635e-01 2.757531e-01 3.793257e-01 4.352232e-01 3.819384e-01 2.753077e-01 2.640344e-01 2.186551e-01 3.551216e-01 1.958940e-01 1.612077e-01 2.263189e-01 2.319778e-01
<GCONST> 2.194112e+01
<STATE> 15
<MEAN> 20
 -3.403078e+01 -3.229816e-01 4.884593e-01 1.477306e+00 -9.526299e-01 2.820800e+00 -1.907385e-01 1.802265e+00 -6.467993e-01 9.887545e-01 1.841560e-01 7.273082e-01 1.279647e-01 4.053474e-01 -7.176985e-02 -1.577099e-01 -4.432738e-01 -6.124428e-02 -2.673882e-01 -4.106987e-01
<VARIANCE> 20
 5.239720e+00 1.495192e+00 7.253407e-01 5.161119e-01 5.196060e-01 8.708761e-01 4.728064e-01 5.198305e-01 3.786701e-01 5.495163e-01 2.486048e-01 2.662678e-01 3.135579e-01 2.232443e-01 3.185672e-01 2.356506e-01 3.569091e-01 1.701464e-01 2.010536e-01 2.251945e-01
<GCONST> 2.020738e+01
<STATE> 16
<MEAN> 20
 -3.788176e+01 -1.455238e+00 -9.844918e-01 7.389655e-01 -1.664433e+00 1.646103e+00 -1.309234e+00 1.038398e+00 -7.891556e-01 7.940861e-01 -1.218802e-01 1.817054e-01 -4.532295e-01 7.437363e-02 -1.365620e-01 -2.187765e-01 -4.044190e-01 -3.412575e-01 -1.957214e-01 -3.195189e-01
<VARIANCE> 20
 4.840248e+00 1.759817e+00 9.126571e-01 4.823362e-01 3.459051e-01 2.936233e-01 4.922448e-01 2.038528e-01 1.907680e-01 2.061770e-01 2.933685e-01 3.072195e-01 4.220771e-01 2.464007e-01 1.486034e-01 2.937202e-01 1.300659e-01 1.322798e-01 1.469703e-01 1.165834e-01
<GCONST> 1.432659e+01
<STATE> 17
<MEAN> 20
 -3.765899e+01 -2.398185e+00 -7.048674e-02 6.582069e-02 -1.451040e+00 3.522257e-01 -1.245188e+00 1.398285e-01 -8.984991e-01 3.274193e-02 -8.274885e-02 -2.340281e-01 -3.684996e-01 -2.658146e-01 -1.714161e-01 -1.920836e-01 -2.829214e-01 -4.885528e-02 -8.525798e-02 -1.317261e-01
<VARIANCE> 20
 7.365977e+00 1.958908e+00 1.688650e+00 4.930286e-01 3.896423e-01 2.843992e-01 3.399148e-01 2.246392e-01 2.403263e-01 1.871964e-01 1.731451e-01 1.526990e-01 2.209649e-01 1.589884e-01 1.409911e-01 1.882425e-01 1.325827e-01 1.632104e-01 1.403721e-01 1.423095e-01
<GCONST> 1.301282e+01
<TRANSP> 18
 0.000000e+00 1.000000e+00 0.000000e+00 0.000000e+00 0.000000e+00 0.000000e+00 0.000000e+00 0.000000e+00 0.000000e+00 0.000000e+00 0.000000e+00 0.000000e+00 0.000000e+00 0.000000e+00 0.000000e+00 0.000000e+00 0.000000e+00 0.000000e+00
 0.000000e+00 9.033816e-01 9.661835e-02 0.000000e+00 0.000000e+00 0.000000e+00 0.000000e+00 0.000000e+00 0.000000e+00 0.000000e+00 0.000000e+00 0.000000e+00 0.000000e+00 0.000000e+00 0.000000e+00 0.000000e+00 0.000000e+00 0.000000e+00
 0.000000e+00 0.000000e+00 8.333333e-01 1.666667e-01 0.000000e+00 0.000000e+00 0.000000e+00 0.000000e+00 0.000000e+00 0.000000e+00 0.000000e+00 0.000000e+00 0.000000e+00 0.000000e+00 0.000000e+00 0.000000e+00 0.000000e+00 0.000000e+00
 0.000000e+00 0.000000e+00 0.000000e+00 7.058824e-01 2.941177e-01 0.000000e+00 0.000000e+00 0.000000e+00 0.000000e+00 0.000000e+00 0.000000e+00 0.000000e+00 0.000000e+00 0.000000e+00 0.000000e+00 0.000000e+00 0.000000e+00 0.000000e+00
 0.000000e+00 0.000000e+00 0.000000e+00 0.000000e+00 5.454546e-01 4.545455e-01 0.000000e+00 0.000000e+00 0.000000e+00 0.000000e+00 0.000000e+00 0.000000e+00 0.000000e+00 0.000000e+00 0.000000e+00 0.000000e+00 0.000000e+00 0.000000e+00
 0.000000e+00 0.000000e+00 0.000000e+00 0.000000e+00 0.000000e+00 8.648649e-01 1.351351e-01 0.000000e+00 0.000000e+00 0.000000e+00 0.000000e+00 0.000000e+00 0.000000e+00 0.000000e+00 0.000000e+00 0.000000e+00 0.000000e+00 0.000000e+00
 0.000000e+00 0.000000e+00 0.000000e+00 0.000000e+00 0.000000e+00 0.000000e+00 8.507463e-01 1.492537e-01 0.000000e+00 0.000000e+00 0.000000e+00 0.000000e+00 0.000000e+00 0.000000e+00 0.000000e+00 0.000000e+00 0.000000e+00 0.000000e+00
 0.000000e+00 0.000000e+00 0.000000e+00 0.000000e+00 0.000000e+00 0.000000e+00 0.000000e+00 7.647059e-01 2.352941e-01 0.000000e+00 0.000000e+00 0.000000e+00 0.000000e+00 0.000000e+00 0.000000e+00 0.000000e+00 0.000000e+00 0.000000e+00
 0.000000e+00 0.000000e+00 0.000000e+00 0.000000e+00 0.000000e+00 0.000000e+00 0.000000e+00 0.000000e+00 8.601398e-01 1.398601e-01 0.000000e+00 0.000000e+00 0.000000e+00 0.000000e+00 0.000000e+00 0.000000e+00 0.000000e+00 0.000000e+00
 0.000000e+00 0.000000e+00 0.000000e+00 0.000000e+00 0.000000e+00 0.000000e+00 0.000000e+00 0.000000e+00 0.000000e+00 8.076923e-01 1.923077e-01 0.000000e+00 0.000000e+00 0.000000e+00 0.000000e+00 0.000000e+00 0.000000e+00 0.000000e+00
 0.000000e+00 0.000000e+00 0.000000e+00 0.000000e+00 0.000000e+00 0.000000e+00 0.000000e+00 0.000000e+00 0.000000e+00 0.000000e+00 8.019802e-01 1.980198e-01 0.000000e+00 0.000000e+00 0.000000e+00 0.000000e+00 0.000000e+00 0.000000e+00
 0.000000e+00 0.000000e+00 0.000000e+00 0.000000e+00 0.000000e+00 0.000000e+00 0.000000e+00 0.000000e+00 0.000000e+00 0.000000e+00 0.000000e+00 8.449612e-01 1.550387e-01 0.000000e+00 0.000000e+00 0.000000e+00 0.000000e+00 0.000000e+00
 0.000000e+00 0.000000e+00 0.000000e+00 0.000000e+00 0.000000e+00 0.000000e+00 0.000000e+00 0.000000e+00 0.000000e+00 0.000000e+00 0.000000e+00 0.000000e+00 7.752809e-01 2.247191e-01 0.000000e+00 0.000000e+00 0.000000e+00 0.000000e+00
 0.000000e+00 0.000000e+00 0.000000e+00 0.000000e+00 0.000000e+00 0.000000e+00 0.000000e+00 0.000000e+00 0.000000e+00 0.000000e+00 0.000000e+00 0.000000e+00 0.000000e+00 8.019802e-01 1.980198e-01 0.000000e+00 0.000000e+00 0.000000e+00
 0.000000e+00 0.000000e+00 0.000000e+00 0.000000e+00 0.000000e+00 0.000000e+00 0.000000e+00 0.000000e+00 0.000000e+00 0.000000e+00 0.000000e+00 0.000000e+00 0.000000e+00 0.000000e+00 7.500000e-01 2.500000e-01 0.000000e+00 0.000000e+00
 0.000000e+00 0.000000e+00 0.000000e+00 0.000000e+00 0.000000e+00 0.000000e+00 0.000000e+00 0.000000e+00 0.000000e+00 0.000000e+00 0.000000e+00 0.000000e+00 0.000000e+00 0.000000e+00 0.000000e+00 7.916667e-01 2.083333e-01 0.000000e+00
 0.000000e+00 0.000000e+00 0.000000e+00 0.000000e+00 0.000000e+00 0.000000e+00 0.000000e+00 0.000000e+00 0.000000e+00 0.000000e+00 0.000000e+00 0.000000e+00 0.000000e+00 0.000000e+00 0.000000e+00 0.000000e+00 8.974359e-01 1.025641e-01
 0.000000e+00 0.000000e+00 0.000000e+00 0.000000e+00 0.000000e+00 0.000000e+00 0.000000e+00 0.000000e+00 0.000000e+00 0.000000e+00 0.000000e+00 0.000000e+00 0.000000e+00 0.000000e+00 0.000000e+00 0.000000e+00 0.000000e+00 0.000000e+00
<ENDHMM>
