~o
<STREAMINFO> 1 15
<VECSIZE> 15<NULLD><MFCC><DIAGC>
~h "Benjamin"
<BEGINHMM>
<NUMSTATES> 10
<STATE> 2
<MEAN> 15
 -3.429186e+01 -2.572055e+00 -2.674436e-01 -6.929463e-01 -5.517972e-01 -1.283263e-02 -4.693355e-01 -7.830675e-02 -6.081477e-01 1.388945e-01 -3.612725e-01 -6.273725e-02 -2.210421e-01 2.294569e-02 -2.447605e-01
<VARIANCE> 15
 2.930660e+00 1.218905e+00 1.224502e+00 6.696058e-01 2.340671e-01 2.227757e-01 1.496445e-01 1.469413e-01 1.323486e-01 1.037396e-01 1.137369e-01 1.080792e-01 1.131478e-01 9.763053e-02 1.038176e-01
<GCONST> 6.414163e+00
<STATE> 3
<MEAN> 15
 -1.496543e+01 2.339752e-01 1.107213e+00 -1.655419e-01 -9.194178e-01 5.516120e-01 -6.171263e-02 3.851527e-01 -4.342384e-01 5.229297e-01 -1.119752e+00 -5.708500e-01 -9.850229e-01 9.065212e-04 -1.151085e+00
<VARIANCE> 15
 1.113215e+01 3.962296e+00 3.853677e+00 2.787067e+00 8.515719e-01 2.209721e+00 1.327143e+00 6.122795e-01 5.605229e-01 5.746071e-01 6.429605e-01 4.679648e-01 3.807691e-01 3.609873e-01 4.788346e-01
<GCONST> 2.909862e+01
<STATE> 4
<MEAN> 15
 -2.354171e+01 4.424407e-02 2.693500e+00 -7.563277e-03 6.020223e-01 1.698898e+00 2.659218e-01 2.516128e-01 9.610193e-02 8.285303e-01 3.083113e-01 -5.228006e-02 -6.035579e-01 1.594373e-01 -2.296390e-01
<VARIANCE> 15
 4.679364e+00 1.633315e+00 2.740175e+00 9.624693e-01 7.520724e-01 6.349168e-01 5.977555e-01 3.012972e-01 5.512348e-01 4.447213e-01 3.054084e-01 3.137214e-01 2.503236e-01 2.794655e-01 2.265051e-01
<GCONST> 2.022216e+01
<STATE> 5
<MEAN> 15
 -1.633980e+01 -5.074158e+00 -1.711504e-01 -1.058792e+00 -1.435751e-01 2.442977e+00 2.168811e-01 4.007733e-01 -3.008181e-01 4.243660e-01 -2.141199e-01 2.210922e-01 -3.352585e-01 2.815522e-01 -6.289663e-01
<VARIANCE> 15
 3.709624e+00 4.106522e+00 2.677101e+00 1.496993e+00 8.340700e-01 6.175898e-01 6.835080e-01 7.616527e-01 6.519281e-01 3.300186e-01 3.239891e-01 2.910160e-01 2.185572e-01 2.995297e-01 3.567503e-01
<GCONST> 2.270889e+01
<STATE> 6
<MEAN> 15
 -2.228759e+01 4.148855e-01 1.594865e+00 -1.070301e-01 -9.325114e-01 1.898450e+00 -1.748770e-01 8.738862e-01 7.243814e-01 1.326510e+00 -5.241690e-01 -5.315542e-01 -7.209563e-01 5.799885e-01 -7.241224e-01
<VARIANCE> 15
 5.396733e+00 1.348569e+00 1.219272e+00 6.418679e-01 6.912921e-01 4.089070e-01 6.688554e-01 4.932821e-01 5.767314e-01 4.234570e-01 3.566830e-01 5.370873e-01 3.690059e-01 4.873184e-01 2.875743e-01
<GCONST> 2.091131e+01
<STATE> 7
<MEAN> 15
 -2.320619e+01 -9.336446e-01 3.645888e+00 4.004085e-01 -3.489668e-02 8.578510e-01 5.004325e-01 2.265576e-01 -1.145598e-01 7.925797e-01 -1.356870e-02 -1.300207e-01 -7.429920e-01 1.045502e-01 -2.137696e-02
<VARIANCE> 15
 6.458995e+00 1.385832e+00 1.276915e+00 9.421620e-01 7.332042e-01 4.648859e-01 5.483930e-01 4.451086e-01 3.599240e-01 3.441979e-01 2.570426e-01 2.758090e-01 4.241861e-01 2.515800e-01 2.221488e-01
<GCONST> 1.898136e+01
<STATE> 8
<MEAN> 15
 -2.940265e+01 -8.046506e-01 1.209397e+00 -1.138944e-02 -8.678040e-03 1.408957e+00 4.274404e-01 5.981909e-01 5.990310e-01 1.404569e+00 1.905382e-01 -2.139622e-01 -2.383546e-01 2.867599e-01 -5.275258e-02
<VARIANCE> 15
 4.029821e+00 1.013595e+00 6.980267e-01 3.348799e-01 4.453863e-01 4.019527e-01 2.504770e-01 3.259865e-01 2.964804e-01 4.762203e-01 3.037449e-01 1.528953e-01 2.280375e-01 2.061726e-01 2.243547e-01
<GCONST> 1.371735e+01
<STATE> 9
<MEAN> 15
 -3.246019e+01 -2.382632e+00 3.096912e-01 -6.553513e-01 -6.511393e-01 -1.059402e-02 -6.566375e-01 -1.002680e-02 -4.489156e-01 3.880234e-01 -2.950343e-01 -1.665617e-01 -3.050083e-01 -3.947882e-02 -2.110649e-01
<VARIANCE> 15
 4.088989e+00 1.005478e+00 9.540831e-01 3.732314e-01 2.682645e-01 3.148182e-01 1.938719e-01 2.222550e-01 1.924016e-01 2.384521e-01 1.954812e-01 1.395967e-01 1.241081e-01 1.381451e-01 1.377837e-01
<GCONST> 9.602157e+00
<TRANSP> 10
 0.000000e+00 1.000000e+00 0.000000e+00 0.000000e+00 0.000000e+00 0.000000e+00 0.000000e+00 0.000000e+00 0.000000e+00 0.000000e+00
 0.000000e+00 9.122807e-01 8.771931e-02 0.000000e+00 0.000000e+00 0.000000e+00 0.000000e+00 0.000000e+00 0.000000e+00 0.000000e+00
 0.000000e+00 0.000000e+00 9.293286e-01 7.067137e-02 0.000000e+00 0.000000e+00 0.000000e+00 0.000000e+00 0.000000e+00 0.000000e+00
 0.000000e+00 0.000000e+00 0.000000e+00 9.259259e-01 7.407407e-02 0.000000e+00 0.000000e+00 0.000000e+00 0.000000e+00 0.000000e+00
 0.000000e+00 0.000000e+00 0.000000e+00 0.000000e+00 8.130841e-01 1.869159e-01 0.000000e+00 0.000000e+00 0.000000e+00 0.000000e+00
 0.000000e+00 0.000000e+00 0.000000e+00 0.000000e+00 0.000000e+00 9.141631e-01 8.583690e-02 0.000000e+00 0.000000e+00 0.000000e+00
 0.000000e+00 0.000000e+00 0.000000e+00 0.000000e+00 0.000000e+00 0.000000e+00 9.322034e-01 6.779660e-02 0.000000e+00 0.000000e+00
 0.000000e+00 0.000000e+00 0.000000e+00 0.000000e+00 0.000000e+00 0.000000e+00 0.000000e+00 8.540146e-01 1.459854e-01 0.000000e+00
 0.000000e+00 0.000000e+00 0.000000e+00 0.000000e+00 0.000000e+00 0.000000e+00 0.000000e+00 0.000000e+00 9.326599e-01 6.734006e-02
 0.000000e+00 0.000000e+00 0.000000e+00 0.000000e+00 0.000000e+00 0.000000e+00 0.000000e+00 0.000000e+00 0.000000e+00 0.000000e+00
<ENDHMM>
