~o
<STREAMINFO> 1 15
<VECSIZE> 15<NULLD><MFCC><DIAGC>
~h "Benjamin"
<BEGINHMM>
<NUMSTATES> 18
<STATE> 2
<MEAN> 15
 -3.497854e+01 -2.240502e+00 -6.430960e-01 -4.488674e-01 -6.180663e-01 7.385644e-02 -4.427336e-01 -3.939154e-02 -5.629551e-01 1.623465e-01 -3.365542e-01 -4.566662e-02 -2.595752e-01 3.309536e-02 -2.485313e-01
<VARIANCE> 15
 6.042473e-01 6.194375e-01 4.984920e-01 2.834292e-01 1.795049e-01 1.708680e-01 1.393169e-01 1.187955e-01 1.009430e-01 9.938020e-02 1.081454e-01 1.079096e-01 9.579019e-02 9.462506e-02 1.032812e-01
<GCONST> 1.016237e+00
<STATE> 3
<MEAN> 15
 -2.988365e+01 -3.603410e+00 1.500703e+00 -1.558617e+00 -3.732764e-01 -2.543724e-01 -6.523816e-01 -2.241524e-01 -7.036907e-01 9.985477e-03 -4.729316e-01 -1.727259e-01 -1.155742e-01 -4.236404e-03 -3.546394e-01
<VARIANCE> 15
 1.292928e+01 1.774336e+00 1.769229e+00 1.054086e+00 5.733514e-01 4.837310e-01 2.237196e-01 3.432463e-01 3.378865e-01 2.093502e-01 1.378691e-01 1.378631e-01 1.790871e-01 1.426748e-01 1.857302e-01
<GCONST> 1.551287e+01
<STATE> 4
<MEAN> 15
 -1.405958e+01 -9.314090e-01 2.262875e+00 7.752290e-01 -9.045659e-01 -4.941146e-01 6.979334e-01 2.615159e-01 -7.552818e-01 1.512787e-01 -8.070446e-01 -3.078771e-01 -1.184958e+00 -2.138381e-01 -1.026816e+00
<VARIANCE> 15
 9.060037e+00 1.549686e+00 2.967976e+00 1.302935e+00 7.583641e-01 8.481042e-01 4.670683e-01 4.516581e-01 2.979895e-01 3.206538e-01 3.418742e-01 2.762661e-01 3.416528e-01 2.165554e-01 3.138675e-01
<GCONST> 2.109468e+01
<STATE> 5
<MEAN> 15
 -1.471420e+01 1.745362e+00 -2.329511e-01 -1.089142e+00 -1.036533e+00 1.576206e+00 -7.742910e-01 5.862414e-01 -1.975150e-01 9.847381e-01 -1.569588e+00 -9.123518e-01 -8.302426e-01 1.807656e-01 -1.359201e+00
<VARIANCE> 15
 4.136601e+00 2.688758e+00 1.747293e+00 2.812015e+00 8.890674e-01 1.124799e+00 1.145632e+00 7.130684e-01 5.299262e-01 3.150521e-01 7.175200e-01 5.334529e-01 3.509425e-01 4.225802e-01 6.331583e-01
<GCONST> 2.625096e+01
<STATE> 6
<MEAN> 15
 -2.297478e+01 8.932461e-01 1.287370e+00 -4.935121e-01 5.281530e-01 2.326916e+00 -1.477110e-01 3.567608e-01 6.781475e-01 1.025923e+00 7.276470e-02 -4.158585e-01 -5.936368e-01 4.365491e-01 -5.061627e-01
<VARIANCE> 15
 7.560588e+00 1.109758e+00 1.353568e+00 9.321552e-01 6.139009e-01 5.467658e-01 5.213946e-01 3.506953e-01 2.859777e-01 6.687806e-01 2.931071e-01 2.221609e-01 2.128499e-01 2.245012e-01 2.539693e-01
<GCONST> 1.833969e+01
<STATE> 7
<MEAN> 15
 -2.376174e+01 -5.324235e-01 3.669721e+00 3.186145e-01 6.330538e-01 1.279168e+00 5.082195e-01 1.790741e-01 -3.216666e-01 6.765725e-01 4.167127e-01 2.149944e-01 -6.374903e-01 -2.985203e-02 -4.211242e-02
<VARIANCE> 15
 2.834456e+00 1.179532e+00 1.650437e+00 7.979935e-01 8.498926e-01 3.059082e-01 5.963683e-01 2.596314e-01 3.500364e-01 3.145166e-01 3.706816e-01 2.225354e-01 2.689489e-01 2.440534e-01 1.437754e-01
<GCONST> 1.647338e+01
<STATE> 8
<MEAN> 15
 -1.633357e+01 -5.240442e+00 -2.636124e-01 -1.103047e+00 -1.253646e-01 2.434239e+00 1.812752e-01 3.074914e-01 -2.876903e-01 4.096041e-01 -1.637834e-01 2.364212e-01 -2.737724e-01 3.027283e-01 -5.937079e-01
<VARIANCE> 15
 4.220610e+00 3.892787e+00 2.576491e+00 1.475209e+00 8.533754e-01 6.336935e-01 6.823105e-01 6.712896e-01 6.687297e-01 3.363935e-01 3.132364e-01 2.896351e-01 1.862805e-01 2.829019e-01 3.468533e-01
<GCONST> 2.241313e+01
<STATE> 9
<MEAN> 15
 -1.942017e+01 -1.078674e-01 1.716220e+00 -3.524514e-01 -9.818137e-01 2.028913e+00 3.541976e-01 1.395516e+00 2.311487e-01 1.042056e+00 -9.053898e-01 -2.131312e-01 -1.121868e+00 1.484381e-01 -8.026646e-01
<VARIANCE> 15
 3.328908e+00 2.225815e+00 3.667027e+00 7.632272e-01 4.995714e-01 7.013119e-01 5.999343e-01 5.282465e-01 3.573042e-01 3.272049e-01 2.746640e-01 2.654740e-01 1.677833e-01 2.426390e-01 2.457843e-01
<GCONST> 1.903283e+01
<STATE> 10
<MEAN> 15
 -2.300354e+01 6.691453e-01 1.868772e+00 -3.730460e-01 -4.844063e-01 1.793333e+00 -5.304042e-01 6.027175e-01 1.235156e+00 1.399763e+00 -3.800252e-01 -5.096380e-01 -4.590401e-01 1.024945e+00 -3.958159e-01
<VARIANCE> 15
 2.899074e+00 1.264611e+00 1.724165e+00 4.812036e-01 5.288411e-01 3.130216e-01 7.009192e-01 4.540026e-01 4.878252e-01 5.123181e-01 2.422382e-01 4.400114e-01 4.962946e-01 4.219513e-01 1.580786e-01
<GCONST> 1.870351e+01
<STATE> 11
<MEAN> 15
 -2.146423e+01 3.072415e-02 2.248175e+00 1.795107e-01 -1.298495e+00 1.635223e+00 -2.110706e-01 7.992719e-01 2.557860e-01 1.092486e+00 -5.130411e-01 -6.443356e-01 -9.259148e-01 2.690506e-01 -9.914487e-01
<VARIANCE> 15
 3.006662e+00 1.104004e+00 2.362768e+00 7.014812e-01 7.050827e-01 6.229414e-01 3.950614e-01 2.590824e-01 3.795332e-01 2.782040e-01 3.034420e-01 7.313503e-01 3.954112e-01 3.918858e-01 2.682568e-01
<GCONST> 1.923707e+01
<STATE> 12
<MEAN> 15
 -2.345238e+01 -6.376309e-01 3.811418e+00 3.472037e-01 1.378887e-01 9.533067e-01 4.096148e-01 2.901415e-01 -6.800286e-02 6.925842e-01 -2.403114e-02 -1.307935e-01 -7.236967e-01 9.675226e-02 4.903775e-02
<VARIANCE> 15
 3.890830e+00 6.472700e-01 8.247111e-01 5.739530e-01 5.245481e-01 3.300874e-01 4.008569e-01 4.755894e-01 2.856020e-01 2.583030e-01 2.232096e-01 2.967970e-01 2.872550e-01 2.754562e-01 2.055463e-01
<GCONST> 1.489296e+01
<STATE> 13
<MEAN> 15
 -2.364122e+01 -1.630413e+00 2.668068e+00 8.672122e-01 -2.764893e-01 6.585095e-01 8.354124e-01 4.828761e-02 -3.553341e-01 1.147424e+00 1.356165e-01 -2.474347e-01 -6.358295e-01 8.200448e-02 -7.080968e-02
<VARIANCE> 15
 1.051286e+01 2.980077e+00 9.706693e-01 1.476960e+00 1.254347e+00 1.014505e+00 7.723752e-01 4.276407e-01 5.942688e-01 5.095021e-01 2.352001e-01 3.278539e-01 4.512155e-01 1.721191e-01 1.830014e-01
<GCONST> 2.249529e+01
<STATE> 14
<MEAN> 15
 -2.783660e+01 -4.720479e-01 1.464237e+00 6.782434e-02 -1.561935e-01 1.654779e+00 6.565857e-01 5.510937e-01 7.200679e-01 1.559760e+00 1.603005e-01 -2.531243e-01 -4.449898e-01 3.665085e-01 -2.114363e-01
<VARIANCE> 15
 3.577321e+00 1.208965e+00 5.945364e-01 3.885030e-01 4.413926e-01 2.548683e-01 1.991006e-01 3.514279e-01 2.799653e-01 5.146822e-01 3.605891e-01 1.504422e-01 2.675005e-01 2.229553e-01 2.495888e-01
<GCONST> 1.366374e+01
<STATE> 15
<MEAN> 15
 -3.052388e+01 -1.607763e+00 1.205437e+00 -1.013562e-01 -1.467594e-02 8.120418e-01 7.905200e-02 4.921330e-01 2.516509e-01 1.024102e+00 2.220087e-01 -2.873038e-02 3.221735e-02 1.239041e-01 1.640067e-01
<VARIANCE> 15
 5.284173e+00 8.966293e-01 1.169691e+00 4.420379e-01 4.161941e-01 4.183870e-01 1.647747e-01 3.275166e-01 1.954945e-01 3.194892e-01 2.136557e-01 1.376749e-01 1.401821e-01 1.806063e-01 1.654212e-01
<GCONST> 1.202178e+01
<STATE> 16
<MEAN> 15
 -3.339201e+01 -1.724805e+00 -3.549926e-01 -2.542956e-01 -6.620845e-01 4.051794e-01 -4.937407e-01 2.410273e-01 -2.918740e-01 5.992845e-01 -4.088187e-01 -4.204172e-02 -3.490633e-01 5.395321e-02 -2.622690e-01
<VARIANCE> 15
 2.810444e+00 4.480763e-01 6.178783e-01 2.707292e-01 2.601140e-01 1.696842e-01 1.190016e-01 1.604167e-01 1.697502e-01 2.586172e-01 2.020308e-01 1.248391e-01 1.140492e-01 1.090334e-01 9.595703e-02
<GCONST> 5.394573e+00
<STATE> 17
<MEAN> 15
 -3.178499e+01 -2.828332e+00 7.738866e-01 -9.528974e-01 -6.253467e-01 -2.916272e-01 -7.756117e-01 -1.981940e-01 -5.531041e-01 2.377923e-01 -2.268183e-01 -2.559292e-01 -2.677030e-01 -8.492563e-02 -1.791409e-01
<VARIANCE> 15
 3.883844e+00 8.563194e-01 6.370740e-01 2.540276e-01 2.747103e-01 2.404757e-01 2.209700e-01 1.927068e-01 1.830641e-01 1.858607e-01 1.710167e-01 1.265985e-01 1.332078e-01 1.513007e-01 1.632338e-01
<GCONST> 8.144894e+00
<TRANSP> 18
 0.000000e+00 1.000000e+00 0.000000e+00 0.000000e+00 0.000000e+00 0.000000e+00 0.000000e+00 0.000000e+00 0.000000e+00 0.000000e+00 0.000000e+00 0.000000e+00 0.000000e+00 0.000000e+00 0.000000e+00 0.000000e+00 0.000000e+00 0.000000e+00
 0.000000e+00 8.907104e-01 1.092896e-01 0.000000e+00 0.000000e+00 0.000000e+00 0.000000e+00 0.000000e+00 0.000000e+00 0.000000e+00 0.000000e+00 0.000000e+00 0.000000e+00 0.000000e+00 0.000000e+00 0.000000e+00 0.000000e+00 0.000000e+00
 0.000000e+00 0.000000e+00 6.491228e-01 3.508772e-01 0.000000e+00 0.000000e+00 0.000000e+00 0.000000e+00 0.000000e+00 0.000000e+00 0.000000e+00 0.000000e+00 0.000000e+00 0.000000e+00 0.000000e+00 0.000000e+00 0.000000e+00 0.000000e+00
 0.000000e+00 0.000000e+00 0.000000e+00 8.581560e-01 1.418440e-01 0.000000e+00 0.000000e+00 0.000000e+00 0.000000e+00 0.000000e+00 0.000000e+00 0.000000e+00 0.000000e+00 0.000000e+00 0.000000e+00 0.000000e+00 0.000000e+00 0.000000e+00
 0.000000e+00 0.000000e+00 0.000000e+00 0.000000e+00 8.319328e-01 1.680672e-01 0.000000e+00 0.000000e+00 0.000000e+00 0.000000e+00 0.000000e+00 0.000000e+00 0.000000e+00 0.000000e+00 0.000000e+00 0.000000e+00 0.000000e+00 0.000000e+00
 0.000000e+00 0.000000e+00 0.000000e+00 0.000000e+00 0.000000e+00 8.425197e-01 1.574803e-01 0.000000e+00 0.000000e+00 0.000000e+00 0.000000e+00 0.000000e+00 0.000000e+00 0.000000e+00 0.000000e+00 0.000000e+00 0.000000e+00 0.000000e+00
 0.000000e+00 0.000000e+00 0.000000e+00 0.000000e+00 0.000000e+00 0.000000e+00 8.684211e-01 1.315790e-01 0.000000e+00 0.000000e+00 0.000000e+00 0.000000e+00 0.000000e+00 0.000000e+00 0.000000e+00 0.000000e+00 0.000000e+00 0.000000e+00
 0.000000e+00 0.000000e+00 0.000000e+00 0.000000e+00 0.000000e+00 0.000000e+00 0.000000e+00 8.019802e-01 1.980198e-01 0.000000e+00 0.000000e+00 0.000000e+00 0.000000e+00 0.000000e+00 0.000000e+00 0.000000e+00 0.000000e+00 0.000000e+00
 0.000000e+00 0.000000e+00 0.000000e+00 0.000000e+00 0.000000e+00 0.000000e+00 0.000000e+00 0.000000e+00 6.774194e-01 3.225806e-01 0.000000e+00 0.000000e+00 0.000000e+00 0.000000e+00 0.000000e+00 0.000000e+00 0.000000e+00 0.000000e+00
 0.000000e+00 0.000000e+00 0.000000e+00 0.000000e+00 0.000000e+00 0.000000e+00 0.000000e+00 0.000000e+00 0.000000e+00 7.802198e-01 2.197802e-01 0.000000e+00 0.000000e+00 0.000000e+00 0.000000e+00 0.000000e+00 0.000000e+00 0.000000e+00
 0.000000e+00 0.000000e+00 0.000000e+00 0.000000e+00 0.000000e+00 0.000000e+00 0.000000e+00 0.000000e+00 0.000000e+00 0.000000e+00 7.826087e-01 2.173913e-01 0.000000e+00 0.000000e+00 0.000000e+00 0.000000e+00 0.000000e+00 0.000000e+00
 0.000000e+00 0.000000e+00 0.000000e+00 0.000000e+00 0.000000e+00 0.000000e+00 0.000000e+00 0.000000e+00 0.000000e+00 0.000000e+00 0.000000e+00 8.952880e-01 1.047120e-01 0.000000e+00 0.000000e+00 0.000000e+00 0.000000e+00 0.000000e+00
 0.000000e+00 0.000000e+00 0.000000e+00 0.000000e+00 0.000000e+00 0.000000e+00 0.000000e+00 0.000000e+00 0.000000e+00 0.000000e+00 0.000000e+00 0.000000e+00 7.014925e-01 2.985075e-01 0.000000e+00 0.000000e+00 0.000000e+00 0.000000e+00
 0.000000e+00 0.000000e+00 0.000000e+00 0.000000e+00 0.000000e+00 0.000000e+00 0.000000e+00 0.000000e+00 0.000000e+00 0.000000e+00 0.000000e+00 0.000000e+00 0.000000e+00 8.319328e-01 1.680672e-01 0.000000e+00 0.000000e+00 0.000000e+00
 0.000000e+00 0.000000e+00 0.000000e+00 0.000000e+00 0.000000e+00 0.000000e+00 0.000000e+00 0.000000e+00 0.000000e+00 0.000000e+00 0.000000e+00 0.000000e+00 0.000000e+00 0.000000e+00 6.078432e-01 3.921569e-01 0.000000e+00 0.000000e+00
 0.000000e+00 0.000000e+00 0.000000e+00 0.000000e+00 0.000000e+00 0.000000e+00 0.000000e+00 0.000000e+00 0.000000e+00 0.000000e+00 0.000000e+00 0.000000e+00 0.000000e+00 0.000000e+00 0.000000e+00 8.425197e-01 1.574803e-01 0.000000e+00
 0.000000e+00 0.000000e+00 0.000000e+00 0.000000e+00 0.000000e+00 0.000000e+00 0.000000e+00 0.000000e+00 0.000000e+00 0.000000e+00 0.000000e+00 0.000000e+00 0.000000e+00 0.000000e+00 0.000000e+00 0.000000e+00 8.823529e-01 1.176471e-01
 0.000000e+00 0.000000e+00 0.000000e+00 0.000000e+00 0.000000e+00 0.000000e+00 0.000000e+00 0.000000e+00 0.000000e+00 0.000000e+00 0.000000e+00 0.000000e+00 0.000000e+00 0.000000e+00 0.000000e+00 0.000000e+00 0.000000e+00 0.000000e+00
<ENDHMM>
