~o
<STREAMINFO> 1 20
<VECSIZE> 20<NULLD><MFCC><DIAGC>
~h "Benjamin"
<BEGINHMM>
<NUMSTATES> 18
<STATE> 2
<MEAN> 20
 -4.072798e+01 -1.966511e+00 -1.462061e+00 1.687389e-01 -1.385396e+00 4.998354e-01 -8.268300e-01 2.255021e-01 -7.638150e-01 -2.920769e-02 -1.665936e-01 -2.141730e-01 -2.332626e-01 -1.926316e-01 -4.594619e-02 -2.655679e-01 -2.449816e-01 -1.611423e-01 -1.117901e-01 -2.207989e-01
<VARIANCE> 20
 1.231184e+00 1.381250e+00 9.408455e-01 4.943624e-01 2.217718e-01 2.177760e-01 1.692532e-01 1.242931e-01 1.656093e-01 1.245165e-01 1.304804e-01 1.320333e-01 1.317263e-01 1.249738e-01 1.289640e-01 1.296898e-01 1.540733e-01 1.189755e-01 1.369452e-01 1.100545e-01
<GCONST> 5.296872e+00
<STATE> 3
<MEAN> 20
 -3.533686e+01 -4.142848e+00 9.751159e-01 -8.508953e-01 -1.439255e+00 4.479036e-01 -1.324872e+00 2.155125e-01 -1.096526e+00 -7.919389e-02 -3.394317e-01 -2.616382e-01 -3.466073e-01 1.576673e-03 -1.966144e-01 -2.170212e-01 -4.001419e-01 -1.510351e-01 6.645024e-02 -1.607576e-01
<VARIANCE> 20
 1.253827e+01 3.634722e+00 3.042663e+00 1.548572e+00 8.083268e-01 3.497548e-01 3.683619e-01 3.026356e-01 3.425276e-01 3.304690e-01 1.763464e-01 1.535436e-01 1.541320e-01 2.620767e-01 1.397608e-01 1.800822e-01 1.644182e-01 1.616829e-01 1.337606e-01 1.495818e-01
<GCONST> 1.845167e+01
<STATE> 4
<MEAN> 20
 -1.678350e+01 -1.051924e+00 2.046533e+00 2.018525e+00 -1.442697e+00 -2.665595e-01 -4.181629e-01 1.394501e+00 -1.131738e+00 8.172367e-02 -5.848132e-01 -5.001848e-01 -8.553448e-01 -1.066225e+00 -2.830232e-01 -1.178539e+00 -9.042908e-01 1.240382e-03 4.213390e-01 3.478834e-02
<VARIANCE> 20
 1.560742e+01 2.505003e+00 3.202968e+00 1.252933e+00 1.621104e+00 1.372019e+00 8.670444e-01 7.530227e-01 4.840230e-01 3.565066e-01 5.191066e-01 2.734098e-01 3.733284e-01 5.810268e-01 2.333086e-01 3.549523e-01 2.481179e-01 2.276183e-01 2.663849e-01 2.673813e-01
<GCONST> 2.894150e+01
<STATE> 5
<MEAN> 20
 -1.818673e+01 3.788637e+00 -2.050202e+00 8.015386e-01 -3.484087e+00 2.601281e+00 -1.389378e+00 1.036172e+00 -1.042761e+00 1.096118e+00 -5.078999e-01 -1.527748e+00 -1.177764e+00 -6.513717e-01 -3.559144e-02 -1.521660e+00 -4.879292e-01 2.486003e-01 5.716588e-01 -6.664449e-01
<VARIANCE> 20
 3.975378e+00 4.340804e+00 2.885621e+00 3.029965e+00 1.830299e+00 2.472582e+00 1.039068e+00 8.616648e-01 1.115323e+00 8.609687e-01 4.937688e-01 9.032212e-01 9.614980e-01 6.099117e-01 4.921961e-01 7.700769e-01 3.534302e-01 3.946234e-01 2.857846e-01 3.529096e-01
<GCONST> 3.655736e+01
<STATE> 6
<MEAN> 20
 -2.730527e+01 2.036358e+00 2.398313e-02 1.110551e+00 -1.548040e+00 3.575577e+00 -4.348227e-01 7.676998e-01 -3.226082e-01 1.639384e+00 1.545107e-01 2.546535e-01 -1.175790e+00 -2.627451e-01 1.916963e-01 -5.389826e-01 -7.921118e-02 -5.730976e-01 -3.058686e-01 -1.057889e+00
<VARIANCE> 20
 1.224513e+01 2.584383e+00 2.015257e+00 1.400159e+00 1.288219e+00 1.272092e+00 4.813681e-01 4.174459e-01 6.613588e-01 7.738777e-01 4.730450e-01 4.335359e-01 3.015865e-01 4.039458e-01 2.204792e-01 3.148560e-01 2.247737e-01 2.711708e-01 2.348350e-01 3.408492e-01
<GCONST> 2.778893e+01
<STATE> 7
<MEAN> 20
 -2.743576e+01 -6.783916e-01 3.623461e+00 1.415681e+00 -3.665141e-01 1.794078e+00 3.241409e-01 7.534536e-01 -6.942095e-01 3.296557e-01 4.421592e-01 5.070179e-01 -2.820396e-01 -7.074977e-01 -7.932099e-02 -8.913329e-02 -1.664171e-01 -2.433658e-01 1.396241e-01 -7.515946e-01
<VARIANCE> 20
 3.998022e+00 1.598958e+00 2.140062e+00 8.732960e-01 7.239457e-01 7.161500e-01 6.795461e-01 3.191833e-01 5.047733e-01 3.706208e-01 5.280479e-01 2.927997e-01 3.061034e-01 3.508364e-01 3.038219e-01 1.637494e-01 1.856170e-01 1.947942e-01 2.195830e-01 2.323218e-01
<GCONST> 2.198222e+01
<STATE> 8
<MEAN> 20
 -1.994460e+01 -4.707842e+00 -1.819270e+00 3.700159e-01 -2.191568e+00 3.498573e+00 -1.083949e-02 9.932325e-01 -8.683953e-01 6.759409e-01 -3.321838e-01 3.682848e-01 -2.837002e-01 3.080030e-02 5.588174e-02 -4.907350e-01 -6.555624e-01 -1.433641e-01 3.007968e-02 -2.762280e-01
<VARIANCE> 20
 1.135692e+01 6.042755e+00 6.916698e+00 3.071757e+00 2.188415e+00 1.124685e+00 6.102660e-01 1.097862e+00 5.750045e-01 8.290164e-01 4.937635e-01 2.921230e-01 3.995249e-01 2.077428e-01 4.087964e-01 5.087070e-01 3.990085e-01 2.305567e-01 2.292057e-01 2.485542e-01
<GCONST> 3.255481e+01
<STATE> 9
<MEAN> 20
 -2.337807e+01 3.711864e-01 1.391118e+00 1.537194e+00 -2.581293e+00 2.418019e+00 -1.363516e-01 1.607851e+00 -8.066992e-03 1.114897e+00 -2.698209e-02 -5.116069e-01 -6.337500e-01 -1.067726e+00 -3.748256e-02 -8.857284e-01 -1.105240e+00 -5.304109e-01 -1.595110e-01 -3.497455e-01
<VARIANCE> 20
 5.742546e+00 3.739600e+00 7.261912e+00 9.242247e-01 1.195235e+00 1.172317e+00 6.992633e-01 8.366225e-01 5.164583e-01 4.104721e-01 3.677995e-01 4.423929e-01 2.935291e-01 2.432306e-01 2.297139e-01 3.132205e-01 1.623298e-01 2.385526e-01 2.504564e-01 1.964144e-01
<GCONST> 2.662792e+01
<STATE> 10
<MEAN> 20
 -2.773907e+01 1.777896e+00 9.187511e-01 1.399613e+00 -2.495605e+00 2.908161e+00 -9.996812e-01 7.473238e-01 2.671373e-01 2.167793e+00 1.142132e-01 -1.774684e-01 -1.025115e+00 2.405100e-02 8.420944e-01 -3.116381e-01 -1.069056e+00 -1.018247e+00 -6.009381e-01 -9.753430e-01
<VARIANCE> 20
 2.970391e+00 2.533176e+00 4.541482e+00 8.229307e-01 9.526707e-01 6.448076e-01 9.145206e-01 5.407314e-01 6.898667e-01 9.741971e-01 4.237337e-01 4.740464e-01 6.043561e-01 6.255542e-01 4.654225e-01 3.681844e-01 1.690427e-01 3.756406e-01 2.730451e-01 2.553039e-01
<GCONST> 2.874327e+01
<STATE> 11
<MEAN> 20
 -2.634667e+01 1.437548e+00 4.637260e-01 2.542157e+00 -3.410093e+00 2.662663e+00 -8.038014e-01 1.336912e+00 -4.128040e-01 1.471128e+00 1.771275e-01 -3.604942e-01 -1.334746e+00 -5.207012e-01 1.063509e-01 -1.027989e+00 -4.430163e-01 3.301950e-01 -1.998872e-01 -1.175921e+00
<VARIANCE> 20
 3.483000e+00 1.966071e+00 3.058368e+00 1.156216e+00 1.391744e+00 7.583535e-01 4.442044e-01 8.768372e-01 6.126019e-01 4.959687e-01 3.420479e-01 6.541261e-01 6.958886e-01 4.990372e-01 5.029446e-01 5.391402e-01 4.582774e-01 4.015962e-01 2.496724e-01 3.355522e-01
<GCONST> 2.983215e+01
<STATE> 12
<MEAN> 20
 -2.738596e+01 -8.698403e-01 3.272167e+00 1.803544e+00 -7.314359e-01 1.265950e+00 3.079897e-01 9.241040e-01 -7.547243e-01 6.784476e-01 4.190620e-01 8.192537e-02 -5.479758e-01 -7.029607e-01 1.419332e-01 7.364461e-02 -3.794834e-01 7.088394e-02 -4.096644e-02 -4.812087e-01
<VARIANCE> 20
 7.067174e+00 1.066370e+00 1.400062e+00 7.463365e-01 1.035558e+00 7.740934e-01 5.286639e-01 4.548087e-01 5.020412e-01 3.903388e-01 3.921884e-01 2.679327e-01 4.904628e-01 3.402813e-01 2.845900e-01 2.739417e-01 3.112300e-01 3.504568e-01 3.180125e-01 2.256527e-01
<GCONST> 2.409985e+01
<STATE> 13
<MEAN> 20
 -3.063142e+01 2.800741e-01 4.100709e-01 1.800554e+00 -2.097307e+00 2.568638e+00 1.018251e-01 1.334410e+00 -2.149709e-01 1.834661e+00 3.415775e-01 6.241940e-01 -7.989931e-01 -1.296659e-01 5.644224e-02 -3.351881e-01 -5.680481e-02 -5.480823e-01 -4.340895e-01 -2.927758e-01
<VARIANCE> 20
 1.251482e+01 7.535115e+00 1.486734e+00 1.551884e+00 1.337299e+00 5.964426e-01 3.250745e-01 8.262691e-01 5.640296e-01 7.235031e-01 2.959183e-01 6.224737e-01 6.217040e-01 3.295123e-01 2.902911e-01 3.292888e-01 2.177536e-01 3.663507e-01 2.360610e-01 2.215534e-01
<GCONST> 2.859897e+01
<STATE> 14
<MEAN> 20
 -3.365556e+01 2.385420e-03 4.390437e-01 1.658598e+00 -1.452161e+00 2.497237e+00 1.691275e-01 1.470298e+00 -4.603516e-01 2.065330e+00 7.809850e-01 2.761917e-01 -6.890528e-01 1.660031e-02 2.916809e-01 1.068582e-01 2.009999e-01 -8.136003e-01 1.466274e-01 -3.834825e-01
<VARIANCE> 20
 4.763827e+00 2.291866e+00 1.394431e+00 4.896635e-01 5.070388e-01 6.029966e-01 3.515823e-01 2.777632e-01 2.094150e-01 6.990620e-01 2.578014e-01 1.745585e-01 1.723299e-01 3.506040e-01 1.944079e-01 2.150835e-01 1.846182e-01 3.672175e-01 1.741767e-01 1.757501e-01
<GCONST> 1.807397e+01
<STATE> 15
<MEAN> 20
 -3.572071e+01 -9.630326e-01 2.076497e-01 1.084146e+00 -1.359659e+00 1.873273e+00 -4.004754e-01 1.172304e+00 -1.892992e-01 1.224893e+00 6.811791e-01 2.563052e-01 -2.887031e-01 3.055584e-01 1.562864e-02 3.500922e-01 -6.625298e-02 -2.242889e-01 3.063251e-01 -1.105853e-01
<VARIANCE> 20
 9.143362e+00 1.956976e+00 2.197793e+00 6.197975e-01 5.613706e-01 6.099057e-01 5.087417e-01 5.381913e-01 3.542652e-01 4.682184e-01 2.752610e-01 3.594501e-01 1.679450e-01 2.156721e-01 1.586662e-01 1.772825e-01 1.722132e-01 1.851880e-01 1.791318e-01 1.421098e-01
<GCONST> 1.946887e+01
<STATE> 16
<MEAN> 20
 -3.917300e+01 -1.106891e+00 -1.552529e+00 7.818883e-01 -1.868694e+00 1.096476e+00 -1.058314e+00 5.970663e-01 -6.714230e-01 5.806885e-01 1.417034e-02 -2.129618e-01 -3.107267e-01 -1.876619e-01 -3.362442e-02 -1.938347e-01 -3.072923e-01 -2.333235e-01 -4.091692e-02 -2.232894e-01
<VARIANCE> 20
 4.467397e+00 8.602404e-01 1.058951e+00 3.555881e-01 3.899164e-01 2.982943e-01 2.577108e-01 2.151961e-01 1.824303e-01 3.241490e-01 2.176342e-01 2.761842e-01 2.293615e-01 2.031016e-01 1.543473e-01 1.578075e-01 1.413098e-01 1.689473e-01 1.641743e-01 1.386558e-01
<GCONST> 1.214492e+01
<STATE> 17
<MEAN> 20
 -3.665689e+01 -2.984839e+00 2.825694e-01 -1.316407e-01 -1.562581e+00 3.033018e-01 -1.317850e+00 4.599215e-02 -9.230815e-01 5.374126e-02 -5.480105e-02 -1.843959e-01 -4.631891e-01 -1.703428e-01 -2.486194e-01 -5.858914e-02 -2.456621e-01 8.811337e-02 3.953711e-02 -7.107671e-02
<VARIANCE> 20
 6.309536e+00 1.115082e+00 1.034575e+00 3.792561e-01 5.000340e-01 3.894919e-01 3.397369e-01 2.270691e-01 2.452877e-01 2.373027e-01 3.602836e-01 2.650841e-01 2.324878e-01 1.920983e-01 1.801637e-01 2.129232e-01 1.468565e-01 1.393057e-01 1.403144e-01 1.414273e-01
<GCONST> 1.420399e+01
<TRANSP> 18
 0.000000e+00 1.000000e+00 0.000000e+00 0.000000e+00 0.000000e+00 0.000000e+00 0.000000e+00 0.000000e+00 0.000000e+00 0.000000e+00 0.000000e+00 0.000000e+00 0.000000e+00 0.000000e+00 0.000000e+00 0.000000e+00 0.000000e+00 0.000000e+00
 0.000000e+00 8.888889e-01 1.111111e-01 0.000000e+00 0.000000e+00 0.000000e+00 0.000000e+00 0.000000e+00 0.000000e+00 0.000000e+00 0.000000e+00 0.000000e+00 0.000000e+00 0.000000e+00 0.000000e+00 0.000000e+00 0.000000e+00 0.000000e+00
 0.000000e+00 0.000000e+00 6.428571e-01 3.571429e-01 0.000000e+00 0.000000e+00 0.000000e+00 0.000000e+00 0.000000e+00 0.000000e+00 0.000000e+00 0.000000e+00 0.000000e+00 0.000000e+00 0.000000e+00 0.000000e+00 0.000000e+00 0.000000e+00
 0.000000e+00 0.000000e+00 0.000000e+00 8.387097e-01 1.612903e-01 0.000000e+00 0.000000e+00 0.000000e+00 0.000000e+00 0.000000e+00 0.000000e+00 0.000000e+00 0.000000e+00 0.000000e+00 0.000000e+00 0.000000e+00 0.000000e+00 0.000000e+00
 0.000000e+00 0.000000e+00 0.000000e+00 0.000000e+00 8.437500e-01 1.562500e-01 0.000000e+00 0.000000e+00 0.000000e+00 0.000000e+00 0.000000e+00 0.000000e+00 0.000000e+00 0.000000e+00 0.000000e+00 0.000000e+00 0.000000e+00 0.000000e+00
 0.000000e+00 0.000000e+00 0.000000e+00 0.000000e+00 0.000000e+00 8.473282e-01 1.526718e-01 0.000000e+00 0.000000e+00 0.000000e+00 0.000000e+00 0.000000e+00 0.000000e+00 0.000000e+00 0.000000e+00 0.000000e+00 0.000000e+00 0.000000e+00
 0.000000e+00 0.000000e+00 0.000000e+00 0.000000e+00 0.000000e+00 0.000000e+00 8.692811e-01 1.307190e-01 0.000000e+00 0.000000e+00 0.000000e+00 0.000000e+00 0.000000e+00 0.000000e+00 0.000000e+00 0.000000e+00 0.000000e+00 0.000000e+00
 0.000000e+00 0.000000e+00 0.000000e+00 0.000000e+00 0.000000e+00 0.000000e+00 0.000000e+00 8.113208e-01 1.886792e-01 0.000000e+00 0.000000e+00 0.000000e+00 0.000000e+00 0.000000e+00 0.000000e+00 0.000000e+00 0.000000e+00 0.000000e+00
 0.000000e+00 0.000000e+00 0.000000e+00 0.000000e+00 0.000000e+00 0.000000e+00 0.000000e+00 0.000000e+00 7.468355e-01 2.531646e-01 0.000000e+00 0.000000e+00 0.000000e+00 0.000000e+00 0.000000e+00 0.000000e+00 0.000000e+00 0.000000e+00
 0.000000e+00 0.000000e+00 0.000000e+00 0.000000e+00 0.000000e+00 0.000000e+00 0.000000e+00 0.000000e+00 0.000000e+00 8.019802e-01 1.980198e-01 0.000000e+00 0.000000e+00 0.000000e+00 0.000000e+00 0.000000e+00 0.000000e+00 0.000000e+00
 0.000000e+00 0.000000e+00 0.000000e+00 0.000000e+00 0.000000e+00 0.000000e+00 0.000000e+00 0.000000e+00 0.000000e+00 0.000000e+00 7.849463e-01 2.150538e-01 0.000000e+00 0.000000e+00 0.000000e+00 0.000000e+00 0.000000e+00 0.000000e+00
 0.000000e+00 0.000000e+00 0.000000e+00 0.000000e+00 0.000000e+00 0.000000e+00 0.000000e+00 0.000000e+00 0.000000e+00 0.000000e+00 0.000000e+00 9.038461e-01 9.615386e-02 0.000000e+00 0.000000e+00 0.000000e+00 0.000000e+00 0.000000e+00
 0.000000e+00 0.000000e+00 0.000000e+00 0.000000e+00 0.000000e+00 0.000000e+00 0.000000e+00 0.000000e+00 0.000000e+00 0.000000e+00 0.000000e+00 0.000000e+00 6.875000e-01 3.125000e-01 0.000000e+00 0.000000e+00 0.000000e+00 0.000000e+00
 0.000000e+00 0.000000e+00 0.000000e+00 0.000000e+00 0.000000e+00 0.000000e+00 0.000000e+00 0.000000e+00 0.000000e+00 0.000000e+00 0.000000e+00 0.000000e+00 0.000000e+00 7.101449e-01 2.898551e-01 0.000000e+00 0.000000e+00 0.000000e+00
 0.000000e+00 0.000000e+00 0.000000e+00 0.000000e+00 0.000000e+00 0.000000e+00 0.000000e+00 0.000000e+00 0.000000e+00 0.000000e+00 0.000000e+00 0.000000e+00 0.000000e+00 0.000000e+00 6.153846e-01 3.846154e-01 0.000000e+00 0.000000e+00
 0.000000e+00 0.000000e+00 0.000000e+00 0.000000e+00 0.000000e+00 0.000000e+00 0.000000e+00 0.000000e+00 0.000000e+00 0.000000e+00 0.000000e+00 0.000000e+00 0.000000e+00 0.000000e+00 0.000000e+00 8.425197e-01 1.574803e-01 0.000000e+00
 0.000000e+00 0.000000e+00 0.000000e+00 0.000000e+00 0.000000e+00 0.000000e+00 0.000000e+00 0.000000e+00 0.000000e+00 0.000000e+00 0.000000e+00 0.000000e+00 0.000000e+00 0.000000e+00 0.000000e+00 0.000000e+00 8.882682e-01 1.117318e-01
 0.000000e+00 0.000000e+00 0.000000e+00 0.000000e+00 0.000000e+00 0.000000e+00 0.000000e+00 0.000000e+00 0.000000e+00 0.000000e+00 0.000000e+00 0.000000e+00 0.000000e+00 0.000000e+00 0.000000e+00 0.000000e+00 0.000000e+00 0.000000e+00
<ENDHMM>
