~o
<STREAMINFO> 1 15
<VECSIZE> 15<NULLD><MFCC><DIAGC>
~h "Brennan"
<BEGINHMM>
<NUMSTATES> 10
<STATE> 2
<MEAN> 15
 -3.485632e+01 -2.103405e+00 -5.495272e-01 -4.457315e-01 -5.904679e-01 9.005842e-02 -4.591534e-01 -3.063229e-03 -5.088358e-01 8.264468e-02 -4.503871e-01 -1.262766e-01 -3.217623e-01 5.262784e-02 -2.548957e-01
<VARIANCE> 15
 9.216927e-01 8.073111e-01 5.646452e-01 3.909460e-01 2.532277e-01 2.482010e-01 1.618036e-01 1.274684e-01 1.301815e-01 1.432993e-01 1.418466e-01 1.337122e-01 1.150449e-01 9.778427e-02 9.182280e-02
<GCONST> 4.291540e+00
<STATE> 3
<MEAN> 15
 -2.573695e+01 -2.092274e+00 1.929317e+00 2.132178e-01 -8.202719e-01 -5.121278e-02 -4.782341e-01 -3.685032e-01 -6.144490e-01 5.304328e-02 -4.686612e-01 -6.975226e-02 -4.018740e-01 3.381299e-01 -2.225018e-01
<VARIANCE> 15
 2.094819e+01 2.818924e+00 1.447177e+00 2.277529e+00 1.690573e+00 7.986519e-01 6.731937e-01 7.488692e-01 4.389662e-01 3.175052e-01 2.517408e-01 1.955850e-01 2.017167e-01 1.765302e-01 1.939604e-01
<GCONST> 2.249763e+01
<STATE> 4
<MEAN> 15
 -2.003195e+01 9.392992e-01 4.551361e+00 3.281372e+00 -1.241333e+00 5.168793e-01 -1.348390e+00 -1.136401e+00 -1.783031e-01 5.212443e-01 -6.814771e-01 -5.131697e-01 -7.518165e-01 -1.471639e-01 -6.094634e-01
<VARIANCE> 15
 1.088053e+01 3.823869e+00 2.010642e+00 1.439748e+00 1.106569e+00 1.207007e+00 1.588013e+00 4.073028e-01 4.332438e-01 4.463327e-01 3.973806e-01 4.983238e-01 3.055876e-01 3.629179e-01 2.190503e-01
<GCONST> 2.523295e+01
<STATE> 5
<MEAN> 15
 -1.645282e+01 2.706802e+00 2.193194e+00 -7.186027e-01 -1.667717e+00 1.175060e-01 -7.713923e-01 3.037962e-01 -6.693618e-01 9.630550e-01 -3.097413e-01 -9.660692e-01 -1.404806e+00 -1.027764e-01 -4.747212e-01
<VARIANCE> 15
 5.773180e+00 3.717177e+00 3.196543e+00 2.654234e+00 1.445035e+00 3.882066e+00 1.749209e+00 5.769229e-01 6.848329e-01 7.460618e-01 5.846130e-01 7.533622e-01 4.564065e-01 6.690605e-01 6.145518e-01
<GCONST> 3.134153e+01
<STATE> 6
<MEAN> 15
 -2.301907e+01 1.667741e+00 1.781432e+00 -1.029943e+00 -5.360592e-01 1.295501e+00 -2.295886e-01 7.917634e-01 5.611798e-01 8.098249e-01 -8.967169e-02 7.796489e-02 -1.055945e+00 -1.815273e-01 -7.155917e-01
<VARIANCE> 15
 3.912835e+00 1.011168e+00 1.106833e+00 1.064119e+00 8.182342e-01 6.629192e-01 4.399292e-01 3.338031e-01 5.461279e-01 5.367289e-01 4.390375e-01 3.376532e-01 2.497169e-01 2.027515e-01 2.188269e-01
<GCONST> 1.893837e+01
<STATE> 7
<MEAN> 15
 -2.280683e+01 -4.315600e-01 3.842535e+00 -1.350925e-02 -2.412872e-01 4.380557e-01 7.813604e-01 2.594076e-01 -5.249335e-01 5.176039e-01 5.493267e-01 5.035747e-02 -7.627737e-01 -4.680876e-01 -1.534154e-01
<VARIANCE> 15
 5.707843e+00 1.560036e+00 7.195999e-01 1.164895e+00 7.864007e-01 5.413640e-01 4.342592e-01 5.698681e-01 5.259746e-01 4.578908e-01 4.018173e-01 2.682728e-01 3.229246e-01 2.855073e-01 2.619562e-01
<GCONST> 1.995332e+01
<STATE> 8
<MEAN> 15
 -2.967187e+01 -8.749194e-01 1.466107e+00 1.928930e-01 1.616913e-01 1.170193e+00 4.271284e-01 5.824097e-01 5.794113e-01 1.342528e+00 3.725936e-01 7.426801e-03 -3.523233e-01 2.183212e-01 -1.936996e-01
<VARIANCE> 15
 5.760382e+00 1.657824e+00 8.566377e-01 4.451874e-01 5.823010e-01 3.365605e-01 2.059111e-01 3.367339e-01 2.221924e-01 4.023024e-01 1.756371e-01 1.666438e-01 2.472282e-01 1.407699e-01 2.033015e-01
<GCONST> 1.366501e+01
<STATE> 9
<MEAN> 15
 -3.321087e+01 -2.206279e+00 -2.629336e-02 -5.399910e-01 -7.759050e-01 -1.689555e-02 -5.661668e-01 8.409893e-04 -4.093150e-01 3.821000e-01 -2.487680e-01 -1.350345e-01 -2.833183e-01 -9.439657e-02 -2.406230e-01
<VARIANCE> 15
 5.157660e+00 7.592062e-01 1.289339e+00 3.744608e-01 2.876745e-01 3.153920e-01 2.278875e-01 2.214444e-01 1.710862e-01 1.820658e-01 1.400608e-01 1.366553e-01 1.218731e-01 1.276190e-01 1.177688e-01
<GCONST> 9.091205e+00
<TRANSP> 10
 0.000000e+00 1.000000e+00 0.000000e+00 0.000000e+00 0.000000e+00 0.000000e+00 0.000000e+00 0.000000e+00 0.000000e+00 0.000000e+00
 0.000000e+00 9.298246e-01 7.017544e-02 0.000000e+00 0.000000e+00 0.000000e+00 0.000000e+00 0.000000e+00 0.000000e+00 0.000000e+00
 0.000000e+00 0.000000e+00 8.095238e-01 1.904762e-01 0.000000e+00 0.000000e+00 0.000000e+00 0.000000e+00 0.000000e+00 0.000000e+00
 0.000000e+00 0.000000e+00 0.000000e+00 9.065421e-01 9.345794e-02 0.000000e+00 0.000000e+00 0.000000e+00 0.000000e+00 0.000000e+00
 0.000000e+00 0.000000e+00 0.000000e+00 0.000000e+00 9.275362e-01 7.246377e-02 0.000000e+00 0.000000e+00 0.000000e+00 0.000000e+00
 0.000000e+00 0.000000e+00 0.000000e+00 0.000000e+00 0.000000e+00 8.837209e-01 1.162791e-01 0.000000e+00 0.000000e+00 0.000000e+00
 0.000000e+00 0.000000e+00 0.000000e+00 0.000000e+00 0.000000e+00 0.000000e+00 9.236641e-01 7.633588e-02 0.000000e+00 0.000000e+00
 0.000000e+00 0.000000e+00 0.000000e+00 0.000000e+00 0.000000e+00 0.000000e+00 0.000000e+00 8.918919e-01 1.081081e-01 0.000000e+00
 0.000000e+00 0.000000e+00 0.000000e+00 0.000000e+00 0.000000e+00 0.000000e+00 0.000000e+00 0.000000e+00 9.212598e-01 7.874016e-02
 0.000000e+00 0.000000e+00 0.000000e+00 0.000000e+00 0.000000e+00 0.000000e+00 0.000000e+00 0.000000e+00 0.000000e+00 0.000000e+00
<ENDHMM>
