~o
<STREAMINFO> 1 20
<VECSIZE> 20<NULLD><MFCC><DIAGC>
~h "Brennan"
<BEGINHMM>
<NUMSTATES> 18
<STATE> 2
<MEAN> 20
 -4.112619e+01 -1.261214e+00 -1.842600e+00 5.755689e-01 -1.518117e+00 6.662189e-01 -8.687375e-01 2.338351e-01 -6.557592e-01 -1.727700e-02 -1.991734e-01 -2.711368e-01 -2.684752e-01 -2.428895e-01 -1.072286e-02 -2.387623e-01 -2.426254e-01 -1.397014e-01 -1.019820e-01 -2.093071e-01
<VARIANCE> 20
 7.584222e-01 7.311869e-01 4.974918e-01 3.221421e-01 2.434717e-01 1.779254e-01 1.742247e-01 1.333700e-01 1.541408e-01 1.440391e-01 1.308618e-01 1.581520e-01 1.229719e-01 1.518377e-01 1.303599e-01 1.365352e-01 1.269366e-01 1.232829e-01 1.170742e-01 1.284314e-01
<GCONST> 3.386428e+00
<STATE> 3
<MEAN> 20
 -3.932938e+01 -3.045368e+00 -3.280053e-01 -5.294327e-01 -1.112993e+00 3.745629e-01 -8.540494e-01 3.160705e-01 -8.406110e-01 1.914114e-02 -5.319362e-01 -2.799034e-01 -4.561581e-01 -1.424377e-01 -1.199295e-01 -1.407623e-01 -2.340317e-01 -1.245959e-01 -1.352868e-01 -1.847403e-01
<VARIANCE> 20
 2.717385e+00 2.112011e+00 1.060098e+00 3.915338e-01 4.107631e-01 3.154976e-01 2.432563e-01 2.144876e-01 2.419665e-01 2.031079e-01 2.386010e-01 2.282643e-01 2.032462e-01 2.020970e-01 1.372875e-01 1.186235e-01 1.294048e-01 1.758081e-01 1.722823e-01 1.344384e-01
<GCONST> 1.184759e+01
<STATE> 4
<MEAN> 20
 -2.948257e+01 -1.286275e+00 8.805523e-01 1.865139e+00 -2.044821e+00 6.862186e-01 -1.259388e+00 4.095643e-01 -1.368932e+00 4.146028e-01 -6.311264e-01 -4.688370e-03 -5.452213e-01 -4.270903e-02 2.150024e-01 -1.398212e-01 -5.692384e-01 -1.235801e-01 2.264438e-02 -3.725231e-01
<VARIANCE> 20
 2.692209e+01 4.141911e+00 3.355189e+00 2.311610e+00 3.421110e+00 1.245354e+00 1.322790e+00 8.310500e-01 7.600286e-01 5.440326e-01 4.157940e-01 3.866443e-01 3.996894e-01 1.919551e-01 2.190322e-01 2.917327e-01 2.804493e-01 3.113893e-01 2.057620e-01 1.715818e-01
<GCONST> 3.125338e+01
<STATE> 5
<MEAN> 20
 -2.534698e+01 6.735945e-01 3.520060e+00 5.401710e+00 -9.454862e-01 3.556327e-01 -3.225938e-02 -9.262680e-01 -1.237308e+00 5.086519e-01 -4.954707e-01 -6.226836e-01 -6.809613e-01 -9.465817e-01 -3.698405e-01 -6.328620e-01 -4.956379e-01 9.840807e-02 1.125988e-01 -1.010133e-04
<VARIANCE> 20
 1.252240e+01 4.358411e+00 1.492738e+00 1.663116e+00 8.127593e-01 1.356157e+00 7.593234e-01 5.359403e-01 5.469456e-01 3.534583e-01 2.382325e-01 2.992351e-01 3.162589e-01 3.090960e-01 2.487840e-01 2.125937e-01 1.875761e-01 1.557467e-01 1.853515e-01 1.993411e-01
<GCONST> 2.448414e+01
<STATE> 6
<MEAN> 20
 -2.200192e+01 7.549471e-01 4.265567e+00 5.729613e+00 -2.515285e+00 6.622458e-01 -1.614672e+00 -1.724792e+00 -1.241524e+00 3.413467e-01 -1.776116e-02 -3.761346e-01 -7.378329e-01 -5.246708e-01 -5.793022e-01 -5.190284e-01 -9.988370e-01 -4.219285e-01 8.580385e-02 -3.138109e-01
<VARIANCE> 20
 1.575061e+01 5.189384e+00 2.426457e+00 1.935752e+00 1.436669e+00 1.016706e+00 7.048161e-01 6.673640e-01 4.514818e-01 4.576803e-01 8.009481e-01 1.020435e+00 5.988841e-01 4.122317e-01 3.417816e-01 2.879116e-01 3.381817e-01 3.513395e-01 3.109607e-01 2.835017e-01
<GCONST> 3.227775e+01
<STATE> 7
<MEAN> 20
 -2.367772e+01 5.449869e+00 2.115785e+00 2.501746e+00 -3.173219e+00 1.351837e+00 -2.540010e+00 -1.218169e+00 -8.428723e-01 1.044353e+00 9.269943e-01 -1.348442e+00 -1.576765e+00 -6.370918e-01 5.744464e-01 -1.239969e+00 -1.057589e+00 -1.372788e-01 8.185472e-02 -3.378627e-01
<VARIANCE> 20
 8.095616e+00 4.232694e+00 1.978468e+00 3.877230e+00 3.134925e+00 2.625782e+00 7.584829e-01 1.357051e+00 9.008089e-01 8.078275e-01 9.822088e-01 8.383836e-01 7.974240e-01 6.848155e-01 5.000256e-01 5.345382e-01 5.736780e-01 3.455030e-01 3.290093e-01 3.236937e-01
<GCONST> 3.817142e+01
<STATE> 8
<MEAN> 20
 -1.738865e+01 1.310960e+00 3.326213e+00 1.288971e+00 -1.635511e+00 -1.140858e+00 -1.323690e+00 1.120160e+00 -1.317115e+00 4.497427e-02 3.967163e-01 1.402343e-02 -1.464302e+00 -1.618757e+00 -7.114850e-01 -1.380233e-01 -1.202754e+00 -4.549605e-01 2.428697e-01 1.303157e-01
<VARIANCE> 20
 2.810076e+00 2.914600e+00 2.589246e+00 1.706571e+00 2.630686e+00 1.493477e+00 7.457961e-01 1.253965e+00 7.128121e-01 4.866589e-01 5.668850e-01 6.941166e-01 7.475108e-01 3.084448e-01 6.575916e-01 7.271979e-01 4.083743e-01 2.582180e-01 5.541438e-01 2.154586e-01
<GCONST> 3.307645e+01
<STATE> 9
<MEAN> 20
 -2.114581e+01 5.089363e+00 -1.583224e-01 5.193117e-03 -4.309686e+00 2.229654e+00 -8.999600e-01 6.712210e-01 -6.173702e-01 2.076905e-01 1.961042e-01 -6.128720e-01 -1.299279e+00 -1.214759e+00 3.250085e-03 -4.681392e-01 -1.120174e+00 -3.620083e-01 4.654672e-01 1.844981e-01
<VARIANCE> 20
 5.431926e+00 3.514488e+00 2.773865e+00 1.810075e+00 2.985962e+00 3.108620e+00 5.189999e-01 6.264462e-01 7.720643e-01 7.421441e-01 6.266111e-01 6.761825e-01 1.122487e+00 6.607112e-01 3.823741e-01 4.662446e-01 4.462740e-01 5.019996e-01 2.906528e-01 2.789904e-01
<GCONST> 3.497779e+01
<STATE> 10
<MEAN> 20
 -2.736877e+01 3.115253e+00 6.089466e-01 6.099352e-01 -2.664870e+00 2.504339e+00 -1.065334e+00 1.243803e+00 -1.135992e-01 1.378313e+00 -3.251655e-01 3.887892e-01 -5.614470e-01 -8.895546e-01 -4.098020e-01 -6.996677e-01 -5.662133e-01 -4.920079e-01 -3.497694e-01 -1.444363e-01
<VARIANCE> 20
 4.257850e+00 1.982224e+00 1.743620e+00 1.389567e+00 1.206144e+00 1.265101e+00 8.638501e-01 5.398352e-01 6.650102e-01 9.281687e-01 5.814030e-01 4.983493e-01 5.209932e-01 4.326179e-01 2.630732e-01 3.297904e-01 4.217134e-01 3.260473e-01 3.882690e-01 2.519789e-01
<GCONST> 2.947080e+01
<STATE> 11
<MEAN> 20
 -2.547736e+01 3.832137e-01 3.510232e+00 9.585786e-01 -8.346260e-01 7.953516e-01 -1.118840e-01 1.425248e+00 -5.779411e-01 -2.557290e-01 -5.976932e-02 8.820124e-01 -5.573343e-01 -7.992465e-01 -7.921520e-01 -8.938472e-02 -6.838123e-01 -5.904835e-01 2.132151e-01 1.770032e-01
<VARIANCE> 20
 5.989130e+00 1.372463e+00 1.005329e+00 1.470439e+00 1.151310e+00 6.679204e-01 1.058473e+00 5.852704e-01 7.091678e-01 8.640010e-01 5.489992e-01 4.626945e-01 3.656712e-01 3.800559e-01 4.311722e-01 3.838030e-01 2.294098e-01 2.159980e-01 1.748004e-01 1.627511e-01
<GCONST> 2.631653e+01
<STATE> 12
<MEAN> 20
 -2.607105e+01 -3.062912e-01 4.136101e+00 8.176560e-01 -1.648651e+00 8.988440e-01 3.306392e-02 1.125800e+00 -1.200947e+00 3.405919e-01 4.890484e-01 5.783594e-01 -4.790107e-01 -7.214545e-01 -6.183062e-01 -1.178034e-01 -7.270680e-01 -2.728889e-02 1.605331e-01 -1.448085e-01
<VARIANCE> 20
 5.118243e+00 1.718195e+00 1.369324e+00 9.935139e-01 9.300797e-01 7.704909e-01 5.699638e-01 6.386274e-01 3.702942e-01 6.564711e-01 3.105962e-01 3.543469e-01 5.068763e-01 3.253171e-01 2.354274e-01 2.745900e-01 1.767602e-01 2.490298e-01 2.269832e-01 1.697134e-01
<GCONST> 2.335359e+01
<STATE> 13
<MEAN> 20
 -3.243916e+01 1.393167e+00 7.556863e-01 1.526977e+00 -1.778849e+00 2.616634e+00 -2.836639e-01 1.569250e+00 -3.022001e-01 2.072342e+00 7.032448e-01 7.673497e-01 -8.237434e-01 -4.404953e-01 -1.546719e-01 -3.163199e-01 -6.878453e-02 -1.072123e+00 -2.921402e-01 -1.792819e-01
<VARIANCE> 20
 5.914071e+00 1.683462e+00 1.453178e+00 6.797470e-01 8.957688e-01 7.564522e-01 5.272703e-01 2.908664e-01 4.304866e-01 6.644325e-01 3.266888e-01 2.548771e-01 2.509525e-01 3.275117e-01 2.240677e-01 2.924150e-01 2.486360e-01 4.291508e-01 2.356188e-01 1.857901e-01
<GCONST> 2.245144e+01
<STATE> 14
<MEAN> 20
 -3.104148e+01 -2.176420e+00 2.630731e+00 1.703002e+00 -7.664122e-01 9.837577e-01 5.162302e-01 7.128779e-01 -4.097201e-01 9.896473e-01 8.248501e-01 6.263097e-01 -3.521918e-01 -1.152665e-01 -7.962899e-02 2.182061e-01 -2.993722e-02 5.331786e-02 5.291090e-02 -2.484788e-02
<VARIANCE> 20
 7.877832e+00 2.513779e+00 1.119454e+00 9.369400e-01 8.505759e-01 6.410413e-01 4.842251e-01 4.067040e-01 3.069232e-01 3.988979e-01 2.060585e-01 1.814703e-01 3.144772e-01 3.424763e-01 2.125908e-01 2.365015e-01 1.500118e-01 2.252388e-01 1.996598e-01 2.624804e-01
<GCONST> 2.061831e+01
<STATE> 15
<MEAN> 20
 -3.755234e+01 -4.588787e-01 -2.704092e-01 1.340928e+00 -1.022969e+00 1.698498e+00 -2.754481e-01 1.200128e+00 -1.173008e-01 1.412965e+00 6.229628e-01 4.008717e-01 -1.850993e-01 1.700961e-01 2.226808e-01 -3.815928e-03 -1.441999e-03 -2.370948e-01 1.201198e-01 -1.493169e-01
<VARIANCE> 20
 5.729542e+00 1.803511e+00 1.218792e+00 2.376045e-01 3.385365e-01 3.877947e-01 1.660021e-01 3.730877e-01 1.570690e-01 2.855914e-01 2.487488e-01 1.854530e-01 1.424235e-01 2.154245e-01 1.535190e-01 2.093312e-01 1.551086e-01 2.010688e-01 1.405585e-01 1.226850e-01
<GCONST> 1.241113e+01
<STATE> 16
<MEAN> 20
 -3.645737e+01 -2.795245e+00 4.305617e-01 -7.677666e-02 -1.621080e+00 1.728532e-01 -1.084098e+00 1.155156e-01 -7.202926e-01 2.292902e-01 1.533263e-01 -4.693110e-02 -3.737966e-01 -1.742575e-01 -2.645658e-01 -2.643035e-02 -2.220189e-01 9.684888e-02 1.013737e-01 2.280591e-02
<VARIANCE> 20
 8.277517e+00 1.526519e+00 9.348906e-01 5.348380e-01 5.638711e-01 4.351988e-01 4.606471e-01 3.163824e-01 3.206352e-01 2.414451e-01 2.669714e-01 1.727930e-01 1.828853e-01 1.527349e-01 1.699263e-01 1.648108e-01 1.285959e-01 1.709919e-01 1.429339e-01 1.448992e-01
<GCONST> 1.478771e+01
<STATE> 17
<MEAN> 20
 -4.047460e+01 -1.294061e+00 -1.904617e+00 5.110517e-01 -1.648320e+00 7.578887e-01 -9.529085e-01 3.065044e-01 -6.076021e-01 2.086678e-01 -3.426693e-02 -2.491774e-01 -2.864848e-01 -2.370053e-01 -1.242373e-01 -3.165757e-01 -3.108763e-01 -2.119484e-01 -6.878967e-02 -2.230501e-01
<VARIANCE> 20
 1.816342e+00 7.268702e-01 6.078271e-01 2.436534e-01 2.008640e-01 2.476501e-01 1.704786e-01 1.894600e-01 1.725923e-01 2.636514e-01 1.901407e-01 1.499969e-01 1.556595e-01 1.480748e-01 1.542353e-01 1.317002e-01 1.348327e-01 1.128953e-01 1.244996e-01 1.413883e-01
<GCONST> 6.153477e+00
<TRANSP> 18
 0.000000e+00 1.000000e+00 0.000000e+00 0.000000e+00 0.000000e+00 0.000000e+00 0.000000e+00 0.000000e+00 0.000000e+00 0.000000e+00 0.000000e+00 0.000000e+00 0.000000e+00 0.000000e+00 0.000000e+00 0.000000e+00 0.000000e+00 0.000000e+00
 0.000000e+00 8.907104e-01 1.092896e-01 0.000000e+00 0.000000e+00 0.000000e+00 0.000000e+00 0.000000e+00 0.000000e+00 0.000000e+00 0.000000e+00 0.000000e+00 0.000000e+00 0.000000e+00 0.000000e+00 0.000000e+00 0.000000e+00 0.000000e+00
 0.000000e+00 0.000000e+00 8.230088e-01 1.769911e-01 0.000000e+00 0.000000e+00 0.000000e+00 0.000000e+00 0.000000e+00 0.000000e+00 0.000000e+00 0.000000e+00 0.000000e+00 0.000000e+00 0.000000e+00 0.000000e+00 0.000000e+00 0.000000e+00
 0.000000e+00 0.000000e+00 0.000000e+00 7.752809e-01 2.247191e-01 0.000000e+00 0.000000e+00 0.000000e+00 0.000000e+00 0.000000e+00 0.000000e+00 0.000000e+00 0.000000e+00 0.000000e+00 0.000000e+00 0.000000e+00 0.000000e+00 0.000000e+00
 0.000000e+00 0.000000e+00 0.000000e+00 0.000000e+00 8.095238e-01 1.904762e-01 0.000000e+00 0.000000e+00 0.000000e+00 0.000000e+00 0.000000e+00 0.000000e+00 0.000000e+00 0.000000e+00 0.000000e+00 0.000000e+00 0.000000e+00 0.000000e+00
 0.000000e+00 0.000000e+00 0.000000e+00 0.000000e+00 0.000000e+00 7.142857e-01 2.857143e-01 0.000000e+00 0.000000e+00 0.000000e+00 0.000000e+00 0.000000e+00 0.000000e+00 0.000000e+00 0.000000e+00 0.000000e+00 0.000000e+00 0.000000e+00
 0.000000e+00 0.000000e+00 0.000000e+00 0.000000e+00 0.000000e+00 0.000000e+00 7.979798e-01 2.020202e-01 0.000000e+00 0.000000e+00 0.000000e+00 0.000000e+00 0.000000e+00 0.000000e+00 0.000000e+00 0.000000e+00 0.000000e+00 0.000000e+00
 0.000000e+00 0.000000e+00 0.000000e+00 0.000000e+00 0.000000e+00 0.000000e+00 0.000000e+00 8.333333e-01 1.666667e-01 0.000000e+00 0.000000e+00 0.000000e+00 0.000000e+00 0.000000e+00 0.000000e+00 0.000000e+00 0.000000e+00 0.000000e+00
 0.000000e+00 0.000000e+00 0.000000e+00 0.000000e+00 0.000000e+00 0.000000e+00 0.000000e+00 0.000000e+00 8.113208e-01 1.886792e-01 0.000000e+00 0.000000e+00 0.000000e+00 0.000000e+00 0.000000e+00 0.000000e+00 0.000000e+00 0.000000e+00
 0.000000e+00 0.000000e+00 0.000000e+00 0.000000e+00 0.000000e+00 0.000000e+00 0.000000e+00 0.000000e+00 0.000000e+00 8.540146e-01 1.459854e-01 0.000000e+00 0.000000e+00 0.000000e+00 0.000000e+00 0.000000e+00 0.000000e+00 0.000000e+00
 0.000000e+00 0.000000e+00 0.000000e+00 0.000000e+00 0.000000e+00 0.000000e+00 0.000000e+00 0.000000e+00 0.000000e+00 0.000000e+00 7.872341e-01 2.127660e-01 0.000000e+00 0.000000e+00 0.000000e+00 0.000000e+00 0.000000e+00 0.000000e+00
 0.000000e+00 0.000000e+00 0.000000e+00 0.000000e+00 0.000000e+00 0.000000e+00 0.000000e+00 0.000000e+00 0.000000e+00 0.000000e+00 0.000000e+00 8.165138e-01 1.834862e-01 0.000000e+00 0.000000e+00 0.000000e+00 0.000000e+00 0.000000e+00
 0.000000e+00 0.000000e+00 0.000000e+00 0.000000e+00 0.000000e+00 0.000000e+00 0.000000e+00 0.000000e+00 0.000000e+00 0.000000e+00 0.000000e+00 0.000000e+00 8.076923e-01 1.923077e-01 0.000000e+00 0.000000e+00 0.000000e+00 0.000000e+00
 0.000000e+00 0.000000e+00 0.000000e+00 0.000000e+00 0.000000e+00 0.000000e+00 0.000000e+00 0.000000e+00 0.000000e+00 0.000000e+00 0.000000e+00 0.000000e+00 0.000000e+00 7.979798e-01 2.020202e-01 0.000000e+00 0.000000e+00 0.000000e+00
 0.000000e+00 0.000000e+00 0.000000e+00 0.000000e+00 0.000000e+00 0.000000e+00 0.000000e+00 0.000000e+00 0.000000e+00 0.000000e+00 0.000000e+00 0.000000e+00 0.000000e+00 0.000000e+00 6.875000e-01 3.125000e-01 0.000000e+00 0.000000e+00
 0.000000e+00 0.000000e+00 0.000000e+00 0.000000e+00 0.000000e+00 0.000000e+00 0.000000e+00 0.000000e+00 0.000000e+00 0.000000e+00 0.000000e+00 0.000000e+00 0.000000e+00 0.000000e+00 0.000000e+00 8.437500e-01 1.562500e-01 0.000000e+00
 0.000000e+00 0.000000e+00 0.000000e+00 0.000000e+00 0.000000e+00 0.000000e+00 0.000000e+00 0.000000e+00 0.000000e+00 0.000000e+00 0.000000e+00 0.000000e+00 0.000000e+00 0.000000e+00 0.000000e+00 0.000000e+00 8.496241e-01 1.503759e-01
 0.000000e+00 0.000000e+00 0.000000e+00 0.000000e+00 0.000000e+00 0.000000e+00 0.000000e+00 0.000000e+00 0.000000e+00 0.000000e+00 0.000000e+00 0.000000e+00 0.000000e+00 0.000000e+00 0.000000e+00 0.000000e+00 0.000000e+00 0.000000e+00
<ENDHMM>
