~o
<STREAMINFO> 1 15
<VECSIZE> 15<NULLD><MFCC><DIAGC>
~h "Brennan"
<BEGINHMM>
<NUMSTATES> 18
<STATE> 2
<MEAN> 15
 -3.515011e+01 -1.734718e+00 -8.672719e-01 -2.044385e-01 -7.577929e-01 2.620491e-01 -5.504500e-01 5.929950e-02 -5.465663e-01 1.372791e-01 -4.273866e-01 -1.195865e-01 -3.359137e-01 7.717656e-02 -2.749113e-01
<VARIANCE> 15
 6.010653e-01 4.905682e-01 2.899485e-01 2.800519e-01 1.722455e-01 2.048221e-01 1.204803e-01 9.802049e-02 1.203102e-01 1.184313e-01 1.238829e-01 1.110104e-01 1.070404e-01 1.036556e-01 8.861267e-02
<GCONST> 5.904193e-01
<STATE> 3
<MEAN> 15
 -3.402625e+01 -3.021323e+00 2.024115e-01 -9.963214e-01 -2.269521e-01 -2.766946e-01 -2.715106e-01 -1.340224e-01 -4.585046e-01 -5.460500e-02 -4.780813e-01 -1.435443e-01 -2.976765e-01 1.390030e-02 -2.240431e-01
<VARIANCE> 15
 1.481808e+00 7.530330e-01 5.275266e-01 2.624155e-01 2.427124e-01 1.441237e-01 1.850438e-01 1.570446e-01 1.506367e-01 1.784920e-01 1.722879e-01 1.701151e-01 1.428669e-01 8.443160e-02 9.723886e-02
<GCONST> 4.914835e+00
<STATE> 4
<MEAN> 15
 -2.515083e+01 -2.043955e+00 1.948597e+00 1.983084e-01 -8.910300e-01 -1.184647e-01 -4.720184e-01 -4.163033e-01 -6.017501e-01 9.607499e-02 -4.781647e-01 -6.689081e-02 -3.992178e-01 3.795347e-01 -2.036493e-01
<VARIANCE> 15
 2.059209e+01 1.870902e+00 1.470035e+00 1.859329e+00 1.837949e+00 8.042090e-01 7.597695e-01 8.392872e-01 4.824139e-01 3.256557e-01 2.715850e-01 2.096774e-01 1.946879e-01 1.843592e-01 2.038708e-01
<GCONST> 2.253177e+01
<STATE> 5
<MEAN> 15
 -2.136334e+01 9.705994e-02 4.486560e+00 3.828714e+00 -1.075748e+00 5.810946e-01 -1.507658e-01 -1.142289e+00 -1.968077e-01 3.009308e-01 -7.811162e-01 -2.418396e-01 -9.451608e-01 -2.674405e-01 -5.174807e-01
<VARIANCE> 15
 7.954556e+00 1.914532e+00 1.023492e+00 9.521670e-01 6.160671e-01 7.461154e-01 3.955496e-01 3.532515e-01 3.041649e-01 2.353203e-01 1.678891e-01 2.443643e-01 1.710062e-01 1.609838e-01 1.375634e-01
<GCONST> 1.611353e+01
<STATE> 6
<MEAN> 15
 -1.785767e+01 -8.810772e-02 5.585032e+00 3.460803e+00 -1.685798e+00 2.211852e-01 -1.682289e+00 -1.017105e+00 -3.904088e-01 4.126042e-01 -2.283052e-01 -3.297332e-01 -8.323897e-01 -4.670698e-01 -5.369442e-01
<VARIANCE> 15
 1.379046e+01 3.007948e+00 2.359581e+00 1.062121e+00 1.347367e+00 1.356294e+00 2.496100e-01 3.232560e-01 3.823318e-01 4.908775e-01 3.599963e-01 5.801727e-01 3.525367e-01 1.862931e-01 2.035608e-01
<GCONST> 2.274394e+01
<STATE> 7
<MEAN> 15
 -2.033875e+01 3.279002e+00 3.360150e+00 1.778722e+00 -1.203798e+00 6.537459e-01 -2.592120e+00 -9.887491e-01 -6.588239e-02 1.240744e+00 -8.622800e-01 -1.136860e+00 -5.172792e-01 4.403747e-01 -8.735399e-01
<VARIANCE> 15
 7.331810e+00 1.583754e+00 9.785018e-01 2.027726e+00 1.403726e+00 1.619655e+00 1.161231e+00 7.672381e-01 5.001441e-01 8.549652e-01 5.695333e-01 4.652829e-01 4.015752e-01 4.402979e-01 4.834105e-01
<GCONST> 2.677407e+01
<STATE> 8
<MEAN> 15
 -1.674631e+01 4.051020e+00 1.319390e+00 -1.489723e+00 -2.405468e+00 1.177318e+00 -1.405525e+00 4.439669e-01 -5.557473e-01 1.259450e+00 -6.158594e-01 -1.285814e+00 -1.395200e+00 3.279994e-01 -7.252365e-01
<VARIANCE> 15
 4.231599e+00 1.892056e+00 2.171350e+00 2.988023e+00 7.828255e-01 2.817200e+00 8.131446e-01 4.179182e-01 6.587103e-01 6.394457e-01 4.767132e-01 7.692415e-01 4.348897e-01 4.185398e-01 3.660468e-01
<GCONST> 2.665349e+01
<STATE> 9
<MEAN> 15
 -1.519604e+01 1.070136e+00 3.105489e+00 -8.433385e-02 -9.926072e-01 -1.249232e+00 3.067318e-01 2.367474e-01 -9.668458e-01 4.628735e-01 1.186683e-01 -6.980293e-01 -1.621677e+00 -6.643636e-01 -1.082004e-01
<VARIANCE> 15
 3.456215e+00 1.375231e+00 2.703923e+00 1.328547e+00 1.239916e+00 2.301514e+00 5.647449e-01 4.132234e-01 7.254617e-01 3.172072e-01 3.865063e-01 4.358665e-01 2.755375e-01 4.119046e-01 5.808988e-01
<GCONST> 2.402986e+01
<STATE> 10
<MEAN> 15
 -2.204590e+01 1.951747e+00 1.496925e+00 -1.218202e+00 -6.205326e-01 1.405283e+00 -3.627176e-01 8.701944e-01 4.473767e-01 7.022284e-01 -2.880049e-01 1.238379e-01 -1.038724e+00 -2.266061e-01 -6.545501e-01
<VARIANCE> 15
 4.386013e+00 1.500120e+00 1.280751e+00 1.197732e+00 8.948143e-01 7.360485e-01 5.439386e-01 3.440848e-01 6.122268e-01 4.805126e-01 4.018733e-01 4.047475e-01 3.001363e-01 2.095933e-01 2.594983e-01
<GCONST> 2.063184e+01
<STATE> 11
<MEAN> 15
 -2.241387e+01 3.948801e-01 3.728094e+00 -5.668387e-02 3.608449e-02 1.997811e-01 6.481070e-01 8.726048e-01 -7.336991e-01 1.094002e-02 6.406205e-01 7.795743e-02 -8.203999e-01 -5.058992e-01 -2.346551e-01
<VARIANCE> 15
 2.730319e+00 4.606088e-01 9.741809e-01 1.157796e+00 7.173863e-01 5.404280e-01 6.464561e-01 3.497555e-01 6.707923e-01 2.796006e-01 5.551853e-01 2.247775e-01 3.286977e-01 3.038304e-01 3.413045e-01
<GCONST> 1.834975e+01
<STATE> 12
<MEAN> 15
 -2.266420e+01 -3.686198e-01 3.887762e+00 -1.966629e-01 -4.548679e-01 6.450695e-01 8.029804e-01 -1.155026e-01 -3.802603e-01 7.623667e-01 4.673348e-01 2.901239e-02 -8.760365e-01 -4.914280e-01 -2.408073e-01
<VARIANCE> 15
 5.504143e+00 1.048092e+00 6.945703e-01 1.133324e+00 6.702988e-01 4.981944e-01 3.563754e-01 2.793846e-01 4.105778e-01 2.820907e-01 2.678055e-01 2.747124e-01 2.731571e-01 2.301237e-01 2.146583e-01
<GCONST> 1.660679e+01
<STATE> 13
<MEAN> 15
 -2.712075e+01 3.405525e-01 1.988836e+00 -1.792466e-01 4.647139e-02 1.453640e+00 3.973150e-01 6.145207e-01 7.606726e-01 1.556362e+00 3.357652e-01 -9.371264e-02 -8.066054e-01 8.598914e-02 -4.787131e-01
<VARIANCE> 15
 3.218431e+00 1.096564e+00 8.432732e-01 5.943864e-01 9.045436e-01 3.307627e-01 3.283612e-01 2.641253e-01 2.556946e-01 4.035570e-01 3.389228e-01 2.290209e-01 1.681391e-01 2.251344e-01 2.226736e-01
<GCONST> 1.488369e+01
<STATE> 14
<MEAN> 15
 -2.739803e+01 -2.218600e+00 2.616432e+00 5.837734e-01 -8.394692e-02 8.732834e-01 6.138749e-01 1.675081e-01 2.421423e-01 1.059111e+00 6.318138e-01 -8.688898e-03 -1.063178e-01 7.399513e-02 6.850898e-02
<VARIANCE> 15
 5.578199e+00 1.826890e+00 6.783085e-01 8.764164e-01 8.053292e-01 3.390324e-01 2.201563e-01 5.290986e-01 2.309805e-01 1.983718e-01 1.490585e-01 2.166943e-01 1.686325e-01 9.242672e-02 9.996685e-02
<GCONST> 1.294140e+01
<STATE> 15
<MEAN> 15
 -3.178000e+01 -9.879940e-01 8.034407e-01 2.944978e-01 1.074370e-01 9.790632e-01 2.991003e-01 7.277791e-01 5.015493e-01 1.267309e+00 2.178519e-01 1.018339e-01 -1.654662e-01 3.237006e-01 -1.338639e-01
<VARIANCE> 15
 3.510649e+00 9.940562e-01 7.452652e-01 1.466715e-01 2.976606e-01 2.399212e-01 1.134895e-01 2.599819e-01 1.384819e-01 3.032213e-01 1.460218e-01 1.537510e-01 1.532590e-01 1.270524e-01 2.088478e-01
<GCONST> 7.970324e+00
<STATE> 16
<MEAN> 15
 -3.026453e+01 -2.765527e+00 1.344663e+00 -7.790661e-01 -1.031808e+00 -1.759900e-01 -6.447512e-01 -6.884362e-02 -3.084719e-01 6.058877e-01 5.470306e-03 -2.224512e-01 -2.500859e-01 -2.249762e-01 -1.053400e-01
<VARIANCE> 15
 4.968098e+00 1.126559e+00 6.822932e-01 5.213140e-01 4.961476e-01 3.686434e-01 3.283125e-01 3.214233e-01 1.721008e-01 2.561416e-01 1.335971e-01 1.753624e-01 1.285980e-01 1.579778e-01 1.429441e-01
<GCONST> 1.159188e+01
<STATE> 17
<MEAN> 15
 -3.429280e+01 -1.987658e+00 -5.522858e-01 -4.238559e-01 -6.597157e-01 8.976143e-02 -5.091041e-01 3.661144e-02 -4.288062e-01 3.199841e-01 -3.366555e-01 -1.052568e-01 -2.943106e-01 -2.896891e-02 -2.813627e-01
<VARIANCE> 15
 1.388910e+00 5.047678e-01 5.719823e-01 2.920600e-01 1.948531e-01 2.938602e-01 1.837053e-01 1.827279e-01 1.814847e-01 1.733706e-01 1.156147e-01 1.144904e-01 1.197168e-01 1.028571e-01 1.018891e-01
<GCONST> 4.704659e+00
<TRANSP> 18
 0.000000e+00 1.000000e+00 0.000000e+00 0.000000e+00 0.000000e+00 0.000000e+00 0.000000e+00 0.000000e+00 0.000000e+00 0.000000e+00 0.000000e+00 0.000000e+00 0.000000e+00 0.000000e+00 0.000000e+00 0.000000e+00 0.000000e+00 0.000000e+00
 0.000000e+00 8.969072e-01 1.030928e-01 0.000000e+00 0.000000e+00 0.000000e+00 0.000000e+00 0.000000e+00 0.000000e+00 0.000000e+00 0.000000e+00 0.000000e+00 0.000000e+00 0.000000e+00 0.000000e+00 0.000000e+00 0.000000e+00 0.000000e+00
 0.000000e+00 0.000000e+00 7.979798e-01 2.020202e-01 0.000000e+00 0.000000e+00 0.000000e+00 0.000000e+00 0.000000e+00 0.000000e+00 0.000000e+00 0.000000e+00 0.000000e+00 0.000000e+00 0.000000e+00 0.000000e+00 0.000000e+00 0.000000e+00
 0.000000e+00 0.000000e+00 0.000000e+00 7.826087e-01 2.173913e-01 0.000000e+00 0.000000e+00 0.000000e+00 0.000000e+00 0.000000e+00 0.000000e+00 0.000000e+00 0.000000e+00 0.000000e+00 0.000000e+00 0.000000e+00 0.000000e+00 0.000000e+00
 0.000000e+00 0.000000e+00 0.000000e+00 0.000000e+00 7.701150e-01 2.298851e-01 0.000000e+00 0.000000e+00 0.000000e+00 0.000000e+00 0.000000e+00 0.000000e+00 0.000000e+00 0.000000e+00 0.000000e+00 0.000000e+00 0.000000e+00 0.000000e+00
 0.000000e+00 0.000000e+00 0.000000e+00 0.000000e+00 0.000000e+00 7.014925e-01 2.985075e-01 0.000000e+00 0.000000e+00 0.000000e+00 0.000000e+00 0.000000e+00 0.000000e+00 0.000000e+00 0.000000e+00 0.000000e+00 0.000000e+00 0.000000e+00
 0.000000e+00 0.000000e+00 0.000000e+00 0.000000e+00 0.000000e+00 0.000000e+00 7.826087e-01 2.173913e-01 0.000000e+00 0.000000e+00 0.000000e+00 0.000000e+00 0.000000e+00 0.000000e+00 0.000000e+00 0.000000e+00 0.000000e+00 0.000000e+00
 0.000000e+00 0.000000e+00 0.000000e+00 0.000000e+00 0.000000e+00 0.000000e+00 0.000000e+00 8.198198e-01 1.801802e-01 0.000000e+00 0.000000e+00 0.000000e+00 0.000000e+00 0.000000e+00 0.000000e+00 0.000000e+00 0.000000e+00 0.000000e+00
 0.000000e+00 0.000000e+00 0.000000e+00 0.000000e+00 0.000000e+00 0.000000e+00 0.000000e+00 0.000000e+00 8.333333e-01 1.666667e-01 0.000000e+00 0.000000e+00 0.000000e+00 0.000000e+00 0.000000e+00 0.000000e+00 0.000000e+00 0.000000e+00
 0.000000e+00 0.000000e+00 0.000000e+00 0.000000e+00 0.000000e+00 0.000000e+00 0.000000e+00 0.000000e+00 0.000000e+00 8.675497e-01 1.324503e-01 0.000000e+00 0.000000e+00 0.000000e+00 0.000000e+00 0.000000e+00 0.000000e+00 0.000000e+00
 0.000000e+00 0.000000e+00 0.000000e+00 0.000000e+00 0.000000e+00 0.000000e+00 0.000000e+00 0.000000e+00 0.000000e+00 0.000000e+00 8.095238e-01 1.904762e-01 0.000000e+00 0.000000e+00 0.000000e+00 0.000000e+00 0.000000e+00 0.000000e+00
 0.000000e+00 0.000000e+00 0.000000e+00 0.000000e+00 0.000000e+00 0.000000e+00 0.000000e+00 0.000000e+00 0.000000e+00 0.000000e+00 0.000000e+00 8.540146e-01 1.459854e-01 0.000000e+00 0.000000e+00 0.000000e+00 0.000000e+00 0.000000e+00
 0.000000e+00 0.000000e+00 0.000000e+00 0.000000e+00 0.000000e+00 0.000000e+00 0.000000e+00 0.000000e+00 0.000000e+00 0.000000e+00 0.000000e+00 0.000000e+00 7.959183e-01 2.040816e-01 0.000000e+00 0.000000e+00 0.000000e+00 0.000000e+00
 0.000000e+00 0.000000e+00 0.000000e+00 0.000000e+00 0.000000e+00 0.000000e+00 0.000000e+00 0.000000e+00 0.000000e+00 0.000000e+00 0.000000e+00 0.000000e+00 0.000000e+00 6.774194e-01 3.225806e-01 0.000000e+00 0.000000e+00 0.000000e+00
 0.000000e+00 0.000000e+00 0.000000e+00 0.000000e+00 0.000000e+00 0.000000e+00 0.000000e+00 0.000000e+00 0.000000e+00 0.000000e+00 0.000000e+00 0.000000e+00 0.000000e+00 0.000000e+00 7.368421e-01 2.631579e-01 0.000000e+00 0.000000e+00
 0.000000e+00 0.000000e+00 0.000000e+00 0.000000e+00 0.000000e+00 0.000000e+00 0.000000e+00 0.000000e+00 0.000000e+00 0.000000e+00 0.000000e+00 0.000000e+00 0.000000e+00 0.000000e+00 0.000000e+00 7.560976e-01 2.439025e-01 0.000000e+00
 0.000000e+00 0.000000e+00 0.000000e+00 0.000000e+00 0.000000e+00 0.000000e+00 0.000000e+00 0.000000e+00 0.000000e+00 0.000000e+00 0.000000e+00 0.000000e+00 0.000000e+00 0.000000e+00 0.000000e+00 0.000000e+00 8.888889e-01 1.111111e-01
 0.000000e+00 0.000000e+00 0.000000e+00 0.000000e+00 0.000000e+00 0.000000e+00 0.000000e+00 0.000000e+00 0.000000e+00 0.000000e+00 0.000000e+00 0.000000e+00 0.000000e+00 0.000000e+00 0.000000e+00 0.000000e+00 0.000000e+00 0.000000e+00
<ENDHMM>
