~o
<STREAMINFO> 1 20
<VECSIZE> 20<NULLD><MFCC><DIAGC>
~h "Felipe"
<BEGINHMM>
<NUMSTATES> 18
<STATE> 2
<MEAN> 20
 -3.861282e+01 -2.502459e+00 -9.872134e-01 1.276284e-01 -1.829815e+00 5.598638e-01 -1.272378e+00 3.181172e-01 -8.847289e-01 1.116674e-01 -1.179189e-01 -2.324993e-01 -2.895141e-01 -1.466066e-01 -1.254052e-01 -3.812872e-01 -3.631369e-01 -2.299503e-01 -8.409347e-02 -1.143548e-01
<VARIANCE> 20
 8.464326e+00 2.761341e+00 1.846988e+00 7.536297e-01 1.178849e+00 3.726183e-01 4.683419e-01 2.675374e-01 2.130605e-01 2.597950e-01 2.432072e-01 1.770949e-01 1.841188e-01 1.873443e-01 1.774814e-01 1.724742e-01 1.575353e-01 1.557467e-01 1.342361e-01 1.318454e-01
<GCONST> 1.670586e+01
<STATE> 3
<MEAN> 20
 -2.672159e+01 -6.306592e+00 1.004246e+00 -1.822965e+00 -1.945236e+00 3.247032e-02 -1.811740e+00 -1.519556e-01 -1.397588e+00 -4.928681e-02 -3.364080e-01 -1.546858e-01 -6.037996e-01 -2.905341e-02 -2.450277e-01 -6.888581e-01 -6.040576e-01 1.380931e-01 5.635808e-02 -1.058300e-01
<VARIANCE> 20
 2.667983e+01 5.892663e+00 3.666839e+00 1.592644e+00 1.046204e+00 5.595327e-01 4.985527e-01 4.566849e-01 3.159458e-01 3.183841e-01 2.638564e-01 2.220493e-01 2.279693e-01 2.943024e-01 3.092795e-01 2.884263e-01 2.064618e-01 2.076461e-01 1.304252e-01 2.211159e-01
<GCONST> 2.461661e+01
<STATE> 4
<MEAN> 20
 -2.717320e+01 -4.459347e+00 -2.054356e+00 4.304930e-01 -4.467338e+00 1.389410e+00 -2.401546e+00 1.447522e+00 -1.409513e+00 7.524748e-01 -9.349005e-01 2.533485e-02 -6.618909e-01 1.322299e-01 -4.879276e-01 -5.714776e-01 -7.137046e-01 1.362629e-01 6.913941e-03 -4.607626e-02
<VARIANCE> 20
 1.654502e+01 1.599328e+00 2.057625e+00 9.759094e-01 1.107216e+00 6.349968e-01 5.009688e-01 8.575908e-01 4.386820e-01 2.572080e-01 3.461581e-01 2.473833e-01 5.251445e-01 2.518992e-01 2.847940e-01 3.170878e-01 2.930132e-01 2.748774e-01 1.647987e-01 2.057182e-01
<GCONST> 2.456310e+01
<STATE> 5
<MEAN> 20
 -1.951753e+01 1.439164e+00 1.538802e+00 2.626888e+00 -3.049996e+00 2.110394e+00 -1.081539e+00 4.704433e-01 2.844138e-02 7.544389e-01 -7.455245e-01 -1.135757e+00 1.524910e-01 6.435169e-02 -5.527542e-01 -1.938317e+00 -1.231341e+00 -4.085947e-01 -2.252925e-01 -1.184602e-01
<VARIANCE> 20
 1.175285e+01 1.036227e+01 4.285384e+00 4.210400e+00 1.449935e+00 3.273229e+00 1.894916e+00 1.404253e+00 8.442780e-01 7.847835e-01 8.248515e-01 6.343632e-01 1.826991e+00 5.258012e-01 2.908252e-01 5.061071e-01 3.880542e-01 3.477089e-01 2.273059e-01 3.512342e-01
<GCONST> 3.944228e+01
<STATE> 6
<MEAN> 20
 -2.159776e+01 -1.806036e+00 3.090847e+00 3.355186e+00 -1.079760e+00 1.041856e+00 2.127725e-01 1.394052e-01 -4.348548e-02 6.389465e-01 -2.060035e-01 -7.785767e-02 1.934466e-01 1.348623e-01 -8.928783e-01 -1.070352e+00 -1.224116e+00 -7.730672e-01 -3.436217e-01 -3.034451e-01
<VARIANCE> 20
 7.271830e+00 3.032401e+00 2.363701e+00 1.771126e+00 9.263067e-01 1.220222e+00 6.478750e-01 4.226516e-01 5.204630e-01 5.132365e-01 4.214508e-01 3.480278e-01 4.032636e-01 4.288067e-01 1.847695e-01 3.806347e-01 3.000624e-01 2.935947e-01 2.123225e-01 1.540354e-01
<GCONST> 2.661137e+01
<STATE> 7
<MEAN> 20
 -2.579243e+01 7.240325e-01 9.961186e-02 1.824112e+00 -1.647261e+00 3.791345e+00 5.935377e-02 1.803912e+00 7.666981e-01 8.678639e-01 -1.072665e+00 -6.303539e-01 1.347813e-01 5.778674e-01 -4.065899e-01 -1.221329e+00 -9.315869e-01 -5.319673e-01 -4.229417e-01 -9.493662e-01
<VARIANCE> 20
 6.831075e+00 2.384064e+00 1.586096e+00 2.471322e+00 1.317490e+00 1.563885e+00 1.376678e+00 1.253210e+00 8.262944e-01 6.453748e-01 8.714532e-01 5.081648e-01 8.745277e-01 3.501345e-01 3.983378e-01 4.993928e-01 4.149196e-01 2.948897e-01 2.116541e-01 2.584194e-01
<GCONST> 3.293375e+01
<STATE> 8
<MEAN> 20
 -2.563084e+01 -2.653496e+00 1.544761e+00 1.324602e+00 3.981381e-01 1.914579e+00 1.624695e+00 1.228800e+00 -1.038228e-01 4.805214e-01 -4.073675e-01 2.152197e-02 -9.941239e-02 6.546373e-01 6.073047e-02 -8.427530e-01 -4.330616e-01 -1.546647e-01 -4.694824e-01 -3.841736e-01
<VARIANCE> 20
 1.019083e+01 3.701391e+00 3.094906e+00 1.301180e+00 8.038965e-01 1.029136e+00 6.905169e-01 8.412649e-01 4.853212e-01 4.934387e-01 5.393840e-01 5.617294e-01 3.035309e-01 2.257608e-01 3.297600e-01 2.696404e-01 2.701077e-01 2.896380e-01 2.147832e-01 2.198130e-01
<GCONST> 2.772290e+01
<STATE> 9
<MEAN> 20
 -3.731147e+01 -6.242751e-01 2.378000e-01 9.152665e-01 -4.407753e-01 1.448040e+00 1.418168e-01 1.077368e+00 -5.015144e-02 3.917068e-01 -9.998535e-02 -1.505526e-01 -1.160504e-01 1.301933e-01 -8.820857e-02 -4.631577e-01 -4.368387e-01 -3.616897e-01 -4.072256e-01 -5.546478e-01
<VARIANCE> 20
 5.685041e+00 2.721335e+00 1.934350e+00 1.019958e+00 4.994011e-01 6.207966e-01 3.116907e-01 3.504078e-01 3.066612e-01 2.424913e-01 1.986980e-01 1.873065e-01 2.446072e-01 1.872554e-01 1.546729e-01 1.850905e-01 1.656946e-01 2.158703e-01 1.546919e-01 1.937276e-01
<GCONST> 1.742570e+01
<STATE> 10
<MEAN> 20
 -2.677042e+01 -2.126697e+00 3.613208e-01 1.829826e-01 -1.951014e+00 9.500288e-01 -1.816900e+00 9.080047e-01 -1.121026e+00 3.519750e-01 -7.376852e-01 -3.285346e-01 -5.763308e-01 -1.350124e-01 -2.033107e-01 -1.069255e+00 -6.285551e-01 5.732326e-02 4.716005e-02 -3.201269e-01
<VARIANCE> 20
 2.497036e+01 4.629405e+00 4.118208e+00 2.059516e+00 1.852212e+00 1.042830e+00 6.241854e-01 9.443340e-01 5.263254e-01 4.661752e-01 2.142857e-01 2.128815e-01 2.926828e-01 2.595912e-01 3.228495e-01 3.757431e-01 2.403284e-01 3.874955e-01 1.973377e-01 1.998271e-01
<GCONST> 2.898911e+01
<STATE> 11
<MEAN> 20
 -2.257513e+01 2.096385e+00 -9.160532e-01 1.510401e+00 -3.473581e+00 2.981363e+00 -7.239591e-01 2.124104e+00 -5.698337e-01 1.020951e+00 -1.195654e+00 -1.767341e+00 -2.972409e-01 2.864381e-02 -4.610290e-01 -2.039031e+00 -2.108109e-01 7.592201e-02 -1.568607e-01 -9.081471e-01
<VARIANCE> 20
 1.099838e+01 4.262520e+00 2.350310e+00 2.752138e+00 1.788489e+00 3.154505e+00 1.359919e+00 1.088668e+00 1.313222e+00 8.282189e-01 7.307348e-01 7.372823e-01 7.603520e-01 6.581852e-01 5.986845e-01 5.941300e-01 9.923676e-01 4.106854e-01 5.391651e-01 5.199506e-01
<GCONST> 4.016491e+01
<STATE> 12
<MEAN> 20
 -2.231244e+01 -2.048926e+00 2.248519e+00 1.959109e+00 -9.174513e-01 1.239476e+00 1.578855e+00 1.455938e+00 -9.271428e-01 1.919906e-01 -7.080274e-01 -6.566417e-01 -9.114916e-01 4.187188e-01 -8.586697e-02 -1.640282e+00 -5.396734e-01 3.184851e-01 -2.285147e-01 -7.213409e-01
<VARIANCE> 20
 7.364070e+00 1.432694e+00 3.135674e+00 9.472006e-01 2.060487e+00 1.835226e+00 5.721234e-01 8.756993e-01 5.914291e-01 4.601388e-01 3.854877e-01 2.960639e-01 4.399464e-01 4.285055e-01 3.018487e-01 3.690291e-01 2.103050e-01 3.160533e-01 2.204447e-01 1.992678e-01
<GCONST> 2.766991e+01
<STATE> 13
<MEAN> 20
 -2.904391e+01 2.181657e-01 -5.686901e-01 2.155084e+00 -1.913713e+00 3.357898e+00 9.520880e-01 2.850406e+00 -1.421216e+00 6.906867e-01 -1.077062e+00 -5.640801e-01 3.368056e-01 7.432998e-01 -2.800641e-01 -9.289660e-01 -2.060586e-01 -6.017943e-01 -3.850512e-01 -5.808989e-01
<VARIANCE> 20
 6.817982e+00 1.509672e+00 1.214219e+00 1.251002e+00 1.710179e+00 1.737080e+00 5.812181e-01 7.857596e-01 4.163059e-01 8.883464e-01 7.895269e-01 6.418010e-01 1.217672e+00 7.583807e-01 5.575181e-01 2.767782e-01 3.142613e-01 1.812326e-01 2.309154e-01 2.952091e-01
<GCONST> 3.063788e+01
<STATE> 14
<MEAN> 20
 -3.003083e+01 -2.363943e+00 1.345337e+00 1.512238e+00 1.792214e-01 1.998953e+00 1.405326e+00 1.916436e+00 -1.178194e+00 -1.672011e-01 2.031753e-01 2.918140e-01 -9.235842e-04 8.563226e-01 -1.385224e-01 -6.218966e-01 -3.335149e-01 2.138269e-01 4.781925e-02 -2.533385e-01
<VARIANCE> 20
 1.208031e+01 1.567978e+00 2.018465e+00 7.633868e-01 1.537375e+00 8.444833e-01 6.907943e-01 2.938833e-01 4.732876e-01 4.034195e-01 3.364381e-01 4.252472e-01 4.521446e-01 3.510648e-01 3.707509e-01 4.248918e-01 1.490248e-01 2.515588e-01 1.478146e-01 1.758359e-01
<GCONST> 2.457515e+01
<STATE> 15
<MEAN> 20
 -3.622420e+01 -7.267947e-01 -7.183451e-01 1.397669e+00 -2.331316e+00 2.168293e+00 -6.536606e-01 1.362840e+00 -3.970714e-01 3.531442e-01 1.563557e-01 -7.389979e-03 9.166269e-02 1.919172e-01 5.159726e-02 -3.326684e-01 -1.471082e-01 -2.371676e-01 -1.753704e-01 -3.459608e-01
<VARIANCE> 20
 3.191720e+00 3.146381e+00 1.081707e+00 4.085913e-01 2.046538e+00 1.220355e+00 1.166250e+00 3.060052e-01 4.395269e-01 4.545985e-01 3.291999e-01 3.039514e-01 6.148133e-01 4.940027e-01 2.913827e-01 2.360639e-01 2.138211e-01 2.380803e-01 1.760352e-01 1.816166e-01
<GCONST> 2.393130e+01
<STATE> 16
<MEAN> 20
 -3.565219e+01 -2.516142e+00 5.730463e-01 -5.231031e-01 -1.513389e+00 -5.288795e-02 -1.423657e+00 -1.777797e-01 -1.071009e+00 2.110464e-01 4.924234e-02 -1.025275e-01 -3.389918e-01 -4.581801e-03 -6.141074e-03 -1.351482e-01 -1.843992e-01 5.357948e-02 -1.143338e-01 -1.686982e-01
<VARIANCE> 20
 1.057359e+01 2.421287e+00 1.133420e+00 8.653800e-01 6.894732e-01 7.440968e-01 6.881607e-01 5.192305e-01 3.577009e-01 2.427614e-01 2.623999e-01 2.640097e-01 3.075953e-01 1.998066e-01 2.023930e-01 2.834547e-01 1.300834e-01 1.614666e-01 1.390163e-01 1.739554e-01
<GCONST> 1.993814e+01
<STATE> 17
<MEAN> 20
 -4.002114e+01 -1.634470e+00 -1.242504e+00 1.631735e-01 -1.322466e+00 6.218809e-01 -9.142385e-01 3.743169e-01 -6.900656e-01 1.638845e-01 -1.721029e-01 -2.781272e-01 -2.855417e-01 -2.157198e-01 -1.143373e-01 -2.784014e-01 -2.365728e-01 -1.346309e-01 -1.365906e-01 -2.267910e-01
<VARIANCE> 20
 1.829578e+00 1.270311e+00 7.874412e-01 3.501274e-01 4.724638e-01 3.168395e-01 2.451329e-01 2.374732e-01 1.502464e-01 1.931535e-01 1.518824e-01 1.528618e-01 1.732284e-01 1.477912e-01 1.586021e-01 1.387478e-01 1.602762e-01 1.480353e-01 1.378019e-01 1.322292e-01
<GCONST> 9.039160e+00
<TRANSP> 18
 0.000000e+00 1.000000e+00 0.000000e+00 0.000000e+00 0.000000e+00 0.000000e+00 0.000000e+00 0.000000e+00 0.000000e+00 0.000000e+00 0.000000e+00 0.000000e+00 0.000000e+00 0.000000e+00 0.000000e+00 0.000000e+00 0.000000e+00 0.000000e+00
 0.000000e+00 8.734177e-01 1.265823e-01 0.000000e+00 0.000000e+00 0.000000e+00 0.000000e+00 0.000000e+00 0.000000e+00 0.000000e+00 0.000000e+00 0.000000e+00 0.000000e+00 0.000000e+00 0.000000e+00 0.000000e+00 0.000000e+00 0.000000e+00
 0.000000e+00 0.000000e+00 8.260869e-01 1.739130e-01 0.000000e+00 0.000000e+00 0.000000e+00 0.000000e+00 0.000000e+00 0.000000e+00 0.000000e+00 0.000000e+00 0.000000e+00 0.000000e+00 0.000000e+00 0.000000e+00 0.000000e+00 0.000000e+00
 0.000000e+00 0.000000e+00 0.000000e+00 8.425197e-01 1.574803e-01 0.000000e+00 0.000000e+00 0.000000e+00 0.000000e+00 0.000000e+00 0.000000e+00 0.000000e+00 0.000000e+00 0.000000e+00 0.000000e+00 0.000000e+00 0.000000e+00 0.000000e+00
 0.000000e+00 0.000000e+00 0.000000e+00 0.000000e+00 8.319328e-01 1.680672e-01 0.000000e+00 0.000000e+00 0.000000e+00 0.000000e+00 0.000000e+00 0.000000e+00 0.000000e+00 0.000000e+00 0.000000e+00 0.000000e+00 0.000000e+00 0.000000e+00
 0.000000e+00 0.000000e+00 0.000000e+00 0.000000e+00 0.000000e+00 8.181818e-01 1.818182e-01 0.000000e+00 0.000000e+00 0.000000e+00 0.000000e+00 0.000000e+00 0.000000e+00 0.000000e+00 0.000000e+00 0.000000e+00 0.000000e+00 0.000000e+00
 0.000000e+00 0.000000e+00 0.000000e+00 0.000000e+00 0.000000e+00 0.000000e+00 8.795181e-01 1.204819e-01 0.000000e+00 0.000000e+00 0.000000e+00 0.000000e+00 0.000000e+00 0.000000e+00 0.000000e+00 0.000000e+00 0.000000e+00 0.000000e+00
 0.000000e+00 0.000000e+00 0.000000e+00 0.000000e+00 0.000000e+00 0.000000e+00 0.000000e+00 8.518519e-01 1.481482e-01 0.000000e+00 0.000000e+00 0.000000e+00 0.000000e+00 0.000000e+00 0.000000e+00 0.000000e+00 0.000000e+00 0.000000e+00
 0.000000e+00 0.000000e+00 0.000000e+00 0.000000e+00 0.000000e+00 0.000000e+00 0.000000e+00 0.000000e+00 8.540146e-01 1.459854e-01 0.000000e+00 0.000000e+00 0.000000e+00 0.000000e+00 0.000000e+00 0.000000e+00 0.000000e+00 0.000000e+00
 0.000000e+00 0.000000e+00 0.000000e+00 0.000000e+00 0.000000e+00 0.000000e+00 0.000000e+00 0.000000e+00 0.000000e+00 7.333333e-01 2.666667e-01 0.000000e+00 0.000000e+00 0.000000e+00 0.000000e+00 0.000000e+00 0.000000e+00 0.000000e+00
 0.000000e+00 0.000000e+00 0.000000e+00 0.000000e+00 0.000000e+00 0.000000e+00 0.000000e+00 0.000000e+00 0.000000e+00 0.000000e+00 8.400000e-01 1.600000e-01 0.000000e+00 0.000000e+00 0.000000e+00 0.000000e+00 0.000000e+00 0.000000e+00
 0.000000e+00 0.000000e+00 0.000000e+00 0.000000e+00 0.000000e+00 0.000000e+00 0.000000e+00 0.000000e+00 0.000000e+00 0.000000e+00 0.000000e+00 8.666667e-01 1.333333e-01 0.000000e+00 0.000000e+00 0.000000e+00 0.000000e+00 0.000000e+00
 0.000000e+00 0.000000e+00 0.000000e+00 0.000000e+00 0.000000e+00 0.000000e+00 0.000000e+00 0.000000e+00 0.000000e+00 0.000000e+00 0.000000e+00 0.000000e+00 8.290598e-01 1.709402e-01 0.000000e+00 0.000000e+00 0.000000e+00 0.000000e+00
 0.000000e+00 0.000000e+00 0.000000e+00 0.000000e+00 0.000000e+00 0.000000e+00 0.000000e+00 0.000000e+00 0.000000e+00 0.000000e+00 0.000000e+00 0.000000e+00 0.000000e+00 7.894737e-01 2.105263e-01 0.000000e+00 0.000000e+00 0.000000e+00
 0.000000e+00 0.000000e+00 0.000000e+00 0.000000e+00 0.000000e+00 0.000000e+00 0.000000e+00 0.000000e+00 0.000000e+00 0.000000e+00 0.000000e+00 0.000000e+00 0.000000e+00 0.000000e+00 7.058824e-01 2.941177e-01 0.000000e+00 0.000000e+00
 0.000000e+00 0.000000e+00 0.000000e+00 0.000000e+00 0.000000e+00 0.000000e+00 0.000000e+00 0.000000e+00 0.000000e+00 0.000000e+00 0.000000e+00 0.000000e+00 0.000000e+00 0.000000e+00 0.000000e+00 8.425197e-01 1.574803e-01 0.000000e+00
 0.000000e+00 0.000000e+00 0.000000e+00 0.000000e+00 0.000000e+00 0.000000e+00 0.000000e+00 0.000000e+00 0.000000e+00 0.000000e+00 0.000000e+00 0.000000e+00 0.000000e+00 0.000000e+00 0.000000e+00 0.000000e+00 9.200000e-01 8.000000e-02
 0.000000e+00 0.000000e+00 0.000000e+00 0.000000e+00 0.000000e+00 0.000000e+00 0.000000e+00 0.000000e+00 0.000000e+00 0.000000e+00 0.000000e+00 0.000000e+00 0.000000e+00 0.000000e+00 0.000000e+00 0.000000e+00 0.000000e+00 0.000000e+00
<ENDHMM>
