~o
<STREAMINFO> 1 15
<VECSIZE> 15<NULLD><MFCC><DIAGC>
~h "Felipe"
<BEGINHMM>
<NUMSTATES> 10
<STATE> 2
<MEAN> 15
 -2.734645e+01 -4.314853e+00 2.631500e-01 -1.583614e+00 -1.127504e+00 -3.258395e-01 -8.366417e-01 -8.421371e-03 -7.015148e-01 2.149771e-01 -4.762196e-01 -1.196615e-01 -3.086517e-01 -2.325598e-02 -6.046267e-01
<VARIANCE> 15
 3.470159e+01 3.670923e+00 1.626770e+00 1.219033e+00 8.776027e-01 4.830179e-01 3.804089e-01 3.528986e-01 2.410419e-01 2.146309e-01 1.961834e-01 2.220904e-01 1.842057e-01 1.745809e-01 2.044788e-01
<GCONST> 1.911433e+01
<STATE> 3
<MEAN> 15
 -1.688098e+01 -1.803538e+00 3.569805e+00 1.261782e+00 -1.087825e+00 6.967824e-01 1.037536e-02 7.599936e-02 1.455347e-01 3.074146e-01 -6.331878e-01 -6.646166e-02 7.627540e-02 -3.082933e-01 -1.331256e+00
<VARIANCE> 15
 7.997467e+00 2.797691e+00 2.609005e+00 3.215190e+00 1.039790e+00 4.995021e-01 5.511013e-01 8.626594e-01 4.489329e-01 4.175029e-01 5.353017e-01 4.155230e-01 3.514853e-01 2.790490e-01 4.605456e-01
<GCONST> 2.512945e+01
<STATE> 4
<MEAN> 15
 -2.045057e+01 -4.905447e-02 1.721988e+00 2.244117e-01 -1.506097e-02 2.589161e+00 -6.104567e-02 1.311229e+00 6.187627e-01 2.953751e-02 -1.156824e+00 3.526364e-01 3.095656e-01 -1.237350e-01 -1.239399e+00
<VARIANCE> 15
 5.973586e+00 3.881664e+00 1.264002e+00 2.282598e+00 1.437042e+00 6.789621e-01 2.619376e+00 9.604676e-01 4.193974e-01 4.225861e-01 6.740782e-01 8.112203e-01 3.580804e-01 3.550277e-01 3.833898e-01
<GCONST> 2.731417e+01
<STATE> 5
<MEAN> 15
 -2.798269e+01 -1.467681e+00 1.190559e+00 3.923389e-01 5.904329e-01 1.118396e+00 8.859078e-01 6.274191e-01 1.533909e-02 2.810333e-01 -2.295807e-01 2.403622e-02 2.138976e-01 2.007421e-01 -5.411781e-01
<VARIANCE> 15
 2.370144e+01 2.433146e+00 1.453101e+00 1.240089e+00 4.993087e-01 8.182030e-01 6.449179e-01 5.316064e-01 2.966636e-01 2.830394e-01 2.871896e-01 1.980207e-01 2.696937e-01 2.425490e-01 1.549102e-01
<GCONST> 2.030984e+01
<STATE> 6
<MEAN> 15
 -1.898006e+01 -7.828972e-01 1.565055e+00 -3.706420e-01 -9.125761e-01 1.346067e+00 3.372468e-01 7.534069e-01 -3.341459e-01 2.387272e-01 -1.544764e+00 -3.048977e-01 -2.277806e-01 1.231346e-02 -1.669953e+00
<VARIANCE> 15
 8.290390e+00 3.035569e+00 3.047587e+00 1.973996e+00 1.071448e+00 2.291095e+00 1.573872e+00 9.847479e-01 5.273172e-01 5.232639e-01 8.749837e-01 7.731338e-01 3.753175e-01 3.591221e-01 3.787557e-01
<GCONST> 2.927086e+01
<STATE> 7
<MEAN> 15
 -2.379271e+01 -1.793186e+00 1.689836e+00 7.519911e-01 5.217576e-01 1.617074e+00 2.038915e+00 4.590896e-01 -8.876841e-01 1.399311e-01 -5.929896e-01 -4.481322e-02 4.221993e-01 1.381422e-01 -9.869727e-01
<VARIANCE> 15
 1.034851e+01 9.893066e-01 1.067494e+00 9.285083e-01 8.325616e-01 7.703934e-01 4.486021e-01 4.062347e-01 3.723524e-01 4.608227e-01 7.299617e-01 4.505515e-01 4.247701e-01 3.604993e-01 2.996186e-01
<GCONST> 2.178242e+01
<STATE> 8
<MEAN> 15
 -3.014227e+01 -2.022131e+00 9.061736e-01 -8.095122e-01 -6.833410e-01 2.014229e-01 -5.200594e-01 1.185406e-01 -5.261266e-01 4.796247e-01 -1.940099e-01 9.008232e-02 -5.130849e-02 1.663738e-01 -2.686160e-01
<VARIANCE> 15
 6.417164e+00 2.002173e+00 8.669081e-01 8.978919e-01 7.734272e-01 1.937869e+00 7.979971e-01 1.005494e+00 3.294145e-01 2.692637e-01 3.059282e-01 3.678787e-01 2.771084e-01 1.898299e-01 2.281066e-01
<GCONST> 2.102551e+01
<STATE> 9
<MEAN> 15
 -3.408168e+01 -1.954121e+00 -2.975849e-01 -5.449533e-01 -4.992777e-01 3.930976e-02 -4.471888e-01 4.039403e-02 -4.313989e-01 2.684022e-01 -4.023113e-01 -1.186624e-01 -3.011198e-01 -2.188953e-02 -3.038746e-01
<VARIANCE> 15
 1.559379e+00 7.843642e-01 5.387841e-01 2.066616e-01 2.278629e-01 1.974520e-01 1.570481e-01 2.338578e-01 1.371680e-01 1.504004e-01 1.211111e-01 1.420480e-01 1.228840e-01 1.218249e-01 1.127874e-01
<GCONST> 4.841354e+00
<TRANSP> 10
 0.000000e+00 1.000000e+00 0.000000e+00 0.000000e+00 0.000000e+00 0.000000e+00 0.000000e+00 0.000000e+00 0.000000e+00 0.000000e+00
 0.000000e+00 9.480519e-01 5.194806e-02 0.000000e+00 0.000000e+00 0.000000e+00 0.000000e+00 0.000000e+00 0.000000e+00 0.000000e+00
 0.000000e+00 0.000000e+00 8.857143e-01 1.142857e-01 0.000000e+00 0.000000e+00 0.000000e+00 0.000000e+00 0.000000e+00 0.000000e+00
 0.000000e+00 0.000000e+00 0.000000e+00 9.224806e-01 7.751937e-02 0.000000e+00 0.000000e+00 0.000000e+00 0.000000e+00 0.000000e+00
 0.000000e+00 0.000000e+00 0.000000e+00 0.000000e+00 9.253731e-01 7.462687e-02 0.000000e+00 0.000000e+00 0.000000e+00 0.000000e+00
 0.000000e+00 0.000000e+00 0.000000e+00 0.000000e+00 0.000000e+00 9.280576e-01 7.194244e-02 0.000000e+00 0.000000e+00 0.000000e+00
 0.000000e+00 0.000000e+00 0.000000e+00 0.000000e+00 0.000000e+00 0.000000e+00 9.218750e-01 7.812500e-02 0.000000e+00 0.000000e+00
 0.000000e+00 0.000000e+00 0.000000e+00 0.000000e+00 0.000000e+00 0.000000e+00 0.000000e+00 8.780488e-01 1.219512e-01 0.000000e+00
 0.000000e+00 0.000000e+00 0.000000e+00 0.000000e+00 0.000000e+00 0.000000e+00 0.000000e+00 0.000000e+00 9.310345e-01 6.896552e-02
 0.000000e+00 0.000000e+00 0.000000e+00 0.000000e+00 0.000000e+00 0.000000e+00 0.000000e+00 0.000000e+00 0.000000e+00 0.000000e+00
<ENDHMM>
