~o
<STREAMINFO> 1 15
<VECSIZE> 15<NULLD><MFCC><DIAGC>
~h "Felipe"
<BEGINHMM>
<NUMSTATES> 18
<STATE> 2
<MEAN> 15
 -3.292481e+01 -2.814694e+00 -1.273111e-01 -7.654546e-01 -8.605946e-01 -7.901201e-02 -6.984953e-01 1.646381e-02 -6.225758e-01 3.275640e-01 -4.074575e-01 -9.203875e-02 -2.897890e-01 -1.205993e-03 -4.090216e-01
<VARIANCE> 15
 6.281112e+00 1.620841e+00 8.879671e-01 4.756608e-01 6.435388e-01 2.774043e-01 3.437469e-01 1.845518e-01 1.868779e-01 2.142263e-01 1.631107e-01 1.301297e-01 1.403875e-01 1.251083e-01 1.305354e-01
<GCONST> 1.139744e+01
<STATE> 3
<MEAN> 15
 -2.393460e+01 -5.521920e+00 1.105824e+00 -2.370398e+00 -6.891963e-01 -9.253488e-01 -9.967471e-01 -3.971273e-01 -8.051354e-01 5.519811e-03 -2.799760e-01 -2.977397e-01 -2.641495e-01 6.625271e-03 -6.510969e-01
<VARIANCE> 15
 1.462649e+01 3.323822e+00 2.411232e+00 9.376472e-01 6.269608e-01 4.265863e-01 4.417435e-01 2.610991e-01 2.378793e-01 2.109855e-01 1.183308e-01 1.418811e-01 2.394191e-01 2.465093e-01 1.768615e-01
<GCONST> 1.714789e+01
<STATE> 4
<MEAN> 15
 -2.176539e+01 -5.480361e+00 2.268926e-01 -2.181156e+00 -2.022431e+00 -3.378055e-03 -8.923814e-01 1.499623e-01 -6.746768e-01 2.580117e-01 -8.637943e-01 -6.079639e-03 -3.356278e-01 -7.849530e-02 -8.972514e-01
<VARIANCE> 15
 1.177781e+01 8.269283e-01 1.587665e+00 9.688827e-01 4.006593e-01 3.824744e-01 3.317143e-01 9.376906e-01 3.845487e-01 1.607354e-01 2.313312e-01 3.961598e-01 2.043000e-01 1.705655e-01 2.336842e-01
<GCONST> 1.724732e+01
<STATE> 5
<MEAN> 15
 -1.525725e+01 -1.141581e+00 3.573270e+00 1.424623e+00 -1.470564e+00 5.969478e-01 -2.653033e-02 4.343342e-01 -7.833292e-02 1.444007e-01 -8.875418e-01 -2.619012e-01 -7.310977e-02 -1.709775e-01 -1.680439e+00
<VARIANCE> 15
 5.731019e+00 2.018214e+00 3.228320e+00 2.021969e+00 8.835030e-01 5.467225e-01 5.764760e-01 5.311055e-01 4.130597e-01 4.249578e-01 4.867012e-01 4.715560e-01 3.917983e-01 2.917392e-01 3.479510e-01
<GCONST> 2.354466e+01
<STATE> 6
<MEAN> 15
 -1.923742e+01 -8.126850e-01 2.886091e+00 1.617562e+00 -7.959737e-01 1.565260e+00 -2.603823e-01 2.475071e-01 4.443309e-01 3.770103e-01 -8.281204e-01 7.166032e-01 2.495789e-01 -6.088414e-01 -1.144411e+00
<VARIANCE> 15
 4.731946e+00 3.480479e+00 1.979918e+00 2.048456e+00 7.096482e-01 9.940944e-01 1.205514e+00 5.257791e-01 2.781997e-01 3.258242e-01 9.586954e-01 6.549628e-01 3.917582e-01 1.733705e-01 5.486706e-01
<GCONST> 2.480906e+01
<STATE> 7
<MEAN> 15
 -2.044467e+01 2.131922e-01 1.457825e+00 -2.389487e-01 1.703002e-01 2.750806e+00 -2.290031e-01 1.763465e+00 6.499577e-01 -2.218232e-02 -1.073482e+00 3.312081e-02 3.219431e-01 -2.722147e-02 -1.273481e+00
<VARIANCE> 15
 5.563998e+00 3.574179e+00 1.119705e+00 1.759460e+00 1.021927e+00 7.301583e-01 2.597057e+00 6.776490e-01 4.496781e-01 4.550939e-01 5.841696e-01 5.959347e-01 3.431346e-01 3.069096e-01 2.208990e-01
<GCONST> 2.510618e+01
<STATE> 8
<MEAN> 15
 -2.259778e+01 -1.984481e+00 1.789901e+00 6.448107e-01 1.023438e+00 1.718329e+00 1.555780e+00 6.157742e-01 2.792864e-01 1.620901e-01 -3.046506e-01 7.204662e-02 4.815085e-01 3.278381e-01 -6.985951e-01
<VARIANCE> 15
 5.389687e+00 2.384300e+00 1.732636e+00 1.175685e+00 5.956781e-01 8.691871e-01 4.859599e-01 7.794439e-01 4.790314e-01 4.181674e-01 5.594991e-01 2.679226e-01 1.973169e-01 2.611575e-01 1.907592e-01
<GCONST> 2.107603e+01
<STATE> 9
<MEAN> 15
 -3.190027e+01 -9.307960e-01 8.017245e-01 2.308501e-01 3.208909e-01 9.754003e-01 4.746577e-01 7.086240e-01 4.063752e-02 3.374465e-01 -2.646239e-01 5.579270e-02 3.207301e-02 7.895528e-02 -4.465988e-01
<VARIANCE> 15
 3.778606e+00 1.845771e+00 9.263251e-01 6.553824e-01 2.678305e-01 5.422143e-01 2.185407e-01 3.543845e-01 1.923564e-01 2.117290e-01 1.534225e-01 1.691419e-01 1.832696e-01 1.624941e-01 1.195885e-01
<GCONST> 1.203365e+01
<STATE> 10
<MEAN> 15
 -2.256993e+01 -2.534466e+00 1.217031e+00 -1.260359e+00 -5.120116e-01 -4.073479e-01 -7.479690e-01 5.919006e-02 -6.845072e-01 1.050405e-01 -7.895673e-01 -1.853003e-01 -4.375831e-01 1.923031e-02 -1.105634e+00
<VARIANCE> 15
 1.539657e+01 1.629587e+00 2.036150e+00 1.160251e+00 7.244771e-01 5.597792e-01 3.859794e-01 5.258571e-01 3.186054e-01 2.824753e-01 2.594880e-01 2.608991e-01 2.144125e-01 2.211264e-01 2.854377e-01
<GCONST> 1.974987e+01
<STATE> 11
<MEAN> 15
 -1.865993e+01 3.614869e-01 7.332923e-01 -7.816999e-01 -1.003663e+00 1.970295e+00 1.552386e-01 1.338297e+00 -2.408874e-01 4.755167e-01 -2.180418e+00 -1.712177e-01 -1.333086e-01 -1.339718e-01 -1.845724e+00
<VARIANCE> 15
 6.268513e+00 2.624153e+00 1.380621e+00 1.905645e+00 1.443096e+00 1.640039e+00 1.341691e+00 6.742205e-01 5.933586e-01 6.615629e-01 7.470421e-01 6.427058e-01 4.160544e-01 4.333972e-01 4.468458e-01
<GCONST> 2.790966e+01
<STATE> 12
<MEAN> 15
 -1.814083e+01 -1.634090e+00 2.969750e+00 8.199238e-01 -7.907541e-01 1.109304e+00 1.432038e+00 1.817840e-01 -2.684761e-01 -3.684055e-02 -9.530602e-01 -7.753131e-01 -2.117213e-01 2.007626e-01 -1.586447e+00
<VARIANCE> 15
 5.975283e+00 9.389152e-01 2.293057e+00 1.194934e+00 7.859487e-01 1.267505e+00 8.226956e-01 5.979699e-01 2.653089e-01 3.644947e-01 2.422425e-01 4.267907e-01 3.569641e-01 2.350735e-01 3.140258e-01
<GCONST> 2.134590e+01
<STATE> 13
<MEAN> 15
 -2.265549e+01 -1.750185e+00 1.639058e+00 8.386096e-01 7.132533e-01 1.515286e+00 2.350835e+00 4.369257e-01 -8.970352e-01 -3.029991e-02 -8.217258e-01 -2.376820e-01 2.708275e-01 3.366626e-01 -1.193890e+00
<VARIANCE> 15
 4.640266e+00 1.178566e+00 1.003157e+00 1.115205e+00 7.751225e-01 6.416745e-01 4.202764e-01 4.380522e-01 5.467244e-01 4.835283e-01 7.943072e-01 2.068341e-01 3.542721e-01 4.526003e-01 2.168362e-01
<GCONST> 2.049312e+01
<STATE> 14
<MEAN> 15
 -2.674249e+01 -1.795480e+00 1.643961e+00 4.127771e-01 6.308736e-01 1.881040e+00 1.562491e+00 5.842417e-01 -8.576860e-01 4.088478e-01 -1.870576e-01 3.196493e-01 7.696355e-01 -6.775235e-02 -6.003764e-01
<VARIANCE> 15
 4.993047e+00 8.525348e-01 1.241012e+00 5.296439e-01 5.575529e-01 7.996152e-01 3.172894e-01 3.940617e-01 2.814324e-01 2.624575e-01 6.877244e-01 2.187227e-01 3.766210e-01 2.092076e-01 1.846631e-01
<GCONST> 1.698001e+01
<STATE> 15
<MEAN> 15
 -2.905735e+01 -1.345164e+00 6.681446e-01 -2.547145e-02 -7.577674e-01 1.903783e+00 2.939411e-01 1.051421e+00 -7.044150e-01 4.511775e-01 -5.609376e-01 7.269464e-01 1.150684e-01 1.587249e-01 -5.200357e-01
<VARIANCE> 15
 8.515609e+00 1.321130e+00 4.105371e-01 2.518133e-01 6.183534e-01 1.485166e+00 7.345279e-01 3.825029e-01 5.877600e-01 3.157643e-01 5.057555e-01 9.826638e-01 3.395495e-01 2.204606e-01 2.532054e-01
<GCONST> 2.001536e+01
<STATE> 16
<MEAN> 15
 -3.043789e+01 -2.362618e+00 9.627017e-01 -1.197336e+00 -7.510880e-01 -5.353654e-01 -8.943773e-01 -3.872771e-01 -5.374461e-01 4.538604e-01 -1.842408e-01 -1.032945e-01 -1.616034e-01 1.111109e-01 -2.130611e-01
<VARIANCE> 15
 7.334454e+00 1.766491e+00 8.755417e-01 6.938236e-01 5.904869e-01 8.043128e-01 4.951708e-01 5.517207e-01 2.328542e-01 2.400424e-01 2.249895e-01 2.194417e-01 1.754962e-01 1.934095e-01 2.197312e-01
<GCONST> 1.679806e+01
<STATE> 17
<MEAN> 15
 -3.421044e+01 -1.940339e+00 -3.624578e-01 -5.215470e-01 -4.898638e-01 6.481522e-02 -4.217117e-01 6.073402e-02 -4.311337e-01 2.749933e-01 -3.979827e-01 -1.090074e-01 -3.084548e-01 -1.901522e-02 -3.053204e-01
<VARIANCE> 15
 1.308698e+00 7.667191e-01 4.763537e-01 1.987502e-01 2.324989e-01 1.872432e-01 1.547948e-01 2.221533e-01 1.350351e-01 1.525921e-01 1.185191e-01 1.465170e-01 1.182184e-01 1.160492e-01 1.142154e-01
<GCONST> 4.315860e+00
<TRANSP> 18
 0.000000e+00 1.000000e+00 0.000000e+00 0.000000e+00 0.000000e+00 0.000000e+00 0.000000e+00 0.000000e+00 0.000000e+00 0.000000e+00 0.000000e+00 0.000000e+00 0.000000e+00 0.000000e+00 0.000000e+00 0.000000e+00 0.000000e+00 0.000000e+00
 0.000000e+00 8.809524e-01 1.190476e-01 0.000000e+00 0.000000e+00 0.000000e+00 0.000000e+00 0.000000e+00 0.000000e+00 0.000000e+00 0.000000e+00 0.000000e+00 0.000000e+00 0.000000e+00 0.000000e+00 0.000000e+00 0.000000e+00 0.000000e+00
 0.000000e+00 0.000000e+00 8.214286e-01 1.785714e-01 0.000000e+00 0.000000e+00 0.000000e+00 0.000000e+00 0.000000e+00 0.000000e+00 0.000000e+00 0.000000e+00 0.000000e+00 0.000000e+00 0.000000e+00 0.000000e+00 0.000000e+00 0.000000e+00
 0.000000e+00 0.000000e+00 0.000000e+00 8.260869e-01 1.739130e-01 0.000000e+00 0.000000e+00 0.000000e+00 0.000000e+00 0.000000e+00 0.000000e+00 0.000000e+00 0.000000e+00 0.000000e+00 0.000000e+00 0.000000e+00 0.000000e+00 0.000000e+00
 0.000000e+00 0.000000e+00 0.000000e+00 0.000000e+00 7.959183e-01 2.040816e-01 0.000000e+00 0.000000e+00 0.000000e+00 0.000000e+00 0.000000e+00 0.000000e+00 0.000000e+00 0.000000e+00 0.000000e+00 0.000000e+00 0.000000e+00 0.000000e+00
 0.000000e+00 0.000000e+00 0.000000e+00 0.000000e+00 0.000000e+00 8.437500e-01 1.562500e-01 0.000000e+00 0.000000e+00 0.000000e+00 0.000000e+00 0.000000e+00 0.000000e+00 0.000000e+00 0.000000e+00 0.000000e+00 0.000000e+00 0.000000e+00
 0.000000e+00 0.000000e+00 0.000000e+00 0.000000e+00 0.000000e+00 0.000000e+00 8.709677e-01 1.290323e-01 0.000000e+00 0.000000e+00 0.000000e+00 0.000000e+00 0.000000e+00 0.000000e+00 0.000000e+00 0.000000e+00 0.000000e+00 0.000000e+00
 0.000000e+00 0.000000e+00 0.000000e+00 0.000000e+00 0.000000e+00 0.000000e+00 0.000000e+00 8.692811e-01 1.307190e-01 0.000000e+00 0.000000e+00 0.000000e+00 0.000000e+00 0.000000e+00 0.000000e+00 0.000000e+00 0.000000e+00 0.000000e+00
 0.000000e+00 0.000000e+00 0.000000e+00 0.000000e+00 0.000000e+00 0.000000e+00 0.000000e+00 0.000000e+00 8.611111e-01 1.388889e-01 0.000000e+00 0.000000e+00 0.000000e+00 0.000000e+00 0.000000e+00 0.000000e+00 0.000000e+00 0.000000e+00
 0.000000e+00 0.000000e+00 0.000000e+00 0.000000e+00 0.000000e+00 0.000000e+00 0.000000e+00 0.000000e+00 0.000000e+00 6.825397e-01 3.174603e-01 0.000000e+00 0.000000e+00 0.000000e+00 0.000000e+00 0.000000e+00 0.000000e+00 0.000000e+00
 0.000000e+00 0.000000e+00 0.000000e+00 0.000000e+00 0.000000e+00 0.000000e+00 0.000000e+00 0.000000e+00 0.000000e+00 0.000000e+00 8.461539e-01 1.538462e-01 0.000000e+00 0.000000e+00 0.000000e+00 0.000000e+00 0.000000e+00 0.000000e+00
 0.000000e+00 0.000000e+00 0.000000e+00 0.000000e+00 0.000000e+00 0.000000e+00 0.000000e+00 0.000000e+00 0.000000e+00 0.000000e+00 0.000000e+00 8.275862e-01 1.724138e-01 0.000000e+00 0.000000e+00 0.000000e+00 0.000000e+00 0.000000e+00
 0.000000e+00 0.000000e+00 0.000000e+00 0.000000e+00 0.000000e+00 0.000000e+00 0.000000e+00 0.000000e+00 0.000000e+00 0.000000e+00 0.000000e+00 0.000000e+00 8.496241e-01 1.503759e-01 0.000000e+00 0.000000e+00 0.000000e+00 0.000000e+00
 0.000000e+00 0.000000e+00 0.000000e+00 0.000000e+00 0.000000e+00 0.000000e+00 0.000000e+00 0.000000e+00 0.000000e+00 0.000000e+00 0.000000e+00 0.000000e+00 0.000000e+00 7.916667e-01 2.083333e-01 0.000000e+00 0.000000e+00 0.000000e+00
 0.000000e+00 0.000000e+00 0.000000e+00 0.000000e+00 0.000000e+00 0.000000e+00 0.000000e+00 0.000000e+00 0.000000e+00 0.000000e+00 0.000000e+00 0.000000e+00 0.000000e+00 0.000000e+00 7.101449e-01 2.898551e-01 0.000000e+00 0.000000e+00
 0.000000e+00 0.000000e+00 0.000000e+00 0.000000e+00 0.000000e+00 0.000000e+00 0.000000e+00 0.000000e+00 0.000000e+00 0.000000e+00 0.000000e+00 0.000000e+00 0.000000e+00 0.000000e+00 0.000000e+00 8.347107e-01 1.652893e-01 0.000000e+00
 0.000000e+00 0.000000e+00 0.000000e+00 0.000000e+00 0.000000e+00 0.000000e+00 0.000000e+00 0.000000e+00 0.000000e+00 0.000000e+00 0.000000e+00 0.000000e+00 0.000000e+00 0.000000e+00 0.000000e+00 0.000000e+00 9.267399e-01 7.326008e-02
 0.000000e+00 0.000000e+00 0.000000e+00 0.000000e+00 0.000000e+00 0.000000e+00 0.000000e+00 0.000000e+00 0.000000e+00 0.000000e+00 0.000000e+00 0.000000e+00 0.000000e+00 0.000000e+00 0.000000e+00 0.000000e+00 0.000000e+00 0.000000e+00
<ENDHMM>
