~o
<STREAMINFO> 1 15
<VECSIZE> 15<NULLD><MFCC><DIAGC>
~h "Harry"
<BEGINHMM>
<NUMSTATES> 18
<STATE> 2
<MEAN> 15
 -3.344682e+01 -2.622571e+00 -3.954953e-01 -6.502445e-01 -7.053596e-01 -1.019719e-01 -5.920172e-01 -4.441473e-02 -5.393136e-01 1.926754e-01 -4.420643e-01 -1.086686e-01 -3.281340e-01 9.337676e-02 -2.680480e-01
<VARIANCE> 15
 6.902119e+00 2.422888e+00 9.751973e-01 5.890966e-01 2.903688e-01 3.393069e-01 2.168838e-01 2.548496e-01 1.998733e-01 1.550713e-01 1.497067e-01 1.134725e-01 1.580226e-01 1.346596e-01 1.048415e-01
<GCONST> 1.096319e+01
<STATE> 3
<MEAN> 15
 -2.663099e+01 -6.860372e-01 -1.108398e+00 -1.527772e+00 -1.490928e+00 -1.274689e+00 -7.689135e-01 -4.154638e-01 -9.243842e-01 -5.546759e-02 -8.733403e-01 -9.242727e-02 -3.080744e-01 4.172685e-02 -5.529914e-01
<VARIANCE> 15
 1.379488e+01 1.000369e+00 1.123091e+00 6.981383e-01 7.502902e-01 4.813591e-01 2.206935e-01 5.126088e-01 3.819638e-01 2.112503e-01 3.051401e-01 2.540704e-01 1.779490e-01 1.690033e-01 2.229808e-01
<GCONST> 1.667288e+01
<STATE> 4
<MEAN> 15
 -1.786448e+01 -2.466135e+00 -1.027495e+00 -1.880517e+00 -1.679199e+00 -1.706316e+00 -9.037881e-01 -4.935137e-01 -1.190859e+00 1.677381e-01 -1.187716e+00 -1.916086e-01 -5.035669e-01 -1.996619e-01 -3.174084e-01
<VARIANCE> 15
 2.713591e+01 3.867992e+00 2.545072e+00 7.141044e-01 1.057212e+00 1.768033e+00 3.518917e-01 1.136316e+00 5.322186e-01 2.701469e-01 3.838272e-01 3.987439e-01 2.746360e-01 2.118948e-01 2.937817e-01
<GCONST> 2.464266e+01
<STATE> 5
<MEAN> 15
 -1.807756e+01 -1.510954e+00 -1.490446e+00 -1.711644e+00 -3.115484e+00 -1.343837e+00 -1.449511e+00 4.207751e-01 -9.572853e-01 -5.553449e-02 -1.605207e+00 -2.534393e-01 -4.583361e-02 7.083306e-02 -7.956052e-01
<VARIANCE> 15
 1.018846e+01 1.229335e+00 2.048021e+00 6.493931e-01 1.778966e+00 1.059151e+00 7.266382e-01 6.871118e-01 6.872964e-01 6.645971e-01 3.592888e-01 2.366007e-01 4.735819e-01 2.843255e-01 3.385909e-01
<GCONST> 2.398336e+01
<STATE> 6
<MEAN> 15
 -1.442700e+01 3.812022e+00 5.680374e-01 -1.713608e+00 -2.913064e+00 1.054429e-01 -1.326983e+00 -2.002797e-01 -5.018931e-01 8.086987e-01 -1.436727e+00 -1.270534e+00 -3.050317e-01 5.565103e-01 -8.616678e-01
<VARIANCE> 15
 3.521598e+00 1.017397e+01 2.117563e+00 1.377620e+00 1.101455e+00 1.464538e+00 9.200832e-01 9.390997e-01 7.757261e-01 1.006234e+00 7.442378e-01 6.848798e-01 4.218993e-01 3.743200e-01 2.930560e-01
<GCONST> 2.855490e+01
<STATE> 7
<MEAN> 15
 -1.354752e+01 1.317230e+00 2.909639e+00 7.342450e-01 -1.405985e+00 -2.806690e+00 -4.332047e-01 -1.468463e-01 -9.085726e-01 8.941344e-01 -6.658813e-01 -8.178988e-01 -7.808986e-01 -3.358140e-01 -4.574485e-01
<VARIANCE> 15
 5.496577e+00 2.949795e+00 2.392148e+00 9.029253e-01 1.018866e+00 1.341585e+00 5.378811e-01 5.602512e-01 4.695490e-01 5.891986e-01 3.395657e-01 2.702686e-01 2.722904e-01 3.953114e-01 2.486458e-01
<GCONST> 2.294305e+01
<STATE> 8
<MEAN> 15
 -1.771029e+01 4.381166e+00 2.762711e+00 -2.404266e-01 -2.978102e+00 -4.454835e-01 -1.457463e+00 -1.232501e+00 -5.862266e-01 1.656415e+00 -1.255272e+00 -1.162250e+00 -6.387907e-01 9.237897e-01 -1.254656e+00
<VARIANCE> 15
 5.350168e+00 1.897142e+00 1.843140e+00 1.007409e+00 1.040477e+00 1.885271e+00 8.668129e-01 4.565335e-01 1.310245e+00 1.489137e+00 6.141959e-01 4.705275e-01 3.495973e-01 6.666563e-01 4.125126e-01
<GCONST> 2.733633e+01
<STATE> 9
<MEAN> 15
 -1.956044e+01 1.118768e+00 5.846021e+00 2.168254e+00 -1.451325e+00 -2.032313e+00 -1.410378e+00 -1.198527e+00 -9.384043e-01 1.326077e+00 -1.336959e-01 5.412263e-02 -3.981608e-01 -4.654429e-01 -7.311293e-01
<VARIANCE> 15
 3.719413e+00 1.628250e+00 1.849709e+00 6.587843e-01 8.341295e-01 9.239172e-01 4.327492e-01 3.731729e-01 3.434238e-01 3.656366e-01 3.359404e-01 4.090460e-01 2.151613e-01 2.105533e-01 2.664805e-01
<GCONST> 1.900660e+01
<STATE> 10
<MEAN> 15
 -2.259553e+01 3.090663e+00 3.630705e+00 9.900028e-01 -2.661973e+00 -2.685227e-01 -1.489445e+00 -1.743905e-01 1.195981e-01 1.986608e+00 -1.036306e+00 -5.027367e-01 -8.664616e-01 -2.156559e-01 -1.130990e+00
<VARIANCE> 15
 2.697549e+00 2.159480e+00 8.669346e-01 5.448673e-01 1.000353e+00 6.718177e-01 7.592198e-01 8.225722e-01 5.413514e-01 7.070245e-01 4.765139e-01 4.018638e-01 1.541176e-01 2.411172e-01 2.747109e-01
<GCONST> 2.051434e+01
<STATE> 11
<MEAN> 15
 -2.218264e+01 1.441745e+00 2.410428e+00 6.798056e-01 -1.750196e+00 2.773831e-01 2.003479e-01 1.443519e+00 7.246372e-01 1.428623e+00 -1.172752e+00 -9.212394e-01 -8.912478e-01 1.927387e-01 -6.746230e-01
<VARIANCE> 15
 3.065439e+00 6.878759e+00 3.021351e+00 1.856232e+00 8.077960e-01 7.495827e-01 6.350874e-01 7.794359e-01 4.417899e-01 9.020651e-01 5.751948e-01 6.502562e-01 2.146560e-01 3.293653e-01 1.761189e-01
<GCONST> 2.484684e+01
<STATE> 12
<MEAN> 15
 -2.367232e+01 1.010904e+00 1.095262e+00 -3.099946e-01 4.186479e-01 1.510046e+00 4.032503e-01 1.891104e+00 3.273059e-01 3.524454e-01 -1.460811e+00 -7.466077e-02 1.866619e-01 2.485179e-01 -8.200140e-01
<VARIANCE> 15
 2.434574e+00 2.266069e+00 1.198605e+00 7.392264e-01 1.364021e+00 5.477256e-01 5.244494e-01 4.537739e-01 3.220506e-01 3.454790e-01 3.204851e-01 4.789641e-01 3.859824e-01 1.877345e-01 2.210746e-01
<GCONST> 1.922401e+01
<STATE> 13
<MEAN> 15
 -2.350437e+01 -2.073575e+00 2.513038e+00 3.688535e-01 4.634978e-01 1.477072e+00 1.524493e+00 4.490100e-01 -7.574268e-01 -7.377731e-02 -8.545049e-02 1.940113e-01 2.241934e-01 2.556916e-01 -5.683498e-01
<VARIANCE> 15
 3.472281e+00 1.613859e+00 9.737532e-01 6.391020e-01 6.566777e-01 3.171982e-01 4.512179e-01 4.927856e-01 4.770090e-01 3.576874e-01 4.308807e-01 2.459736e-01 2.819110e-01 3.184055e-01 2.410983e-01
<GCONST> 1.789911e+01
<STATE> 14
<MEAN> 15
 -2.807746e+01 -1.301629e+00 1.783347e+00 -3.415737e-02 5.830331e-01 1.814578e+00 5.812908e-01 9.339207e-01 -4.404476e-01 4.575672e-01 -1.264818e-02 6.412466e-01 5.686368e-01 -6.908938e-02 -2.243766e-01
<VARIANCE> 15
 4.378632e+00 1.380024e+00 5.244114e-01 3.645799e-01 4.588479e-01 6.406253e-01 1.970596e-01 3.997576e-01 2.484332e-01 3.321203e-01 1.867291e-01 1.960431e-01 1.905383e-01 1.684885e-01 2.272743e-01
<GCONST> 1.322426e+01
<STATE> 15
<MEAN> 15
 -2.965224e+01 -2.673455e+00 1.137539e+00 -6.753716e-01 6.297285e-02 7.908871e-01 -7.519378e-02 7.161382e-02 -7.196259e-01 3.231335e-01 -1.982381e-01 1.238613e-01 1.338338e-01 1.952566e-02 -1.394632e-02
<VARIANCE> 15
 5.254179e+00 1.304690e+00 5.185357e-01 3.603149e-01 4.946592e-01 7.180263e-01 3.034030e-01 4.399380e-01 2.232507e-01 3.754924e-01 2.067839e-01 1.396688e-01 1.590759e-01 2.259421e-01 1.754498e-01
<GCONST> 1.367688e+01
<STATE> 16
<MEAN> 15
 -3.400132e+01 -1.697583e+00 -1.700824e-01 2.044027e-01 -1.738887e-01 7.071581e-01 -1.968174e-01 3.749081e-01 -2.521696e-01 4.130417e-01 -1.834881e-01 1.341429e-01 -1.747417e-01 6.148019e-02 -4.395184e-01
<VARIANCE> 15
 2.071607e+00 5.178532e-01 5.066411e-01 4.152932e-01 1.287525e-01 1.905890e-01 2.986381e-01 1.802745e-01 1.134456e-01 1.656918e-01 1.174093e-01 1.079477e-01 1.478656e-01 9.462250e-02 1.092701e-01
<GCONST> 4.624897e+00
<STATE> 17
<MEAN> 15
 -3.388531e+01 -2.520633e+00 -1.139610e-01 -7.207836e-01 -4.026855e-01 7.775172e-02 -4.617991e-01 -9.629963e-02 -5.145428e-01 2.011362e-01 -3.728562e-01 -2.745669e-02 -4.058130e-01 2.381702e-02 -2.818369e-01
<VARIANCE> 15
 1.900237e+00 7.992239e-01 5.568339e-01 3.541692e-01 2.368713e-01 2.343746e-01 1.808136e-01 1.806243e-01 1.439891e-01 2.040877e-01 1.088518e-01 1.195799e-01 1.211362e-01 1.363464e-01 1.149416e-01
<GCONST> 5.914365e+00
<TRANSP> 18
 0.000000e+00 1.000000e+00 0.000000e+00 0.000000e+00 0.000000e+00 0.000000e+00 0.000000e+00 0.000000e+00 0.000000e+00 0.000000e+00 0.000000e+00 0.000000e+00 0.000000e+00 0.000000e+00 0.000000e+00 0.000000e+00 0.000000e+00 0.000000e+00
 0.000000e+00 8.620690e-01 1.379310e-01 0.000000e+00 0.000000e+00 0.000000e+00 0.000000e+00 0.000000e+00 0.000000e+00 0.000000e+00 0.000000e+00 0.000000e+00 0.000000e+00 0.000000e+00 0.000000e+00 0.000000e+00 0.000000e+00 0.000000e+00
 0.000000e+00 0.000000e+00 7.058824e-01 2.941177e-01 0.000000e+00 0.000000e+00 0.000000e+00 0.000000e+00 0.000000e+00 0.000000e+00 0.000000e+00 0.000000e+00 0.000000e+00 0.000000e+00 0.000000e+00 0.000000e+00 0.000000e+00 0.000000e+00
 0.000000e+00 0.000000e+00 0.000000e+00 8.039216e-01 1.960784e-01 0.000000e+00 0.000000e+00 0.000000e+00 0.000000e+00 0.000000e+00 0.000000e+00 0.000000e+00 0.000000e+00 0.000000e+00 0.000000e+00 0.000000e+00 0.000000e+00 0.000000e+00
 0.000000e+00 0.000000e+00 0.000000e+00 0.000000e+00 7.674419e-01 2.325582e-01 0.000000e+00 0.000000e+00 0.000000e+00 0.000000e+00 0.000000e+00 0.000000e+00 0.000000e+00 0.000000e+00 0.000000e+00 0.000000e+00 0.000000e+00 0.000000e+00
 0.000000e+00 0.000000e+00 0.000000e+00 0.000000e+00 0.000000e+00 7.368421e-01 2.631579e-01 0.000000e+00 0.000000e+00 0.000000e+00 0.000000e+00 0.000000e+00 0.000000e+00 0.000000e+00 0.000000e+00 0.000000e+00 0.000000e+00 0.000000e+00
 0.000000e+00 0.000000e+00 0.000000e+00 0.000000e+00 0.000000e+00 0.000000e+00 8.347107e-01 1.652893e-01 0.000000e+00 0.000000e+00 0.000000e+00 0.000000e+00 0.000000e+00 0.000000e+00 0.000000e+00 0.000000e+00 0.000000e+00 0.000000e+00
 0.000000e+00 0.000000e+00 0.000000e+00 0.000000e+00 0.000000e+00 0.000000e+00 0.000000e+00 8.019802e-01 1.980198e-01 0.000000e+00 0.000000e+00 0.000000e+00 0.000000e+00 0.000000e+00 0.000000e+00 0.000000e+00 0.000000e+00 0.000000e+00
 0.000000e+00 0.000000e+00 0.000000e+00 0.000000e+00 0.000000e+00 0.000000e+00 0.000000e+00 0.000000e+00 8.611111e-01 1.388889e-01 0.000000e+00 0.000000e+00 0.000000e+00 0.000000e+00 0.000000e+00 0.000000e+00 0.000000e+00 0.000000e+00
 0.000000e+00 0.000000e+00 0.000000e+00 0.000000e+00 0.000000e+00 0.000000e+00 0.000000e+00 0.000000e+00 0.000000e+00 7.701150e-01 2.298851e-01 0.000000e+00 0.000000e+00 0.000000e+00 0.000000e+00 0.000000e+00 0.000000e+00 0.000000e+00
 0.000000e+00 0.000000e+00 0.000000e+00 0.000000e+00 0.000000e+00 0.000000e+00 0.000000e+00 0.000000e+00 0.000000e+00 0.000000e+00 6.923077e-01 3.076923e-01 0.000000e+00 0.000000e+00 0.000000e+00 0.000000e+00 0.000000e+00 0.000000e+00
 0.000000e+00 0.000000e+00 0.000000e+00 0.000000e+00 0.000000e+00 0.000000e+00 0.000000e+00 0.000000e+00 0.000000e+00 0.000000e+00 0.000000e+00 7.590361e-01 2.409639e-01 0.000000e+00 0.000000e+00 0.000000e+00 0.000000e+00 0.000000e+00
 0.000000e+00 0.000000e+00 0.000000e+00 0.000000e+00 0.000000e+00 0.000000e+00 0.000000e+00 0.000000e+00 0.000000e+00 0.000000e+00 0.000000e+00 0.000000e+00 8.181818e-01 1.818182e-01 0.000000e+00 0.000000e+00 0.000000e+00 0.000000e+00
 0.000000e+00 0.000000e+00 0.000000e+00 0.000000e+00 0.000000e+00 0.000000e+00 0.000000e+00 0.000000e+00 0.000000e+00 0.000000e+00 0.000000e+00 0.000000e+00 0.000000e+00 7.916667e-01 2.083333e-01 0.000000e+00 0.000000e+00 0.000000e+00
 0.000000e+00 0.000000e+00 0.000000e+00 0.000000e+00 0.000000e+00 0.000000e+00 0.000000e+00 0.000000e+00 0.000000e+00 0.000000e+00 0.000000e+00 0.000000e+00 0.000000e+00 0.000000e+00 6.491228e-01 3.508772e-01 0.000000e+00 0.000000e+00
 0.000000e+00 0.000000e+00 0.000000e+00 0.000000e+00 0.000000e+00 0.000000e+00 0.000000e+00 0.000000e+00 0.000000e+00 0.000000e+00 0.000000e+00 0.000000e+00 0.000000e+00 0.000000e+00 0.000000e+00 7.701150e-01 2.298851e-01 0.000000e+00
 0.000000e+00 0.000000e+00 0.000000e+00 0.000000e+00 0.000000e+00 0.000000e+00 0.000000e+00 0.000000e+00 0.000000e+00 0.000000e+00 0.000000e+00 0.000000e+00 0.000000e+00 0.000000e+00 0.000000e+00 0.000000e+00 8.930481e-01 1.069519e-01
 0.000000e+00 0.000000e+00 0.000000e+00 0.000000e+00 0.000000e+00 0.000000e+00 0.000000e+00 0.000000e+00 0.000000e+00 0.000000e+00 0.000000e+00 0.000000e+00 0.000000e+00 0.000000e+00 0.000000e+00 0.000000e+00 0.000000e+00 0.000000e+00
<ENDHMM>
