~o
<STREAMINFO> 1 20
<VECSIZE> 20<NULLD><MFCC><DIAGC>
~h "Harry"
<BEGINHMM>
<NUMSTATES> 18
<STATE> 2
<MEAN> 20
 -3.904150e+01 -2.264843e+00 -1.326551e+00 1.399710e-01 -1.695511e+00 5.009904e-01 -1.200795e+00 2.810535e-01 -8.748515e-01 1.177424e-01 -2.830580e-01 -2.375761e-01 -3.487642e-01 -2.060672e-01 -4.139983e-02 -2.748737e-01 -2.530829e-01 -1.505546e-01 4.579109e-02 -1.412082e-01
<VARIANCE> 20
 9.833545e+00 3.927339e+00 1.806857e+00 7.524800e-01 6.366324e-01 5.072111e-01 3.242626e-01 3.048483e-01 3.461316e-01 2.595000e-01 2.306387e-01 1.574272e-01 1.761526e-01 2.202106e-01 1.985817e-01 1.374001e-01 1.564799e-01 1.611582e-01 1.605050e-01 1.379714e-01
<GCONST> 1.720702e+01
<STATE> 3
<MEAN> 20
 -3.011758e+01 -6.591523e-01 -1.572060e+00 -1.093709e+00 -2.376950e+00 -5.944549e-01 -1.808677e+00 7.808285e-02 -1.755149e+00 -2.471349e-02 -6.756307e-01 -4.608097e-01 -3.073882e-01 -1.535263e-01 -1.924693e-01 -4.116008e-01 -3.117001e-01 -1.143615e-02 1.822848e-01 1.886405e-02
<VARIANCE> 20
 2.232539e+01 2.706662e+00 2.841305e+00 1.286858e+00 1.403522e+00 1.958340e+00 3.305417e-01 8.594559e-01 4.548479e-01 3.815064e-01 3.039592e-01 2.383586e-01 2.617616e-01 1.598692e-01 1.875864e-01 3.441180e-01 1.743554e-01 2.120995e-01 1.552687e-01 1.689145e-01
<GCONST> 2.467947e+01
<STATE> 4
<MEAN> 20
 -2.046429e+01 -1.244393e+00 -2.484499e+00 -1.121269e+00 -2.218701e+00 -1.261664e+00 -2.730612e+00 6.430795e-01 -1.958369e+00 -7.343014e-02 -9.401569e-01 -5.360915e-01 -7.590224e-01 -4.688000e-01 -4.575702e-01 -6.641934e-02 -3.674063e-01 2.393402e-01 6.613385e-02 5.460390e-02
<VARIANCE> 20
 4.330108e+01 4.342084e+00 1.999826e+00 2.183576e+00 1.941921e+00 1.689894e+00 9.634498e-01 8.356206e-01 9.987189e-01 6.546546e-01 5.295808e-01 3.322181e-01 5.195482e-01 2.816975e-01 2.937925e-01 3.121212e-01 2.978495e-01 2.756404e-01 2.729963e-01 1.921877e-01
<GCONST> 3.251869e+01
<STATE> 5
<MEAN> 20
 -2.437559e+01 2.361121e-01 -3.482350e+00 5.762393e-01 -5.305760e+00 -1.119714e-01 -2.963006e+00 1.251977e+00 -1.490477e+00 4.483491e-01 -1.200616e+00 -1.059526e+00 -2.988460e-01 2.843924e-01 -1.727760e-01 -7.741424e-01 7.832229e-02 2.985377e-01 6.363425e-01 -1.309679e-01
<VARIANCE> 20
 2.316018e+01 2.144561e+00 2.797656e+00 8.495249e-01 2.447747e+00 9.376194e-01 5.786612e-01 5.916680e-01 1.130416e+00 5.276248e-01 6.441051e-01 4.860162e-01 3.427985e-01 5.644395e-01 4.319064e-01 4.412674e-01 3.725328e-01 2.394513e-01 2.718523e-01 2.315465e-01
<GCONST> 3.112684e+01
<STATE> 6
<MEAN> 20
 -1.762247e+01 4.909693e+00 -8.980145e-02 1.577541e-01 -4.936178e+00 4.977907e-01 -1.888386e+00 -1.246959e-01 -1.680519e+00 7.076800e-01 -1.231980e-01 -1.669164e+00 -1.168387e+00 -4.296088e-02 5.483024e-01 -9.989715e-01 -7.615119e-01 4.508286e-01 4.113116e-01 -4.007630e-02
<VARIANCE> 20
 7.551666e+00 1.940983e+01 2.269355e+00 3.187755e+00 2.268174e+00 1.754954e+00 1.178426e+00 1.324276e+00 2.084906e+00 6.438411e-01 9.343417e-01 1.191020e+00 9.413755e-01 5.236315e-01 7.419067e-01 5.228037e-01 4.966269e-01 3.370981e-01 3.060840e-01 4.568609e-01
<GCONST> 4.054265e+01
<STATE> 7
<MEAN> 20
 -1.642605e+01 1.757295e+00 2.879018e+00 1.767092e+00 -1.529541e+00 -2.510602e+00 -2.165808e+00 7.747133e-01 -1.668177e+00 5.369225e-01 3.396111e-01 -8.396724e-01 -1.115222e+00 -5.934793e-01 -5.393517e-01 -4.327147e-01 -9.284987e-01 1.931670e-01 3.854870e-01 7.576362e-02
<VARIANCE> 20
 5.533309e+00 4.656289e+00 2.709878e+00 1.128320e+00 2.006267e+00 1.303227e+00 1.142157e+00 7.378902e-01 7.232924e-01 4.463490e-01 7.481164e-01 3.884888e-01 4.610959e-01 3.391525e-01 4.373300e-01 3.232377e-01 2.379262e-01 2.716145e-01 2.655820e-01 2.338592e-01
<GCONST> 3.021805e+01
<STATE> 8
<MEAN> 20
 -2.229468e+01 6.213305e+00 1.977210e+00 1.803372e+00 -4.125422e+00 -3.423600e-01 -1.957196e+00 -8.002474e-01 -1.779003e+00 1.447118e+00 3.058950e-01 -1.340156e+00 -1.660822e+00 -1.450144e-01 6.902407e-01 -1.385315e+00 -3.165137e-01 -2.943098e-01 -3.889430e-02 -3.941606e-01
<VARIANCE> 20
 4.658192e+00 3.823087e+00 2.442185e+00 1.056889e+00 2.657042e+00 2.228315e+00 6.583135e-01 1.293803e+00 1.300609e+00 7.360084e-01 1.392420e+00 1.099928e+00 5.626242e-01 4.370534e-01 7.677973e-01 6.159003e-01 4.096341e-01 2.566610e-01 2.385637e-01 2.660635e-01
<GCONST> 3.542466e+01
<STATE> 9
<MEAN> 20
 -2.301483e+01 1.225818e+00 5.557679e+00 4.016440e+00 -1.709941e+00 -1.550808e+00 -2.547946e+00 -6.188177e-01 -2.142395e+00 7.094240e-01 7.587935e-01 -1.177988e-01 -1.960438e-01 -4.408843e-01 -7.517580e-01 -7.796032e-01 -8.844101e-01 -5.781244e-01 -3.103895e-01 -3.749703e-01
<VARIANCE> 20
 4.873707e+00 2.567838e+00 2.111557e+00 1.036897e+00 1.097532e+00 1.167091e+00 4.784352e-01 4.965502e-01 5.742775e-01 4.897725e-01 4.552687e-01 4.146043e-01 5.169055e-01 2.428497e-01 3.119375e-01 3.781084e-01 2.170163e-01 3.206806e-01 2.442330e-01 1.940494e-01
<GCONST> 2.601553e+01
<STATE> 10
<MEAN> 20
 -2.745644e+01 4.927716e+00 2.309407e+00 2.952343e+00 -4.165665e+00 3.090200e-01 -1.954718e+00 -5.301765e-02 -7.836078e-01 1.926897e+00 8.310100e-01 -1.502613e+00 -7.436851e-01 -8.557384e-01 -3.184116e-01 -1.204660e+00 -4.270395e-01 -7.055625e-01 -1.213833e-01 -5.507537e-01
<VARIANCE> 20
 3.507014e+00 3.100624e+00 1.537492e+00 1.677168e+00 1.955333e+00 8.903363e-01 4.859704e-01 1.384239e+00 1.402770e+00 7.716264e-01 7.284616e-01 8.172083e-01 5.313023e-01 2.600858e-01 2.479659e-01 3.036379e-01 2.907409e-01 2.938533e-01 2.371048e-01 2.658192e-01
<GCONST> 3.001988e+01
<STATE> 11
<MEAN> 20
 -2.621966e+01 1.357122e+00 1.831909e+00 2.430202e+00 -2.277944e+00 3.824306e-01 -1.963834e-01 1.665835e+00 4.787661e-01 1.285998e+00 1.570564e-01 -1.214627e+00 -1.080218e+00 -6.796310e-01 2.332200e-01 -8.657565e-01 -8.445930e-01 -2.715023e-01 -2.089770e-01 -8.670260e-01
<VARIANCE> 20
 5.463865e+00 8.415203e+00 3.260733e+00 2.313708e+00 1.044946e+00 1.580833e+00 9.914871e-01 5.200886e-01 8.636342e-01 1.012264e+00 5.966362e-01 8.496687e-01 5.767021e-01 2.644743e-01 2.846364e-01 2.461504e-01 2.332304e-01 2.903393e-01 1.799625e-01 2.405464e-01
<GCONST> 3.126130e+01
<STATE> 12
<MEAN> 20
 -2.887933e+01 1.851755e+00 1.402468e-01 1.103113e+00 -1.195628e+00 3.008415e+00 -5.184720e-01 2.350301e+00 2.842497e-01 8.218389e-01 -8.899072e-01 -9.183764e-01 8.317724e-02 4.393841e-01 -5.904986e-02 -9.037791e-01 -1.153140e+00 -6.119704e-01 -3.404537e-01 -8.061331e-01
<VARIANCE> 20
 5.350102e+00 3.103922e+00 1.476097e+00 8.536596e-01 9.827334e-01 1.586828e+00 9.849779e-01 5.932834e-01 6.780522e-01 3.912852e-01 3.524452e-01 9.129437e-01 4.295404e-01 5.720224e-01 3.095482e-01 3.189704e-01 2.406433e-01 2.275110e-01 1.925206e-01 1.711855e-01
<GCONST> 2.720834e+01
<STATE> 13
<MEAN> 20
 -2.697297e+01 -1.561342e+00 1.584984e+00 1.686828e+00 -3.958457e-01 1.896764e+00 1.344052e+00 2.025597e+00 -1.072884e+00 1.055634e-01 -4.249867e-01 6.415229e-02 -2.253642e-01 4.830164e-01 2.784682e-01 -8.894153e-01 -8.976334e-01 -3.358273e-01 -2.347199e-02 -2.120312e-01
<VARIANCE> 20
 8.812388e+00 2.199034e+00 1.336343e+00 4.283290e-01 8.637068e-01 1.204285e+00 9.347526e-01 4.169899e-01 4.428816e-01 3.794429e-01 4.297523e-01 4.956306e-01 4.403413e-01 2.655484e-01 2.935331e-01 2.266327e-01 2.448411e-01 2.211344e-01 1.472939e-01 2.216225e-01
<GCONST> 2.373642e+01
<STATE> 14
<MEAN> 20
 -2.951021e+01 -2.643606e+00 2.318983e+00 1.013418e+00 -4.777277e-01 2.015195e+00 8.408934e-01 1.236035e+00 -8.652650e-01 -2.832136e-01 -1.373362e-02 4.439702e-01 1.963710e-01 5.191108e-01 -3.274423e-01 -6.010419e-02 -2.974237e-01 1.871086e-01 3.159969e-01 -1.882252e-02
<VARIANCE> 20
 7.324029e+00 2.656556e+00 1.326855e+00 6.763037e-01 1.084124e+00 5.439205e-01 4.672380e-01 3.302105e-01 4.991322e-01 5.098664e-01 5.766966e-01 1.745848e-01 2.399118e-01 2.558973e-01 2.559766e-01 2.663111e-01 3.025544e-01 2.632814e-01 2.697304e-01 2.363165e-01
<GCONST> 2.279687e+01
<STATE> 15
<MEAN> 20
 -3.478249e+01 -8.087763e-01 -4.247222e-02 1.500072e+00 -1.322779e+00 2.992275e+00 -2.979458e-01 1.663170e+00 -5.605726e-01 5.323303e-01 8.777186e-02 3.764202e-01 4.388233e-01 6.434076e-01 -2.694947e-01 -4.302137e-02 -5.882868e-01 -1.822224e-01 4.295770e-02 -3.618199e-01
<VARIANCE> 20
 8.367532e+00 2.055319e+00 7.528121e-01 7.901481e-01 8.821326e-01 1.289146e+00 2.061072e-01 5.685135e-01 3.248053e-01 2.716063e-01 3.141775e-01 3.158445e-01 2.137120e-01 3.513835e-01 2.374291e-01 2.577631e-01 3.704107e-01 2.868734e-01 1.770440e-01 1.919845e-01
<GCONST> 2.132294e+01
<STATE> 16
<MEAN> 20
 -3.742266e+01 -3.051030e+00 1.229445e-01 -2.869148e-01 -1.100958e+00 6.750218e-01 -8.231616e-01 2.068593e-01 -9.421349e-01 -7.110296e-02 -2.619522e-01 -1.636202e-01 -2.368036e-01 -1.498996e-01 -8.091322e-02 -1.333524e-01 -2.824526e-01 3.788259e-02 -9.417203e-02 -8.279289e-02
<VARIANCE> 20
 4.572320e+00 1.417908e+00 6.215561e-01 4.942559e-01 3.370592e-01 5.152187e-01 2.532400e-01 3.051574e-01 1.954415e-01 2.191282e-01 2.607521e-01 1.648803e-01 2.000566e-01 2.473880e-01 1.935992e-01 1.731573e-01 1.616040e-01 2.138757e-01 2.075594e-01 1.203763e-01
<GCONST> 1.338229e+01
<STATE> 17
<MEAN> 20
 -4.048528e+01 -1.389939e+00 -1.654779e+00 7.264393e-01 -1.405377e+00 1.104965e+00 -9.113899e-01 5.474323e-01 -6.846146e-01 3.648430e-01 -1.417011e-01 -4.526190e-02 -2.141946e-01 -2.287240e-01 -7.306628e-02 -4.030031e-01 -2.886422e-01 -2.857939e-01 -1.562545e-01 -2.745217e-01
<VARIANCE> 20
 1.562714e+00 6.762300e-01 4.470893e-01 4.527526e-01 2.885915e-01 2.702529e-01 2.315722e-01 2.834191e-01 2.231714e-01 2.235690e-01 2.337218e-01 1.632479e-01 1.401225e-01 1.780750e-01 1.716636e-01 1.525321e-01 1.286570e-01 1.537177e-01 1.388924e-01 1.324403e-01
<GCONST> 8.424241e+00
<TRANSP> 18
 0.000000e+00 1.000000e+00 0.000000e+00 0.000000e+00 0.000000e+00 0.000000e+00 0.000000e+00 0.000000e+00 0.000000e+00 0.000000e+00 0.000000e+00 0.000000e+00 0.000000e+00 0.000000e+00 0.000000e+00 0.000000e+00 0.000000e+00 0.000000e+00
 0.000000e+00 8.648649e-01 1.351351e-01 0.000000e+00 0.000000e+00 0.000000e+00 0.000000e+00 0.000000e+00 0.000000e+00 0.000000e+00 0.000000e+00 0.000000e+00 0.000000e+00 0.000000e+00 0.000000e+00 0.000000e+00 0.000000e+00 0.000000e+00
 0.000000e+00 0.000000e+00 6.226415e-01 3.773585e-01 0.000000e+00 0.000000e+00 0.000000e+00 0.000000e+00 0.000000e+00 0.000000e+00 0.000000e+00 0.000000e+00 0.000000e+00 0.000000e+00 0.000000e+00 0.000000e+00 0.000000e+00 0.000000e+00
 0.000000e+00 0.000000e+00 0.000000e+00 7.894737e-01 2.105263e-01 0.000000e+00 0.000000e+00 0.000000e+00 0.000000e+00 0.000000e+00 0.000000e+00 0.000000e+00 0.000000e+00 0.000000e+00 0.000000e+00 0.000000e+00 0.000000e+00 0.000000e+00
 0.000000e+00 0.000000e+00 0.000000e+00 0.000000e+00 8.076923e-01 1.923077e-01 0.000000e+00 0.000000e+00 0.000000e+00 0.000000e+00 0.000000e+00 0.000000e+00 0.000000e+00 0.000000e+00 0.000000e+00 0.000000e+00 0.000000e+00 0.000000e+00
 0.000000e+00 0.000000e+00 0.000000e+00 0.000000e+00 0.000000e+00 7.849463e-01 2.150538e-01 0.000000e+00 0.000000e+00 0.000000e+00 0.000000e+00 0.000000e+00 0.000000e+00 0.000000e+00 0.000000e+00 0.000000e+00 0.000000e+00 0.000000e+00
 0.000000e+00 0.000000e+00 0.000000e+00 0.000000e+00 0.000000e+00 0.000000e+00 8.290598e-01 1.709402e-01 0.000000e+00 0.000000e+00 0.000000e+00 0.000000e+00 0.000000e+00 0.000000e+00 0.000000e+00 0.000000e+00 0.000000e+00 0.000000e+00
 0.000000e+00 0.000000e+00 0.000000e+00 0.000000e+00 0.000000e+00 0.000000e+00 0.000000e+00 7.647059e-01 2.352941e-01 0.000000e+00 0.000000e+00 0.000000e+00 0.000000e+00 0.000000e+00 0.000000e+00 0.000000e+00 0.000000e+00 0.000000e+00
 0.000000e+00 0.000000e+00 0.000000e+00 0.000000e+00 0.000000e+00 0.000000e+00 0.000000e+00 0.000000e+00 8.630137e-01 1.369863e-01 0.000000e+00 0.000000e+00 0.000000e+00 0.000000e+00 0.000000e+00 0.000000e+00 0.000000e+00 0.000000e+00
 0.000000e+00 0.000000e+00 0.000000e+00 0.000000e+00 0.000000e+00 0.000000e+00 0.000000e+00 0.000000e+00 0.000000e+00 8.039216e-01 1.960784e-01 0.000000e+00 0.000000e+00 0.000000e+00 0.000000e+00 0.000000e+00 0.000000e+00 0.000000e+00
 0.000000e+00 0.000000e+00 0.000000e+00 0.000000e+00 0.000000e+00 0.000000e+00 0.000000e+00 0.000000e+00 0.000000e+00 0.000000e+00 6.666667e-01 3.333333e-01 0.000000e+00 0.000000e+00 0.000000e+00 0.000000e+00 0.000000e+00 0.000000e+00
 0.000000e+00 0.000000e+00 0.000000e+00 0.000000e+00 0.000000e+00 0.000000e+00 0.000000e+00 0.000000e+00 0.000000e+00 0.000000e+00 0.000000e+00 7.959183e-01 2.040816e-01 0.000000e+00 0.000000e+00 0.000000e+00 0.000000e+00 0.000000e+00
 0.000000e+00 0.000000e+00 0.000000e+00 0.000000e+00 0.000000e+00 0.000000e+00 0.000000e+00 0.000000e+00 0.000000e+00 0.000000e+00 0.000000e+00 0.000000e+00 6.226415e-01 3.773585e-01 0.000000e+00 0.000000e+00 0.000000e+00 0.000000e+00
 0.000000e+00 0.000000e+00 0.000000e+00 0.000000e+00 0.000000e+00 0.000000e+00 0.000000e+00 0.000000e+00 0.000000e+00 0.000000e+00 0.000000e+00 0.000000e+00 0.000000e+00 7.777778e-01 2.222222e-01 0.000000e+00 0.000000e+00 0.000000e+00
 0.000000e+00 0.000000e+00 0.000000e+00 0.000000e+00 0.000000e+00 0.000000e+00 0.000000e+00 0.000000e+00 0.000000e+00 0.000000e+00 0.000000e+00 0.000000e+00 0.000000e+00 0.000000e+00 7.260274e-01 2.739726e-01 0.000000e+00 0.000000e+00
 0.000000e+00 0.000000e+00 0.000000e+00 0.000000e+00 0.000000e+00 0.000000e+00 0.000000e+00 0.000000e+00 0.000000e+00 0.000000e+00 0.000000e+00 0.000000e+00 0.000000e+00 0.000000e+00 0.000000e+00 8.529412e-01 1.470588e-01 0.000000e+00
 0.000000e+00 0.000000e+00 0.000000e+00 0.000000e+00 0.000000e+00 0.000000e+00 0.000000e+00 0.000000e+00 0.000000e+00 0.000000e+00 0.000000e+00 0.000000e+00 0.000000e+00 0.000000e+00 0.000000e+00 0.000000e+00 8.765432e-01 1.234568e-01
 0.000000e+00 0.000000e+00 0.000000e+00 0.000000e+00 0.000000e+00 0.000000e+00 0.000000e+00 0.000000e+00 0.000000e+00 0.000000e+00 0.000000e+00 0.000000e+00 0.000000e+00 0.000000e+00 0.000000e+00 0.000000e+00 0.000000e+00 0.000000e+00
<ENDHMM>
