~o
<STREAMINFO> 1 15
<VECSIZE> 15<NULLD><MFCC><DIAGC>
~h "Harry"
<BEGINHMM>
<NUMSTATES> 10
<STATE> 2
<MEAN> 15
 -3.314586e+01 -2.410582e+00 -4.038582e-01 -7.254198e-01 -7.709147e-01 -1.833284e-01 -6.158589e-01 -8.518241e-02 -5.799076e-01 1.727522e-01 -4.781723e-01 -8.846358e-02 -3.251714e-01 9.212857e-02 -2.837168e-01
<VARIANCE> 15
 7.258118e+00 2.639744e+00 9.493501e-01 6.301264e-01 3.234326e-01 4.041496e-01 2.174155e-01 3.069374e-01 2.268320e-01 1.512407e-01 1.548044e-01 1.323649e-01 1.558399e-01 1.367026e-01 1.094713e-01
<GCONST> 1.194417e+01
<STATE> 3
<MEAN> 15
 -1.906897e+01 -1.739899e+00 -1.219926e+00 -1.702280e+00 -2.107266e+00 -1.592203e+00 -1.030504e+00 -1.454320e-01 -1.042225e+00 2.390831e-02 -1.253507e+00 -2.286065e-01 -3.080153e-01 -6.459387e-02 -5.428101e-01
<VARIANCE> 15
 2.704438e+01 2.726583e+00 2.107823e+00 7.893810e-01 1.765595e+00 1.247557e+00 5.342327e-01 9.824445e-01 5.592585e-01 4.260871e-01 4.509921e-01 3.076745e-01 3.638334e-01 2.398674e-01 3.379144e-01
<GCONST> 2.558991e+01
<STATE> 4
<MEAN> 15
 -1.577584e+01 4.124239e+00 1.674401e+00 -1.048420e+00 -2.997905e+00 -1.100168e-01 -1.364271e+00 -6.962568e-01 -5.568925e-01 1.201222e+00 -1.348348e+00 -1.240464e+00 -4.792605e-01 8.198828e-01 -1.102233e+00
<VARIANCE> 15
 6.908648e+00 5.742424e+00 2.674491e+00 1.521307e+00 9.003568e-01 1.141637e+00 9.033608e-01 1.002958e+00 1.117431e+00 1.335745e+00 5.635753e-01 6.075181e-01 4.043418e-01 5.534822e-01 3.774500e-01
<GCONST> 2.943831e+01
<STATE> 5
<MEAN> 15
 -1.729041e+01 1.223935e+00 4.714642e+00 1.687336e+00 -1.423267e+00 -2.440033e+00 -9.523079e-01 -7.119713e-01 -8.952923e-01 1.205439e+00 -2.957980e-01 -3.096878e-01 -6.148954e-01 -4.539003e-01 -6.218674e-01
<VARIANCE> 15
 1.146122e+01 1.895862e+00 3.508617e+00 8.597663e-01 8.884270e-01 1.230813e+00 6.862105e-01 7.883748e-01 4.524105e-01 4.261304e-01 4.036587e-01 5.104245e-01 2.964985e-01 2.602805e-01 2.978267e-01
<GCONST> 2.422712e+01
<STATE> 6
<MEAN> 15
 -2.276073e+01 3.098011e+00 2.902470e+00 5.064052e-01 -2.325385e+00 1.362360e-01 -1.065355e+00 4.056538e-01 3.772182e-01 1.887863e+00 -1.340289e+00 -7.775912e-01 -7.926029e-01 -1.609531e-02 -9.380200e-01
<VARIANCE> 15
 2.222775e+00 2.944704e+00 2.174885e+00 1.095506e+00 1.557285e+00 7.858343e-01 1.229419e+00 1.838115e+00 6.250693e-01 8.959649e-01 4.350882e-01 4.780206e-01 2.121219e-01 2.704176e-01 2.857829e-01
<GCONST> 2.507137e+01
<STATE> 7
<MEAN> 15
 -2.323505e+01 -9.634978e-01 1.965441e+00 2.454175e-01 2.729273e-01 1.438166e+00 1.081015e+00 1.088067e+00 -2.533070e-01 8.707009e-02 -6.927587e-01 8.525825e-02 1.556323e-01 3.114693e-01 -7.199728e-01
<VARIANCE> 15
 3.362518e+00 3.691375e+00 1.758396e+00 9.981977e-01 1.166591e+00 5.016634e-01 7.203030e-01 8.616588e-01 6.336994e-01 3.271198e-01 7.178836e-01 3.462698e-01 3.868145e-01 2.593337e-01 2.346589e-01
<GCONST> 2.292206e+01
<STATE> 8
<MEAN> 15
 -2.847769e+01 -1.693377e+00 1.670372e+00 -1.763591e-01 5.055039e-01 1.528669e+00 4.822458e-01 5.928423e-01 -5.708271e-01 4.003356e-01 -4.285227e-03 4.863124e-01 4.308796e-01 -3.884771e-02 -1.306051e-01
<VARIANCE> 15
 5.581698e+00 1.578418e+00 7.752711e-01 4.687224e-01 4.447100e-01 6.986009e-01 3.624128e-01 6.088156e-01 2.874804e-01 3.779155e-01 2.004379e-01 2.077107e-01 2.047107e-01 1.969630e-01 1.953721e-01
<GCONST> 1.580927e+01
<STATE> 9
<MEAN> 15
 -3.383790e+01 -2.305044e+00 -1.085798e-01 -4.537245e-01 -3.344089e-01 2.466100e-01 -3.941908e-01 4.134488e-02 -4.478655e-01 2.582520e-01 -3.273824e-01 1.108150e-02 -3.321186e-01 3.130243e-02 -3.271939e-01
<VARIANCE> 15
 2.220636e+00 8.361574e-01 5.487753e-01 5.326326e-01 2.185852e-01 3.117370e-01 2.148371e-01 2.233817e-01 1.549798e-01 2.080581e-01 1.199735e-01 1.182469e-01 1.340451e-01 1.244117e-01 1.196998e-01
<GCONST> 7.327727e+00
<TRANSP> 10
 0.000000e+00 1.000000e+00 0.000000e+00 0.000000e+00 0.000000e+00 0.000000e+00 0.000000e+00 0.000000e+00 0.000000e+00 0.000000e+00
 0.000000e+00 8.780488e-01 1.219512e-01 0.000000e+00 0.000000e+00 0.000000e+00 0.000000e+00 0.000000e+00 0.000000e+00 0.000000e+00
 0.000000e+00 0.000000e+00 9.186992e-01 8.130082e-02 0.000000e+00 0.000000e+00 0.000000e+00 0.000000e+00 0.000000e+00 0.000000e+00
 0.000000e+00 0.000000e+00 0.000000e+00 8.816568e-01 1.183432e-01 0.000000e+00 0.000000e+00 0.000000e+00 0.000000e+00 0.000000e+00
 0.000000e+00 0.000000e+00 0.000000e+00 0.000000e+00 9.239544e-01 7.604563e-02 0.000000e+00 0.000000e+00 0.000000e+00 0.000000e+00
 0.000000e+00 0.000000e+00 0.000000e+00 0.000000e+00 0.000000e+00 8.657718e-01 1.342282e-01 0.000000e+00 0.000000e+00 0.000000e+00
 0.000000e+00 0.000000e+00 0.000000e+00 0.000000e+00 0.000000e+00 0.000000e+00 8.930481e-01 1.069519e-01 0.000000e+00 0.000000e+00
 0.000000e+00 0.000000e+00 0.000000e+00 0.000000e+00 0.000000e+00 0.000000e+00 0.000000e+00 8.734177e-01 1.265823e-01 0.000000e+00
 0.000000e+00 0.000000e+00 0.000000e+00 0.000000e+00 0.000000e+00 0.000000e+00 0.000000e+00 0.000000e+00 9.283154e-01 7.168459e-02
 0.000000e+00 0.000000e+00 0.000000e+00 0.000000e+00 0.000000e+00 0.000000e+00 0.000000e+00 0.000000e+00 0.000000e+00 0.000000e+00
<ENDHMM>
