~o
<STREAMINFO> 1 20
<VECSIZE> 20<NULLD><MFCC><DIAGC>
~h "Hemal"
<BEGINHMM>
<NUMSTATES> 18
<STATE> 2
<MEAN> 20
 -3.905822e+01 -2.210827e+00 -1.227323e+00 -1.945360e-01 -1.498245e+00 5.933897e-01 -1.180436e+00 2.226223e-01 -8.949372e-01 2.945634e-02 -2.533135e-01 -3.218426e-01 -2.977830e-01 -1.836991e-01 -1.210756e-01 -2.956279e-01 -2.578460e-01 -1.592470e-01 1.138462e-03 -1.931657e-01
<VARIANCE> 20
 6.570645e+00 2.806681e+00 1.413510e+00 1.007585e+00 1.005936e+00 3.613429e-01 4.147000e-01 3.291014e-01 2.493335e-01 3.012208e-01 2.385841e-01 1.630877e-01 2.210503e-01 2.020572e-01 1.265211e-01 1.369548e-01 1.422544e-01 1.625257e-01 1.532011e-01 1.138420e-01
<GCONST> 1.620679e+01
<STATE> 3
<MEAN> 20
 -2.743061e+01 -9.225292e-01 -1.430340e+00 -1.533897e+00 -1.829220e+00 -2.559899e-01 -1.931944e+00 2.242097e-02 -1.873777e+00 -7.545685e-01 -5.902678e-01 -1.874375e-01 -5.383368e-01 -3.993622e-01 -5.201151e-01 -3.668544e-01 -5.950472e-02 1.357268e-01 3.860645e-02 1.413592e-01
<VARIANCE> 20
 4.522146e+01 1.410464e+00 2.296251e+00 1.173824e+00 1.191409e+00 1.146079e+00 5.051919e-01 5.622188e-01 3.327654e-01 3.937603e-01 4.717108e-01 3.067833e-01 2.934077e-01 3.187471e-01 2.227815e-01 2.742022e-01 2.754781e-01 2.422329e-01 2.183520e-01 2.616019e-01
<GCONST> 2.625736e+01
<STATE> 4
<MEAN> 20
 -2.431729e+01 -8.574593e-01 -3.716831e+00 9.486165e-01 -4.810821e+00 6.570373e-01 -2.610116e+00 1.032752e+00 -1.725603e+00 9.018400e-02 -1.642794e+00 -7.986527e-01 -2.411076e-01 -1.950785e-01 -4.652455e-01 -4.836873e-01 1.264938e-01 4.857916e-02 3.499198e-01 -5.536466e-02
<VARIANCE> 20
 2.714414e+01 9.525840e-01 1.743600e+00 1.000344e+00 1.787376e+00 8.313669e-01 6.267427e-01 7.053548e-01 8.736839e-01 6.809089e-01 9.301108e-01 5.226867e-01 6.788420e-01 5.168402e-01 4.852246e-01 3.724113e-01 2.806290e-01 2.289242e-01 3.554226e-01 3.369677e-01
<GCONST> 3.128004e+01
<STATE> 5
<MEAN> 20
 -1.477674e+01 -2.297736e+00 2.032862e+00 1.319516e+00 -2.634541e+00 -1.533850e-01 -1.522487e+00 4.036768e-01 -1.384159e+00 -6.375393e-02 -7.565138e-01 -4.119205e-01 -5.307252e-01 -2.109544e-01 -6.997854e-01 -8.479457e-01 -2.388305e-01 4.313751e-01 2.204456e-01 3.739282e-01
<VARIANCE> 20
 7.203459e+00 4.254134e+00 4.564691e+00 2.362849e+00 1.607056e+00 1.035281e+00 1.339820e+00 7.628543e-01 4.904302e-01 5.803143e-01 4.528669e-01 4.492347e-01 5.055347e-01 3.436197e-01 4.838958e-01 4.126020e-01 3.634473e-01 3.625502e-01 2.299768e-01 3.435648e-01
<GCONST> 3.231373e+01
<STATE> 6
<MEAN> 20
 -1.618730e+01 4.046897e+00 6.523801e-02 2.084862e+00 -5.342258e+00 1.765352e+00 -1.791606e+00 -1.833226e-01 -1.135542e+00 9.551567e-01 -5.715285e-01 -1.761908e+00 -7.882386e-02 2.698425e-01 -4.262974e-01 -1.722567e+00 -1.115625e-01 9.352715e-03 1.340113e-01 5.272689e-02
<VARIANCE> 20
 5.998826e+00 4.484879e+00 3.712462e+00 1.477705e+00 3.343636e+00 1.656767e+00 7.710584e-01 1.026155e+00 1.692972e+00 1.170450e+00 6.894403e-01 7.563203e-01 6.471952e-01 6.193544e-01 4.930685e-01 5.310258e-01 5.735844e-01 3.317903e-01 3.317396e-01 3.474805e-01
<GCONST> 3.718867e+01
<STATE> 7
<MEAN> 20
 -2.438764e+01 4.132790e+00 9.914318e-01 8.974724e-01 -2.642806e+00 2.616905e+00 -1.289744e+00 -5.892204e-02 -1.067976e+00 1.177875e+00 -2.420148e-01 -8.844144e-01 -4.695258e-01 7.771291e-01 5.824351e-01 -8.058863e-01 -7.751311e-01 -3.124891e-01 2.574147e-02 -6.446532e-01
<VARIANCE> 20
 8.917827e+00 3.370870e+00 2.187477e+00 1.603251e+00 1.575970e+00 1.862366e+00 5.354806e-01 7.088985e-01 7.038752e-01 8.202053e-01 3.409942e-01 5.736881e-01 4.439951e-01 6.632480e-01 3.373465e-01 4.006588e-01 3.037315e-01 1.757592e-01 1.427676e-01 2.021581e-01
<GCONST> 2.964339e+01
<STATE> 8
<MEAN> 20
 -2.389688e+01 3.733795e-02 4.127954e+00 1.985492e+00 -1.070999e+00 1.329222e+00 -9.611382e-01 5.541599e-01 -5.481926e-01 -5.029442e-01 -1.119593e-01 2.432056e-01 5.557829e-02 -4.542303e-02 -3.204920e-04 2.788108e-02 -6.629191e-01 8.138528e-02 1.133118e-01 -6.400052e-01
<VARIANCE> 20
 3.359618e+00 2.444175e+00 1.734977e+00 7.797592e-01 5.456071e-01 1.049997e+00 5.787754e-01 3.636455e-01 9.240302e-01 7.018668e-01 5.221457e-01 5.347424e-01 5.004499e-01 3.771140e-01 2.640161e-01 4.493956e-01 2.743307e-01 2.758980e-01 2.111592e-01 2.260961e-01
<GCONST> 2.591887e+01
<STATE> 9
<MEAN> 20
 -2.301269e+01 3.376625e-01 3.989381e+00 3.739588e+00 -1.400993e-01 1.037727e+00 -1.208833e+00 7.215636e-02 -2.620235e+00 -1.037325e+00 -3.506252e-01 -5.597070e-01 -1.382489e+00 -8.444090e-01 -8.023983e-02 2.987377e-02 -1.583234e-01 2.296317e-03 -2.212143e-01 -1.436160e-01
<VARIANCE> 20
 9.856743e+00 2.059244e+00 1.731434e+00 1.013316e+00 1.019214e+00 1.895335e+00 4.998028e-01 3.142481e-01 9.558240e-01 6.619009e-01 4.436098e-01 3.689081e-01 2.702223e-01 3.627874e-01 2.593010e-01 2.712684e-01 3.204549e-01 1.593414e-01 2.149706e-01 1.990570e-01
<GCONST> 2.576669e+01
<STATE> 10
<MEAN> 20
 -2.882546e+01 2.136046e+00 2.374464e+00 3.333494e+00 -1.567650e+00 3.750562e+00 -1.203661e+00 5.133445e-01 -1.355588e+00 -1.719002e-01 2.964376e-02 -8.243176e-01 -1.537828e+00 -6.562868e-01 -1.653442e-02 -2.053486e-01 -4.730188e-01 -3.661714e-01 -4.875216e-01 -6.009936e-01
<VARIANCE> 20
 4.785203e+00 1.683086e+00 2.126669e+00 7.980679e-01 1.029627e+00 1.884075e+00 6.897331e-01 7.305293e-01 5.950319e-01 8.436723e-01 9.062631e-01 5.382857e-01 4.050179e-01 3.397607e-01 2.629074e-01 2.104801e-01 2.057367e-01 2.774400e-01 1.842862e-01 1.419834e-01
<GCONST> 2.655869e+01
<STATE> 11
<MEAN> 20
 -2.831364e+01 -8.477317e-02 3.877818e+00 3.317930e+00 7.139879e-02 1.821862e+00 -1.834538e-01 5.524171e-02 -1.164369e+00 -8.242521e-01 2.787842e-01 -4.106930e-01 -1.192653e+00 -8.258823e-01 3.908923e-03 8.565246e-02 -4.279213e-01 -2.330879e-01 -5.328459e-02 -3.756148e-01
<VARIANCE> 20
 5.305689e+00 1.206640e+00 1.101898e+00 1.429439e+00 7.423768e-01 1.117578e+00 6.202664e-01 4.666720e-01 4.113352e-01 4.996915e-01 3.730651e-01 3.059389e-01 2.924659e-01 3.204363e-01 2.821179e-01 2.515846e-01 2.118845e-01 2.220291e-01 1.731545e-01 1.004303e-01
<GCONST> 2.176812e+01
<STATE> 12
<MEAN> 20
 -3.196004e+01 8.631111e-01 2.358221e+00 2.469777e+00 -2.458666e-01 3.379655e+00 -1.112323e+00 1.058846e+00 -1.178107e+00 5.141746e-01 3.951145e-01 -6.015491e-01 -1.207402e+00 -1.595112e-01 1.126038e-01 1.934738e-01 -4.121962e-01 -3.414184e-01 -1.836856e-01 -4.232688e-01
<VARIANCE> 20
 5.184164e+00 4.232763e+00 1.526961e+00 7.452479e-01 8.016022e-01 1.212200e+00 5.525339e-01 4.426295e-01 4.559708e-01 8.961135e-01 2.189373e-01 2.817867e-01 5.457883e-01 2.906927e-01 1.731135e-01 2.668422e-01 3.597145e-01 4.517668e-01 2.577153e-01 2.307600e-01
<GCONST> 2.530246e+01
<STATE> 13
<MEAN> 20
 -3.570904e+01 -6.783254e-02 1.621374e+00 2.291755e+00 5.299747e-02 2.717122e+00 -5.871875e-01 1.161661e+00 -8.978049e-01 7.754502e-01 3.291089e-01 -2.514567e-01 -1.488260e-01 -1.334772e-01 2.517865e-01 -6.206067e-02 -1.191849e-01 -2.339360e-01 -3.092629e-03 -2.676569e-01
<VARIANCE> 20
 8.088115e+00 2.669037e+00 2.606089e+00 3.632662e-01 6.240088e-01 5.930753e-01 2.661749e-01 2.463448e-01 3.478785e-01 4.570348e-01 2.332915e-01 3.077312e-01 2.015195e-01 1.936436e-01 1.186958e-01 1.280947e-01 1.371796e-01 2.300725e-01 1.348152e-01 1.381717e-01
<GCONST> 1.671463e+01
<STATE> 14
<MEAN> 20
 -3.674063e+01 -1.000257e+00 1.433254e+00 1.792103e+00 -2.701427e-01 1.651008e+00 -5.757483e-01 7.557716e-01 -7.823617e-01 3.187695e-01 7.628316e-02 -2.389786e-01 -3.775316e-01 -2.102117e-01 -2.313794e-01 -1.371859e-01 -3.974493e-01 -5.635406e-02 3.340282e-02 -1.024052e-01
<VARIANCE> 20
 8.707667e+00 2.835773e+00 2.427758e+00 3.043126e-01 4.416387e-01 4.180857e-01 2.207634e-01 1.346195e-01 3.214398e-01 2.357221e-01 2.685386e-01 2.094365e-01 1.394805e-01 2.077748e-01 6.705092e-02 1.974352e-01 1.291545e-01 2.095305e-01 1.376325e-01 1.391397e-01
<GCONST> 1.356703e+01
<STATE> 15
<MEAN> 20
 -3.711062e+01 -3.044580e+00 4.194695e-01 -7.222741e-03 -1.037105e+00 4.250555e-01 -9.993089e-01 2.069852e-01 -9.944612e-01 7.755070e-02 -2.192226e-01 -3.194082e-01 -4.165819e-01 -2.917379e-01 -1.789442e-01 -1.963976e-01 -3.010099e-01 1.847571e-02 -6.301910e-02 -9.522814e-02
<VARIANCE> 20
 5.451102e+00 1.876595e+00 1.155768e+00 6.413689e-01 5.899473e-01 3.718449e-01 2.960256e-01 1.980967e-01 2.528954e-01 2.393781e-01 2.428829e-01 2.229999e-01 1.489534e-01 1.522973e-01 1.373797e-01 1.439716e-01 1.742705e-01 1.693113e-01 1.370270e-01 1.567689e-01
<GCONST> 1.363697e+01
<STATE> 16
<MEAN> 20
 -4.036809e+01 -1.038060e+00 -1.069716e+00 1.033762e+00 -9.437986e-01 1.109665e+00 -6.348659e-01 4.607869e-01 -6.182935e-01 8.998999e-02 -8.682326e-02 -2.966863e-01 -3.217822e-01 -3.761445e-01 -1.918118e-01 -4.855421e-01 -3.283810e-01 -3.379118e-01 -3.936609e-01 -4.077537e-01
<VARIANCE> 20
 2.156999e+00 1.197322e+00 6.500195e-01 4.818037e-01 4.092332e-01 3.822401e-01 2.040461e-01 3.448807e-01 1.198243e-01 2.270118e-01 1.597606e-01 1.334998e-01 1.095340e-01 1.755898e-01 1.225611e-01 1.270531e-01 1.586546e-01 1.744947e-01 1.268437e-01 1.247470e-01
<GCONST> 8.737442e+00
<STATE> 17
<MEAN> 20
 -4.117496e+01 -1.312713e+00 -1.863460e+00 3.405015e-01 -1.310967e+00 7.211409e-01 -6.649712e-01 3.396921e-01 -5.966166e-01 5.766008e-02 -1.510494e-01 -3.215180e-01 -2.662653e-01 -2.326452e-01 -1.230174e-01 -3.329500e-01 -2.727985e-01 -2.021269e-01 -1.182064e-01 -2.430567e-01
<VARIANCE> 20
 1.217824e+00 5.494003e-01 5.290760e-01 2.801852e-01 2.880351e-01 1.775048e-01 2.106889e-01 1.819048e-01 1.462797e-01 1.692050e-01 1.682970e-01 1.329178e-01 1.452642e-01 1.302857e-01 1.503195e-01 1.594630e-01 1.292571e-01 1.250329e-01 9.757516e-02 1.042511e-01
<GCONST> 4.301374e+00
<TRANSP> 18
 0.000000e+00 1.000000e+00 0.000000e+00 0.000000e+00 0.000000e+00 0.000000e+00 0.000000e+00 0.000000e+00 0.000000e+00 0.000000e+00 0.000000e+00 0.000000e+00 0.000000e+00 0.000000e+00 0.000000e+00 0.000000e+00 0.000000e+00 0.000000e+00
 0.000000e+00 8.742138e-01 1.257862e-01 0.000000e+00 0.000000e+00 0.000000e+00 0.000000e+00 0.000000e+00 0.000000e+00 0.000000e+00 0.000000e+00 0.000000e+00 0.000000e+00 0.000000e+00 0.000000e+00 0.000000e+00 0.000000e+00 0.000000e+00
 0.000000e+00 0.000000e+00 8.181818e-01 1.818182e-01 0.000000e+00 0.000000e+00 0.000000e+00 0.000000e+00 0.000000e+00 0.000000e+00 0.000000e+00 0.000000e+00 0.000000e+00 0.000000e+00 0.000000e+00 0.000000e+00 0.000000e+00 0.000000e+00
 0.000000e+00 0.000000e+00 0.000000e+00 8.412699e-01 1.587302e-01 0.000000e+00 0.000000e+00 0.000000e+00 0.000000e+00 0.000000e+00 0.000000e+00 0.000000e+00 0.000000e+00 0.000000e+00 0.000000e+00 0.000000e+00 0.000000e+00 0.000000e+00
 0.000000e+00 0.000000e+00 0.000000e+00 0.000000e+00 8.130841e-01 1.869159e-01 0.000000e+00 0.000000e+00 0.000000e+00 0.000000e+00 0.000000e+00 0.000000e+00 0.000000e+00 0.000000e+00 0.000000e+00 0.000000e+00 0.000000e+00 0.000000e+00
 0.000000e+00 0.000000e+00 0.000000e+00 0.000000e+00 0.000000e+00 7.590361e-01 2.409639e-01 0.000000e+00 0.000000e+00 0.000000e+00 0.000000e+00 0.000000e+00 0.000000e+00 0.000000e+00 0.000000e+00 0.000000e+00 0.000000e+00 0.000000e+00
 0.000000e+00 0.000000e+00 0.000000e+00 0.000000e+00 0.000000e+00 0.000000e+00 8.148148e-01 1.851852e-01 0.000000e+00 0.000000e+00 0.000000e+00 0.000000e+00 0.000000e+00 0.000000e+00 0.000000e+00 0.000000e+00 0.000000e+00 0.000000e+00
 0.000000e+00 0.000000e+00 0.000000e+00 0.000000e+00 0.000000e+00 0.000000e+00 0.000000e+00 8.230088e-01 1.769911e-01 0.000000e+00 0.000000e+00 0.000000e+00 0.000000e+00 0.000000e+00 0.000000e+00 0.000000e+00 0.000000e+00 0.000000e+00
 0.000000e+00 0.000000e+00 0.000000e+00 0.000000e+00 0.000000e+00 0.000000e+00 0.000000e+00 0.000000e+00 7.590361e-01 2.409639e-01 0.000000e+00 0.000000e+00 0.000000e+00 0.000000e+00 0.000000e+00 0.000000e+00 0.000000e+00 0.000000e+00
 0.000000e+00 0.000000e+00 0.000000e+00 0.000000e+00 0.000000e+00 0.000000e+00 0.000000e+00 0.000000e+00 0.000000e+00 7.872341e-01 2.127660e-01 0.000000e+00 0.000000e+00 0.000000e+00 0.000000e+00 0.000000e+00 0.000000e+00 0.000000e+00
 0.000000e+00 0.000000e+00 0.000000e+00 0.000000e+00 0.000000e+00 0.000000e+00 0.000000e+00 0.000000e+00 0.000000e+00 0.000000e+00 8.039216e-01 1.960784e-01 0.000000e+00 0.000000e+00 0.000000e+00 0.000000e+00 0.000000e+00 0.000000e+00
 0.000000e+00 0.000000e+00 0.000000e+00 0.000000e+00 0.000000e+00 0.000000e+00 0.000000e+00 0.000000e+00 0.000000e+00 0.000000e+00 0.000000e+00 7.101449e-01 2.898551e-01 0.000000e+00 0.000000e+00 0.000000e+00 0.000000e+00 0.000000e+00
 0.000000e+00 0.000000e+00 0.000000e+00 0.000000e+00 0.000000e+00 0.000000e+00 0.000000e+00 0.000000e+00 0.000000e+00 0.000000e+00 0.000000e+00 0.000000e+00 6.226415e-01 3.773585e-01 0.000000e+00 0.000000e+00 0.000000e+00 0.000000e+00
 0.000000e+00 0.000000e+00 0.000000e+00 0.000000e+00 0.000000e+00 0.000000e+00 0.000000e+00 0.000000e+00 0.000000e+00 0.000000e+00 0.000000e+00 0.000000e+00 0.000000e+00 4.594595e-01 5.405405e-01 0.000000e+00 0.000000e+00 0.000000e+00
 0.000000e+00 0.000000e+00 0.000000e+00 0.000000e+00 0.000000e+00 0.000000e+00 0.000000e+00 0.000000e+00 0.000000e+00 0.000000e+00 0.000000e+00 0.000000e+00 0.000000e+00 0.000000e+00 8.780488e-01 1.219512e-01 0.000000e+00 0.000000e+00
 0.000000e+00 0.000000e+00 0.000000e+00 0.000000e+00 0.000000e+00 0.000000e+00 0.000000e+00 0.000000e+00 0.000000e+00 0.000000e+00 0.000000e+00 0.000000e+00 0.000000e+00 0.000000e+00 0.000000e+00 6.923077e-01 3.076923e-01 0.000000e+00
 0.000000e+00 0.000000e+00 0.000000e+00 0.000000e+00 0.000000e+00 0.000000e+00 0.000000e+00 0.000000e+00 0.000000e+00 0.000000e+00 0.000000e+00 0.000000e+00 0.000000e+00 0.000000e+00 0.000000e+00 0.000000e+00 8.863636e-01 1.136364e-01
 0.000000e+00 0.000000e+00 0.000000e+00 0.000000e+00 0.000000e+00 0.000000e+00 0.000000e+00 0.000000e+00 0.000000e+00 0.000000e+00 0.000000e+00 0.000000e+00 0.000000e+00 0.000000e+00 0.000000e+00 0.000000e+00 0.000000e+00 0.000000e+00
<ENDHMM>
