~o
<STREAMINFO> 1 15
<VECSIZE> 15<NULLD><MFCC><DIAGC>
~h "Hemal"
<BEGINHMM>
<NUMSTATES> 18
<STATE> 2
<MEAN> 15
 -3.353261e+01 -2.475982e+00 -3.934052e-01 -8.998623e-01 -5.151758e-01 -7.504061e-02 -6.348536e-01 -7.049380e-02 -5.950910e-01 1.912246e-01 -4.669271e-01 -1.220734e-01 -2.943099e-01 -1.290450e-02 -2.982454e-01
<VARIANCE> 15
 4.478190e+00 1.464867e+00 6.984046e-01 5.555438e-01 6.525298e-01 2.922286e-01 3.102396e-01 2.229922e-01 1.979172e-01 2.079655e-01 1.414975e-01 1.393605e-01 1.499470e-01 1.124069e-01 1.105889e-01
<GCONST> 1.077273e+01
<STATE> 3
<MEAN> 15
 -2.438238e+01 -9.774255e-01 -9.509934e-01 -1.987922e+00 -6.665130e-01 -9.378517e-01 -9.012253e-01 -4.838802e-01 -1.466095e+00 -2.305358e-01 -2.846867e-01 -2.664330e-01 -5.466288e-01 -2.512842e-01 -4.038444e-01
<VARIANCE> 15
 2.993211e+01 6.608608e-01 1.870930e+00 8.735272e-01 7.325894e-01 5.418491e-01 2.866395e-01 4.962583e-01 2.863430e-01 2.661347e-01 3.074990e-01 1.181038e-01 2.642667e-01 2.339069e-01 1.975469e-01
<GCONST> 1.787477e+01
<STATE> 4
<MEAN> 15
 -2.084735e+01 -2.384248e+00 -1.314235e+00 -1.311667e+00 -2.119954e+00 -7.186008e-01 -1.076005e+00 -2.433732e-01 -1.088860e+00 -5.283890e-01 -1.381436e+00 1.598163e-02 -3.469379e-01 -2.853662e-01 -6.556401e-01
<VARIANCE> 15
 2.173156e+01 3.618720e-01 1.048128e+00 6.714856e-01 8.271962e-01 8.984829e-01 7.133505e-01 7.392055e-01 6.628371e-01 3.927451e-01 3.241618e-01 2.786909e-01 3.315933e-01 2.393455e-01 2.468568e-01
<GCONST> 2.065985e+01
<STATE> 5
<MEAN> 15
 -1.474065e+01 -3.383672e+00 4.299586e-02 -1.269269e+00 -2.596015e+00 -4.990788e-01 -1.170473e+00 6.989619e-02 -1.326684e+00 -1.251307e-01 -1.541805e+00 1.501996e-01 -4.144119e-01 -2.489126e-01 -6.182606e-01
<VARIANCE> 15
 5.809435e+00 6.261733e-01 2.005238e+00 6.482172e-01 1.497337e+00 9.272325e-01 6.158760e-01 9.229456e-01 5.403009e-01 2.439287e-01 7.852736e-01 5.381302e-01 2.169096e-01 2.964973e-01 2.667409e-01
<GCONST> 2.193163e+01
<STATE> 6
<MEAN> 15
 -1.235033e+01 1.548841e+00 1.323673e+00 -6.698288e-01 -3.171199e+00 1.035893e+00 -1.637848e+00 -1.426533e-02 -4.417312e-01 7.195400e-01 -1.902028e+00 -2.220792e-01 1.311356e-01 -1.835810e-01 -1.519150e+00
<VARIANCE> 15
 4.452371e+00 4.970195e+00 7.956681e-01 8.634750e-01 1.274399e+00 1.276538e+00 1.289192e+00 1.100905e+00 8.949365e-01 7.283757e-01 5.871487e-01 4.058966e-01 4.433512e-01 3.299495e-01 4.391089e-01
<GCONST> 2.651917e+01
<STATE> 7
<MEAN> 15
 -1.299943e+01 -5.558572e-01 4.073683e+00 7.185597e-01 -1.420129e+00 -4.645239e-01 -3.777348e-01 -4.067187e-01 -8.124262e-01 9.790771e-02 -6.199334e-01 -3.504743e-01 -4.661331e-01 -2.727016e-01 -1.094238e+00
<VARIANCE> 15
 6.380607e+00 3.484907e+00 2.062049e+00 6.657853e-01 7.388349e-01 9.955193e-01 7.344342e-01 4.602342e-01 4.898289e-01 6.177148e-01 3.870729e-01 3.272000e-01 3.292475e-01 5.996734e-01 4.088593e-01
<GCONST> 2.381647e+01
<STATE> 8
<MEAN> 15
 -2.057932e+01 2.642708e+00 1.974278e+00 -8.868266e-01 -3.523324e-01 1.597546e+00 -9.697098e-01 -2.425724e-01 2.710418e-02 9.079319e-01 -9.656283e-01 -3.257562e-01 4.717981e-01 8.120597e-01 -6.708909e-01
<VARIANCE> 15
 3.943082e+00 1.598271e+00 1.351686e+00 9.941998e-01 1.282092e+00 6.960484e-01 3.659821e-01 6.333300e-01 3.856738e-01 4.887826e-01 4.975203e-01 3.656843e-01 4.046946e-01 3.193474e-01 2.673631e-01
<GCONST> 2.139085e+01
<STATE> 9
<MEAN> 15
 -2.069212e+01 7.339036e-02 4.357222e+00 5.732591e-01 5.284838e-02 6.789478e-01 -5.054233e-01 4.823526e-01 -7.785877e-01 -2.486265e-02 1.593471e-01 3.232059e-01 -1.054624e-01 5.471428e-02 8.969939e-02
<VARIANCE> 15
 1.635092e+00 1.527198e+00 1.254240e+00 6.556731e-01 5.296419e-01 6.461813e-01 3.283427e-01 4.380588e-01 5.815685e-01 5.966202e-01 4.043817e-01 3.779555e-01 3.555838e-01 2.401724e-01 3.163696e-01
<GCONST> 1.872829e+01
<STATE> 10
<MEAN> 15
 -2.080445e+01 -6.139280e-02 4.623616e+00 2.229671e+00 4.167803e-01 5.662241e-01 -5.142269e-01 -7.329819e-01 -1.883623e+00 -1.099895e-01 -3.403782e-01 -9.322341e-01 -1.037374e+00 -3.073684e-02 6.141509e-02
<VARIANCE> 15
 7.564106e+00 9.691597e-01 9.277490e-01 1.231779e+00 6.100361e-01 1.148095e+00 3.463913e-01 4.668179e-01 6.200359e-01 3.721620e-01 3.646301e-01 2.153283e-01 2.126785e-01 2.396528e-01 2.074920e-01
<GCONST> 1.895551e+01
<STATE> 11
<MEAN> 15
 -2.435110e+01 9.423533e-01 3.440866e+00 1.286856e+00 4.485169e-01 2.136330e+00 -8.222960e-01 2.279867e-01 -1.180961e+00 4.675191e-01 -5.080646e-01 -1.199908e+00 -9.032794e-01 1.131399e-01 -2.100273e-01
<VARIANCE> 15
 1.967202e+00 8.126430e-01 1.307630e+00 1.013810e+00 8.891305e-01 9.498605e-01 8.481178e-01 2.729400e-01 5.300787e-01 5.020427e-01 3.748593e-01 2.545473e-01 2.510017e-01 2.922130e-01 1.787325e-01
<GCONST> 1.867934e+01
<STATE> 12
<MEAN> 15
 -2.748302e+01 4.531273e-01 3.316250e+00 9.470996e-01 1.277710e+00 1.512046e+00 -3.317986e-01 2.717522e-01 -7.992169e-01 6.627759e-01 -4.178074e-01 -8.004084e-01 -5.963989e-01 7.686105e-02 1.914780e-02
<VARIANCE> 15
 2.863422e+00 1.207683e+00 1.135037e+00 3.304335e-01 3.796418e-01 5.305902e-01 2.816669e-01 4.212292e-01 4.935514e-01 2.888658e-01 1.801451e-01 1.067345e-01 1.523684e-01 1.763174e-01 1.341816e-01
<GCONST> 1.256948e+01
<STATE> 13
<MEAN> 15
 -2.754814e+01 -1.796213e+00 3.816946e+00 8.436223e-01 9.359096e-01 1.042704e+00 -2.610701e-01 2.836055e-01 -9.923569e-01 1.005039e+00 -4.438770e-01 -2.847804e-01 -2.146111e-01 2.875866e-01 2.211351e-01
<VARIANCE> 15
 5.052182e+00 1.800675e+00 1.423821e+00 8.237702e-01 1.231680e+00 4.781874e-01 1.858971e-01 2.409575e-01 3.238807e-01 3.525263e-01 2.886520e-01 1.915764e-01 2.711589e-01 1.410854e-01 2.048447e-01
<GCONST> 1.638659e+01
<STATE> 14
<MEAN> 15
 -3.241365e+01 -5.969029e-01 1.341044e+00 9.592020e-01 9.304703e-01 1.222319e+00 8.299031e-03 4.541372e-01 -2.871601e-01 7.720981e-01 -4.077220e-01 -2.505412e-03 -3.996875e-01 7.697309e-02 -3.051625e-01
<VARIANCE> 15
 3.412833e+00 6.874060e-01 9.326094e-01 2.502738e-01 4.863391e-01 2.904206e-01 2.077735e-01 1.923426e-01 1.645268e-01 1.898629e-01 1.096680e-01 1.303736e-01 1.239497e-01 1.635496e-01 1.412359e-01
<GCONST> 8.219213e+00
<STATE> 15
<MEAN> 15
 -3.081115e+01 -2.668234e+00 1.516632e+00 -4.518725e-01 -2.948706e-01 -2.447930e-01 -5.954773e-01 -3.528652e-01 -5.668762e-01 3.057068e-01 -4.451627e-01 -1.125017e-01 -4.002480e-01 -4.920297e-02 -2.541130e-01
<VARIANCE> 15
 4.232304e+00 1.577621e+00 1.182960e+00 7.274732e-01 6.155861e-01 4.242956e-01 1.359558e-01 1.879364e-01 1.517685e-01 1.770190e-01 1.948433e-01 9.197441e-02 1.346929e-01 1.071455e-01 1.239544e-01
<GCONST> 1.034221e+01
<STATE> 16
<MEAN> 15
 -3.331584e+01 -2.747128e+00 3.474241e-01 -6.695548e-01 -1.527852e-01 -8.687697e-02 -2.908839e-01 -8.156435e-02 -5.790212e-01 1.001540e-01 -4.105328e-01 -2.745130e-01 -3.711722e-01 -1.288669e-01 -2.765463e-01
<VARIANCE> 15
 1.597652e+00 1.251345e+00 3.648780e-01 3.867968e-01 2.008809e-01 2.389509e-01 1.641732e-01 1.328730e-01 1.535578e-01 1.809514e-01 1.416847e-01 1.329038e-01 1.343171e-01 1.213878e-01 1.007007e-01
<GCONST> 5.473719e+00
<STATE> 17
<MEAN> 15
 -3.517812e+01 -1.715741e+00 -8.485809e-01 -1.830900e-01 -5.065122e-01 3.555601e-01 -3.334565e-01 1.319254e-01 -4.491872e-01 2.307641e-01 -3.982690e-01 -1.141228e-01 -3.088873e-01 -4.569089e-02 -3.462534e-01
<VARIANCE> 15
 8.290895e-01 3.408272e-01 3.850156e-01 2.528143e-01 1.825670e-01 1.478820e-01 1.430618e-01 1.315308e-01 1.226123e-01 1.300993e-01 1.192804e-01 1.132732e-01 1.153986e-01 1.134323e-01 1.068597e-01
<GCONST> 1.375238e+00
<TRANSP> 18
 0.000000e+00 1.000000e+00 0.000000e+00 0.000000e+00 0.000000e+00 0.000000e+00 0.000000e+00 0.000000e+00 0.000000e+00 0.000000e+00 0.000000e+00 0.000000e+00 0.000000e+00 0.000000e+00 0.000000e+00 0.000000e+00 0.000000e+00 0.000000e+00
 0.000000e+00 8.734177e-01 1.265823e-01 0.000000e+00 0.000000e+00 0.000000e+00 0.000000e+00 0.000000e+00 0.000000e+00 0.000000e+00 0.000000e+00 0.000000e+00 0.000000e+00 0.000000e+00 0.000000e+00 0.000000e+00 0.000000e+00 0.000000e+00
 0.000000e+00 0.000000e+00 7.872341e-01 2.127660e-01 0.000000e+00 0.000000e+00 0.000000e+00 0.000000e+00 0.000000e+00 0.000000e+00 0.000000e+00 0.000000e+00 0.000000e+00 0.000000e+00 0.000000e+00 0.000000e+00 0.000000e+00 0.000000e+00
 0.000000e+00 0.000000e+00 0.000000e+00 8.148148e-01 1.851852e-01 0.000000e+00 0.000000e+00 0.000000e+00 0.000000e+00 0.000000e+00 0.000000e+00 0.000000e+00 0.000000e+00 0.000000e+00 0.000000e+00 0.000000e+00 0.000000e+00 0.000000e+00
 0.000000e+00 0.000000e+00 0.000000e+00 0.000000e+00 7.297298e-01 2.702703e-01 0.000000e+00 0.000000e+00 0.000000e+00 0.000000e+00 0.000000e+00 0.000000e+00 0.000000e+00 0.000000e+00 0.000000e+00 0.000000e+00 0.000000e+00 0.000000e+00
 0.000000e+00 0.000000e+00 0.000000e+00 0.000000e+00 0.000000e+00 7.674419e-01 2.325582e-01 0.000000e+00 0.000000e+00 0.000000e+00 0.000000e+00 0.000000e+00 0.000000e+00 0.000000e+00 0.000000e+00 0.000000e+00 0.000000e+00 0.000000e+00
 0.000000e+00 0.000000e+00 0.000000e+00 0.000000e+00 0.000000e+00 0.000000e+00 7.500000e-01 2.500000e-01 0.000000e+00 0.000000e+00 0.000000e+00 0.000000e+00 0.000000e+00 0.000000e+00 0.000000e+00 0.000000e+00 0.000000e+00 0.000000e+00
 0.000000e+00 0.000000e+00 0.000000e+00 0.000000e+00 0.000000e+00 0.000000e+00 0.000000e+00 8.130841e-01 1.869159e-01 0.000000e+00 0.000000e+00 0.000000e+00 0.000000e+00 0.000000e+00 0.000000e+00 0.000000e+00 0.000000e+00 0.000000e+00
 0.000000e+00 0.000000e+00 0.000000e+00 0.000000e+00 0.000000e+00 0.000000e+00 0.000000e+00 0.000000e+00 8.058252e-01 1.941748e-01 0.000000e+00 0.000000e+00 0.000000e+00 0.000000e+00 0.000000e+00 0.000000e+00 0.000000e+00 0.000000e+00
 0.000000e+00 0.000000e+00 0.000000e+00 0.000000e+00 0.000000e+00 0.000000e+00 0.000000e+00 0.000000e+00 0.000000e+00 8.611111e-01 1.388889e-01 0.000000e+00 0.000000e+00 0.000000e+00 0.000000e+00 0.000000e+00 0.000000e+00 0.000000e+00
 0.000000e+00 0.000000e+00 0.000000e+00 0.000000e+00 0.000000e+00 0.000000e+00 0.000000e+00 0.000000e+00 0.000000e+00 0.000000e+00 8.076923e-01 1.923077e-01 0.000000e+00 0.000000e+00 0.000000e+00 0.000000e+00 0.000000e+00 0.000000e+00
 0.000000e+00 0.000000e+00 0.000000e+00 0.000000e+00 0.000000e+00 0.000000e+00 0.000000e+00 0.000000e+00 0.000000e+00 0.000000e+00 0.000000e+00 7.530864e-01 2.469136e-01 0.000000e+00 0.000000e+00 0.000000e+00 0.000000e+00 0.000000e+00
 0.000000e+00 0.000000e+00 0.000000e+00 0.000000e+00 0.000000e+00 0.000000e+00 0.000000e+00 0.000000e+00 0.000000e+00 0.000000e+00 0.000000e+00 0.000000e+00 5.652174e-01 4.347826e-01 0.000000e+00 0.000000e+00 0.000000e+00 0.000000e+00
 0.000000e+00 0.000000e+00 0.000000e+00 0.000000e+00 0.000000e+00 0.000000e+00 0.000000e+00 0.000000e+00 0.000000e+00 0.000000e+00 0.000000e+00 0.000000e+00 0.000000e+00 7.183099e-01 2.816901e-01 0.000000e+00 0.000000e+00 0.000000e+00
 0.000000e+00 0.000000e+00 0.000000e+00 0.000000e+00 0.000000e+00 0.000000e+00 0.000000e+00 0.000000e+00 0.000000e+00 0.000000e+00 0.000000e+00 0.000000e+00 0.000000e+00 0.000000e+00 7.333333e-01 2.666667e-01 0.000000e+00 0.000000e+00
 0.000000e+00 0.000000e+00 0.000000e+00 0.000000e+00 0.000000e+00 0.000000e+00 0.000000e+00 0.000000e+00 0.000000e+00 0.000000e+00 0.000000e+00 0.000000e+00 0.000000e+00 0.000000e+00 0.000000e+00 8.148148e-01 1.851852e-01 0.000000e+00
 0.000000e+00 0.000000e+00 0.000000e+00 0.000000e+00 0.000000e+00 0.000000e+00 0.000000e+00 0.000000e+00 0.000000e+00 0.000000e+00 0.000000e+00 0.000000e+00 0.000000e+00 0.000000e+00 0.000000e+00 0.000000e+00 9.047619e-01 9.523809e-02
 0.000000e+00 0.000000e+00 0.000000e+00 0.000000e+00 0.000000e+00 0.000000e+00 0.000000e+00 0.000000e+00 0.000000e+00 0.000000e+00 0.000000e+00 0.000000e+00 0.000000e+00 0.000000e+00 0.000000e+00 0.000000e+00 0.000000e+00 0.000000e+00
<ENDHMM>
