~o
<STREAMINFO> 1 15
<VECSIZE> 15<NULLD><MFCC><DIAGC>
~h "Hemal"
<BEGINHMM>
<NUMSTATES> 10
<STATE> 2
<MEAN> 15
 -3.320910e+01 -2.330977e+00 -3.746640e-01 -9.613009e-01 -5.875234e-01 -1.298233e-01 -6.702831e-01 -1.137285e-01 -6.544293e-01 1.478383e-01 -4.785273e-01 -1.154398e-01 -2.972182e-01 -1.515117e-02 -3.119532e-01
<VARIANCE> 15
 4.995223e+00 1.544473e+00 7.432205e-01 6.075880e-01 6.564866e-01 3.696931e-01 3.240462e-01 2.669405e-01 2.276158e-01 2.222276e-01 1.521696e-01 1.423011e-01 1.508584e-01 1.099036e-01 1.142785e-01
<GCONST> 1.186736e+01
<STATE> 3
<MEAN> 15
 -1.935600e+01 -2.260008e+00 -7.858551e-01 -1.524317e+00 -1.766182e+00 -7.854309e-01 -1.056237e+00 -2.185340e-01 -1.304194e+00 -3.352249e-01 -1.059340e+00 -6.368448e-02 -4.440201e-01 -2.970387e-01 -5.687699e-01
<VARIANCE> 15
 2.830830e+01 1.456481e+00 2.159819e+00 8.499296e-01 1.652313e+00 7.961156e-01 5.954323e-01 7.643627e-01 5.320598e-01 3.313288e-01 7.492660e-01 3.164386e-01 2.923607e-01 2.600118e-01 2.543478e-01
<GCONST> 2.426096e+01
<STATE> 4
<MEAN> 15
 -1.473891e+01 1.354787e+00 2.250613e+00 -3.411110e-01 -1.879309e+00 8.589572e-01 -1.083946e+00 -2.832225e-01 -3.434982e-01 6.655017e-01 -1.365665e+00 -3.072182e-01 8.503398e-02 1.489515e-01 -1.252708e+00
<VARIANCE> 15
 1.580230e+01 4.964992e+00 2.800919e+00 1.403550e+00 2.564687e+00 1.669287e+00 1.125249e+00 8.470452e-01 7.621326e-01 7.657926e-01 7.222517e-01 4.295259e-01 5.908304e-01 7.334205e-01 3.881871e-01
<GCONST> 3.121445e+01
<STATE> 5
<MEAN> 15
 -2.070970e+01 6.570941e-01 3.856840e+00 3.310288e-01 -1.324990e-01 7.536369e-01 -5.603760e-01 3.992733e-01 -6.106666e-01 1.455246e-01 7.792490e-04 1.592985e-01 2.322306e-02 1.821921e-01 -5.955224e-02
<VARIANCE> 15
 3.729407e+00 2.634019e+00 2.068812e+00 1.057173e+00 5.561016e-01 8.133245e-01 2.866350e-01 4.097187e-01 5.175018e-01 6.266841e-01 4.190021e-01 4.137824e-01 3.583787e-01 2.772140e-01 3.223201e-01
<GCONST> 2.138054e+01
<STATE> 6
<MEAN> 15
 -2.227252e+01 2.338948e-01 4.260947e+00 1.802485e+00 4.600432e-01 1.214290e+00 -6.434907e-01 -3.585146e-01 -1.605308e+00 9.375573e-02 -4.293080e-01 -9.728819e-01 -9.842943e-01 -5.410908e-03 -1.025842e-02
<VARIANCE> 15
 8.044716e+00 1.304684e+00 1.138594e+00 1.406843e+00 6.950749e-01 1.623737e+00 5.425848e-01 5.505499e-01 6.880645e-01 4.488529e-01 3.761411e-01 2.396739e-01 2.258216e-01 2.280300e-01 2.039059e-01
<GCONST> 2.116544e+01
<STATE> 7
<MEAN> 15
 -2.896147e+01 -2.152054e-01 2.697664e+00 9.112531e-01 1.129964e+00 1.358998e+00 -1.996560e-01 3.589939e-01 -6.360664e-01 8.646441e-01 -4.120944e-01 -4.779425e-01 -4.440425e-01 2.011171e-01 -7.722889e-02
<VARIANCE> 15
 7.921464e+00 2.060906e+00 1.861422e+00 3.796969e-01 6.464745e-01 4.829646e-01 3.114685e-01 3.327944e-01 4.124925e-01 2.837161e-01 2.053195e-01 3.728082e-01 1.825943e-01 1.998567e-01 1.922640e-01
<GCONST> 1.690839e+01
<STATE> 8
<MEAN> 15
 -3.199111e+01 -2.838543e+00 9.734966e-01 -6.315368e-01 -2.132293e-01 -2.101720e-01 -4.369911e-01 -2.258776e-01 -5.820110e-01 1.701656e-01 -4.450079e-01 -2.174469e-01 -3.843217e-01 -9.985479e-02 -2.384010e-01
<VARIANCE> 15
 3.836938e+00 1.269354e+00 9.936240e-01 5.163282e-01 4.148500e-01 3.029756e-01 1.684811e-01 1.832270e-01 1.497639e-01 1.821108e-01 1.688084e-01 1.134949e-01 1.390669e-01 1.153534e-01 1.206327e-01
<GCONST> 9.127643e+00
<STATE> 9
<MEAN> 15
 -3.512666e+01 -1.658753e+00 -7.649749e-01 -1.272213e-01 -4.431224e-01 3.911187e-01 -3.014182e-01 1.349605e-01 -4.540010e-01 2.481283e-01 -3.879569e-01 -1.173221e-01 -3.122834e-01 -5.474511e-02 -3.574955e-01
<VARIANCE> 15
 8.209507e-01 3.941103e-01 4.372712e-01 3.112661e-01 2.082784e-01 1.641653e-01 1.524907e-01 1.276844e-01 1.275788e-01 1.369699e-01 1.147185e-01 1.211896e-01 1.131735e-01 1.187056e-01 1.048083e-01
<GCONST> 2.242571e+00
<TRANSP> 10
 0.000000e+00 1.000000e+00 0.000000e+00 0.000000e+00 0.000000e+00 0.000000e+00 0.000000e+00 0.000000e+00 0.000000e+00 0.000000e+00
 0.000000e+00 8.882682e-01 1.117318e-01 0.000000e+00 0.000000e+00 0.000000e+00 0.000000e+00 0.000000e+00 0.000000e+00 0.000000e+00
 0.000000e+00 0.000000e+00 9.233717e-01 7.662836e-02 0.000000e+00 0.000000e+00 0.000000e+00 0.000000e+00 0.000000e+00 0.000000e+00
 0.000000e+00 0.000000e+00 0.000000e+00 9.078341e-01 9.216590e-02 0.000000e+00 0.000000e+00 0.000000e+00 0.000000e+00 0.000000e+00
 0.000000e+00 0.000000e+00 0.000000e+00 0.000000e+00 8.648649e-01 1.351351e-01 0.000000e+00 0.000000e+00 0.000000e+00 0.000000e+00
 0.000000e+00 0.000000e+00 0.000000e+00 0.000000e+00 0.000000e+00 9.209486e-01 7.905138e-02 0.000000e+00 0.000000e+00 0.000000e+00
 0.000000e+00 0.000000e+00 0.000000e+00 0.000000e+00 0.000000e+00 0.000000e+00 8.918919e-01 1.081081e-01 0.000000e+00 0.000000e+00
 0.000000e+00 0.000000e+00 0.000000e+00 0.000000e+00 0.000000e+00 0.000000e+00 0.000000e+00 8.809524e-01 1.190476e-01 0.000000e+00
 0.000000e+00 0.000000e+00 0.000000e+00 0.000000e+00 0.000000e+00 0.000000e+00 0.000000e+00 0.000000e+00 9.159664e-01 8.403361e-02
 0.000000e+00 0.000000e+00 0.000000e+00 0.000000e+00 0.000000e+00 0.000000e+00 0.000000e+00 0.000000e+00 0.000000e+00 0.000000e+00
<ENDHMM>
