~o
<STREAMINFO> 1 15
<VECSIZE> 15<NULLD><MFCC><DIAGC>
~h "Hugo"
<BEGINHMM>
<NUMSTATES> 18
<STATE> 2
<MEAN> 15
 -3.393013e+01 -2.484843e+00 -6.524567e-01 -8.109245e-01 -6.010714e-01 9.906688e-02 -4.945825e-01 -3.271595e-02 -6.462170e-01 1.853748e-01 -4.925682e-01 -3.806801e-02 -3.084571e-01 5.222264e-02 -3.060633e-01
<VARIANCE> 15
 4.769139e+00 1.214703e+00 7.605030e-01 7.419081e-01 3.277257e-01 2.600047e-01 2.329196e-01 2.568446e-01 1.509991e-01 1.524748e-01 2.204028e-01 1.122522e-01 1.179060e-01 1.934461e-01 1.431998e-01
<GCONST> 1.027885e+01
<STATE> 3
<MEAN> 15
 -2.280057e+01 -5.581847e+00 -2.209836e-01 -2.854991e+00 -1.892960e-01 6.712655e-01 -1.751927e-01 -5.860388e-01 -1.269458e+00 5.083362e-02 -3.014179e-01 -3.242109e-02 -4.609211e-01 8.657055e-02 -9.257839e-01
<VARIANCE> 15
 1.485083e+01 2.641506e+00 2.163038e+00 1.354814e+00 5.608725e-01 4.225998e-01 3.584377e-01 4.941542e-01 3.052507e-01 3.613640e-01 3.094821e-01 2.208261e-01 2.190966e-01 2.549061e-01 3.157187e-01
<GCONST> 2.021651e+01
<STATE> 4
<MEAN> 15
 -2.230949e+01 -5.909971e+00 -1.601232e+00 -2.747443e+00 -3.172494e-01 1.219045e+00 8.909301e-02 3.114210e-01 -1.348125e+00 3.019799e-01 -5.780371e-01 2.072694e-02 -4.156862e-01 3.483426e-01 -5.900296e-01
<VARIANCE> 15
 3.973168e+00 8.743659e-01 1.433366e+00 4.214616e-01 1.503562e+00 9.142188e-01 6.464040e-01 6.274313e-01 7.698220e-01 2.344908e-01 4.480475e-01 3.324426e-01 2.096229e-01 2.166516e-01 1.919895e-01
<GCONST> 1.936686e+01
<STATE> 5
<MEAN> 15
 -2.058000e+01 -3.656786e+00 1.281644e+00 -1.097365e+00 3.774738e-01 2.738406e+00 1.596803e+00 8.165363e-01 -5.246048e-01 6.753382e-01 -3.058640e-01 4.723402e-01 8.918598e-02 4.047224e-01 -7.428029e-01
<VARIANCE> 15
 5.485219e+00 1.402600e+00 1.799225e+00 1.046980e+00 8.177959e-01 9.131651e-01 3.863966e-01 9.159151e-01 5.352414e-01 3.954580e-01 3.063670e-01 3.347901e-01 2.185556e-01 1.862610e-01 2.628254e-01
<GCONST> 2.054354e+01
<STATE> 6
<MEAN> 15
 -1.981673e+01 -1.902829e+00 3.139853e+00 -6.119199e-01 6.091069e-01 2.445576e+00 2.004620e+00 1.117245e+00 1.734924e-01 3.133833e-01 -1.363403e+00 -8.055347e-02 1.448473e-01 9.822261e-01 -1.052407e+00
<VARIANCE> 15
 1.462144e+00 1.178249e+00 1.621897e+00 8.296589e-01 7.313920e-01 6.058577e-01 4.435014e-01 5.240712e-01 4.624257e-01 1.992338e-01 1.896792e-01 3.580465e-01 2.452769e-01 2.576831e-01 1.866364e-01
<GCONST> 1.662181e+01
<STATE> 7
<MEAN> 15
 -1.939248e+01 -7.295358e-01 2.125980e+00 -1.528880e+00 3.629827e-01 2.472979e+00 1.077832e+00 2.224082e+00 1.169081e+00 9.000665e-01 -2.369948e+00 -4.718299e-01 2.129989e-01 9.229529e-01 -8.933468e-01
<VARIANCE> 15
 2.001747e+00 5.742073e-01 1.736008e+00 7.737157e-01 4.627337e-01 8.248557e-01 7.866479e-01 3.109095e-01 4.566405e-01 9.763941e-01 2.212577e-01 4.419135e-01 3.789343e-01 2.201940e-01 4.688639e-01
<GCONST> 1.925717e+01
<STATE> 8
<MEAN> 15
 -1.986007e+01 -3.551139e-01 3.337883e+00 -7.087152e-01 5.873116e-01 1.195764e+00 -2.396931e-01 1.962627e+00 1.106400e+00 1.447935e+00 -1.491337e+00 1.337295e-01 -2.559722e-02 2.728723e-01 -1.177740e+00
<VARIANCE> 15
 3.513373e+00 4.185733e-01 1.503586e+00 7.229932e-01 6.387765e-01 3.411837e-01 9.498075e-01 3.835333e-01 4.602479e-01 8.545080e-01 3.187984e-01 2.216045e-01 4.988942e-01 3.022280e-01 3.912550e-01
<GCONST> 1.909036e+01
<STATE> 9
<MEAN> 15
 -2.209163e+01 -9.328616e-01 4.465188e+00 1.511020e-01 9.621576e-01 3.304203e-01 1.408320e-02 1.014826e+00 6.175587e-01 7.293566e-01 -4.554442e-01 5.176446e-01 -4.406087e-01 4.806896e-01 -1.125483e+00
<VARIANCE> 15
 9.250957e+00 1.584080e+00 2.086626e+00 3.981154e-01 8.052149e-01 5.383196e-01 6.989885e-01 4.028113e-01 2.766469e-01 4.988460e-01 1.914685e-01 4.714594e-01 3.235716e-01 3.089606e-01 2.303436e-01
<GCONST> 1.980758e+01
<STATE> 10
<MEAN> 15
 -2.119899e+01 -1.771929e+00 3.464056e+00 -7.591348e-01 5.135654e-01 -8.715916e-01 -7.000055e-01 9.596694e-01 4.050449e-01 2.797684e-01 -1.599160e-01 3.944397e-01 -6.335534e-01 -1.358953e-01 -6.322759e-01
<VARIANCE> 15
 1.312588e+01 2.272966e+00 2.218993e+00 1.362698e+00 1.340240e+00 1.520508e+00 8.163973e-01 1.058302e+00 4.914193e-01 4.452035e-01 6.040767e-01 3.156052e-01 3.795841e-01 3.157177e-01 2.225986e-01
<GCONST> 2.583509e+01
<STATE> 11
<MEAN> 15
 -1.913537e+01 1.341587e+00 2.509284e+00 -4.974505e-01 -6.624959e-01 1.097930e+00 -8.344045e-01 1.256135e+00 3.338389e-01 1.244016e+00 -1.805657e+00 -4.779921e-01 -3.943362e-01 3.132433e-01 -1.420286e+00
<VARIANCE> 15
 6.380509e+00 9.111994e-01 1.988509e+00 1.150780e+00 1.597775e+00 7.208732e-01 1.211038e+00 6.444579e-01 7.614213e-01 1.119538e+00 7.515862e-01 3.276726e-01 2.812299e-01 3.266860e-01 2.289902e-01
<GCONST> 2.462731e+01
<STATE> 12
<MEAN> 15
 -2.031646e+01 4.012300e-01 4.666438e+00 1.095390e+00 -1.050454e+00 2.025553e-01 -3.475602e-01 2.772733e-02 -1.846012e-01 6.674908e-01 -2.253806e-01 -4.858926e-01 -7.031996e-01 5.437225e-01 -8.105646e-01
<VARIANCE> 15
 6.992826e+00 7.933275e-01 1.491718e+00 8.407356e-01 7.179220e-01 4.767759e-01 4.541241e-01 5.306795e-01 3.925970e-01 5.330663e-01 3.861133e-01 2.949802e-01 2.171143e-01 3.271353e-01 3.321317e-01
<GCONST> 1.952940e+01
<STATE> 13
<MEAN> 15
 -2.621546e+01 8.551732e-01 3.920258e+00 8.804772e-01 -5.452856e-01 6.576357e-01 -6.447116e-01 9.881514e-01 -3.898282e-01 1.091265e+00 -8.094289e-01 -1.614770e-01 -7.115752e-02 4.648894e-01 -5.599115e-01
<VARIANCE> 15
 2.270241e+00 9.874243e-01 7.617192e-01 7.192540e-01 5.446433e-01 3.557119e-01 3.207943e-01 2.899054e-01 2.807937e-01 4.382991e-01 2.991436e-01 2.783585e-01 2.796597e-01 4.430819e-01 2.731226e-01
<GCONST> 1.579057e+01
<STATE> 14
<MEAN> 15
 -2.696671e+01 -8.357218e-03 4.272820e+00 9.728573e-01 8.964465e-01 5.805697e-02 6.331770e-02 2.753104e-01 -5.996789e-01 1.862016e-01 -3.167316e-01 -7.535893e-02 -2.365318e-01 7.412181e-01 -3.401114e-01
<VARIANCE> 15
 1.769768e+00 1.651713e+00 6.295795e-01 6.403006e-01 5.036713e-01 2.847601e-01 2.202900e-01 3.050599e-01 2.869095e-01 3.125115e-01 2.736308e-01 1.697236e-01 1.962857e-01 2.716327e-01 2.157149e-01
<GCONST> 1.314375e+01
<STATE> 15
<MEAN> 15
 -3.054552e+01 -3.870094e-01 2.395769e+00 4.216907e-01 4.729879e-01 7.134254e-01 -5.708737e-02 6.939569e-01 -2.116538e-01 6.227303e-01 -4.333543e-01 2.216294e-01 5.497619e-02 4.307845e-01 -1.042007e-01
<VARIANCE> 15
 2.257628e+00 1.002890e+00 1.049706e+00 2.822669e-01 2.697810e-01 2.641222e-01 2.235707e-01 2.044967e-01 2.511810e-01 2.224885e-01 2.772605e-01 1.242364e-01 8.617130e-02 2.100914e-01 1.041704e-01
<GCONST> 8.916057e+00
<STATE> 16
<MEAN> 15
 -3.201257e+01 -2.227678e+00 1.025065e+00 -6.113220e-01 -2.774389e-01 -1.207414e-01 -5.850366e-01 -1.763146e-01 -5.219686e-01 3.193778e-01 -2.417169e-01 -1.369039e-01 -3.225630e-01 -9.564867e-02 -1.291411e-01
<VARIANCE> 15
 2.293175e+00 1.073539e+00 6.670540e-01 2.937404e-01 3.135880e-01 3.643654e-01 1.715256e-01 2.101417e-01 2.054864e-01 1.769546e-01 1.588190e-01 1.138658e-01 1.003749e-01 1.519435e-01 1.672016e-01
<GCONST> 8.048233e+00
<STATE> 17
<MEAN> 15
 -3.451727e+01 -1.351354e+00 -6.661671e-01 -2.958135e-01 -6.208484e-01 1.162678e-01 -5.978383e-01 7.713390e-02 -3.981334e-01 3.824514e-01 -4.160820e-01 -1.350562e-01 -4.129873e-01 -2.173954e-02 -3.402869e-01
<VARIANCE> 15
 8.940961e-01 4.344113e-01 3.994386e-01 1.942379e-01 1.802116e-01 1.691622e-01 1.243053e-01 1.645071e-01 1.809578e-01 1.557833e-01 1.329548e-01 1.068254e-01 1.165295e-01 1.266156e-01 1.104775e-01
<GCONST> 2.443504e+00
<TRANSP> 18
 0.000000e+00 1.000000e+00 0.000000e+00 0.000000e+00 0.000000e+00 0.000000e+00 0.000000e+00 0.000000e+00 0.000000e+00 0.000000e+00 0.000000e+00 0.000000e+00 0.000000e+00 0.000000e+00 0.000000e+00 0.000000e+00 0.000000e+00 0.000000e+00
 0.000000e+00 8.581560e-01 1.418440e-01 0.000000e+00 0.000000e+00 0.000000e+00 0.000000e+00 0.000000e+00 0.000000e+00 0.000000e+00 0.000000e+00 0.000000e+00 0.000000e+00 0.000000e+00 0.000000e+00 0.000000e+00 0.000000e+00 0.000000e+00
 0.000000e+00 0.000000e+00 8.901099e-01 1.098901e-01 0.000000e+00 0.000000e+00 0.000000e+00 0.000000e+00 0.000000e+00 0.000000e+00 0.000000e+00 0.000000e+00 0.000000e+00 0.000000e+00 0.000000e+00 0.000000e+00 0.000000e+00 0.000000e+00
 0.000000e+00 0.000000e+00 0.000000e+00 8.260869e-01 1.739130e-01 0.000000e+00 0.000000e+00 0.000000e+00 0.000000e+00 0.000000e+00 0.000000e+00 0.000000e+00 0.000000e+00 0.000000e+00 0.000000e+00 0.000000e+00 0.000000e+00 0.000000e+00
 0.000000e+00 0.000000e+00 0.000000e+00 0.000000e+00 4.117647e-01 5.882353e-01 0.000000e+00 0.000000e+00 0.000000e+00 0.000000e+00 0.000000e+00 0.000000e+00 0.000000e+00 0.000000e+00 0.000000e+00 0.000000e+00 0.000000e+00 0.000000e+00
 0.000000e+00 0.000000e+00 0.000000e+00 0.000000e+00 0.000000e+00 8.019802e-01 1.980198e-01 0.000000e+00 0.000000e+00 0.000000e+00 0.000000e+00 0.000000e+00 0.000000e+00 0.000000e+00 0.000000e+00 0.000000e+00 0.000000e+00 0.000000e+00
 0.000000e+00 0.000000e+00 0.000000e+00 0.000000e+00 0.000000e+00 0.000000e+00 8.130841e-01 1.869159e-01 0.000000e+00 0.000000e+00 0.000000e+00 0.000000e+00 0.000000e+00 0.000000e+00 0.000000e+00 0.000000e+00 0.000000e+00 0.000000e+00
 0.000000e+00 0.000000e+00 0.000000e+00 0.000000e+00 0.000000e+00 0.000000e+00 0.000000e+00 7.402598e-01 2.597403e-01 0.000000e+00 0.000000e+00 0.000000e+00 0.000000e+00 0.000000e+00 0.000000e+00 0.000000e+00 0.000000e+00 0.000000e+00
 0.000000e+00 0.000000e+00 0.000000e+00 0.000000e+00 0.000000e+00 0.000000e+00 0.000000e+00 0.000000e+00 8.360656e-01 1.639344e-01 0.000000e+00 0.000000e+00 0.000000e+00 0.000000e+00 0.000000e+00 0.000000e+00 0.000000e+00 0.000000e+00
 0.000000e+00 0.000000e+00 0.000000e+00 0.000000e+00 0.000000e+00 0.000000e+00 0.000000e+00 0.000000e+00 0.000000e+00 8.518519e-01 1.481482e-01 0.000000e+00 0.000000e+00 0.000000e+00 0.000000e+00 0.000000e+00 0.000000e+00 0.000000e+00
 0.000000e+00 0.000000e+00 0.000000e+00 0.000000e+00 0.000000e+00 0.000000e+00 0.000000e+00 0.000000e+00 0.000000e+00 0.000000e+00 8.529412e-01 1.470588e-01 0.000000e+00 0.000000e+00 0.000000e+00 0.000000e+00 0.000000e+00 0.000000e+00
 0.000000e+00 0.000000e+00 0.000000e+00 0.000000e+00 0.000000e+00 0.000000e+00 0.000000e+00 0.000000e+00 0.000000e+00 0.000000e+00 0.000000e+00 8.773006e-01 1.226994e-01 0.000000e+00 0.000000e+00 0.000000e+00 0.000000e+00 0.000000e+00
 0.000000e+00 0.000000e+00 0.000000e+00 0.000000e+00 0.000000e+00 0.000000e+00 0.000000e+00 0.000000e+00 0.000000e+00 0.000000e+00 0.000000e+00 0.000000e+00 7.402598e-01 2.597403e-01 0.000000e+00 0.000000e+00 0.000000e+00 0.000000e+00
 0.000000e+00 0.000000e+00 0.000000e+00 0.000000e+00 0.000000e+00 0.000000e+00 0.000000e+00 0.000000e+00 0.000000e+00 0.000000e+00 0.000000e+00 0.000000e+00 0.000000e+00 7.014925e-01 2.985075e-01 0.000000e+00 0.000000e+00 0.000000e+00
 0.000000e+00 0.000000e+00 0.000000e+00 0.000000e+00 0.000000e+00 0.000000e+00 0.000000e+00 0.000000e+00 0.000000e+00 0.000000e+00 0.000000e+00 0.000000e+00 0.000000e+00 0.000000e+00 7.894737e-01 2.105263e-01 0.000000e+00 0.000000e+00
 0.000000e+00 0.000000e+00 0.000000e+00 0.000000e+00 0.000000e+00 0.000000e+00 0.000000e+00 0.000000e+00 0.000000e+00 0.000000e+00 0.000000e+00 0.000000e+00 0.000000e+00 0.000000e+00 0.000000e+00 8.561151e-01 1.438849e-01 0.000000e+00
 0.000000e+00 0.000000e+00 0.000000e+00 0.000000e+00 0.000000e+00 0.000000e+00 0.000000e+00 0.000000e+00 0.000000e+00 0.000000e+00 0.000000e+00 0.000000e+00 0.000000e+00 0.000000e+00 0.000000e+00 0.000000e+00 8.913044e-01 1.086957e-01
 0.000000e+00 0.000000e+00 0.000000e+00 0.000000e+00 0.000000e+00 0.000000e+00 0.000000e+00 0.000000e+00 0.000000e+00 0.000000e+00 0.000000e+00 0.000000e+00 0.000000e+00 0.000000e+00 0.000000e+00 0.000000e+00 0.000000e+00 0.000000e+00
<ENDHMM>
