~o
<STREAMINFO> 1 20
<VECSIZE> 20<NULLD><MFCC><DIAGC>
~h "Hugo"
<BEGINHMM>
<NUMSTATES> 18
<STATE> 2
<MEAN> 20
 -3.952636e+01 -2.237778e+00 -1.493457e+00 -7.126010e-02 -1.591628e+00 7.162017e-01 -1.046711e+00 3.347774e-01 -9.478745e-01 3.101188e-02 -2.937618e-01 -2.514217e-01 -2.200601e-01 -1.992315e-01 -6.212674e-02 -3.010218e-01 -2.904649e-01 -1.829038e-01 -3.773326e-02 -2.013874e-01
<VARIANCE> 20
 7.611149e+00 2.521336e+00 1.321226e+00 1.012977e+00 4.204666e-01 3.557789e-01 5.014830e-01 2.314714e-01 3.083049e-01 2.015686e-01 2.130420e-01 2.290080e-01 1.399030e-01 1.454846e-01 2.186700e-01 1.671961e-01 1.664234e-01 1.410770e-01 1.302366e-01 1.249412e-01
<GCONST> 1.507827e+01
<STATE> 3
<MEAN> 20
 -2.495247e+01 -6.708849e+00 -4.252825e-01 -2.433327e+00 -1.457850e+00 1.534483e+00 -6.378763e-01 1.210659e-01 -1.997687e+00 -6.067787e-01 -2.437349e-01 1.019919e-01 -5.697076e-01 -2.002910e-01 -4.182957e-02 -9.175069e-01 -5.411962e-01 4.441981e-01 -1.947889e-01 -3.549396e-01
<VARIANCE> 20
 1.858527e+01 4.042827e+00 2.892885e+00 1.423563e+00 1.156272e+00 6.719780e-01 1.098735e+00 4.980802e-01 4.359631e-01 6.349606e-01 3.756736e-01 2.771901e-01 3.365636e-01 3.752378e-01 3.284187e-01 5.092427e-01 3.811993e-01 2.997238e-01 3.125337e-01 1.997669e-01
<GCONST> 2.929021e+01
<STATE> 4
<MEAN> 20
 -2.817546e+01 -4.407064e+00 -3.622591e+00 -8.779277e-01 -3.394535e+00 3.043496e+00 -1.129294e+00 2.069810e+00 -1.971375e+00 7.220234e-01 -8.414825e-01 9.820647e-02 -5.252992e-01 1.095162e-01 -8.733720e-02 -3.964454e-01 -5.123351e-01 -8.963624e-02 -2.392589e-01 -2.854325e-01
<VARIANCE> 20
 1.065859e+01 2.056924e+00 2.874074e+00 1.190802e+00 1.625188e+00 1.003344e+00 8.419407e-01 1.006085e+00 4.117444e-01 4.664117e-01 3.658348e-01 3.577684e-01 4.276941e-01 2.633558e-01 3.191402e-01 2.440434e-01 2.602498e-01 2.698759e-01 1.891003e-01 2.176519e-01
<GCONST> 2.713260e+01
<STATE> 5
<MEAN> 20
 -2.307906e+01 -3.042171e+00 2.555923e+00 1.027095e-01 -7.034351e-01 3.174681e+00 1.963955e+00 2.124274e+00 -5.003169e-01 6.596717e-01 -3.584032e-01 -6.012501e-01 2.626340e-02 5.638561e-01 6.074064e-01 -1.071163e+00 -6.382312e-01 6.212634e-03 -3.414454e-01 -2.138517e-01
<VARIANCE> 20
 4.576326e+00 1.804946e+00 3.676624e+00 1.165659e+00 1.262640e+00 1.002648e+00 1.005664e+00 7.534047e-01 4.535918e-01 6.866761e-01 4.457367e-01 6.824460e-01 2.959593e-01 2.201376e-01 3.123534e-01 3.015855e-01 3.570726e-01 3.720697e-01 1.669179e-01 1.655581e-01
<GCONST> 2.722551e+01
<STATE> 6
<MEAN> 20
 -2.341032e+01 5.714622e-02 2.184375e-01 6.899443e-01 -2.220656e+00 4.379817e+00 5.042099e-01 3.518248e+00 5.166460e-01 1.934529e+00 -1.393570e+00 -1.585384e+00 -2.629294e-01 9.018283e-01 5.225943e-01 -9.659664e-01 -9.411069e-01 -7.512809e-01 -3.987749e-01 -6.806263e-01
<VARIANCE> 20
 2.428154e+00 1.578740e+00 2.749949e+00 8.594255e-01 1.072755e+00 2.069610e+00 7.861507e-01 9.515865e-01 5.289108e-01 8.052539e-01 7.661529e-01 5.373021e-01 7.402020e-01 2.703291e-01 4.107063e-01 6.345087e-01 1.962306e-01 3.492560e-01 3.740658e-01 6.232638e-01
<GCONST> 3.063740e+01
<STATE> 7
<MEAN> 20
 -2.254957e+01 -1.377081e+00 4.250967e+00 8.122883e-01 -6.850139e-01 1.837892e+00 9.006714e-01 1.940765e+00 7.690787e-01 1.243095e+00 -4.761595e-01 -1.330114e+00 -3.736169e-01 -4.279972e-01 1.059495e+00 -1.229907e+00 -7.249535e-01 -2.045340e-02 -5.928906e-01 -4.010825e-02
<VARIANCE> 20
 1.390621e+00 2.666314e+00 2.334717e+00 6.908358e-01 8.871199e-01 1.251663e+00 1.243442e+00 6.211320e-01 6.314281e-01 7.424613e-01 5.286954e-01 4.501756e-01 3.665603e-01 5.082690e-01 2.976554e-01 3.905559e-01 3.838299e-01 2.613926e-01 3.029087e-01 2.317990e-01
<GCONST> 2.741154e+01
<STATE> 8
<MEAN> 20
 -2.426730e+01 7.734655e-01 2.325342e+00 1.082258e+00 -1.640224e+00 3.440218e+00 -1.606405e+00 2.352314e+00 5.191606e-01 2.620448e+00 -2.712460e-01 -1.205256e+00 -1.597964e-01 1.635769e-01 1.472987e-02 -1.246757e+00 -1.214321e+00 -8.691145e-01 -2.810985e-01 -2.907215e-01
<VARIANCE> 20
 5.581481e+00 1.052652e+00 2.006387e+00 9.091185e-01 1.350186e+00 1.182948e+00 9.861994e-01 8.053135e-01 5.540293e-01 1.093709e+00 7.904581e-01 8.054996e-01 5.837128e-01 4.374290e-01 4.234959e-01 4.000440e-01 3.918772e-01 2.033762e-01 2.498361e-01 1.668097e-01
<GCONST> 2.956687e+01
<STATE> 9
<MEAN> 20
 -2.377693e+01 -1.951138e+00 4.913262e+00 5.509877e-01 6.195378e-02 7.563447e-01 -1.594784e+00 8.417280e-01 -5.689545e-03 8.748758e-01 -5.012891e-01 4.311916e-01 6.946432e-03 -3.061175e-01 4.024465e-02 -1.049091e+00 -9.175607e-01 -7.536718e-01 -4.880370e-01 1.166155e-01
<VARIANCE> 20
 1.668853e+01 2.941723e+00 2.029213e+00 2.082900e+00 1.343053e+00 2.023222e+00 1.486931e+00 6.509614e-01 5.024147e-01 7.402137e-01 4.926820e-01 5.858961e-01 4.386047e-01 5.407972e-01 4.776253e-01 5.227919e-01 5.309551e-01 2.662332e-01 2.355641e-01 2.613183e-01
<GCONST> 3.325744e+01
<STATE> 10
<MEAN> 20
 -2.743646e+01 -1.139549e+00 1.158698e+00 1.707784e+00 -1.784495e+00 1.749628e+00 -2.376124e+00 2.435452e+00 4.136385e-02 1.680687e+00 -6.485538e-01 3.354470e-01 -4.175784e-01 -4.670149e-01 -5.761006e-01 -6.382936e-01 -1.088002e+00 -7.659693e-01 -2.837852e-01 -3.035899e-01
<VARIANCE> 20
 1.794959e+01 1.314900e+00 2.795448e+00 7.832556e-01 1.584543e+00 8.132845e-01 1.757519e+00 1.573746e+00 4.398756e-01 5.420119e-01 4.612552e-01 4.017225e-01 3.953363e-01 3.013245e-01 4.352596e-01 2.813830e-01 2.566233e-01 2.739354e-01 2.535269e-01 2.171284e-01
<GCONST> 2.907203e+01
<STATE> 11
<MEAN> 20
 -2.379077e+01 2.686976e+00 1.250190e+00 1.780422e+00 -3.094471e+00 2.563012e+00 -1.915932e+00 1.562775e+00 -2.324440e-01 1.654122e+00 -3.060309e-01 -1.596633e+00 -6.297342e-01 -1.979011e-01 1.359504e-01 -1.598468e+00 -1.771668e+00 -9.455637e-01 -3.299493e-02 -4.898871e-01
<VARIANCE> 20
 9.750679e+00 1.948344e+00 2.647137e+00 2.192751e+00 1.817008e+00 1.600563e+00 1.314437e+00 1.060720e+00 1.108680e+00 8.598259e-01 1.114929e+00 8.835088e-01 7.190721e-01 3.861266e-01 4.873271e-01 3.132709e-01 2.962300e-01 3.265651e-01 2.901371e-01 4.996719e-01
<GCONST> 3.536964e+01
<STATE> 12
<MEAN> 20
 -2.374809e+01 4.464631e-01 4.397710e+00 2.656931e+00 -1.855356e+00 4.047350e-01 -6.186108e-01 2.493263e-01 -6.437550e-01 6.341348e-01 3.382582e-01 -2.484528e-01 -9.482948e-01 -4.821060e-01 5.419754e-01 -9.806582e-01 -1.853859e+00 -7.823457e-01 -4.582617e-01 -3.694627e-01
<VARIANCE> 20
 8.894133e+00 1.378355e+00 2.173376e+00 7.339151e-01 9.647688e-01 8.972740e-01 9.416572e-01 5.323612e-01 5.790012e-01 5.463374e-01 5.699388e-01 3.681620e-01 3.926751e-01 3.042503e-01 3.804998e-01 4.230517e-01 3.143401e-01 2.024374e-01 2.807413e-01 2.188124e-01
<GCONST> 2.668784e+01
<STATE> 13
<MEAN> 20
 -2.979263e+01 1.331581e+00 3.703297e+00 3.196526e+00 -1.590063e+00 1.217288e+00 -1.279472e+00 8.962175e-01 -5.244625e-01 6.356567e-01 3.479227e-01 -3.666503e-01 -4.827987e-01 8.696444e-02 5.205495e-01 -7.580947e-01 -7.210092e-01 -8.049397e-01 -9.754223e-01 -9.912578e-01
<VARIANCE> 20
 3.640136e+00 1.076929e+00 2.061189e+00 9.716949e-01 1.777098e+00 1.220860e+00 6.247663e-01 6.966751e-01 3.426265e-01 5.396646e-01 4.695481e-01 6.016398e-01 4.113736e-01 2.808615e-01 4.502407e-01 2.778334e-01 1.636062e-01 4.360123e-01 1.621946e-01 2.857094e-01
<GCONST> 2.586000e+01
<STATE> 14
<MEAN> 20
 -3.395765e+01 1.222747e+00 2.527917e+00 2.517191e+00 -1.226182e+00 2.079675e+00 -1.445935e+00 1.751550e+00 -8.957736e-01 9.702671e-01 -2.226282e-01 -2.897174e-01 -1.006240e-01 4.342986e-01 7.006808e-01 -2.013750e-01 -3.244945e-01 -5.868285e-01 -4.528964e-01 -7.097217e-01
<VARIANCE> 20
 3.597800e+00 1.568645e+00 1.351239e+00 7.212164e-01 9.545151e-01 4.936085e-01 4.865756e-01 3.239940e-01 4.161586e-01 5.932112e-01 3.452702e-01 4.272696e-01 2.511481e-01 2.029368e-01 2.914998e-01 1.955730e-01 1.884043e-01 3.001068e-01 2.818231e-01 2.225472e-01
<GCONST> 2.106668e+01
<STATE> 15
<MEAN> 20
 -3.409054e+01 -3.894949e-01 2.651840e+00 1.737042e+00 4.555028e-02 1.625485e+00 -5.714232e-01 1.197133e+00 -4.742297e-01 3.183019e-01 -1.681921e-01 6.193187e-02 -1.645610e-01 1.945934e-01 3.549175e-01 -7.275602e-02 -1.384469e-01 -2.627018e-04 1.498777e-02 -1.397885e-02
<VARIANCE> 20
 9.489163e+00 1.999799e+00 3.523997e+00 5.147991e-01 9.421313e-01 3.421054e-01 2.674794e-01 2.283207e-01 3.974388e-01 4.725412e-01 3.458647e-01 2.266852e-01 2.180413e-01 1.404285e-01 1.910585e-01 1.769220e-01 1.445319e-01 2.227068e-01 1.781754e-01 1.866722e-01
<GCONST> 1.843725e+01
<STATE> 16
<MEAN> 20
 -3.592934e+01 -1.612424e+00 1.337676e+00 9.649234e-01 -7.593096e-01 1.139401e+00 -7.740722e-01 6.197687e-01 -6.372287e-01 1.843442e-01 9.424805e-02 -2.101086e-01 1.028148e-02 -2.357767e-01 2.071657e-02 -1.157950e-02 -3.894597e-01 1.179391e-01 4.758862e-02 1.361719e-03
<VARIANCE> 20
 6.531439e+00 3.307008e+00 1.950410e+00 3.963466e-01 4.345946e-01 3.970185e-01 2.768093e-01 2.499864e-01 1.971425e-01 3.346884e-01 1.514487e-01 2.291652e-01 2.206186e-01 2.532876e-01 1.378051e-01 1.439263e-01 2.141887e-01 1.029031e-01 1.977862e-01 1.755604e-01
<GCONST> 1.508557e+01
<STATE> 17
<MEAN> 20
 -3.933189e+01 -1.405537e+00 -8.826888e-01 1.964165e-01 -1.335661e+00 5.092568e-01 -1.050965e+00 1.516391e-01 -7.340553e-01 1.730345e-01 -6.268927e-02 -2.552327e-01 -3.592350e-01 -3.175595e-01 -1.770461e-01 -2.430198e-01 -3.016413e-01 -1.410963e-01 -5.562516e-02 -1.461531e-01
<VARIANCE> 20
 3.495452e+00 1.394585e+00 1.450680e+00 3.694054e-01 3.081659e-01 3.289011e-01 1.848221e-01 2.554075e-01 2.202389e-01 2.401279e-01 1.823307e-01 1.593666e-01 1.633724e-01 1.302347e-01 1.730615e-01 1.900158e-01 1.674376e-01 1.763435e-01 1.484625e-01 1.686614e-01
<GCONST> 1.142264e+01
<TRANSP> 18
 0.000000e+00 1.000000e+00 0.000000e+00 0.000000e+00 0.000000e+00 0.000000e+00 0.000000e+00 0.000000e+00 0.000000e+00 0.000000e+00 0.000000e+00 0.000000e+00 0.000000e+00 0.000000e+00 0.000000e+00 0.000000e+00 0.000000e+00 0.000000e+00
 0.000000e+00 8.571429e-01 1.428571e-01 0.000000e+00 0.000000e+00 0.000000e+00 0.000000e+00 0.000000e+00 0.000000e+00 0.000000e+00 0.000000e+00 0.000000e+00 0.000000e+00 0.000000e+00 0.000000e+00 0.000000e+00 0.000000e+00 0.000000e+00
 0.000000e+00 0.000000e+00 8.802395e-01 1.197605e-01 0.000000e+00 0.000000e+00 0.000000e+00 0.000000e+00 0.000000e+00 0.000000e+00 0.000000e+00 0.000000e+00 0.000000e+00 0.000000e+00 0.000000e+00 0.000000e+00 0.000000e+00 0.000000e+00
 0.000000e+00 0.000000e+00 0.000000e+00 8.550724e-01 1.449275e-01 0.000000e+00 0.000000e+00 0.000000e+00 0.000000e+00 0.000000e+00 0.000000e+00 0.000000e+00 0.000000e+00 0.000000e+00 0.000000e+00 0.000000e+00 0.000000e+00 0.000000e+00
 0.000000e+00 0.000000e+00 0.000000e+00 0.000000e+00 7.333333e-01 2.666667e-01 0.000000e+00 0.000000e+00 0.000000e+00 0.000000e+00 0.000000e+00 0.000000e+00 0.000000e+00 0.000000e+00 0.000000e+00 0.000000e+00 0.000000e+00 0.000000e+00
 0.000000e+00 0.000000e+00 0.000000e+00 0.000000e+00 0.000000e+00 7.802198e-01 2.197802e-01 0.000000e+00 0.000000e+00 0.000000e+00 0.000000e+00 0.000000e+00 0.000000e+00 0.000000e+00 0.000000e+00 0.000000e+00 0.000000e+00 0.000000e+00
 0.000000e+00 0.000000e+00 0.000000e+00 0.000000e+00 0.000000e+00 0.000000e+00 7.777778e-01 2.222222e-01 0.000000e+00 0.000000e+00 0.000000e+00 0.000000e+00 0.000000e+00 0.000000e+00 0.000000e+00 0.000000e+00 0.000000e+00 0.000000e+00
 0.000000e+00 0.000000e+00 0.000000e+00 0.000000e+00 0.000000e+00 0.000000e+00 0.000000e+00 7.777778e-01 2.222222e-01 0.000000e+00 0.000000e+00 0.000000e+00 0.000000e+00 0.000000e+00 0.000000e+00 0.000000e+00 0.000000e+00 0.000000e+00
 0.000000e+00 0.000000e+00 0.000000e+00 0.000000e+00 0.000000e+00 0.000000e+00 0.000000e+00 0.000000e+00 8.709677e-01 1.290323e-01 0.000000e+00 0.000000e+00 0.000000e+00 0.000000e+00 0.000000e+00 0.000000e+00 0.000000e+00 0.000000e+00
 0.000000e+00 0.000000e+00 0.000000e+00 0.000000e+00 0.000000e+00 0.000000e+00 0.000000e+00 0.000000e+00 0.000000e+00 7.468355e-01 2.531646e-01 0.000000e+00 0.000000e+00 0.000000e+00 0.000000e+00 0.000000e+00 0.000000e+00 0.000000e+00
 0.000000e+00 0.000000e+00 0.000000e+00 0.000000e+00 0.000000e+00 0.000000e+00 0.000000e+00 0.000000e+00 0.000000e+00 0.000000e+00 8.620690e-01 1.379310e-01 0.000000e+00 0.000000e+00 0.000000e+00 0.000000e+00 0.000000e+00 0.000000e+00
 0.000000e+00 0.000000e+00 0.000000e+00 0.000000e+00 0.000000e+00 0.000000e+00 0.000000e+00 0.000000e+00 0.000000e+00 0.000000e+00 0.000000e+00 8.461539e-01 1.538462e-01 0.000000e+00 0.000000e+00 0.000000e+00 0.000000e+00 0.000000e+00
 0.000000e+00 0.000000e+00 0.000000e+00 0.000000e+00 0.000000e+00 0.000000e+00 0.000000e+00 0.000000e+00 0.000000e+00 0.000000e+00 0.000000e+00 0.000000e+00 7.530864e-01 2.469136e-01 0.000000e+00 0.000000e+00 0.000000e+00 0.000000e+00
 0.000000e+00 0.000000e+00 0.000000e+00 0.000000e+00 0.000000e+00 0.000000e+00 0.000000e+00 0.000000e+00 0.000000e+00 0.000000e+00 0.000000e+00 0.000000e+00 0.000000e+00 7.435898e-01 2.564103e-01 0.000000e+00 0.000000e+00 0.000000e+00
 0.000000e+00 0.000000e+00 0.000000e+00 0.000000e+00 0.000000e+00 0.000000e+00 0.000000e+00 0.000000e+00 0.000000e+00 0.000000e+00 0.000000e+00 0.000000e+00 0.000000e+00 0.000000e+00 7.222222e-01 2.777778e-01 0.000000e+00 0.000000e+00
 0.000000e+00 0.000000e+00 0.000000e+00 0.000000e+00 0.000000e+00 0.000000e+00 0.000000e+00 0.000000e+00 0.000000e+00 0.000000e+00 0.000000e+00 0.000000e+00 0.000000e+00 0.000000e+00 0.000000e+00 6.825397e-01 3.174603e-01 0.000000e+00
 0.000000e+00 0.000000e+00 0.000000e+00 0.000000e+00 0.000000e+00 0.000000e+00 0.000000e+00 0.000000e+00 0.000000e+00 0.000000e+00 0.000000e+00 0.000000e+00 0.000000e+00 0.000000e+00 0.000000e+00 0.000000e+00 9.288256e-01 7.117437e-02
 0.000000e+00 0.000000e+00 0.000000e+00 0.000000e+00 0.000000e+00 0.000000e+00 0.000000e+00 0.000000e+00 0.000000e+00 0.000000e+00 0.000000e+00 0.000000e+00 0.000000e+00 0.000000e+00 0.000000e+00 0.000000e+00 0.000000e+00 0.000000e+00
<ENDHMM>
