~o
<STREAMINFO> 1 15
<VECSIZE> 15<NULLD><MFCC><DIAGC>
~h "Hugo"
<BEGINHMM>
<NUMSTATES> 10
<STATE> 2
<MEAN> 15
 -3.393738e+01 -2.472931e+00 -6.586881e-01 -8.280753e-01 -6.043110e-01 1.093468e-01 -5.027310e-01 -3.486373e-02 -6.467347e-01 1.877625e-01 -4.820617e-01 -3.035320e-02 -3.127003e-01 4.673312e-02 -3.065626e-01
<VARIANCE> 15
 4.709288e+00 1.218065e+00 7.771797e-01 8.096066e-01 3.291921e-01 2.659527e-01 2.216272e-01 2.536310e-01 1.511241e-01 1.529730e-01 2.095300e-01 1.040689e-01 1.188986e-01 1.882401e-01 1.436256e-01
<GCONST> 1.020468e+01
<STATE> 3
<MEAN> 15
 -2.255368e+01 -5.685526e+00 -7.115949e-01 -2.759819e+00 -2.286786e-01 9.241256e-01 -2.928630e-02 -2.087508e-01 -1.287180e+00 1.559588e-01 -4.034884e-01 3.059447e-03 -4.273666e-01 1.969326e-01 -7.863849e-01
<VARIANCE> 15
 1.065746e+01 1.922198e+00 2.326092e+00 1.036236e+00 9.604264e-01 7.561914e-01 5.234301e-01 7.703957e-01 4.875098e-01 3.278115e-01 3.932754e-01 2.790761e-01 2.250382e-01 2.539016e-01 2.930952e-01
<GCONST> 2.210680e+01
<STATE> 4
<MEAN> 15
 -1.963326e+01 -1.253559e+00 2.668364e+00 -1.017542e+00 4.741601e-01 2.248218e+00 1.205564e+00 1.669368e+00 7.238238e-01 7.893994e-01 -1.706362e+00 -1.592038e-01 1.348938e-01 7.903129e-01 -1.014877e+00
<VARIANCE> 15
 2.270795e+00 1.521163e+00 2.005854e+00 1.000007e+00 5.754811e-01 9.507276e-01 1.331363e+00 7.256976e-01 7.882534e-01 8.082718e-01 5.767528e-01 4.398275e-01 3.520105e-01 3.181883e-01 3.569275e-01
<GCONST> 2.382441e+01
<STATE> 5
<MEAN> 15
 -2.273324e+01 -1.401679e+00 3.892056e+00 -1.969779e-01 9.912961e-01 -3.079547e-02 -1.821371e-01 1.170233e+00 4.881967e-01 7.787246e-01 -3.968757e-01 5.178220e-01 -3.652570e-01 1.374657e-01 -8.542516e-01
<VARIANCE> 15
 6.569963e+00 1.854139e+00 2.487906e+00 7.840762e-01 9.426763e-01 1.119571e+00 6.306634e-01 8.764148e-01 3.189860e-01 5.071615e-01 3.093444e-01 3.564254e-01 3.469817e-01 3.171492e-01 2.862999e-01
<GCONST> 2.271324e+01
<STATE> 6
<MEAN> 15
 -1.857721e+01 5.392548e-01 3.003830e+00 -6.437216e-01 -4.082563e-01 5.025344e-01 -8.717505e-01 1.047580e+00 4.481962e-01 7.374243e-01 -1.259411e+00 -2.479706e-01 -5.851539e-01 2.495228e-01 -1.254944e+00
<VARIANCE> 15
 6.896118e+00 2.804565e+00 2.581280e+00 1.291166e+00 1.392897e+00 1.992078e+00 1.241087e+00 6.994797e-01 7.002560e-01 1.210978e+00 1.380158e+00 4.693943e-01 3.382977e-01 4.273865e-01 3.193435e-01
<GCONST> 2.893895e+01
<STATE> 7
<MEAN> 15
 -2.225748e+01 5.242470e-01 4.468642e+00 1.088125e+00 -8.460618e-01 2.787635e-01 -4.005513e-01 2.932090e-01 -2.889026e-01 7.796314e-01 -3.850231e-01 -3.703061e-01 -5.257540e-01 5.448532e-01 -7.754121e-01
<VARIANCE> 15
 1.127532e+01 8.289895e-01 1.326723e+00 7.477351e-01 8.587401e-01 4.939707e-01 4.368997e-01 6.052005e-01 3.780721e-01 6.157827e-01 4.790431e-01 2.961706e-01 2.905661e-01 3.658243e-01 3.079535e-01
<GCONST> 2.077777e+01
<STATE> 8
<MEAN> 15
 -2.948376e+01 -3.812624e-01 2.900848e+00 5.047066e-01 5.752653e-01 5.419065e-01 -1.037531e-01 6.398091e-01 -3.752797e-01 5.361217e-01 -4.819554e-01 1.029582e-01 -1.136610e-02 4.921386e-01 -1.166557e-01
<VARIANCE> 15
 3.862499e+00 1.857628e+00 1.420161e+00 4.697465e-01 4.283027e-01 2.912887e-01 2.483182e-01 2.638199e-01 2.860509e-01 3.055599e-01 2.518279e-01 1.568533e-01 1.384538e-01 2.639467e-01 1.238635e-01
<GCONST> 1.326063e+01
<STATE> 9
<MEAN> 15
 -3.359223e+01 -1.702167e+00 -3.908924e-02 -4.526534e-01 -5.068126e-01 -3.237133e-03 -5.973474e-01 -5.450046e-02 -4.408082e-01 3.506515e-01 -3.394311e-01 -1.423100e-01 -3.850414e-01 -6.072746e-02 -2.624084e-01
<VARIANCE> 15
 2.518162e+00 8.183889e-01 9.933000e-01 2.452637e-01 2.448472e-01 2.602572e-01 1.445706e-01 1.881817e-01 1.848210e-01 1.649165e-01 1.489599e-01 1.108171e-01 1.083758e-01 1.346269e-01 1.395025e-01
<GCONST> 6.729871e+00
<TRANSP> 10
 0.000000e+00 1.000000e+00 0.000000e+00 0.000000e+00 0.000000e+00 0.000000e+00 0.000000e+00 0.000000e+00 0.000000e+00 0.000000e+00
 0.000000e+00 8.581560e-01 1.418440e-01 0.000000e+00 0.000000e+00 0.000000e+00 0.000000e+00 0.000000e+00 0.000000e+00 0.000000e+00
 0.000000e+00 0.000000e+00 9.348534e-01 6.514657e-02 0.000000e+00 0.000000e+00 0.000000e+00 0.000000e+00 0.000000e+00 0.000000e+00
 0.000000e+00 0.000000e+00 0.000000e+00 9.310345e-01 6.896552e-02 0.000000e+00 0.000000e+00 0.000000e+00 0.000000e+00 0.000000e+00
 0.000000e+00 0.000000e+00 0.000000e+00 0.000000e+00 9.047619e-01 9.523809e-02 0.000000e+00 0.000000e+00 0.000000e+00 0.000000e+00
 0.000000e+00 0.000000e+00 0.000000e+00 0.000000e+00 0.000000e+00 8.984771e-01 1.015228e-01 0.000000e+00 0.000000e+00 0.000000e+00
 0.000000e+00 0.000000e+00 0.000000e+00 0.000000e+00 0.000000e+00 0.000000e+00 9.206349e-01 7.936507e-02 0.000000e+00 0.000000e+00
 0.000000e+00 0.000000e+00 0.000000e+00 0.000000e+00 0.000000e+00 0.000000e+00 0.000000e+00 8.823529e-01 1.176471e-01 0.000000e+00
 0.000000e+00 0.000000e+00 0.000000e+00 0.000000e+00 0.000000e+00 0.000000e+00 0.000000e+00 0.000000e+00 9.350649e-01 6.493506e-02
 0.000000e+00 0.000000e+00 0.000000e+00 0.000000e+00 0.000000e+00 0.000000e+00 0.000000e+00 0.000000e+00 0.000000e+00 0.000000e+00
<ENDHMM>
