~o
<STREAMINFO> 1 15
<VECSIZE> 15<NULLD><MFCC><DIAGC>
~h "Max"
<BEGINHMM>
<NUMSTATES> 10
<STATE> 2
<MEAN> 15
 -3.361883e+01 -2.153852e+00 -3.180446e-01 -7.955127e-01 -7.820518e-01 6.747489e-02 -7.546768e-01 1.234666e-01 -4.563583e-01 3.093850e-01 -3.158287e-01 2.009257e-02 -2.389112e-01 2.100180e-01 -3.016382e-01
<VARIANCE> 15
 4.769444e+00 1.060466e+00 1.122706e+00 6.555509e-01 3.621450e-01 3.216761e-01 3.485287e-01 2.443180e-01 1.835823e-01 1.697869e-01 2.155373e-01 1.558381e-01 2.049557e-01 1.725375e-01 1.510630e-01
<GCONST> 1.217529e+01
<STATE> 3
<MEAN> 15
 -2.425977e+01 1.288993e+00 2.134026e+00 -4.017558e-01 -4.925620e-01 7.794847e-01 -5.057246e-01 1.163511e+00 7.497385e-01 7.185386e-01 2.503906e-01 5.043182e-01 5.258756e-01 9.535863e-01 -1.939863e-01
<VARIANCE> 15
 6.311658e+00 2.770079e+00 2.162377e+00 1.421789e+00 1.143449e+00 8.002468e-01 7.215313e-01 3.672125e-01 5.450866e-01 6.313778e-01 5.672663e-01 3.780853e-01 3.324821e-01 5.658672e-01 3.083096e-01
<GCONST> 2.468213e+01
<STATE> 4
<MEAN> 15
 -1.423433e+01 5.003445e-01 1.654131e+00 9.434717e-01 -2.330388e+00 -6.146067e-01 -6.813401e-01 -6.310858e-01 -5.793020e-01 3.729764e-01 -2.094674e-01 7.386051e-02 -6.891406e-01 -5.107700e-01 -1.162049e+00
<VARIANCE> 15
 5.773182e+00 3.543715e+00 2.613038e+00 3.455882e+00 1.372456e+00 2.719530e+00 4.911966e-01 5.360613e-01 4.129727e-01 6.516691e-01 4.492307e-01 4.831327e-01 3.095345e-01 5.901327e-01 3.089708e-01
<GCONST> 2.705490e+01
<STATE> 5
<MEAN> 15
 -2.605671e+01 -2.203925e+00 2.166272e+00 -8.359641e-01 -1.548197e+00 -1.583317e-01 -8.718079e-01 -1.625769e-01 -7.857425e-01 6.499022e-01 -6.077344e-01 -1.724843e-01 -8.106416e-01 -3.556369e-01 -7.459544e-01
<VARIANCE> 15
 1.246948e+01 4.186404e+00 1.859304e+00 1.571235e+00 1.154728e+00 1.051263e+00 5.372765e-01 3.683736e-01 3.446227e-01 3.474349e-01 3.071598e-01 3.380240e-01 2.703959e-01 3.213769e-01 2.338031e-01
<GCONST> 2.288551e+01
<STATE> 6
<MEAN> 15
 -3.289021e+01 -2.388196e+00 3.469139e-01 -8.507026e-01 -6.343660e-01 -1.394562e-01 -6.616431e-01 -4.208075e-02 -6.240339e-01 2.285212e-01 -4.793896e-01 -1.097310e-01 -4.881475e-01 -1.161667e-01 -4.180456e-01
<VARIANCE> 15
 2.108786e+00 1.889820e+00 9.248347e-01 4.485911e-01 4.394414e-01 2.182298e-01 2.281917e-01 1.723096e-01 1.812128e-01 2.026034e-01 1.720060e-01 1.348944e-01 1.226673e-01 1.274575e-01 1.084649e-01
<GCONST> 9.042819e+00
<STATE> 7
<MEAN> 15
 -2.076877e+01 -6.077700e+00 5.103949e-01 -6.002759e-01 -1.081590e+00 -1.453587e+00 -1.183399e+00 -7.035984e-01 -1.005630e+00 1.474582e-01 -2.418545e-01 1.006091e-01 -8.769827e-02 -2.747111e-01 -5.762079e-01
<VARIANCE> 15
 1.408045e+01 7.979772e+00 1.828745e+00 6.592203e-01 9.326534e-01 8.954203e-01 6.613023e-01 5.250523e-01 4.370203e-01 3.302018e-01 1.800100e-01 1.582087e-01 2.039279e-01 1.892415e-01 2.064103e-01
<GCONST> 2.091178e+01
<STATE> 8
<MEAN> 15
 -2.167878e+01 -7.723660e+00 -8.136480e-01 3.665409e-01 -1.812227e+00 -7.010069e-01 -5.146193e-01 -3.211111e-03 -8.479499e-01 4.361139e-01 -5.075040e-01 -3.399267e-02 -1.455543e-01 2.200733e-01 -6.030029e-01
<VARIANCE> 15
 1.072731e+01 3.468390e+00 6.658036e-01 6.525525e-01 1.351159e+00 7.970228e-01 4.092043e-01 4.896993e-01 2.512117e-01 3.692910e-01 2.755816e-01 3.420690e-01 2.000531e-01 2.404503e-01 2.280116e-01
<GCONST> 1.956558e+01
<STATE> 9
<MEAN> 15
 -3.369209e+01 -2.037730e+00 -3.072520e-01 -8.740501e-01 -5.598332e-01 4.880802e-03 -5.402175e-01 -4.740475e-02 -5.244580e-01 2.355299e-01 -5.644518e-01 -1.865542e-01 -3.272972e-01 1.496592e-01 -2.577236e-01
<VARIANCE> 15
 6.420756e+00 1.192743e+00 6.446486e-01 3.067239e-01 2.500806e-01 2.378838e-01 2.291014e-01 2.415741e-01 1.597056e-01 2.400686e-01 1.898056e-01 1.341397e-01 1.180540e-01 2.016938e-01 1.213245e-01
<GCONST> 9.488189e+00
<TRANSP> 10
 0.000000e+00 1.000000e+00 0.000000e+00 0.000000e+00 0.000000e+00 0.000000e+00 0.000000e+00 0.000000e+00 0.000000e+00 0.000000e+00
 0.000000e+00 9.272727e-01 7.272726e-02 0.000000e+00 0.000000e+00 0.000000e+00 0.000000e+00 0.000000e+00 0.000000e+00 0.000000e+00
 0.000000e+00 0.000000e+00 9.183673e-01 8.163264e-02 0.000000e+00 0.000000e+00 0.000000e+00 0.000000e+00 0.000000e+00 0.000000e+00
 0.000000e+00 0.000000e+00 0.000000e+00 9.426934e-01 5.730659e-02 0.000000e+00 0.000000e+00 0.000000e+00 0.000000e+00 0.000000e+00
 0.000000e+00 0.000000e+00 0.000000e+00 0.000000e+00 9.029126e-01 9.708737e-02 0.000000e+00 0.000000e+00 0.000000e+00 0.000000e+00
 0.000000e+00 0.000000e+00 0.000000e+00 0.000000e+00 0.000000e+00 9.200000e-01 8.000000e-02 0.000000e+00 0.000000e+00 0.000000e+00
 0.000000e+00 0.000000e+00 0.000000e+00 0.000000e+00 0.000000e+00 0.000000e+00 9.038461e-01 9.615386e-02 0.000000e+00 0.000000e+00
 0.000000e+00 0.000000e+00 0.000000e+00 0.000000e+00 0.000000e+00 0.000000e+00 0.000000e+00 9.233717e-01 7.662836e-02 0.000000e+00
 0.000000e+00 0.000000e+00 0.000000e+00 0.000000e+00 0.000000e+00 0.000000e+00 0.000000e+00 0.000000e+00 9.290780e-01 7.092199e-02
 0.000000e+00 0.000000e+00 0.000000e+00 0.000000e+00 0.000000e+00 0.000000e+00 0.000000e+00 0.000000e+00 0.000000e+00 0.000000e+00
<ENDHMM>
