~o
<STREAMINFO> 1 20
<VECSIZE> 20<NULLD><MFCC><DIAGC>
~h "Max"
<BEGINHMM>
<NUMSTATES> 18
<STATE> 2
<MEAN> 20
 -4.040433e+01 -1.611870e+00 -1.525686e+00 2.991745e-01 -1.640391e+00 5.949541e-01 -1.084453e+00 2.907335e-01 -6.371281e-01 3.786357e-02 -1.122806e-01 -2.122926e-01 -2.459102e-01 -1.977664e-01 6.863981e-03 -2.474001e-01 -2.695648e-01 -2.290961e-01 -1.192429e-01 -2.128278e-01
<VARIANCE> 20
 2.520992e+00 1.248806e+00 1.084435e+00 2.881027e-01 3.657503e-01 2.647265e-01 2.928133e-01 1.890203e-01 1.398892e-01 2.251251e-01 1.550119e-01 1.606048e-01 1.644046e-01 1.783093e-01 1.635978e-01 1.330505e-01 1.504950e-01 1.560487e-01 1.308725e-01 1.470447e-01
<GCONST> 9.301957e+00
<STATE> 3
<MEAN> 20
 -3.666219e+01 -1.918095e+00 -4.732295e-01 -4.171623e-02 -2.558255e+00 1.191464e+00 -1.754377e+00 4.294845e-01 -6.213233e-01 4.894075e-01 -9.113525e-02 1.653505e-01 -1.754228e-01 1.948261e-01 3.257411e-01 -3.545823e-01 -4.430866e-01 -4.045682e-01 6.507750e-02 -3.214045e-01
<VARIANCE> 20
 8.610830e+00 2.355231e+00 3.590198e+00 1.060433e+00 6.868734e-01 1.161025e+00 6.706098e-01 9.398112e-01 9.970445e-01 5.921670e-01 5.350223e-01 2.777450e-01 3.121531e-01 3.489772e-01 2.367622e-01 2.974127e-01 3.373258e-01 2.962672e-01 2.486789e-01 1.763436e-01
<GCONST> 2.768225e+01
<STATE> 4
<MEAN> 20
 -2.846731e+01 7.036875e-01 2.884215e+00 1.231289e+00 -1.486267e+00 6.337348e-01 -4.660357e-01 8.076601e-01 9.650685e-01 3.326946e-01 5.276661e-01 7.374977e-01 5.690323e-01 3.164258e-01 5.585157e-01 -2.044179e-01 -1.076550e+00 -5.329263e-01 1.255698e-02 -7.003050e-01
<VARIANCE> 20
 7.481699e+00 9.682243e-01 1.444518e+00 1.145421e+00 1.008981e+00 8.070162e-01 8.172352e-01 6.659445e-01 6.301795e-01 5.412983e-01 4.667346e-01 3.698790e-01 2.685106e-01 2.816745e-01 2.998224e-01 4.350192e-01 2.765839e-01 3.770332e-01 3.455198e-01 2.495447e-01
<GCONST> 2.626502e+01
<STATE> 5
<MEAN> 20
 -2.780339e+01 3.808620e+00 1.685761e-01 -2.926067e-01 -1.906409e+00 2.343767e+00 -1.261218e+00 7.536259e-01 7.861712e-01 1.838688e+00 9.559289e-02 -1.557536e-01 -6.291380e-02 1.211790e+00 1.398423e+00 -5.716298e-01 -1.776358e+00 -1.394029e+00 -2.762505e-01 -6.721329e-01
<VARIANCE> 20
 7.333991e+00 2.285799e+00 1.901304e+00 1.015667e+00 1.658752e+00 1.270511e+00 5.904576e-01 5.654974e-01 9.171711e-01 7.035704e-01 4.920389e-01 3.862598e-01 7.250364e-01 5.157276e-01 5.055904e-01 3.058178e-01 4.833823e-01 2.108448e-01 2.187590e-01 2.767177e-01
<GCONST> 2.984632e+01
<STATE> 6
<MEAN> 20
 -1.940730e+01 3.575599e+00 -2.534609e-01 2.561727e+00 -4.105589e+00 5.684707e-01 -1.262222e+00 -6.036389e-02 -1.568444e+00 5.451891e-01 -3.210010e-01 4.098668e-02 -8.072693e-01 -2.982230e-01 3.194673e-02 -1.341834e+00 -1.038466e+00 -2.646998e-01 7.288322e-01 -6.060299e-01
<VARIANCE> 20
 5.100224e+00 3.137423e+00 3.868808e+00 1.392727e+00 3.196112e+00 1.839747e+00 3.680748e-01 4.818546e-01 5.129924e-01 5.038456e-01 3.378116e-01 3.145653e-01 7.391511e-01 2.485494e-01 4.746208e-01 6.305700e-01 2.811567e-01 4.672743e-01 3.214546e-01 2.266102e-01
<GCONST> 3.011176e+01
<STATE> 7
<MEAN> 20
 -1.741963e+01 -1.188668e+00 2.085259e+00 3.351896e+00 -1.589745e+00 -2.122828e+00 -1.302334e+00 -3.318379e-02 -1.145160e+00 -3.456131e-02 -1.500133e-01 4.899533e-01 -1.933901e-01 -9.216198e-01 -1.180813e+00 -9.646711e-01 -3.801540e-01 4.029830e-01 4.818302e-01 -1.037437e-01
<VARIANCE> 20
 1.167173e+01 4.432392e+00 2.774020e+00 1.438583e+00 1.662374e+00 1.777005e+00 7.509258e-01 8.659551e-01 7.847365e-01 5.388315e-01 4.237145e-01 3.666263e-01 4.485263e-01 3.703206e-01 4.187508e-01 3.069768e-01 4.058257e-01 3.806243e-01 2.260714e-01 2.110388e-01
<GCONST> 3.126052e+01
<STATE> 8
<MEAN> 20
 -2.009031e+01 2.779948e+00 -1.109163e+00 1.515283e+00 -5.311746e+00 1.303611e+00 -1.588213e+00 8.215199e-02 -1.996250e+00 1.023862e+00 -1.287250e-01 -3.096252e-01 -5.634666e-01 -3.742226e-01 -5.813009e-01 -1.352387e+00 -4.667258e-01 1.547619e-04 7.487141e-01 -2.287714e-01
<VARIANCE> 20
 2.476408e+01 7.513270e+00 3.164398e+00 1.855081e+00 1.875601e+00 1.232481e+00 7.600107e-01 5.553291e-01 6.028393e-01 4.484391e-01 3.792503e-01 4.882886e-01 8.341742e-01 4.553118e-01 4.062884e-01 3.516619e-01 2.659393e-01 2.592192e-01 1.883644e-01 2.167150e-01
<GCONST> 3.194736e+01
<STATE> 9
<MEAN> 20
 -3.356673e+01 -1.061267e+00 5.024240e-01 7.246373e-01 -3.320495e+00 1.124621e+00 -2.217328e+00 5.990821e-01 -1.642586e+00 5.725437e-01 -2.298831e-01 -2.734517e-01 -5.182524e-01 -7.292438e-01 -3.621127e-01 -7.336020e-01 -5.443081e-01 -1.170312e-01 2.898964e-01 -1.007965e-01
<VARIANCE> 20
 8.177745e+00 7.642983e+00 2.763652e+00 1.197841e+00 1.621050e+00 1.085464e+00 5.865642e-01 4.485895e-01 4.297085e-01 4.920042e-01 3.895684e-01 3.626508e-01 3.348765e-01 3.125471e-01 3.060575e-01 2.477758e-01 2.253830e-01 2.789141e-01 1.615925e-01 2.195907e-01
<GCONST> 2.686716e+01
<STATE> 10
<MEAN> 20
 -3.811877e+01 -2.620370e+00 -2.871211e-01 -1.883730e-02 -1.617372e+00 5.505795e-01 -1.286431e+00 3.492339e-01 -9.523644e-01 6.333061e-02 -3.319835e-01 -2.997836e-01 -4.110044e-01 -3.860495e-01 -2.546072e-01 -3.563756e-01 -3.584796e-01 -1.755096e-01 3.588401e-02 -7.466958e-02
<VARIANCE> 20
 4.466033e+00 3.314861e+00 1.783679e+00 7.548233e-01 6.021667e-01 3.638338e-01 3.888188e-01 2.251182e-01 1.971950e-01 2.457821e-01 2.198073e-01 2.086479e-01 2.047113e-01 1.442150e-01 1.679277e-01 1.329153e-01 1.247144e-01 1.701975e-01 1.285470e-01 1.361730e-01
<GCONST> 1.446415e+01
<STATE> 11
<MEAN> 20
 -3.098521e+01 -1.693668e+00 -1.569027e-01 8.857723e-01 -2.675024e+00 -3.678460e-01 -3.048394e+00 3.588225e-01 -1.618787e+00 -1.391489e-01 -1.343915e-01 -2.483394e-02 -4.370016e-02 8.090481e-02 -3.312212e-01 -5.041995e-01 -7.226996e-01 -4.456385e-01 -4.266467e-01 -3.873653e-01
<VARIANCE> 20
 1.720773e+01 2.333639e+00 1.854250e+00 1.788461e+00 2.379001e+00 8.422720e-01 1.437425e+00 9.942917e-01 5.086007e-01 9.706036e-01 4.621574e-01 2.477605e-01 3.570699e-01 1.908000e-01 2.214749e-01 2.976522e-01 2.968167e-01 1.577625e-01 1.730338e-01 1.023362e-01
<GCONST> 2.732755e+01
<STATE> 12
<MEAN> 20
 -2.423958e+01 -4.201808e+00 5.107397e-02 5.574738e-01 -2.686610e+00 -1.243920e+00 -2.383788e+00 -1.529319e-01 -1.493716e+00 -5.522351e-02 -5.413197e-03 1.840797e-01 -6.021541e-02 -4.038738e-02 -3.864750e-01 -6.761241e-01 -9.595402e-01 -6.398639e-01 -3.182252e-01 -1.901256e-01
<VARIANCE> 20
 2.111946e+01 3.629153e+00 3.768053e+00 2.745350e+00 1.456924e+00 1.177447e+00 5.928453e-01 1.186296e+00 6.693799e-01 3.910114e-01 1.856605e-01 2.219021e-01 2.083558e-01 3.426102e-01 2.423527e-01 1.950575e-01 2.431373e-01 1.666141e-01 1.665838e-01 3.184316e-01
<GCONST> 2.725681e+01
<STATE> 13
<MEAN> 20
 -2.120516e+01 -8.931075e+00 -1.247481e+00 5.089769e-01 -1.396753e+00 -1.072817e+00 -1.714422e+00 -3.603344e-01 -1.510728e+00 -1.436047e-01 -2.092977e-01 -1.616445e-02 -3.292980e-01 1.138536e-02 -4.234813e-01 -5.330383e-01 -4.346144e-01 -3.150567e-02 1.855912e-01 1.091460e-01
<VARIANCE> 20
 6.698032e+00 3.603784e+00 2.437553e+00 9.881682e-01 1.643866e+00 1.066590e+00 7.003328e-01 7.721633e-01 3.855566e-01 5.068846e-01 2.768473e-01 2.253276e-01 3.140793e-01 2.661808e-01 3.380176e-01 2.566245e-01 3.481911e-01 2.512786e-01 1.937222e-01 2.484664e-01
<GCONST> 2.596370e+01
<STATE> 14
<MEAN> 20
 -2.542687e+01 -7.912797e+00 -3.523411e+00 2.627624e+00 -4.094043e+00 5.731503e-01 -2.182115e+00 1.448225e+00 -1.925620e+00 1.042233e+00 -6.431027e-01 1.378335e-01 -4.422575e-01 4.453236e-01 -3.002974e-01 -4.201831e-01 -5.992596e-01 2.599269e-01 5.367419e-02 1.681884e-03
<VARIANCE> 20
 2.801111e+00 1.522942e+00 1.313592e+00 1.521002e+00 1.775486e+00 1.040819e+00 4.657687e-01 9.113215e-01 4.892087e-01 4.879356e-01 2.599999e-01 3.642967e-01 4.895204e-01 2.645648e-01 3.070483e-01 3.279427e-01 2.334806e-01 3.082955e-01 1.680117e-01 1.959168e-01
<GCONST> 2.448329e+01
<STATE> 15
<MEAN> 20
 -2.994793e+01 -5.092996e+00 -3.125351e+00 2.297197e+00 -2.813419e+00 9.624691e-01 -2.134298e+00 1.622082e+00 -1.823162e+00 4.681676e-01 -6.351491e-01 -5.245286e-02 -8.095339e-01 4.065492e-01 9.157198e-03 -1.871392e-01 -6.246090e-01 -7.187202e-02 -7.421313e-02 -9.318666e-02
<VARIANCE> 20
 7.107540e+00 3.225036e+00 2.057081e+00 1.579102e+00 1.336537e+00 1.006478e+00 7.031936e-01 7.969837e-01 4.452358e-01 4.665953e-01 2.596377e-01 3.021421e-01 4.216990e-01 2.462647e-01 3.804526e-01 2.804505e-01 1.372682e-01 2.511978e-01 2.035748e-01 1.189284e-01
<GCONST> 2.507765e+01
<STATE> 16
<MEAN> 20
 -3.559490e+01 -2.658858e+00 -1.078782e+00 2.970231e-01 -2.075742e+00 8.115574e-01 -1.657283e+00 4.495883e-01 -1.259587e+00 2.693152e-01 -5.515101e-01 -2.852174e-01 -5.602252e-01 -1.138694e-01 -5.220977e-02 -2.019350e-01 -2.284023e-01 -2.058787e-01 -1.550936e-01 -3.063226e-01
<VARIANCE> 20
 8.336014e+00 1.421734e+00 2.323732e+00 8.607842e-01 9.059551e-01 1.173444e+00 5.262114e-01 5.015175e-01 3.382255e-01 5.689244e-01 2.037361e-01 2.106539e-01 2.842906e-01 1.890040e-01 2.612034e-01 2.011362e-01 1.653778e-01 1.742258e-01 2.033234e-01 2.026430e-01
<GCONST> 2.124960e+01
<STATE> 17
<MEAN> 20
 -4.064591e+01 -1.340978e+00 -1.110965e+00 -2.450636e-01 -1.371440e+00 6.128671e-01 -8.807019e-01 2.696011e-01 -7.611398e-01 1.340492e-01 -2.538687e-01 -4.117940e-01 -3.505694e-01 -2.171015e-01 3.805049e-02 -2.101575e-01 -1.447997e-01 -5.331307e-02 -1.255915e-01 -2.540862e-01
<VARIANCE> 20
 3.969433e+00 1.353563e+00 1.064375e+00 4.244303e-01 4.958090e-01 3.046950e-01 3.804053e-01 3.335865e-01 1.870482e-01 2.118568e-01 1.852259e-01 1.675071e-01 1.218932e-01 1.626613e-01 2.126073e-01 1.378993e-01 1.249097e-01 1.403715e-01 1.404101e-01 1.413765e-01
<GCONST> 1.157538e+01
<TRANSP> 18
 0.000000e+00 1.000000e+00 0.000000e+00 0.000000e+00 0.000000e+00 0.000000e+00 0.000000e+00 0.000000e+00 0.000000e+00 0.000000e+00 0.000000e+00 0.000000e+00 0.000000e+00 0.000000e+00 0.000000e+00 0.000000e+00 0.000000e+00 0.000000e+00
 0.000000e+00 8.895028e-01 1.104972e-01 0.000000e+00 0.000000e+00 0.000000e+00 0.000000e+00 0.000000e+00 0.000000e+00 0.000000e+00 0.000000e+00 0.000000e+00 0.000000e+00 0.000000e+00 0.000000e+00 0.000000e+00 0.000000e+00 0.000000e+00
 0.000000e+00 0.000000e+00 8.181818e-01 1.818182e-01 0.000000e+00 0.000000e+00 0.000000e+00 0.000000e+00 0.000000e+00 0.000000e+00 0.000000e+00 0.000000e+00 0.000000e+00 0.000000e+00 0.000000e+00 0.000000e+00 0.000000e+00 0.000000e+00
 0.000000e+00 0.000000e+00 0.000000e+00 8.529412e-01 1.470588e-01 0.000000e+00 0.000000e+00 0.000000e+00 0.000000e+00 0.000000e+00 0.000000e+00 0.000000e+00 0.000000e+00 0.000000e+00 0.000000e+00 0.000000e+00 0.000000e+00 0.000000e+00
 0.000000e+00 0.000000e+00 0.000000e+00 0.000000e+00 7.938144e-01 2.061855e-01 0.000000e+00 0.000000e+00 0.000000e+00 0.000000e+00 0.000000e+00 0.000000e+00 0.000000e+00 0.000000e+00 0.000000e+00 0.000000e+00 0.000000e+00 0.000000e+00
 0.000000e+00 0.000000e+00 0.000000e+00 0.000000e+00 0.000000e+00 7.222222e-01 2.777778e-01 0.000000e+00 0.000000e+00 0.000000e+00 0.000000e+00 0.000000e+00 0.000000e+00 0.000000e+00 0.000000e+00 0.000000e+00 0.000000e+00 0.000000e+00
 0.000000e+00 0.000000e+00 0.000000e+00 0.000000e+00 0.000000e+00 0.000000e+00 8.969072e-01 1.030928e-01 0.000000e+00 0.000000e+00 0.000000e+00 0.000000e+00 0.000000e+00 0.000000e+00 0.000000e+00 0.000000e+00 0.000000e+00 0.000000e+00
 0.000000e+00 0.000000e+00 0.000000e+00 0.000000e+00 0.000000e+00 0.000000e+00 0.000000e+00 8.591549e-01 1.408451e-01 0.000000e+00 0.000000e+00 0.000000e+00 0.000000e+00 0.000000e+00 0.000000e+00 0.000000e+00 0.000000e+00 0.000000e+00
 0.000000e+00 0.000000e+00 0.000000e+00 0.000000e+00 0.000000e+00 0.000000e+00 0.000000e+00 0.000000e+00 8.630137e-01 1.369863e-01 0.000000e+00 0.000000e+00 0.000000e+00 0.000000e+00 0.000000e+00 0.000000e+00 0.000000e+00 0.000000e+00
 0.000000e+00 0.000000e+00 0.000000e+00 0.000000e+00 0.000000e+00 0.000000e+00 0.000000e+00 0.000000e+00 0.000000e+00 9.176955e-01 8.230452e-02 0.000000e+00 0.000000e+00 0.000000e+00 0.000000e+00 0.000000e+00 0.000000e+00 0.000000e+00
 0.000000e+00 0.000000e+00 0.000000e+00 0.000000e+00 0.000000e+00 0.000000e+00 0.000000e+00 0.000000e+00 0.000000e+00 0.000000e+00 4.871795e-01 5.128205e-01 0.000000e+00 0.000000e+00 0.000000e+00 0.000000e+00 0.000000e+00 0.000000e+00
 0.000000e+00 0.000000e+00 0.000000e+00 0.000000e+00 0.000000e+00 0.000000e+00 0.000000e+00 0.000000e+00 0.000000e+00 0.000000e+00 0.000000e+00 5.454546e-01 4.545455e-01 0.000000e+00 0.000000e+00 0.000000e+00 0.000000e+00 0.000000e+00
 0.000000e+00 0.000000e+00 0.000000e+00 0.000000e+00 0.000000e+00 0.000000e+00 0.000000e+00 0.000000e+00 0.000000e+00 0.000000e+00 0.000000e+00 0.000000e+00 8.850574e-01 1.149425e-01 0.000000e+00 0.000000e+00 0.000000e+00 0.000000e+00
 0.000000e+00 0.000000e+00 0.000000e+00 0.000000e+00 0.000000e+00 0.000000e+00 0.000000e+00 0.000000e+00 0.000000e+00 0.000000e+00 0.000000e+00 0.000000e+00 0.000000e+00 8.561151e-01 1.438849e-01 0.000000e+00 0.000000e+00 0.000000e+00
 0.000000e+00 0.000000e+00 0.000000e+00 0.000000e+00 0.000000e+00 0.000000e+00 0.000000e+00 0.000000e+00 0.000000e+00 0.000000e+00 0.000000e+00 0.000000e+00 0.000000e+00 0.000000e+00 6.923077e-01 3.076923e-01 0.000000e+00 0.000000e+00
 0.000000e+00 0.000000e+00 0.000000e+00 0.000000e+00 0.000000e+00 0.000000e+00 0.000000e+00 0.000000e+00 0.000000e+00 0.000000e+00 0.000000e+00 0.000000e+00 0.000000e+00 0.000000e+00 0.000000e+00 7.938144e-01 2.061855e-01 0.000000e+00
 0.000000e+00 0.000000e+00 0.000000e+00 0.000000e+00 0.000000e+00 0.000000e+00 0.000000e+00 0.000000e+00 0.000000e+00 0.000000e+00 0.000000e+00 0.000000e+00 0.000000e+00 0.000000e+00 0.000000e+00 0.000000e+00 8.984771e-01 1.015228e-01
 0.000000e+00 0.000000e+00 0.000000e+00 0.000000e+00 0.000000e+00 0.000000e+00 0.000000e+00 0.000000e+00 0.000000e+00 0.000000e+00 0.000000e+00 0.000000e+00 0.000000e+00 0.000000e+00 0.000000e+00 0.000000e+00 0.000000e+00 0.000000e+00
<ENDHMM>
