~o
<STREAMINFO> 1 15
<VECSIZE> 15<NULLD><MFCC><DIAGC>
~h "Max"
<BEGINHMM>
<NUMSTATES> 18
<STATE> 2
<MEAN> 15
 -3.462095e+01 -1.971248e+00 -6.607856e-01 -4.541553e-01 -7.660376e-01 1.125922e-01 -6.356887e-01 1.273427e-01 -5.090191e-01 2.237259e-01 -3.557642e-01 -6.859040e-02 -2.771885e-01 7.831980e-02 -2.523269e-01
<VARIANCE> 15
 1.698238e+00 6.634975e-01 5.291971e-01 2.502732e-01 2.103297e-01 1.811546e-01 1.769412e-01 1.420856e-01 1.280769e-01 1.687862e-01 1.471242e-01 1.323258e-01 1.415893e-01 1.237349e-01 1.100191e-01
<GCONST> 4.690419e+00
<STATE> 3
<MEAN> 15
 -3.126974e+01 -2.415912e+00 6.130895e-01 -1.325651e+00 -9.220360e-01 1.231469e-01 -1.055565e+00 2.495551e-01 -3.100432e-01 4.888668e-01 -1.634726e-01 2.104957e-01 -6.522010e-02 4.730762e-01 -3.493518e-01
<VARIANCE> 15
 5.785961e+00 1.728634e+00 1.964714e+00 8.979745e-01 8.080974e-01 7.019597e-01 6.822314e-01 4.993806e-01 2.655810e-01 1.818348e-01 3.779067e-01 1.686092e-01 3.541056e-01 1.866580e-01 2.180527e-01
<GCONST> 1.877150e+01
<STATE> 4
<MEAN> 15
 -2.435921e+01 7.135787e-01 3.029912e+00 2.526475e-01 -7.328452e-01 4.634449e-01 -2.077253e-01 1.232468e+00 4.550633e-01 4.778802e-01 6.692399e-01 7.580008e-01 3.342472e-01 5.657908e-01 -3.598462e-02
<VARIANCE> 15
 4.832507e+00 9.472168e-01 8.249254e-01 8.851445e-01 7.812294e-01 6.444567e-01 6.722155e-01 2.826573e-01 2.337463e-01 5.384753e-01 3.414468e-01 1.918118e-01 2.064906e-01 2.380793e-01 3.014918e-01
<GCONST> 1.741789e+01
<STATE> 5
<MEAN> 15
 -2.320103e+01 2.713404e+00 8.406491e-01 -1.309075e+00 2.539596e-02 1.227799e+00 -7.593183e-01 1.076106e+00 1.317307e+00 1.097364e+00 -3.602581e-01 1.518765e-01 7.935553e-01 1.604048e+00 -4.433469e-01
<VARIANCE> 15
 4.169134e+00 1.168834e+00 1.400150e+00 8.173172e-01 1.108964e+00 7.285703e-01 3.893767e-01 5.369763e-01 4.940211e-01 5.622157e-01 2.992904e-01 4.912289e-01 4.308256e-01 4.340216e-01 2.450243e-01
<GCONST> 2.122712e+01
<STATE> 6
<MEAN> 15
 -1.437393e+01 1.919853e+00 6.251193e-01 -5.563288e-01 -2.899782e+00 7.193425e-01 -1.004019e+00 -6.749288e-01 -6.559811e-01 8.138301e-01 -5.670526e-01 -8.774653e-02 -5.392452e-01 -7.693603e-02 -1.326403e+00
<VARIANCE> 15
 7.454324e+00 1.363202e+00 1.828354e+00 1.716007e+00 1.299434e+00 9.010173e-01 4.634421e-01 3.941134e-01 3.958277e-01 3.674429e-01 3.409403e-01 5.374792e-01 2.959200e-01 3.746283e-01 3.656384e-01
<GCONST> 2.265723e+01
<STATE> 7
<MEAN> 15
 -1.439505e+01 -7.952128e-01 2.555416e+00 2.205028e+00 -1.783520e+00 -1.804917e+00 -4.462214e-01 -5.994497e-01 -4.610091e-01 -3.301525e-02 1.254068e-01 2.231108e-01 -8.295959e-01 -9.351822e-01 -9.836566e-01
<VARIANCE> 15
 6.553871e+00 1.406533e+00 1.434176e+00 1.787664e+00 8.536651e-01 1.391255e+00 4.113478e-01 6.659862e-01 3.922847e-01 5.730183e-01 3.171163e-01 3.886736e-01 2.783797e-01 3.798048e-01 2.130998e-01
<GCONST> 2.222906e+01
<STATE> 8
<MEAN> 15
 -2.331188e+01 -3.062738e+00 3.024373e+00 2.411441e-01 -1.761021e+00 -6.742219e-01 -4.179046e-01 -2.414867e-01 -8.849872e-01 6.829953e-01 -5.249125e-01 -2.923298e-01 -6.635647e-01 -6.764643e-01 -7.803749e-01
<VARIANCE> 15
 1.070331e+01 2.927090e+00 1.496433e+00 1.088452e+00 9.551576e-01 1.109965e+00 3.800755e-01 3.808818e-01 4.045279e-01 3.493772e-01 4.001752e-01 2.852893e-01 3.362000e-01 1.988649e-01 2.805378e-01
<GCONST> 2.152339e+01
<STATE> 9
<MEAN> 15
 -2.954226e+01 -2.260373e+00 1.500245e+00 -1.489726e+00 -1.028329e+00 1.826171e-02 -1.050906e+00 -3.055316e-03 -8.185471e-01 4.574668e-01 -7.060834e-01 -9.076288e-02 -8.038795e-01 -9.057701e-02 -6.089311e-01
<VARIANCE> 15
 3.651712e+00 4.272264e+00 9.087968e-01 6.252286e-01 1.038124e+00 4.716451e-01 3.336393e-01 2.867092e-01 2.533845e-01 3.478085e-01 2.336396e-01 2.665989e-01 1.974005e-01 2.252767e-01 1.961104e-01
<GCONST> 1.674217e+01
<STATE> 10
<MEAN> 15
 -3.351403e+01 -2.136302e+00 4.219516e-03 -6.780847e-01 -6.428103e-01 -1.237182e-01 -5.904894e-01 -8.523926e-02 -5.315468e-01 2.197720e-01 -3.890397e-01 -9.137262e-02 -4.774576e-01 -1.233008e-01 -4.196274e-01
<VARIANCE> 15
 1.029457e+00 1.233270e+00 6.042843e-01 3.178195e-01 4.049807e-01 2.341590e-01 2.205198e-01 1.405135e-01 1.338984e-01 1.813027e-01 1.122238e-01 1.286528e-01 1.149824e-01 1.203856e-01 9.331617e-02
<GCONST> 5.719034e+00
<STATE> 11
<MEAN> 15
 -2.642668e+01 -2.309189e+00 1.260931e+00 -7.166591e-01 -1.426169e+00 -1.398633e+00 -1.499473e+00 -2.052823e-01 -9.692513e-01 2.921930e-01 -2.312015e-01 1.782770e-01 -1.794553e-01 -6.053135e-02 -5.408939e-01
<VARIANCE> 15
 1.265533e+01 1.956064e+00 2.185723e+00 7.175361e-01 9.277512e-01 7.932035e-01 7.794049e-01 5.818116e-01 1.072835e-01 4.929800e-01 2.407272e-01 1.950733e-01 1.662332e-01 1.611618e-01 1.361759e-01
<GCONST> 1.851813e+01
<STATE> 12
<MEAN> 15
 -2.081417e+01 -5.841566e+00 1.117970e+00 -6.045220e-01 -1.654165e+00 -1.076137e+00 -1.514782e+00 -6.410866e-01 -8.592789e-01 1.694350e-01 -1.592103e-01 2.114412e-01 -2.102990e-01 -2.308377e-02 -4.694345e-01
<VARIANCE> 15
 1.099900e+01 1.083860e+01 8.589248e-01 1.149202e+00 8.978198e-01 1.010556e+00 5.315030e-01 7.133064e-01 6.320864e-01 4.715689e-01 1.828861e-01 1.274528e-01 2.563423e-01 1.718012e-01 2.951516e-01
<GCONST> 2.195665e+01
<STATE> 13
<MEAN> 15
 -1.826233e+01 -7.767133e+00 -5.866566e-01 -9.212951e-02 -1.070130e+00 -1.701893e+00 -7.910015e-01 -7.740300e-01 -9.586591e-01 1.228700e-01 -1.831781e-01 -1.185740e-01 -6.187585e-02 -2.157330e-01 -6.871679e-01
<VARIANCE> 15
 5.152148e+00 1.717642e+00 1.309095e+00 7.284897e-01 1.348270e+00 5.317461e-01 3.793097e-01 4.862318e-01 3.466364e-01 2.502822e-01 1.954079e-01 2.037774e-01 2.046758e-01 2.591047e-01 1.927309e-01
<GCONST> 1.742649e+01
<STATE> 14
<MEAN> 15
 -2.161819e+01 -8.576099e+00 -7.040850e-01 2.965793e-01 -2.175046e+00 -5.560654e-01 -4.706210e-01 7.228760e-02 -8.326496e-01 6.839552e-01 -6.402572e-01 1.551667e-01 -8.068343e-02 1.643117e-01 -6.341121e-01
<VARIANCE> 15
 3.063507e+00 1.257016e+00 5.611856e-01 6.637983e-01 8.354312e-01 7.901191e-01 4.304186e-01 3.807753e-01 2.643550e-01 2.150631e-01 2.309566e-01 3.401127e-01 1.955547e-01 2.400031e-01 2.112328e-01
<GCONST> 1.567996e+01
<STATE> 15
<MEAN> 15
 -2.443427e+01 -5.411735e+00 -4.971144e-01 3.622132e-02 -6.207551e-01 -4.974900e-01 -6.347067e-01 1.520894e-01 -1.047374e+00 6.301972e-04 -5.185453e-01 -1.944652e-01 -2.216476e-01 1.578843e-01 -4.561180e-01
<VARIANCE> 15
 6.793387e+00 2.249125e+00 1.031906e+00 7.423548e-01 6.799836e-01 4.196405e-01 6.403271e-01 3.409815e-01 3.602495e-01 2.958038e-01 1.395472e-01 2.134296e-01 1.731075e-01 4.369808e-01 1.847951e-01
<GCONST> 1.722934e+01
<STATE> 16
<MEAN> 15
 -3.054311e+01 -2.977048e+00 2.290553e-01 -8.355568e-01 -7.881211e-01 -2.324787e-01 -6.986424e-01 -1.321443e-01 -6.248030e-01 2.165247e-01 -5.366709e-01 -2.345491e-01 -3.390968e-01 1.193065e-01 -2.320624e-01
<VARIANCE> 15
 3.461417e+00 6.423646e-01 7.805887e-01 6.150197e-01 3.576868e-01 4.230806e-01 2.736603e-01 2.761925e-01 1.787068e-01 3.572317e-01 2.119974e-01 1.496740e-01 8.001378e-02 2.167727e-01 1.353957e-01
<GCONST> 1.090674e+01
<STATE> 17
<MEAN> 15
 -3.501733e+01 -1.631751e+00 -5.393186e-01 -8.586101e-01 -4.905750e-01 1.197869e-01 -4.634176e-01 -3.963283e-02 -4.991271e-01 2.324437e-01 -5.851811e-01 -1.673030e-01 -3.136459e-01 1.620920e-01 -2.694812e-01
<VARIANCE> 15
 2.406185e+00 8.968365e-01 4.795136e-01 2.145600e-01 2.086407e-01 1.424170e-01 1.916293e-01 2.447962e-01 1.501870e-01 1.914651e-01 1.799795e-01 1.230074e-01 1.329122e-01 1.792380e-01 1.180330e-01
<GCONST> 6.254262e+00
<TRANSP> 18
 0.000000e+00 1.000000e+00 0.000000e+00 0.000000e+00 0.000000e+00 0.000000e+00 0.000000e+00 0.000000e+00 0.000000e+00 0.000000e+00 0.000000e+00 0.000000e+00 0.000000e+00 0.000000e+00 0.000000e+00 0.000000e+00 0.000000e+00 0.000000e+00
 0.000000e+00 8.895028e-01 1.104972e-01 0.000000e+00 0.000000e+00 0.000000e+00 0.000000e+00 0.000000e+00 0.000000e+00 0.000000e+00 0.000000e+00 0.000000e+00 0.000000e+00 0.000000e+00 0.000000e+00 0.000000e+00 0.000000e+00 0.000000e+00
 0.000000e+00 0.000000e+00 8.198198e-01 1.801802e-01 0.000000e+00 0.000000e+00 0.000000e+00 0.000000e+00 0.000000e+00 0.000000e+00 0.000000e+00 0.000000e+00 0.000000e+00 0.000000e+00 0.000000e+00 0.000000e+00 0.000000e+00 0.000000e+00
 0.000000e+00 0.000000e+00 0.000000e+00 8.518519e-01 1.481482e-01 0.000000e+00 0.000000e+00 0.000000e+00 0.000000e+00 0.000000e+00 0.000000e+00 0.000000e+00 0.000000e+00 0.000000e+00 0.000000e+00 0.000000e+00 0.000000e+00 0.000000e+00
 0.000000e+00 0.000000e+00 0.000000e+00 0.000000e+00 7.872341e-01 2.127660e-01 0.000000e+00 0.000000e+00 0.000000e+00 0.000000e+00 0.000000e+00 0.000000e+00 0.000000e+00 0.000000e+00 0.000000e+00 0.000000e+00 0.000000e+00 0.000000e+00
 0.000000e+00 0.000000e+00 0.000000e+00 0.000000e+00 0.000000e+00 8.850574e-01 1.149425e-01 0.000000e+00 0.000000e+00 0.000000e+00 0.000000e+00 0.000000e+00 0.000000e+00 0.000000e+00 0.000000e+00 0.000000e+00 0.000000e+00 0.000000e+00
 0.000000e+00 0.000000e+00 0.000000e+00 0.000000e+00 0.000000e+00 0.000000e+00 8.882682e-01 1.117318e-01 0.000000e+00 0.000000e+00 0.000000e+00 0.000000e+00 0.000000e+00 0.000000e+00 0.000000e+00 0.000000e+00 0.000000e+00 0.000000e+00
 0.000000e+00 0.000000e+00 0.000000e+00 0.000000e+00 0.000000e+00 0.000000e+00 0.000000e+00 7.916667e-01 2.083333e-01 0.000000e+00 0.000000e+00 0.000000e+00 0.000000e+00 0.000000e+00 0.000000e+00 0.000000e+00 0.000000e+00 0.000000e+00
 0.000000e+00 0.000000e+00 0.000000e+00 0.000000e+00 0.000000e+00 0.000000e+00 0.000000e+00 0.000000e+00 8.809524e-01 1.190476e-01 0.000000e+00 0.000000e+00 0.000000e+00 0.000000e+00 0.000000e+00 0.000000e+00 0.000000e+00 0.000000e+00
 0.000000e+00 0.000000e+00 0.000000e+00 0.000000e+00 0.000000e+00 0.000000e+00 0.000000e+00 0.000000e+00 0.000000e+00 8.907104e-01 1.092896e-01 0.000000e+00 0.000000e+00 0.000000e+00 0.000000e+00 0.000000e+00 0.000000e+00 0.000000e+00
 0.000000e+00 0.000000e+00 0.000000e+00 0.000000e+00 0.000000e+00 0.000000e+00 0.000000e+00 0.000000e+00 0.000000e+00 0.000000e+00 4.871795e-01 5.128205e-01 0.000000e+00 0.000000e+00 0.000000e+00 0.000000e+00 0.000000e+00 0.000000e+00
 0.000000e+00 0.000000e+00 0.000000e+00 0.000000e+00 0.000000e+00 0.000000e+00 0.000000e+00 0.000000e+00 0.000000e+00 0.000000e+00 0.000000e+00 6.666667e-01 3.333333e-01 0.000000e+00 0.000000e+00 0.000000e+00 0.000000e+00 0.000000e+00
 0.000000e+00 0.000000e+00 0.000000e+00 0.000000e+00 0.000000e+00 0.000000e+00 0.000000e+00 0.000000e+00 0.000000e+00 0.000000e+00 0.000000e+00 0.000000e+00 8.639456e-01 1.360544e-01 0.000000e+00 0.000000e+00 0.000000e+00 0.000000e+00
 0.000000e+00 0.000000e+00 0.000000e+00 0.000000e+00 0.000000e+00 0.000000e+00 0.000000e+00 0.000000e+00 0.000000e+00 0.000000e+00 0.000000e+00 0.000000e+00 0.000000e+00 8.717949e-01 1.282051e-01 0.000000e+00 0.000000e+00 0.000000e+00
 0.000000e+00 0.000000e+00 0.000000e+00 0.000000e+00 0.000000e+00 0.000000e+00 0.000000e+00 0.000000e+00 0.000000e+00 0.000000e+00 0.000000e+00 0.000000e+00 0.000000e+00 0.000000e+00 6.774194e-01 3.225806e-01 0.000000e+00 0.000000e+00
 0.000000e+00 0.000000e+00 0.000000e+00 0.000000e+00 0.000000e+00 0.000000e+00 0.000000e+00 0.000000e+00 0.000000e+00 0.000000e+00 0.000000e+00 0.000000e+00 0.000000e+00 0.000000e+00 0.000000e+00 7.938144e-01 2.061855e-01 0.000000e+00
 0.000000e+00 0.000000e+00 0.000000e+00 0.000000e+00 0.000000e+00 0.000000e+00 0.000000e+00 0.000000e+00 0.000000e+00 0.000000e+00 0.000000e+00 0.000000e+00 0.000000e+00 0.000000e+00 0.000000e+00 0.000000e+00 8.969072e-01 1.030928e-01
 0.000000e+00 0.000000e+00 0.000000e+00 0.000000e+00 0.000000e+00 0.000000e+00 0.000000e+00 0.000000e+00 0.000000e+00 0.000000e+00 0.000000e+00 0.000000e+00 0.000000e+00 0.000000e+00 0.000000e+00 0.000000e+00 0.000000e+00 0.000000e+00
<ENDHMM>
