~o
<STREAMINFO> 1 15
<VECSIZE> 15<NULLD><MFCC><DIAGC>
~h "Nathaniel"
<BEGINHMM>
<NUMSTATES> 10
<STATE> 2
<MEAN> 15
 -3.387439e+01 -2.148731e+00 -2.711384e-01 -5.904319e-01 -5.211429e-01 2.474990e-01 -4.666879e-01 -6.149983e-03 -5.717163e-01 9.558279e-02 -3.842819e-01 -2.201774e-03 -2.972317e-01 7.538244e-02 -2.736714e-01
<VARIANCE> 15
 4.115858e+00 7.124789e-01 1.146989e+00 4.273319e-01 4.134435e-01 2.346723e-01 1.552283e-01 2.242719e-01 1.714272e-01 2.672561e-01 1.759101e-01 1.381799e-01 1.554098e-01 1.605997e-01 1.187557e-01
<GCONST> 9.619048e+00
<STATE> 3
<MEAN> 15
 -2.114479e+01 4.393372e-01 1.768880e+00 1.907109e-01 -1.954012e-01 1.635316e+00 -9.930587e-01 8.474702e-01 3.011130e-01 1.829733e-01 -6.381437e-01 1.996791e-01 -8.102049e-02 -2.572647e-02 -9.879127e-01
<VARIANCE> 15
 2.075368e+01 2.246073e+00 1.770458e+00 1.376693e+00 2.017889e+00 9.150258e-01 2.425900e+00 8.658905e-01 7.768807e-01 5.306624e-01 8.615277e-01 4.262815e-01 4.353995e-01 3.307526e-01 5.795692e-01
<GCONST> 2.928530e+01
<STATE> 4
<MEAN> 15
 -1.981920e+01 -4.593724e+00 2.415122e+00 -4.034112e-01 -7.530195e-01 2.885394e-02 -5.256279e-01 -5.334113e-02 -5.238371e-01 1.184716e-01 -5.221648e-01 -1.627504e-01 -1.874291e-01 -3.013589e-01 -9.230974e-01
<VARIANCE> 15
 9.571727e+00 3.281792e+00 2.686967e+00 2.235349e+00 8.354944e-01 7.241783e-01 4.730134e-01 4.083919e-01 3.842164e-01 2.912422e-01 2.483916e-01 1.773616e-01 2.888595e-01 2.139199e-01 2.214705e-01
<GCONST> 2.105766e+01
<STATE> 5
<MEAN> 15
 -1.395841e+01 2.405065e-01 1.647907e+00 1.455411e-01 -1.321872e+00 -1.025407e-02 -6.285968e-01 -6.734213e-01 -4.968163e-01 8.451921e-01 -4.655333e-01 -2.968417e-01 -7.369868e-01 -7.136422e-01 -1.148283e+00
<VARIANCE> 15
 6.051112e+00 2.921527e+00 2.210222e+00 4.037515e+00 1.138614e+00 3.525347e+00 1.037251e+00 5.835430e-01 7.499645e-01 8.905835e-01 4.277215e-01 5.548738e-01 3.965487e-01 4.743946e-01 3.551486e-01
<GCONST> 2.896915e+01
<STATE> 6
<MEAN> 15
 -2.279875e+01 3.435267e-01 2.170523e+00 -4.715976e-01 7.338638e-01 1.313779e+00 1.475462e-01 8.233714e-01 -5.405713e-02 8.203897e-01 -3.025475e-01 1.353740e-01 -4.970312e-01 2.206149e-01 -2.659499e-01
<VARIANCE> 15
 6.150551e+00 2.083329e+00 1.625128e+00 8.233920e-01 1.185629e+00 1.153580e+00 8.498367e-01 6.346517e-01 4.957409e-01 5.139105e-01 4.412052e-01 2.982853e-01 2.831545e-01 3.373354e-01 3.086791e-01
<GCONST> 2.318643e+01
<STATE> 7
<MEAN> 15
 -2.328211e+01 -8.286583e-01 4.166915e+00 1.227306e+00 6.326725e-01 1.084933e+00 -2.590932e-01 -2.949063e-01 -9.049260e-01 4.071172e-01 -5.027951e-01 -4.025123e-01 -3.584583e-01 2.068809e-01 -1.714534e-01
<VARIANCE> 15
 7.918379e+00 1.748384e+00 8.885484e-01 9.892777e-01 9.459370e-01 6.648259e-01 1.059781e+00 6.544573e-01 7.771118e-01 4.747846e-01 3.144561e-01 3.552991e-01 3.031498e-01 2.427218e-01 2.492430e-01
<GCONST> 2.204993e+01
<STATE> 8
<MEAN> 15
 -3.054213e+01 -3.777502e-01 1.805237e+00 8.526338e-01 1.082050e+00 1.124465e+00 -2.853083e-01 4.423264e-01 -3.947123e-01 8.491552e-01 -3.321320e-01 -2.300170e-01 -2.242159e-01 2.396635e-01 7.996577e-02
<VARIANCE> 15
 5.592717e+00 8.412808e-01 1.488544e+00 2.488490e-01 8.422258e-01 3.330433e-01 2.378074e-01 2.332424e-01 3.466163e-01 1.932307e-01 1.907078e-01 2.251271e-01 1.397964e-01 1.382534e-01 2.221174e-01
<GCONST> 1.265822e+01
<STATE> 9
<MEAN> 15
 -3.326568e+01 -2.189358e+00 2.141423e-01 -5.180153e-01 -5.910008e-01 -4.388721e-02 -7.329209e-01 -1.019376e-01 -5.496711e-01 2.625578e-01 -4.025320e-01 -1.350942e-01 -3.552310e-01 3.922648e-02 -2.488912e-01
<VARIANCE> 15
 3.096584e+00 9.027991e-01 1.250175e+00 3.143091e-01 2.707864e-01 2.729010e-01 1.937028e-01 2.076743e-01 1.466702e-01 1.595911e-01 1.520830e-01 1.315159e-01 1.340506e-01 9.912080e-02 1.113715e-01
<GCONST> 7.661314e+00
<TRANSP> 10
 0.000000e+00 1.000000e+00 0.000000e+00 0.000000e+00 0.000000e+00 0.000000e+00 0.000000e+00 0.000000e+00 0.000000e+00 0.000000e+00
 0.000000e+00 9.166667e-01 8.333333e-02 0.000000e+00 0.000000e+00 0.000000e+00 0.000000e+00 0.000000e+00 0.000000e+00 0.000000e+00
 0.000000e+00 0.000000e+00 8.787879e-01 1.212121e-01 0.000000e+00 0.000000e+00 0.000000e+00 0.000000e+00 0.000000e+00 0.000000e+00
 0.000000e+00 0.000000e+00 0.000000e+00 9.367089e-01 6.329113e-02 0.000000e+00 0.000000e+00 0.000000e+00 0.000000e+00 0.000000e+00
 0.000000e+00 0.000000e+00 0.000000e+00 0.000000e+00 9.245283e-01 7.547171e-02 0.000000e+00 0.000000e+00 0.000000e+00 0.000000e+00
 0.000000e+00 0.000000e+00 0.000000e+00 0.000000e+00 0.000000e+00 9.333333e-01 6.666666e-02 0.000000e+00 0.000000e+00 0.000000e+00
 0.000000e+00 0.000000e+00 0.000000e+00 0.000000e+00 0.000000e+00 0.000000e+00 9.259259e-01 7.407407e-02 0.000000e+00 0.000000e+00
 0.000000e+00 0.000000e+00 0.000000e+00 0.000000e+00 0.000000e+00 0.000000e+00 0.000000e+00 8.870056e-01 1.129943e-01 0.000000e+00
 0.000000e+00 0.000000e+00 0.000000e+00 0.000000e+00 0.000000e+00 0.000000e+00 0.000000e+00 0.000000e+00 9.376947e-01 6.230529e-02
 0.000000e+00 0.000000e+00 0.000000e+00 0.000000e+00 0.000000e+00 0.000000e+00 0.000000e+00 0.000000e+00 0.000000e+00 0.000000e+00
<ENDHMM>
