~o
<STREAMINFO> 1 15
<VECSIZE> 15<NULLD><MFCC><DIAGC>
~h "Nathaniel"
<BEGINHMM>
<NUMSTATES> 18
<STATE> 2
<MEAN> 15
 -3.442514e+01 -2.139805e+00 -4.395762e-01 -4.938436e-01 -5.536376e-01 1.844481e-01 -5.021303e-01 5.073281e-03 -5.416711e-01 1.476849e-01 -3.902462e-01 -2.555605e-02 -3.377766e-01 8.084323e-02 -2.902164e-01
<VARIANCE> 15
 1.958757e+00 6.732433e-01 7.789645e-01 3.380867e-01 2.693349e-01 1.847451e-01 1.377703e-01 1.870978e-01 1.365929e-01 1.860673e-01 1.667255e-01 1.153983e-01 1.317884e-01 1.316018e-01 1.090270e-01
<GCONST> 5.957842e+00
<STATE> 3
<MEAN> 15
 -2.720863e+01 -5.177892e-01 1.587847e+00 -3.165404e-01 3.732050e-01 1.200654e+00 5.709806e-02 3.475916e-01 -2.854567e-01 2.514738e-02 -9.377106e-02 2.835004e-01 1.083420e-01 3.582035e-02 -3.003898e-01
<VARIANCE> 15
 1.485921e+01 3.083443e+00 2.707339e+00 1.121969e+00 1.130903e+00 7.377229e-01 4.249513e-01 5.721198e-01 5.158008e-01 6.764016e-01 3.489814e-01 2.418533e-01 2.843514e-01 2.800529e-01 1.589847e-01
<GCONST> 2.301408e+01
<STATE> 4
<MEAN> 15
 -1.676364e+01 -1.241707e+00 3.211455e+00 1.529108e+00 -1.273835e+00 4.534037e-01 -4.816302e-01 3.164518e-01 -3.416025e-01 4.926317e-01 -6.270436e-01 -1.120826e-01 -1.337758e-02 -4.049585e-01 -1.394364e+00
<VARIANCE> 15
 9.192227e+00 2.409055e+00 3.105381e+00 8.572155e-01 1.574262e+00 1.256181e+00 8.383731e-01 7.041577e-01 6.639417e-01 3.449600e-01 6.557134e-01 3.570733e-01 4.921818e-01 3.947057e-01 2.602931e-01
<GCONST> 2.588943e+01
<STATE> 5
<MEAN> 15
 -1.838684e+01 -1.737146e-01 1.838611e+00 -3.521542e-01 -4.775148e-01 1.697692e+00 -2.106279e+00 1.068132e+00 6.528934e-01 8.406746e-02 -1.071652e+00 1.560866e-01 -4.140557e-01 1.329179e-02 -1.222856e+00
<VARIANCE> 15
 5.554018e+00 5.684009e+00 1.583444e+00 9.640403e-01 8.532533e-01 1.194242e+00 2.055296e+00 8.537678e-01 7.679667e-01 3.735355e-01 4.010988e-01 4.210247e-01 2.686568e-01 2.131076e-01 3.819987e-01
<GCONST> 2.517447e+01
<STATE> 6
<MEAN> 15
 -2.121471e+01 -5.597872e+00 1.819047e+00 -1.183018e+00 -5.690249e-01 4.837598e-02 -5.886152e-01 -1.049893e-01 -5.350434e-01 -3.645029e-02 -5.750934e-01 -1.870631e-01 -2.509598e-01 -2.409814e-01 -7.895642e-01
<VARIANCE> 15
 3.056460e+00 1.038233e+00 1.690913e+00 8.909907e-01 7.499454e-01 6.800735e-01 4.067521e-01 4.284158e-01 3.552078e-01 2.061142e-01 2.168712e-01 1.702505e-01 2.330447e-01 1.844655e-01 1.953437e-01
<GCONST> 1.601913e+01
<STATE> 7
<MEAN> 15
 -1.656138e+01 -2.871763e+00 3.471626e+00 7.783949e-01 -1.381858e+00 2.172665e-01 -9.429311e-01 -6.215164e-01 -3.618621e-01 4.647730e-01 4.054296e-02 -2.648359e-01 -5.690981e-01 -6.453716e-01 -1.042843e+00
<VARIANCE> 15
 1.344974e+01 1.422485e+00 2.911056e+00 9.129108e-01 7.339749e-01 8.972376e-01 4.775021e-01 6.519895e-01 3.645389e-01 4.084631e-01 3.743485e-01 1.890326e-01 4.995034e-01 2.215802e-01 1.564304e-01
<GCONST> 2.130315e+01
<STATE> 8
<MEAN> 15
 -1.260279e+01 -6.650800e-01 2.055521e+00 1.717702e+00 -6.597607e-01 -1.775019e+00 4.530863e-02 -3.596354e-01 -8.279605e-01 2.378816e-01 -1.851871e-01 2.893771e-02 -7.792524e-01 -1.082396e+00 -9.657773e-01
<VARIANCE> 15
 3.492281e+00 1.100152e+00 1.371885e+00 1.636907e+00 5.755906e-01 1.370719e+00 4.599804e-01 4.565484e-01 4.040749e-01 8.432899e-01 2.044951e-01 3.398872e-01 3.547918e-01 3.696136e-01 2.811753e-01
<GCONST> 2.088225e+01
<STATE> 9
<MEAN> 15
 -1.554038e+01 1.497281e+00 8.272415e-01 -1.372252e+00 -1.733008e+00 1.453033e+00 -1.149569e+00 -7.811214e-01 -1.879380e-01 1.428505e+00 -8.086189e-01 -5.634453e-01 -6.886859e-01 -3.261176e-01 -1.264834e+00
<VARIANCE> 15
 7.126307e+00 1.109710e+00 9.580185e-01 1.804641e+00 1.183288e+00 9.002973e-01 9.296834e-01 7.118155e-01 9.773356e-01 3.267931e-01 3.526066e-01 5.949757e-01 4.389459e-01 3.721385e-01 4.345788e-01
<GCONST> 2.448570e+01
<STATE> 10
<MEAN> 15
 -2.292821e+01 1.279880e+00 1.950795e+00 -2.554739e-01 3.160384e-01 1.330303e+00 1.027479e-02 4.735329e-01 -1.234943e-01 1.137500e+00 4.698258e-02 1.297400e-01 -8.118994e-01 8.859407e-04 -1.190758e-01
<VARIANCE> 15
 4.452801e+00 1.610559e+00 1.791929e+00 1.231123e+00 6.221260e-01 7.346285e-01 3.351440e-01 2.445054e-01 3.997170e-01 4.199157e-01 2.162144e-01 1.725174e-01 1.506713e-01 2.772518e-01 1.726040e-01
<GCONST> 1.703909e+01
<STATE> 11
<MEAN> 15
 -2.320955e+01 -3.648818e-01 2.329714e+00 -4.872142e-01 1.165627e+00 1.473596e+00 4.379253e-01 1.116358e+00 -1.249126e-01 5.538204e-01 -5.645157e-01 1.860413e-01 -2.778940e-01 4.098907e-01 -2.253997e-01
<VARIANCE> 15
 6.121137e+00 1.402089e+00 1.528356e+00 7.532697e-01 1.357697e+00 1.192939e+00 9.085941e-01 7.671213e-01 5.788097e-01 4.655215e-01 4.094991e-01 3.493195e-01 2.032526e-01 3.079594e-01 3.331203e-01
<GCONST> 2.285366e+01
<STATE> 12
<MEAN> 15
 -2.108762e+01 -1.030190e+00 4.015168e+00 2.687945e-01 4.121855e-01 9.762083e-01 -1.997662e-01 -9.153744e-02 -8.186010e-02 4.466048e-01 -4.715468e-01 -7.306002e-02 -1.041896e-01 3.645144e-01 -6.385101e-01
<VARIANCE> 15
 4.653696e+00 2.077123e+00 9.758887e-01 8.848870e-01 8.413524e-01 1.219431e+00 1.624274e+00 5.491344e-01 3.475928e-01 4.343935e-01 5.131783e-01 2.829743e-01 2.869418e-01 2.540698e-01 2.891690e-01
<GCONST> 2.192196e+01
<STATE> 13
<MEAN> 15
 -2.410846e+01 -7.135168e-01 4.321206e+00 1.847181e+00 5.473899e-01 9.065611e-01 -2.129295e-01 -4.719987e-01 -1.426611e+00 3.650164e-01 -4.670606e-01 -5.463325e-01 -5.006649e-01 1.548435e-01 2.682200e-02
<VARIANCE> 15
 5.571986e+00 1.135712e+00 6.981788e-01 4.608374e-01 7.211237e-01 3.968934e-01 5.879439e-01 8.121865e-01 6.000253e-01 5.200201e-01 2.237543e-01 3.091870e-01 2.743694e-01 1.955416e-01 1.261799e-01
<GCONST> 1.745800e+01
<STATE> 14
<MEAN> 15
 -2.868665e+01 -6.546579e-03 2.604402e+00 8.714862e-01 1.688775e+00 1.420641e+00 -5.374168e-01 4.295403e-01 -5.843105e-01 8.559682e-01 -5.278659e-01 -4.992759e-01 -3.439055e-01 1.827149e-01 1.760756e-01
<VARIANCE> 15
 3.701606e+00 9.336123e-01 1.133080e+00 2.425312e-01 4.648404e-01 3.966044e-01 4.465713e-01 1.976354e-01 3.710177e-01 2.223733e-01 1.872170e-01 2.575546e-01 1.292187e-01 1.629429e-01 2.165987e-01
<GCONST> 1.248095e+01
<STATE> 15
<MEAN> 15
 -3.050772e+01 -2.413455e+00 1.988368e+00 -3.169841e-01 -2.006612e-01 -1.553744e-01 -8.003043e-01 -2.678078e-01 -5.936833e-01 3.462924e-01 -3.390213e-01 -1.464152e-01 -2.079276e-01 5.436780e-02 -3.237721e-02
<VARIANCE> 15
 2.276350e+00 1.309552e+00 6.537627e-01 6.165208e-01 6.079889e-01 4.184273e-01 4.066789e-01 2.755181e-01 2.221557e-01 2.079396e-01 2.354127e-01 1.708896e-01 1.352714e-01 1.450216e-01 9.682441e-02
<GCONST> 1.163982e+01
<STATE> 16
<MEAN> 15
 -3.350967e+01 -1.045648e+00 2.985706e-01 4.534356e-01 4.523573e-02 7.091808e-01 -2.601278e-01 3.716765e-01 -1.923766e-01 6.308773e-01 -1.689615e-01 1.942374e-02 -8.493052e-02 1.230714e-01 -2.288487e-01
<VARIANCE> 15
 7.508205e-01 7.297945e-01 4.037339e-01 5.174479e-01 2.008316e-01 3.234427e-01 1.385929e-01 2.806802e-01 1.780294e-01 1.755903e-01 1.533585e-01 1.668750e-01 1.137646e-01 1.063118e-01 1.105918e-01
<GCONST> 5.672144e+00
<STATE> 17
<MEAN> 15
 -3.409294e+01 -2.052127e+00 -3.037888e-01 -5.136470e-01 -6.750353e-01 6.101749e-02 -6.648172e-01 -1.695387e-02 -5.388869e-01 2.533649e-01 -4.243819e-01 -1.323791e-01 -4.211115e-01 6.177072e-02 -3.090047e-01
<VARIANCE> 15
 9.690187e-01 7.078064e-01 5.415623e-01 2.789952e-01 2.269872e-01 2.152942e-01 1.393637e-01 1.643198e-01 1.254429e-01 1.552027e-01 1.196027e-01 1.146320e-01 1.251253e-01 9.433708e-02 1.031089e-01
<GCONST> 3.566197e+00
<TRANSP> 18
 0.000000e+00 1.000000e+00 0.000000e+00 0.000000e+00 0.000000e+00 0.000000e+00 0.000000e+00 0.000000e+00 0.000000e+00 0.000000e+00 0.000000e+00 0.000000e+00 0.000000e+00 0.000000e+00 0.000000e+00 0.000000e+00 0.000000e+00 0.000000e+00
 0.000000e+00 9.024390e-01 9.756098e-02 0.000000e+00 0.000000e+00 0.000000e+00 0.000000e+00 0.000000e+00 0.000000e+00 0.000000e+00 0.000000e+00 0.000000e+00 0.000000e+00 0.000000e+00 0.000000e+00 0.000000e+00 0.000000e+00 0.000000e+00
 0.000000e+00 0.000000e+00 8.039216e-01 1.960784e-01 0.000000e+00 0.000000e+00 0.000000e+00 0.000000e+00 0.000000e+00 0.000000e+00 0.000000e+00 0.000000e+00 0.000000e+00 0.000000e+00 0.000000e+00 0.000000e+00 0.000000e+00 0.000000e+00
 0.000000e+00 0.000000e+00 0.000000e+00 8.181818e-01 1.818182e-01 0.000000e+00 0.000000e+00 0.000000e+00 0.000000e+00 0.000000e+00 0.000000e+00 0.000000e+00 0.000000e+00 0.000000e+00 0.000000e+00 0.000000e+00 0.000000e+00 0.000000e+00
 0.000000e+00 0.000000e+00 0.000000e+00 0.000000e+00 7.183099e-01 2.816901e-01 0.000000e+00 0.000000e+00 0.000000e+00 0.000000e+00 0.000000e+00 0.000000e+00 0.000000e+00 0.000000e+00 0.000000e+00 0.000000e+00 0.000000e+00 0.000000e+00
 0.000000e+00 0.000000e+00 0.000000e+00 0.000000e+00 0.000000e+00 9.061033e-01 9.389672e-02 0.000000e+00 0.000000e+00 0.000000e+00 0.000000e+00 0.000000e+00 0.000000e+00 0.000000e+00 0.000000e+00 0.000000e+00 0.000000e+00 0.000000e+00
 0.000000e+00 0.000000e+00 0.000000e+00 0.000000e+00 0.000000e+00 0.000000e+00 5.238096e-01 4.761905e-01 0.000000e+00 0.000000e+00 0.000000e+00 0.000000e+00 0.000000e+00 0.000000e+00 0.000000e+00 0.000000e+00 0.000000e+00 0.000000e+00
 0.000000e+00 0.000000e+00 0.000000e+00 0.000000e+00 0.000000e+00 0.000000e+00 0.000000e+00 8.275862e-01 1.724138e-01 0.000000e+00 0.000000e+00 0.000000e+00 0.000000e+00 0.000000e+00 0.000000e+00 0.000000e+00 0.000000e+00 0.000000e+00
 0.000000e+00 0.000000e+00 0.000000e+00 0.000000e+00 0.000000e+00 0.000000e+00 0.000000e+00 0.000000e+00 8.571429e-01 1.428571e-01 0.000000e+00 0.000000e+00 0.000000e+00 0.000000e+00 0.000000e+00 0.000000e+00 0.000000e+00 0.000000e+00
 0.000000e+00 0.000000e+00 0.000000e+00 0.000000e+00 0.000000e+00 0.000000e+00 0.000000e+00 0.000000e+00 0.000000e+00 8.319328e-01 1.680672e-01 0.000000e+00 0.000000e+00 0.000000e+00 0.000000e+00 0.000000e+00 0.000000e+00 0.000000e+00
 0.000000e+00 0.000000e+00 0.000000e+00 0.000000e+00 0.000000e+00 0.000000e+00 0.000000e+00 0.000000e+00 0.000000e+00 0.000000e+00 8.726115e-01 1.273885e-01 0.000000e+00 0.000000e+00 0.000000e+00 0.000000e+00 0.000000e+00 0.000000e+00
 0.000000e+00 0.000000e+00 0.000000e+00 0.000000e+00 0.000000e+00 0.000000e+00 0.000000e+00 0.000000e+00 0.000000e+00 0.000000e+00 0.000000e+00 8.260869e-01 1.739130e-01 0.000000e+00 0.000000e+00 0.000000e+00 0.000000e+00 0.000000e+00
 0.000000e+00 0.000000e+00 0.000000e+00 0.000000e+00 0.000000e+00 0.000000e+00 0.000000e+00 0.000000e+00 0.000000e+00 0.000000e+00 0.000000e+00 0.000000e+00 8.540146e-01 1.459854e-01 0.000000e+00 0.000000e+00 0.000000e+00 0.000000e+00
 0.000000e+00 0.000000e+00 0.000000e+00 0.000000e+00 0.000000e+00 0.000000e+00 0.000000e+00 0.000000e+00 0.000000e+00 0.000000e+00 0.000000e+00 0.000000e+00 0.000000e+00 8.449612e-01 1.550387e-01 0.000000e+00 0.000000e+00 0.000000e+00
 0.000000e+00 0.000000e+00 0.000000e+00 0.000000e+00 0.000000e+00 0.000000e+00 0.000000e+00 0.000000e+00 0.000000e+00 0.000000e+00 0.000000e+00 0.000000e+00 0.000000e+00 0.000000e+00 8.058252e-01 1.941748e-01 0.000000e+00 0.000000e+00
 0.000000e+00 0.000000e+00 0.000000e+00 0.000000e+00 0.000000e+00 0.000000e+00 0.000000e+00 0.000000e+00 0.000000e+00 0.000000e+00 0.000000e+00 0.000000e+00 0.000000e+00 0.000000e+00 0.000000e+00 7.333333e-01 2.666667e-01 0.000000e+00
 0.000000e+00 0.000000e+00 0.000000e+00 0.000000e+00 0.000000e+00 0.000000e+00 0.000000e+00 0.000000e+00 0.000000e+00 0.000000e+00 0.000000e+00 0.000000e+00 0.000000e+00 0.000000e+00 0.000000e+00 0.000000e+00 9.090909e-01 9.090909e-02
 0.000000e+00 0.000000e+00 0.000000e+00 0.000000e+00 0.000000e+00 0.000000e+00 0.000000e+00 0.000000e+00 0.000000e+00 0.000000e+00 0.000000e+00 0.000000e+00 0.000000e+00 0.000000e+00 0.000000e+00 0.000000e+00 0.000000e+00 0.000000e+00
<ENDHMM>
