~o
<STREAMINFO> 1 20
<VECSIZE> 20<NULLD><MFCC><DIAGC>
~h "Nathaniel"
<BEGINHMM>
<NUMSTATES> 18
<STATE> 2
<MEAN> 20
 -4.025638e+01 -1.789139e+00 -1.365410e+00 2.800475e-01 -1.472810e+00 7.256358e-01 -9.758026e-01 2.814975e-01 -7.823767e-01 5.800246e-02 -2.863058e-01 -1.726970e-01 -2.624357e-01 -2.216894e-01 -7.567977e-03 -2.792235e-01 -2.627002e-01 -1.547333e-01 -3.803833e-02 -2.265557e-01
<VARIANCE> 20
 2.704417e+00 1.266701e+00 1.329533e+00 3.943280e-01 3.615010e-01 3.004737e-01 2.364071e-01 2.232753e-01 2.157117e-01 2.291694e-01 1.924055e-01 1.823881e-01 1.506709e-01 1.449529e-01 1.708128e-01 1.396491e-01 1.614495e-01 1.380294e-01 1.736897e-01 1.489767e-01
<GCONST> 1.080667e+01
<STATE> 3
<MEAN> 20
 -3.265516e+01 -4.466359e-01 9.979439e-01 5.702425e-01 -8.771388e-01 1.987306e+00 -2.423218e-01 7.769511e-01 -5.363463e-01 1.127176e-01 -2.807827e-01 2.451816e-01 4.468947e-02 1.594619e-01 -9.748120e-02 -2.275975e-01 -4.199302e-01 -1.100698e-01 1.329210e-01 -2.211184e-01
<VARIANCE> 20
 2.094216e+01 3.366903e+00 4.738126e+00 1.141904e+00 2.227137e+00 1.119748e+00 1.154820e+00 7.994626e-01 6.275199e-01 7.983584e-01 6.217557e-01 2.546321e-01 4.748247e-01 3.398499e-01 3.017007e-01 1.627854e-01 3.157559e-01 3.861682e-01 2.888066e-01 2.237643e-01
<GCONST> 3.132014e+01
<STATE> 4
<MEAN> 20
 -2.002635e+01 -1.396994e+00 2.617671e+00 3.222865e+00 -1.756594e+00 6.290411e-01 -8.128016e-01 7.122152e-01 -5.490195e-01 3.166306e-01 5.391047e-03 -3.164174e-01 -3.253677e-01 3.184533e-02 -6.889120e-01 -1.320019e+00 -9.757422e-01 -2.006607e-01 3.326961e-02 -5.601902e-02
<VARIANCE> 20
 1.885365e+01 3.622650e+00 4.130993e+00 1.169718e+00 1.354219e+00 1.611534e+00 1.070495e+00 1.035248e+00 6.736926e-01 6.309404e-01 4.952015e-01 2.862824e-01 4.031622e-01 5.490192e-01 4.398476e-01 3.374462e-01 4.000487e-01 4.061434e-01 2.119813e-01 2.094485e-01
<GCONST> 3.228335e+01
<STATE> 5
<MEAN> 20
 -2.279378e+01 1.320001e+00 1.131553e-01 2.070860e+00 -3.076445e+00 3.201337e+00 -2.184926e+00 2.706732e-01 4.426032e-01 1.067822e+00 -1.064116e+00 -6.266233e-01 -5.307931e-02 -4.757701e-02 -3.720302e-01 -1.358234e+00 -1.245385e+00 -6.982837e-02 3.141595e-01 -2.668425e-01
<VARIANCE> 20
 6.776775e+00 1.031491e+01 2.320836e+00 2.091796e+00 2.177846e+00 2.242203e+00 1.627639e+00 1.261610e+00 1.830954e+00 6.363251e-01 5.692440e-01 6.741421e-01 8.684502e-01 4.789246e-01 3.413913e-01 5.708164e-01 3.383610e-01 3.049759e-01 3.972416e-01 2.348821e-01
<GCONST> 3.692921e+01
<STATE> 6
<MEAN> 20
 -2.453171e+01 -5.990363e+00 8.562192e-01 2.690312e-01 -2.240533e+00 1.130794e+00 -1.574973e+00 5.366775e-01 -1.224065e+00 3.609124e-01 -8.281197e-01 -6.727100e-02 -6.320142e-01 1.029648e-01 -6.779214e-01 -6.025031e-01 -7.792413e-01 -1.575588e-01 -2.382537e-01 -1.140146e-01
<VARIANCE> 20
 4.847710e+00 2.444948e+00 5.018239e+00 2.372911e+00 2.399817e+00 1.626040e+00 7.287742e-01 1.057507e+00 4.336137e-01 6.614072e-01 4.099301e-01 2.481951e-01 3.339961e-01 3.453421e-01 2.192312e-01 2.439852e-01 2.806609e-01 2.359148e-01 2.167389e-01 2.524084e-01
<GCONST> 2.856525e+01
<STATE> 7
<MEAN> 20
 -1.547897e+01 -7.771052e-01 1.173132e+00 2.814264e+00 -9.081618e-01 -1.402190e+00 -1.439724e+00 9.145859e-01 -1.256271e+00 -2.033252e-01 -6.638863e-01 1.972650e-01 -2.484864e-01 -4.810042e-01 -1.530297e+00 -1.075737e+00 -5.236337e-01 -5.842752e-02 -6.880429e-02 2.801749e-01
<VARIANCE> 20
 1.726720e+01 1.737357e+00 2.069539e+00 8.688096e-01 1.675468e+00 2.833414e+00 5.602934e-01 4.623652e-01 5.357177e-01 5.951987e-01 4.318982e-01 2.316430e-01 3.313534e-01 4.421813e-01 3.402687e-01 2.397907e-01 4.760034e-01 2.558155e-01 1.870568e-01 2.181547e-01
<GCONST> 2.777602e+01
<STATE> 8
<MEAN> 20
 -1.658449e+01 -1.144557e+00 2.319310e+00 2.600950e+00 -1.152225e+00 -4.678485e-01 -9.703596e-01 -2.109040e-01 -1.642258e+00 6.952724e-01 4.848000e-01 1.554738e-01 -7.524659e-01 -1.157225e+00 -1.105242e+00 -7.346120e-01 -3.913303e-01 1.187340e-01 2.017230e-01 -2.811562e-01
<VARIANCE> 20
 4.312921e+00 5.517820e+00 3.606107e+00 1.411443e+00 2.685729e+00 3.076341e+00 8.113147e-01 9.195923e-01 5.756651e-01 4.406588e-01 7.502267e-01 2.607517e-01 5.111435e-01 6.364515e-01 3.580271e-01 4.869423e-01 4.293951e-01 4.239185e-01 2.121966e-01 2.194129e-01
<GCONST> 3.272953e+01
<STATE> 9
<MEAN> 20
 -1.972739e+01 3.422004e+00 -7.819673e-01 7.559953e-01 -4.375074e+00 2.575826e+00 -1.543714e+00 -1.857250e-01 -1.801541e+00 1.615693e+00 1.673713e-01 -6.646721e-01 -1.032181e+00 -5.004079e-01 -5.908738e-01 -1.312608e+00 -3.376176e-01 6.530938e-02 2.411188e-01 -5.343052e-01
<VARIANCE> 20
 9.190660e+00 2.300405e+00 2.085758e+00 1.930040e+00 2.364355e+00 1.642020e+00 5.595312e-01 9.797210e-01 1.254917e+00 1.090445e+00 5.242006e-01 3.948409e-01 9.098467e-01 5.857584e-01 5.175296e-01 4.883391e-01 3.149210e-01 2.430969e-01 2.208787e-01 2.524587e-01
<GCONST> 3.323414e+01
<STATE> 10
<MEAN> 20
 -2.681119e+01 6.240691e-01 2.299808e+00 7.599806e-01 -2.663406e-01 1.880097e+00 -2.437024e-01 8.826191e-01 -6.213064e-01 5.804157e-01 4.875810e-01 -7.403947e-03 -8.688027e-02 -6.256548e-01 -2.142916e-02 -2.719923e-02 -1.855956e-01 -2.890234e-01 -4.462324e-01 -3.800469e-01
<VARIANCE> 20
 7.776519e+00 6.226410e+00 3.969565e+00 1.232199e+00 2.030541e+00 1.244585e+00 5.271100e-01 3.295862e-01 2.955161e-01 6.188492e-01 3.143014e-01 3.091083e-01 2.129942e-01 3.599770e-01 2.149233e-01 2.984495e-01 1.588368e-01 3.029524e-01 2.404227e-01 1.450815e-01
<GCONST> 2.566665e+01
<STATE> 11
<MEAN> 20
 -2.801976e+01 1.195600e+00 9.921418e-01 1.378335e+00 -1.670339e+00 3.551193e+00 -1.182866e+00 1.824274e+00 -4.174256e-01 1.065053e+00 -3.897144e-01 -7.290500e-02 -4.393594e-01 -7.653082e-02 1.495906e-01 -3.553615e-01 -9.615834e-01 -8.295844e-01 -3.575416e-01 -6.397904e-01
<VARIANCE> 20
 6.619148e+00 1.885981e+00 1.355611e+00 1.206668e+00 2.205972e+00 1.280558e+00 1.249666e+00 1.303027e+00 6.156169e-01 5.948389e-01 7.350530e-01 4.385535e-01 6.889794e-01 3.769197e-01 4.777233e-01 3.596511e-01 4.277484e-01 3.577334e-01 2.854320e-01 2.504999e-01
<GCONST> 3.153858e+01
<STATE> 12
<MEAN> 20
 -2.392646e+01 -1.675629e+00 3.743361e+00 1.296948e+00 -2.859631e-01 1.355386e+00 5.177511e-02 5.984695e-01 -9.323625e-01 5.779295e-01 -5.049111e-01 -2.709140e-01 -3.771262e-01 3.867514e-02 3.471007e-01 -6.276898e-01 -1.306526e+00 -1.328347e-01 -7.912977e-02 -4.812853e-01
<VARIANCE> 20
 6.322725e+00 2.881418e+00 2.004910e+00 2.269222e+00 1.000720e+00 1.994447e+00 2.283473e+00 1.246507e+00 5.726910e-01 4.430815e-01 5.490486e-01 3.682039e-01 4.490399e-01 2.687200e-01 2.614980e-01 3.125673e-01 3.586093e-01 2.677824e-01 1.638412e-01 1.996260e-01
<GCONST> 2.955978e+01
<STATE> 13
<MEAN> 20
 -2.780857e+01 -4.653601e-01 3.801549e+00 3.621153e+00 -4.420356e-01 1.928564e+00 -5.861906e-01 3.156113e-01 -1.989932e+00 -4.228592e-01 1.225055e-01 -6.373168e-01 -8.042734e-01 -3.312504e-01 1.262532e-01 3.310569e-02 -6.092970e-01 -6.350338e-02 1.018903e-01 -4.453148e-01
<VARIANCE> 20
 6.981307e+00 2.034424e+00 1.289006e+00 6.527414e-01 7.189385e-01 1.088532e+00 8.457998e-01 7.529330e-01 5.898407e-01 4.802032e-01 8.534794e-01 3.632558e-01 5.344184e-01 3.242955e-01 2.541449e-01 1.940690e-01 3.561915e-01 2.452550e-01 2.192136e-01 1.824446e-01
<GCONST> 2.569053e+01
<STATE> 14
<MEAN> 20
 -3.254174e+01 4.820484e-01 2.344648e+00 2.475317e+00 3.528258e-01 3.016985e+00 -1.216859e+00 8.814511e-01 -1.136465e+00 4.833783e-01 3.648242e-02 -3.916000e-01 -8.787631e-01 -1.804191e-01 5.285529e-02 3.436393e-01 -5.153780e-01 -2.760217e-01 3.743827e-02 -3.504733e-01
<VARIANCE> 20
 2.663836e+00 2.761450e+00 1.543139e+00 4.624871e-01 7.942857e-01 1.739038e+00 1.008663e+00 3.191615e-01 2.489460e-01 4.145133e-01 3.343728e-01 3.583046e-01 3.731449e-01 1.970481e-01 2.033233e-01 2.488187e-01 1.919442e-01 3.379215e-01 1.353011e-01 2.005219e-01
<GCONST> 2.127563e+01
<STATE> 15
<MEAN> 20
 -3.751227e+01 4.595223e-02 3.004094e-01 1.965740e+00 -3.534339e-01 2.255349e+00 -6.557406e-01 1.070815e+00 -4.636585e-01 7.638481e-01 3.915718e-01 -1.078362e-01 -2.039339e-01 1.314567e-01 2.470835e-01 9.241896e-02 -1.925989e-01 -8.559787e-02 5.304610e-04 -2.153708e-01
<VARIANCE> 20
 4.140240e+00 1.255664e+00 1.717247e+00 4.032969e-01 3.808376e-01 5.480696e-01 2.409000e-01 2.568833e-01 2.256810e-01 3.016581e-01 1.356267e-01 2.400100e-01 1.709103e-01 1.548547e-01 1.908989e-01 1.878267e-01 1.369338e-01 2.008399e-01 1.325033e-01 1.667403e-01
<GCONST> 1.321124e+01
<STATE> 16
<MEAN> 20
 -3.723663e+01 -2.809947e+00 6.019700e-01 3.833920e-02 -1.185660e+00 3.644987e-01 -1.282633e+00 -6.789429e-02 -9.398166e-01 1.849520e-02 -1.624586e-01 -3.041696e-01 -3.546897e-01 -2.095903e-01 -9.270547e-02 -1.091873e-01 -1.435942e-01 2.894334e-02 1.510261e-02 -8.484587e-02
<VARIANCE> 20
 4.503016e+00 1.329039e+00 9.991231e-01 5.896305e-01 3.712306e-01 4.098796e-01 2.585888e-01 2.121504e-01 2.040936e-01 2.386023e-01 2.132773e-01 2.503348e-01 2.180635e-01 1.751165e-01 1.245769e-01 1.606689e-01 1.272614e-01 1.526695e-01 1.487593e-01 1.168993e-01
<GCONST> 1.211019e+01
<STATE> 17
<MEAN> 20
 -4.030241e+01 -1.074498e+00 -1.733641e+00 5.792038e-01 -1.798695e+00 7.754200e-01 -1.097535e+00 2.698306e-01 -7.066234e-01 1.764429e-01 -8.802297e-02 -2.676764e-01 -2.855939e-01 -3.347972e-01 2.490599e-02 -3.564480e-01 -2.450642e-01 -2.149250e-01 -8.739899e-02 -3.204421e-01
<VARIANCE> 20
 1.030990e+00 8.795329e-01 4.449470e-01 2.925577e-01 2.694885e-01 1.617411e-01 2.430449e-01 1.666970e-01 1.581302e-01 1.701599e-01 1.790211e-01 1.577929e-01 1.582302e-01 1.643259e-01 1.221873e-01 1.316142e-01 1.196420e-01 1.203493e-01 1.306333e-01 1.620819e-01
<GCONST> 5.224344e+00
<TRANSP> 18
 0.000000e+00 1.000000e+00 0.000000e+00 0.000000e+00 0.000000e+00 0.000000e+00 0.000000e+00 0.000000e+00 0.000000e+00 0.000000e+00 0.000000e+00 0.000000e+00 0.000000e+00 0.000000e+00 0.000000e+00 0.000000e+00 0.000000e+00 0.000000e+00
 0.000000e+00 8.979592e-01 1.020408e-01 0.000000e+00 0.000000e+00 0.000000e+00 0.000000e+00 0.000000e+00 0.000000e+00 0.000000e+00 0.000000e+00 0.000000e+00 0.000000e+00 0.000000e+00 0.000000e+00 0.000000e+00 0.000000e+00 0.000000e+00
 0.000000e+00 0.000000e+00 8.058252e-01 1.941748e-01 0.000000e+00 0.000000e+00 0.000000e+00 0.000000e+00 0.000000e+00 0.000000e+00 0.000000e+00 0.000000e+00 0.000000e+00 0.000000e+00 0.000000e+00 0.000000e+00 0.000000e+00 0.000000e+00
 0.000000e+00 0.000000e+00 0.000000e+00 8.058252e-01 1.941748e-01 0.000000e+00 0.000000e+00 0.000000e+00 0.000000e+00 0.000000e+00 0.000000e+00 0.000000e+00 0.000000e+00 0.000000e+00 0.000000e+00 0.000000e+00 0.000000e+00 0.000000e+00
 0.000000e+00 0.000000e+00 0.000000e+00 0.000000e+00 7.849463e-01 2.150538e-01 0.000000e+00 0.000000e+00 0.000000e+00 0.000000e+00 0.000000e+00 0.000000e+00 0.000000e+00 0.000000e+00 0.000000e+00 0.000000e+00 0.000000e+00 0.000000e+00
 0.000000e+00 0.000000e+00 0.000000e+00 0.000000e+00 0.000000e+00 9.056604e-01 9.433963e-02 0.000000e+00 0.000000e+00 0.000000e+00 0.000000e+00 0.000000e+00 0.000000e+00 0.000000e+00 0.000000e+00 0.000000e+00 0.000000e+00 0.000000e+00
 0.000000e+00 0.000000e+00 0.000000e+00 0.000000e+00 0.000000e+00 0.000000e+00 7.590361e-01 2.409639e-01 0.000000e+00 0.000000e+00 0.000000e+00 0.000000e+00 0.000000e+00 0.000000e+00 0.000000e+00 0.000000e+00 0.000000e+00 0.000000e+00
 0.000000e+00 0.000000e+00 0.000000e+00 0.000000e+00 0.000000e+00 0.000000e+00 0.000000e+00 7.260274e-01 2.739726e-01 0.000000e+00 0.000000e+00 0.000000e+00 0.000000e+00 0.000000e+00 0.000000e+00 0.000000e+00 0.000000e+00 0.000000e+00
 0.000000e+00 0.000000e+00 0.000000e+00 0.000000e+00 0.000000e+00 0.000000e+00 0.000000e+00 0.000000e+00 8.571429e-01 1.428571e-01 0.000000e+00 0.000000e+00 0.000000e+00 0.000000e+00 0.000000e+00 0.000000e+00 0.000000e+00 0.000000e+00
 0.000000e+00 0.000000e+00 0.000000e+00 0.000000e+00 0.000000e+00 0.000000e+00 0.000000e+00 0.000000e+00 0.000000e+00 8.601398e-01 1.398601e-01 0.000000e+00 0.000000e+00 0.000000e+00 0.000000e+00 0.000000e+00 0.000000e+00 0.000000e+00
 0.000000e+00 0.000000e+00 0.000000e+00 0.000000e+00 0.000000e+00 0.000000e+00 0.000000e+00 0.000000e+00 0.000000e+00 0.000000e+00 8.709677e-01 1.290323e-01 0.000000e+00 0.000000e+00 0.000000e+00 0.000000e+00 0.000000e+00 0.000000e+00
 0.000000e+00 0.000000e+00 0.000000e+00 0.000000e+00 0.000000e+00 0.000000e+00 0.000000e+00 0.000000e+00 0.000000e+00 0.000000e+00 0.000000e+00 7.916667e-01 2.083333e-01 0.000000e+00 0.000000e+00 0.000000e+00 0.000000e+00 0.000000e+00
 0.000000e+00 0.000000e+00 0.000000e+00 0.000000e+00 0.000000e+00 0.000000e+00 0.000000e+00 0.000000e+00 0.000000e+00 0.000000e+00 0.000000e+00 0.000000e+00 8.214286e-01 1.785714e-01 0.000000e+00 0.000000e+00 0.000000e+00 0.000000e+00
 0.000000e+00 0.000000e+00 0.000000e+00 0.000000e+00 0.000000e+00 0.000000e+00 0.000000e+00 0.000000e+00 0.000000e+00 0.000000e+00 0.000000e+00 0.000000e+00 0.000000e+00 8.245614e-01 1.754386e-01 0.000000e+00 0.000000e+00 0.000000e+00
 0.000000e+00 0.000000e+00 0.000000e+00 0.000000e+00 0.000000e+00 0.000000e+00 0.000000e+00 0.000000e+00 0.000000e+00 0.000000e+00 0.000000e+00 0.000000e+00 0.000000e+00 0.000000e+00 7.979798e-01 2.020202e-01 0.000000e+00 0.000000e+00
 0.000000e+00 0.000000e+00 0.000000e+00 0.000000e+00 0.000000e+00 0.000000e+00 0.000000e+00 0.000000e+00 0.000000e+00 0.000000e+00 0.000000e+00 0.000000e+00 0.000000e+00 0.000000e+00 0.000000e+00 8.870056e-01 1.129943e-01 0.000000e+00
 0.000000e+00 0.000000e+00 0.000000e+00 0.000000e+00 0.000000e+00 0.000000e+00 0.000000e+00 0.000000e+00 0.000000e+00 0.000000e+00 0.000000e+00 0.000000e+00 0.000000e+00 0.000000e+00 0.000000e+00 0.000000e+00 8.709677e-01 1.290323e-01
 0.000000e+00 0.000000e+00 0.000000e+00 0.000000e+00 0.000000e+00 0.000000e+00 0.000000e+00 0.000000e+00 0.000000e+00 0.000000e+00 0.000000e+00 0.000000e+00 0.000000e+00 0.000000e+00 0.000000e+00 0.000000e+00 0.000000e+00 0.000000e+00
<ENDHMM>
