~o
<STREAMINFO> 1 15
<VECSIZE> 15<NULLD><MFCC><DIAGC>
~h "Owen"
<BEGINHMM>
<NUMSTATES> 18
<STATE> 2
<MEAN> 15
 -3.368105e+01 -3.020029e+00 -3.250248e-01 -9.113728e-01 -6.757060e-01 1.520326e-01 -6.427839e-01 9.537338e-02 -6.371580e-01 2.395156e-01 -4.499224e-01 -6.723732e-02 -2.499789e-01 8.302008e-02 -3.738158e-01
<VARIANCE> 15
 6.870812e+00 1.886649e+00 1.000983e+00 5.131780e-01 4.031499e-01 3.091435e-01 3.442878e-01 2.475062e-01 1.480314e-01 1.821702e-01 1.242625e-01 1.463170e-01 1.346202e-01 1.252060e-01 1.375234e-01
<GCONST> 1.123155e+01
<STATE> 3
<MEAN> 15
 -2.690954e+01 -2.729833e+00 2.985056e+00 -4.980303e-01 -1.305697e+00 -3.171396e-01 -1.725431e+00 -5.699297e-01 -9.104191e-01 1.875191e-01 -5.915209e-01 -5.446529e-01 -4.419164e-01 3.982734e-01 -4.843882e-01
<VARIANCE> 15
 2.983397e+01 2.535119e+00 6.029155e+00 1.012841e+00 1.084869e+00 1.229382e+00 7.396795e-01 9.757371e-01 3.165373e-01 5.222887e-01 6.561731e-01 2.182517e-01 1.600061e-01 1.877901e-01 1.213058e-01
<GCONST> 2.430758e+01
<STATE> 4
<MEAN> 15
 -2.162361e+01 -3.199268e+00 4.680614e+00 -7.006628e-01 -2.442188e+00 -3.874211e-01 -2.188685e+00 -9.070122e-01 -8.580981e-01 8.000204e-02 -1.002599e+00 -7.506526e-01 -6.660461e-02 5.742742e-01 -3.660436e-01
<VARIANCE> 15
 1.470680e+01 5.135052e+00 3.868796e+00 9.483634e-01 1.890563e+00 1.814032e+00 1.318007e+00 9.487479e-01 4.596270e-01 4.438748e-01 5.512918e-01 3.439261e-01 2.430660e-01 3.109747e-01 3.571981e-01
<GCONST> 2.778411e+01
<STATE> 5
<MEAN> 15
 -1.646372e+01 -2.396159e-01 5.404622e+00 1.509321e+00 -1.403016e+00 1.182716e-01 -1.573471e+00 -8.234588e-01 -1.371474e+00 4.202811e-01 -9.126841e-01 -1.184847e+00 -5.180122e-01 5.361586e-01 1.560420e-01
<VARIANCE> 15
 6.097683e+00 1.966441e+00 1.774725e+00 1.541392e+00 8.190888e-01 1.844875e+00 1.114056e+00 7.865830e-01 5.925204e-01 4.940715e-01 5.380705e-01 4.946398e-01 5.740545e-01 3.550893e-01 4.109009e-01
<GCONST> 2.630747e+01
<STATE> 6
<MEAN> 15
 -1.540270e+01 2.594334e+00 2.126211e+00 -9.748983e-01 -1.098740e+00 1.648449e+00 -2.715483e+00 -7.863803e-01 -7.541580e-01 3.871381e-01 -1.517184e+00 -1.034625e+00 -1.729242e-01 1.106565e+00 -2.098493e-01
<VARIANCE> 15
 5.303262e+00 2.999142e+00 2.974987e+00 3.688644e+00 1.525292e+00 2.501142e+00 2.262468e+00 7.605511e-01 9.437501e-01 1.108483e+00 6.289207e-01 1.022267e+00 5.430406e-01 4.257300e-01 3.339567e-01
<GCONST> 3.165408e+01
<STATE> 7
<MEAN> 15
 -1.730459e+01 3.774964e+00 1.801446e+00 -8.248552e-01 7.421781e-01 7.882239e-01 -2.018890e+00 -7.103493e-01 -5.383524e-01 1.952630e-01 -2.022883e+00 -9.021918e-01 -3.958938e-01 1.153058e+00 3.370786e-01
<VARIANCE> 15
 5.116538e+00 3.376626e+00 4.766042e+00 2.404543e+00 5.501189e-01 1.808794e+00 1.194470e+00 6.866357e-01 1.231518e+00 3.064660e-01 4.765894e-01 3.800809e-01 2.623619e-01 8.169973e-01 3.211066e-01
<GCONST> 2.729418e+01
<STATE> 8
<MEAN> 15
 -2.137008e+01 3.586133e+00 1.972755e+00 1.194846e-01 1.328030e+00 1.419797e+00 -1.693735e+00 9.043955e-02 -2.008880e-01 -7.491741e-01 -1.712733e+00 -7.246055e-01 -5.322201e-01 1.050311e+00 -1.857354e-01
<VARIANCE> 15
 6.709375e+00 2.120478e+00 2.251913e+00 1.809119e+00 5.166239e-01 9.224394e-01 8.919997e-01 5.607468e-01 1.082281e+00 4.636518e-01 3.695473e-01 2.793497e-01 6.678804e-01 9.973248e-01 3.919866e-01
<GCONST> 2.589080e+01
<STATE> 9
<MEAN> 15
 -2.256721e+01 1.472081e+00 5.046437e+00 1.040388e+00 1.211605e+00 6.099895e-01 -2.672636e-01 -3.868821e-01 -5.394875e-01 -4.806086e-01 -1.373214e+00 -5.310457e-01 -7.965860e-01 3.293375e-01 1.198267e-01
<VARIANCE> 15
 5.176365e+00 1.263262e+00 1.808948e+00 4.899337e-01 2.939187e-01 5.368591e-01 4.051624e-01 3.678108e-01 2.177945e-01 2.134437e-01 1.724206e-01 2.528171e-01 2.572445e-01 4.074979e-01 2.021473e-01
<GCONST> 1.551939e+01
<STATE> 10
<MEAN> 15
 -1.954724e+01 5.211973e-01 4.040087e+00 2.062032e-01 -2.146933e-01 6.023831e-01 -1.188723e-02 -3.680939e-01 2.582917e-01 1.584481e-01 -7.202842e-01 -2.510852e-01 -6.159549e-01 6.944489e-01 -8.893099e-01
<VARIANCE> 15
 4.157429e+00 2.649786e+00 2.667668e+00 8.046210e-01 8.271024e-01 1.421481e+00 2.266086e+00 1.183330e+00 8.112457e-01 4.155247e-01 5.856669e-01 4.944239e-01 4.955158e-01 5.190717e-01 5.532898e-01
<GCONST> 2.760310e+01
<STATE> 11
<MEAN> 15
 -2.018801e+01 6.219650e-01 2.254134e+00 -7.700788e-01 -2.846861e-01 1.662256e+00 -4.157537e-01 1.706050e+00 8.318105e-02 4.447254e-01 -1.017755e+00 -4.617586e-01 -6.643845e-01 3.071962e-02 -7.722773e-01
<VARIANCE> 15
 5.309209e+00 1.590372e+00 1.474994e+00 1.049303e+00 1.091812e+00 1.037495e+00 7.775198e-01 7.122230e-01 4.819462e-01 3.622678e-01 5.708724e-01 4.241369e-01 3.086998e-01 3.333320e-01 3.314584e-01
<GCONST> 2.313015e+01
<STATE> 12
<MEAN> 15
 -2.389361e+01 6.186730e-02 3.391791e+00 2.996157e-01 4.247075e-01 1.021339e+00 5.657989e-01 3.177937e-01 -3.125102e-01 5.038487e-01 1.697885e-01 1.941089e-01 -5.426254e-01 -7.473860e-02 -9.184388e-02
<VARIANCE> 15
 3.039310e+00 1.175330e+00 9.448820e-01 4.438050e-01 4.417066e-01 4.266859e-01 2.537250e-01 4.094332e-01 3.415324e-01 4.544032e-01 3.203241e-01 2.165839e-01 2.136308e-01 1.710899e-01 1.843083e-01
<GCONST> 1.450747e+01
<STATE> 13
<MEAN> 15
 -2.670609e+01 4.763475e-02 1.389396e+00 1.555936e-02 8.171089e-01 1.575964e+00 3.582943e-01 7.944629e-01 4.528370e-01 1.448996e+00 1.361073e-01 -1.158865e-02 -4.122914e-01 4.670084e-01 -1.515107e-01
<VARIANCE> 15
 5.669734e+00 1.447471e+00 1.066435e+00 6.193087e-01 5.736789e-01 3.677728e-01 2.787976e-01 2.982947e-01 3.771050e-01 3.095443e-01 1.560930e-01 3.360670e-01 2.001669e-01 2.389988e-01 1.719663e-01
<GCONST> 1.531938e+01
<STATE> 14
<MEAN> 15
 -3.030864e+01 -4.128680e-01 1.219705e+00 2.649548e-01 4.208652e-01 1.183560e+00 4.129905e-01 5.880349e-01 3.956729e-01 1.253623e+00 2.099364e-01 -1.197696e-01 1.686041e-02 4.856085e-01 1.698293e-01
<VARIANCE> 15
 5.733004e+00 4.471750e-01 1.393873e+00 2.052492e-01 4.382168e-01 2.268311e-01 1.485930e-01 1.623785e-01 2.197680e-01 1.295831e-01 1.637741e-01 1.261209e-01 9.741002e-02 1.148042e-01 6.171443e-02
<GCONST> 6.508199e+00
<STATE> 15
<MEAN> 15
 -2.847886e+01 -1.748315e+00 2.344812e+00 7.784011e-02 -4.458787e-02 7.982787e-01 -6.062429e-02 2.727839e-01 -1.287489e-02 9.177142e-01 1.507564e-01 -2.024616e-01 1.158233e-01 1.454243e-02 2.916411e-01
<VARIANCE> 15
 1.011847e+01 1.122585e+00 2.013530e+00 3.971615e-01 7.504913e-01 1.639600e-01 1.537511e-01 1.749153e-01 2.739514e-01 1.879943e-01 1.677802e-01 2.201721e-01 1.199794e-01 1.505971e-01 2.562036e-01
<GCONST> 1.242364e+01
<STATE> 16
<MEAN> 15
 -3.143349e+01 -2.732753e+00 1.150993e+00 -1.030795e+00 -5.829609e-01 -1.724035e-01 -8.000911e-01 -2.065364e-01 -5.742632e-01 3.182979e-01 -2.810951e-01 -2.695681e-01 -3.940195e-01 -5.011241e-02 -8.901348e-02
<VARIANCE> 15
 1.778329e+00 1.099609e+00 6.087591e-01 2.715231e-01 2.887995e-01 2.235197e-01 2.166121e-01 2.337359e-01 2.171379e-01 1.779376e-01 1.438420e-01 1.324892e-01 1.161349e-01 1.140233e-01 1.388684e-01
<GCONST> 7.202829e+00
<STATE> 17
<MEAN> 15
 -3.378685e+01 -1.412934e+00 -5.140441e-01 -5.368600e-01 -6.541313e-01 1.987883e-01 -6.216841e-01 2.484467e-01 -2.054684e-01 5.279980e-01 -3.537039e-01 -1.040344e-01 -4.385332e-01 5.682435e-02 -4.005540e-01
<VARIANCE> 15
 7.760321e-01 5.229003e-01 3.933414e-01 4.095078e-01 1.852831e-01 2.221653e-01 1.526131e-01 1.828245e-01 1.531858e-01 1.748000e-01 1.384309e-01 1.435649e-01 1.732695e-01 1.340084e-01 1.174711e-01
<GCONST> 4.628182e+00
<TRANSP> 18
 0.000000e+00 1.000000e+00 0.000000e+00 0.000000e+00 0.000000e+00 0.000000e+00 0.000000e+00 0.000000e+00 0.000000e+00 0.000000e+00 0.000000e+00 0.000000e+00 0.000000e+00 0.000000e+00 0.000000e+00 0.000000e+00 0.000000e+00 0.000000e+00
 0.000000e+00 9.200000e-01 8.000000e-02 0.000000e+00 0.000000e+00 0.000000e+00 0.000000e+00 0.000000e+00 0.000000e+00 0.000000e+00 0.000000e+00 0.000000e+00 0.000000e+00 0.000000e+00 0.000000e+00 0.000000e+00 0.000000e+00 0.000000e+00
 0.000000e+00 0.000000e+00 0.000000e+00 1.000000e+00 0.000000e+00 0.000000e+00 0.000000e+00 0.000000e+00 0.000000e+00 0.000000e+00 0.000000e+00 0.000000e+00 0.000000e+00 0.000000e+00 0.000000e+00 0.000000e+00 0.000000e+00 0.000000e+00
 0.000000e+00 0.000000e+00 0.000000e+00 6.226415e-01 3.773585e-01 0.000000e+00 0.000000e+00 0.000000e+00 0.000000e+00 0.000000e+00 0.000000e+00 0.000000e+00 0.000000e+00 0.000000e+00 0.000000e+00 0.000000e+00 0.000000e+00 0.000000e+00
 0.000000e+00 0.000000e+00 0.000000e+00 0.000000e+00 7.826087e-01 2.173913e-01 0.000000e+00 0.000000e+00 0.000000e+00 0.000000e+00 0.000000e+00 0.000000e+00 0.000000e+00 0.000000e+00 0.000000e+00 0.000000e+00 0.000000e+00 0.000000e+00
 0.000000e+00 0.000000e+00 0.000000e+00 0.000000e+00 0.000000e+00 7.500000e-01 2.500000e-01 0.000000e+00 0.000000e+00 0.000000e+00 0.000000e+00 0.000000e+00 0.000000e+00 0.000000e+00 0.000000e+00 0.000000e+00 0.000000e+00 0.000000e+00
 0.000000e+00 0.000000e+00 0.000000e+00 0.000000e+00 0.000000e+00 0.000000e+00 6.491228e-01 3.508772e-01 0.000000e+00 0.000000e+00 0.000000e+00 0.000000e+00 0.000000e+00 0.000000e+00 0.000000e+00 0.000000e+00 0.000000e+00 0.000000e+00
 0.000000e+00 0.000000e+00 0.000000e+00 0.000000e+00 0.000000e+00 0.000000e+00 0.000000e+00 8.039216e-01 1.960784e-01 0.000000e+00 0.000000e+00 0.000000e+00 0.000000e+00 0.000000e+00 0.000000e+00 0.000000e+00 0.000000e+00 0.000000e+00
 0.000000e+00 0.000000e+00 0.000000e+00 0.000000e+00 0.000000e+00 0.000000e+00 0.000000e+00 0.000000e+00 8.518519e-01 1.481482e-01 0.000000e+00 0.000000e+00 0.000000e+00 0.000000e+00 0.000000e+00 0.000000e+00 0.000000e+00 0.000000e+00
 0.000000e+00 0.000000e+00 0.000000e+00 0.000000e+00 0.000000e+00 0.000000e+00 0.000000e+00 0.000000e+00 0.000000e+00 7.647059e-01 2.352941e-01 0.000000e+00 0.000000e+00 0.000000e+00 0.000000e+00 0.000000e+00 0.000000e+00 0.000000e+00
 0.000000e+00 0.000000e+00 0.000000e+00 0.000000e+00 0.000000e+00 0.000000e+00 0.000000e+00 0.000000e+00 0.000000e+00 0.000000e+00 8.058252e-01 1.941748e-01 0.000000e+00 0.000000e+00 0.000000e+00 0.000000e+00 0.000000e+00 0.000000e+00
 0.000000e+00 0.000000e+00 0.000000e+00 0.000000e+00 0.000000e+00 0.000000e+00 0.000000e+00 0.000000e+00 0.000000e+00 0.000000e+00 0.000000e+00 8.275862e-01 1.724138e-01 0.000000e+00 0.000000e+00 0.000000e+00 0.000000e+00 0.000000e+00
 0.000000e+00 0.000000e+00 0.000000e+00 0.000000e+00 0.000000e+00 0.000000e+00 0.000000e+00 0.000000e+00 0.000000e+00 0.000000e+00 0.000000e+00 0.000000e+00 7.849463e-01 2.150538e-01 0.000000e+00 0.000000e+00 0.000000e+00 0.000000e+00
 0.000000e+00 0.000000e+00 0.000000e+00 0.000000e+00 0.000000e+00 0.000000e+00 0.000000e+00 0.000000e+00 0.000000e+00 0.000000e+00 0.000000e+00 0.000000e+00 0.000000e+00 7.183099e-01 2.816901e-01 0.000000e+00 0.000000e+00 0.000000e+00
 0.000000e+00 0.000000e+00 0.000000e+00 0.000000e+00 0.000000e+00 0.000000e+00 0.000000e+00 0.000000e+00 0.000000e+00 0.000000e+00 0.000000e+00 0.000000e+00 0.000000e+00 0.000000e+00 6.363636e-01 3.636364e-01 0.000000e+00 0.000000e+00
 0.000000e+00 0.000000e+00 0.000000e+00 0.000000e+00 0.000000e+00 0.000000e+00 0.000000e+00 0.000000e+00 0.000000e+00 0.000000e+00 0.000000e+00 0.000000e+00 0.000000e+00 0.000000e+00 0.000000e+00 8.924731e-01 1.075269e-01 0.000000e+00
 0.000000e+00 0.000000e+00 0.000000e+00 0.000000e+00 0.000000e+00 0.000000e+00 0.000000e+00 0.000000e+00 0.000000e+00 0.000000e+00 0.000000e+00 0.000000e+00 0.000000e+00 0.000000e+00 0.000000e+00 0.000000e+00 8.305085e-01 1.694915e-01
 0.000000e+00 0.000000e+00 0.000000e+00 0.000000e+00 0.000000e+00 0.000000e+00 0.000000e+00 0.000000e+00 0.000000e+00 0.000000e+00 0.000000e+00 0.000000e+00 0.000000e+00 0.000000e+00 0.000000e+00 0.000000e+00 0.000000e+00 0.000000e+00
<ENDHMM>
