~o
<STREAMINFO> 1 20
<VECSIZE> 20<NULLD><MFCC><DIAGC>
~h "Owen"
<BEGINHMM>
<NUMSTATES> 18
<STATE> 2
<MEAN> 20
 -3.978801e+01 -2.688776e+00 -1.016945e+00 -1.678279e-01 -1.389890e+00 5.935408e-01 -1.045722e+00 2.057789e-01 -8.524753e-01 3.934265e-02 -1.559715e-01 -3.000439e-01 -2.551652e-01 -1.030254e-01 -9.456065e-02 -2.669404e-01 -3.164481e-01 -1.091468e-01 -6.540064e-02 -2.461779e-01
<VARIANCE> 20
 9.126913e+00 3.191748e+00 1.541938e+00 6.551108e-01 3.427516e-01 2.815402e-01 3.340009e-01 2.654533e-01 2.036412e-01 1.522249e-01 1.881300e-01 1.362583e-01 1.653027e-01 1.599051e-01 1.315666e-01 1.352123e-01 2.128923e-01 1.330203e-01 1.599508e-01 1.214056e-01
<GCONST> 1.307262e+01
<STATE> 3
<MEAN> 20
 -3.798066e+01 -2.818730e+00 -1.812727e+00 5.165742e-01 -2.898734e+00 1.580990e+00 -1.739654e+00 8.679807e-01 -1.062030e+00 1.850279e-01 -4.338825e-01 -8.482387e-02 -4.709962e-01 -4.375334e-02 5.112517e-02 -4.727169e-01 -3.692877e-01 -4.013772e-01 -4.537990e-02 -3.071889e-01
<VARIANCE> 20
 1.429460e+01 1.957857e+00 2.063314e+00 9.788285e-01 1.310086e+00 9.534493e-01 6.350521e-01 4.570015e-01 2.724755e-01 3.028745e-01 2.353306e-01 2.102096e-01 3.783208e-01 2.326941e-01 1.940727e-01 1.651845e-01 2.172133e-01 1.839055e-01 1.650648e-01 1.847868e-01
<GCONST> 2.169600e+01
<STATE> 4
<MEAN> 20
 -2.862991e+01 -1.827139e+00 2.419262e+00 1.435006e+00 -3.783802e+00 7.500703e-01 -2.915587e+00 -2.234950e-01 -1.535891e+00 3.362780e-01 -7.570202e-01 -5.392046e-01 -1.250441e+00 3.417954e-01 3.692762e-01 -5.133945e-01 -8.207469e-01 -3.286920e-01 -3.560889e-01 -7.385498e-01
<VARIANCE> 20
 1.876963e+01 8.340926e+00 5.507141e+00 1.038571e+00 3.038241e+00 2.267877e+00 9.171602e-01 2.143485e+00 1.025824e+00 7.628443e-01 3.687759e-01 3.667577e-01 6.160362e-01 5.083127e-01 2.929075e-01 3.736329e-01 3.115013e-01 2.349189e-01 2.150772e-01 3.253456e-01
<GCONST> 3.526712e+01
<STATE> 5
<MEAN> 20
 -1.996361e+01 -1.164318e+00 5.031242e+00 3.330098e+00 -2.799825e+00 4.548354e-01 -2.027837e+00 -1.002961e+00 -1.843693e+00 -2.635363e-01 -8.643825e-02 -1.274379e+00 -1.210000e+00 -2.053393e-01 3.553681e-01 1.390835e-01 -9.979645e-01 -2.065982e-01 -2.646841e-01 -8.422126e-01
<VARIANCE> 20
 9.889091e+00 7.436597e+00 2.539006e+00 1.909706e+00 2.606859e+00 3.117887e+00 1.287754e+00 9.081626e-01 8.192015e-01 5.915206e-01 8.156276e-01 5.417283e-01 6.664228e-01 9.288363e-01 3.612129e-01 3.797387e-01 4.374338e-01 3.052063e-01 3.500184e-01 3.582610e-01
<GCONST> 3.678863e+01
<STATE> 6
<MEAN> 20
 -1.963908e+01 4.119627e+00 1.268101e+00 9.816313e-01 -3.450631e+00 3.245791e+00 -2.556648e+00 -1.464852e+00 -1.329319e+00 7.639944e-03 -5.094891e-01 -1.827013e+00 -1.118444e+00 1.697412e-01 1.020120e+00 -1.266988e-01 -9.918819e-01 -5.922398e-01 -7.083503e-01 -7.869078e-01
<VARIANCE> 20
 5.753708e+00 5.130312e+00 3.884048e+00 4.168231e+00 2.521812e+00 2.327600e+00 1.993507e+00 1.763647e+00 1.722427e+00 6.608922e-01 9.773890e-01 8.930884e-01 1.142725e+00 9.341325e-01 7.098807e-01 5.259713e-01 3.650097e-01 4.389952e-01 3.454241e-01 2.083700e-01
<GCONST> 4.056523e+01
<STATE> 7
<MEAN> 20
 -2.023626e+01 4.945299e+00 1.056171e+00 3.921792e-01 -7.263913e-01 1.973671e+00 -2.705163e+00 -5.474887e-01 -1.393701e+00 7.705039e-01 -1.359680e+00 -1.476434e+00 -1.161439e+00 -1.658411e-02 1.215446e+00 2.026262e-01 -1.217888e+00 -8.772621e-01 -1.115148e-01 -9.599054e-01
<VARIANCE> 20
 9.203069e+00 6.123621e+00 7.132106e+00 3.305395e+00 8.389804e-01 2.846836e+00 2.244811e+00 1.341556e+00 1.045919e+00 1.850571e+00 6.545822e-01 7.787009e-01 5.083568e-01 5.396273e-01 8.285103e-01 4.580984e-01 5.578300e-01 4.395718e-01 4.140834e-01 3.644946e-01
<GCONST> 4.035015e+01
<STATE> 8
<MEAN> 20
 -2.659473e+01 4.904601e+00 1.693831e+00 1.736674e+00 -4.216049e-01 3.184332e+00 -1.860241e+00 -4.674393e-01 -7.202867e-01 -1.154354e-01 -1.720003e+00 -1.422509e+00 -1.192249e+00 -2.453441e-01 1.075212e+00 -1.683958e-01 -1.432704e-01 -1.270632e+00 -5.072027e-01 -4.557261e-01
<VARIANCE> 20
 8.182873e+00 4.413760e+00 2.466057e+00 1.734861e+00 1.235435e+00 1.397729e+00 1.274765e+00 1.049053e+00 8.740582e-01 3.895291e-01 7.614917e-01 4.739711e-01 3.669143e-01 7.662658e-01 8.836688e-01 4.415631e-01 5.016408e-01 3.973773e-01 4.977373e-01 4.174843e-01
<GCONST> 3.514437e+01
<STATE> 9
<MEAN> 20
 -2.595710e+01 1.192357e+00 5.404818e+00 2.137952e+00 6.107382e-01 1.494467e+00 -5.472717e-01 -1.647097e-02 -1.062743e+00 -8.708427e-02 -1.332694e+00 -1.097881e+00 -8.935392e-01 -7.454775e-01 2.483096e-01 1.343869e-01 -7.777427e-01 -5.433341e-01 -4.478807e-01 -2.706359e-01
<VARIANCE> 20
 6.918554e+00 1.953794e+00 2.134062e+00 6.837597e-01 6.878242e-01 7.008449e-01 4.682881e-01 5.159413e-01 4.196863e-01 3.252052e-01 2.936286e-01 2.523777e-01 2.482859e-01 4.003966e-01 4.349716e-01 2.600814e-01 2.351621e-01 2.289982e-01 2.085244e-01 1.723480e-01
<GCONST> 2.226029e+01
<STATE> 10
<MEAN> 20
 -2.279670e+01 3.467983e-01 4.052834e+00 1.464920e+00 -9.891711e-01 8.893296e-01 -8.445993e-02 1.479966e-01 -8.004572e-01 9.708185e-01 -8.589414e-01 -1.922451e-01 -7.959842e-01 -4.409983e-01 4.680349e-01 -9.686464e-01 -1.484903e+00 -7.058916e-01 -7.520169e-02 -4.504328e-01
<VARIANCE> 20
 7.324008e+00 4.484944e+00 3.042510e+00 9.642537e-01 8.467582e-01 1.973796e+00 3.015981e+00 7.807258e-01 8.561590e-01 9.875356e-01 5.698674e-01 6.826113e-01 8.948407e-01 4.882087e-01 5.487252e-01 5.091396e-01 5.969662e-01 4.263610e-01 4.501404e-01 4.883062e-01
<GCONST> 3.659701e+01
<STATE> 11
<MEAN> 20
 -2.437742e+01 2.515499e+00 7.436805e-01 9.642273e-01 -2.609119e+00 3.306907e+00 -1.722309e+00 1.880751e+00 1.482327e-01 9.459252e-01 -9.209955e-01 -8.500835e-01 -8.249598e-01 -2.635541e-01 -1.169888e-01 -9.209524e-01 -5.343512e-01 -6.901522e-01 -1.894434e-01 -8.166168e-01
<VARIANCE> 20
 5.944738e+00 3.243368e+00 3.382739e+00 1.556072e+00 2.283761e+00 1.684801e+00 1.553592e+00 1.130928e+00 8.165355e-01 6.420376e-01 1.022629e+00 5.060023e-01 5.047015e-01 5.489712e-01 6.435905e-01 6.847385e-01 8.679209e-01 6.959681e-01 3.445682e-01 5.329317e-01
<GCONST> 3.768213e+01
<STATE> 12
<MEAN> 20
 -2.804327e+01 -3.331699e-01 3.346813e+00 1.327276e+00 -3.693612e-01 1.462183e+00 3.656122e-01 8.796016e-01 -4.493861e-01 3.160264e-01 4.600204e-01 2.665244e-01 -1.943516e-01 -3.781604e-01 2.103119e-02 4.304522e-02 -1.875861e-01 1.371992e-01 -1.241874e-01 -4.489574e-01
<VARIANCE> 20
 4.579098e+00 1.924273e+00 1.379786e+00 5.503237e-01 7.992824e-01 5.300765e-01 4.992769e-01 4.362399e-01 4.792808e-01 4.088874e-01 5.941373e-01 3.264948e-01 2.851938e-01 3.060902e-01 2.385326e-01 2.871726e-01 2.419069e-01 2.342959e-01 3.040305e-01 2.914827e-01
<GCONST> 2.259241e+01
<STATE> 13
<MEAN> 20
 -3.054868e+01 8.224594e-01 4.023827e-01 1.496440e+00 -1.006557e+00 2.959056e+00 -4.995555e-01 1.671749e+00 -1.861042e-01 1.599514e+00 4.942131e-01 3.184788e-01 -3.591329e-01 -1.677459e-01 2.390706e-01 -1.178422e-01 -1.955842e-01 -8.462299e-01 -7.096500e-01 -4.942277e-01
<VARIANCE> 20
 8.063624e+00 3.282399e+00 1.759086e+00 9.190667e-01 1.024900e+00 7.370512e-01 5.295013e-01 5.371594e-01 5.274830e-01 4.513986e-01 3.832748e-01 3.992343e-01 4.643171e-01 2.396846e-01 2.487038e-01 2.230400e-01 1.808892e-01 4.328157e-01 3.387080e-01 2.738423e-01
<GCONST> 2.565119e+01
<STATE> 14
<MEAN> 20
 -3.486414e+01 1.484114e-01 6.189758e-01 1.205454e+00 -5.388339e-01 2.249939e+00 -7.146986e-02 1.201399e+00 -1.407233e-01 1.530302e+00 7.550711e-01 2.464461e-01 -5.534921e-01 4.841652e-01 3.661144e-01 3.290186e-01 -5.744255e-03 -4.942839e-01 2.376588e-01 -3.803743e-01
<VARIANCE> 20
 6.540392e+00 2.525735e+00 2.400539e+00 3.586972e-01 5.157301e-01 4.932540e-01 1.915771e-01 3.045341e-01 2.288868e-01 5.462182e-01 2.139313e-01 1.850311e-01 2.437746e-01 1.252112e-01 2.286614e-01 1.625782e-01 1.735372e-01 4.279698e-01 1.546663e-01 1.714791e-01
<GCONST> 1.688233e+01
<STATE> 15
<MEAN> 20
 -3.770379e+01 -5.439929e-01 -2.717863e-01 9.915647e-01 -1.262512e+00 1.515167e+00 -4.743488e-01 8.329319e-01 -2.869851e-01 9.478669e-01 4.720096e-01 1.273279e-01 -1.548725e-01 1.764167e-01 2.335163e-01 1.287343e-01 -1.814948e-01 -2.252006e-01 1.465335e-01 -3.016014e-01
<VARIANCE> 20
 6.762107e+00 1.296813e+00 2.416491e+00 2.263085e-01 4.017445e-01 2.054655e-01 2.197135e-01 2.711429e-01 2.731753e-01 2.148209e-01 1.572046e-01 1.940947e-01 1.676276e-01 1.046773e-01 1.642713e-01 2.301454e-01 1.546984e-01 3.243999e-01 1.734158e-01 2.153356e-01
<GCONST> 1.308724e+01
<STATE> 16
<MEAN> 20
 -3.620756e+01 -3.090141e+00 8.535414e-01 -3.512954e-01 -1.449702e+00 3.731475e-01 -1.187724e+00 -7.844439e-02 -8.131787e-01 5.455447e-03 6.877350e-02 -2.673069e-01 -4.905033e-01 -2.986495e-01 -1.244544e-01 -2.649243e-02 -1.978725e-01 1.085234e-01 -2.695219e-02 6.687643e-02
<VARIANCE> 20
 2.998583e+00 1.724123e+00 1.001681e+00 3.703910e-01 4.028244e-01 3.221597e-01 2.929868e-01 2.638094e-01 2.761904e-01 2.510044e-01 2.167618e-01 1.913044e-01 1.992833e-01 1.737015e-01 1.480757e-01 2.238827e-01 1.691965e-01 1.790486e-01 1.956052e-01 1.459390e-01
<GCONST> 1.313185e+01
<STATE> 17
<MEAN> 20
 -3.964027e+01 -8.567786e-01 -1.573252e+00 2.753901e-01 -1.817283e+00 8.185045e-01 -1.249923e+00 4.172432e-01 -5.733923e-01 5.106156e-01 -4.993581e-02 -1.964684e-01 -4.375336e-01 -3.457121e-01 -7.106254e-02 -4.115953e-01 -2.520325e-01 -3.287834e-01 -1.272453e-01 -2.447808e-01
<VARIANCE> 20
 1.132278e+00 1.080639e+00 7.724570e-01 3.992344e-01 3.110251e-01 2.320611e-01 3.146393e-01 2.571215e-01 2.057769e-01 3.702350e-01 1.855906e-01 1.437587e-01 2.478537e-01 1.775060e-01 1.402029e-01 1.474483e-01 1.148985e-01 1.417838e-01 1.674517e-01 1.066000e-01
<GCONST> 9.295862e+00
<TRANSP> 18
 0.000000e+00 1.000000e+00 0.000000e+00 0.000000e+00 0.000000e+00 0.000000e+00 0.000000e+00 0.000000e+00 0.000000e+00 0.000000e+00 0.000000e+00 0.000000e+00 0.000000e+00 0.000000e+00 0.000000e+00 0.000000e+00 0.000000e+00 0.000000e+00
 0.000000e+00 8.795181e-01 1.204819e-01 0.000000e+00 0.000000e+00 0.000000e+00 0.000000e+00 0.000000e+00 0.000000e+00 0.000000e+00 0.000000e+00 0.000000e+00 0.000000e+00 0.000000e+00 0.000000e+00 0.000000e+00 0.000000e+00 0.000000e+00
 0.000000e+00 0.000000e+00 7.826087e-01 2.173913e-01 0.000000e+00 0.000000e+00 0.000000e+00 0.000000e+00 0.000000e+00 0.000000e+00 0.000000e+00 0.000000e+00 0.000000e+00 0.000000e+00 0.000000e+00 0.000000e+00 0.000000e+00 0.000000e+00
 0.000000e+00 0.000000e+00 0.000000e+00 5.000000e-01 5.000000e-01 0.000000e+00 0.000000e+00 0.000000e+00 0.000000e+00 0.000000e+00 0.000000e+00 0.000000e+00 0.000000e+00 0.000000e+00 0.000000e+00 0.000000e+00 0.000000e+00 0.000000e+00
 0.000000e+00 0.000000e+00 0.000000e+00 0.000000e+00 8.245614e-01 1.754386e-01 0.000000e+00 0.000000e+00 0.000000e+00 0.000000e+00 0.000000e+00 0.000000e+00 0.000000e+00 0.000000e+00 0.000000e+00 0.000000e+00 0.000000e+00 0.000000e+00
 0.000000e+00 0.000000e+00 0.000000e+00 0.000000e+00 0.000000e+00 7.701150e-01 2.298851e-01 0.000000e+00 0.000000e+00 0.000000e+00 0.000000e+00 0.000000e+00 0.000000e+00 0.000000e+00 0.000000e+00 0.000000e+00 0.000000e+00 0.000000e+00
 0.000000e+00 0.000000e+00 0.000000e+00 0.000000e+00 0.000000e+00 0.000000e+00 5.918368e-01 4.081633e-01 0.000000e+00 0.000000e+00 0.000000e+00 0.000000e+00 0.000000e+00 0.000000e+00 0.000000e+00 0.000000e+00 0.000000e+00 0.000000e+00
 0.000000e+00 0.000000e+00 0.000000e+00 0.000000e+00 0.000000e+00 0.000000e+00 0.000000e+00 7.979798e-01 2.020202e-01 0.000000e+00 0.000000e+00 0.000000e+00 0.000000e+00 0.000000e+00 0.000000e+00 0.000000e+00 0.000000e+00 0.000000e+00
 0.000000e+00 0.000000e+00 0.000000e+00 0.000000e+00 0.000000e+00 0.000000e+00 0.000000e+00 0.000000e+00 8.437500e-01 1.562500e-01 0.000000e+00 0.000000e+00 0.000000e+00 0.000000e+00 0.000000e+00 0.000000e+00 0.000000e+00 0.000000e+00
 0.000000e+00 0.000000e+00 0.000000e+00 0.000000e+00 0.000000e+00 0.000000e+00 0.000000e+00 0.000000e+00 0.000000e+00 7.619048e-01 2.380952e-01 0.000000e+00 0.000000e+00 0.000000e+00 0.000000e+00 0.000000e+00 0.000000e+00 0.000000e+00
 0.000000e+00 0.000000e+00 0.000000e+00 0.000000e+00 0.000000e+00 0.000000e+00 0.000000e+00 0.000000e+00 0.000000e+00 0.000000e+00 8.181818e-01 1.818182e-01 0.000000e+00 0.000000e+00 0.000000e+00 0.000000e+00 0.000000e+00 0.000000e+00
 0.000000e+00 0.000000e+00 0.000000e+00 0.000000e+00 0.000000e+00 0.000000e+00 0.000000e+00 0.000000e+00 0.000000e+00 0.000000e+00 0.000000e+00 8.540146e-01 1.459854e-01 0.000000e+00 0.000000e+00 0.000000e+00 0.000000e+00 0.000000e+00
 0.000000e+00 0.000000e+00 0.000000e+00 0.000000e+00 0.000000e+00 0.000000e+00 0.000000e+00 0.000000e+00 0.000000e+00 0.000000e+00 0.000000e+00 0.000000e+00 7.647059e-01 2.352941e-01 0.000000e+00 0.000000e+00 0.000000e+00 0.000000e+00
 0.000000e+00 0.000000e+00 0.000000e+00 0.000000e+00 0.000000e+00 0.000000e+00 0.000000e+00 0.000000e+00 0.000000e+00 0.000000e+00 0.000000e+00 0.000000e+00 0.000000e+00 7.530864e-01 2.469136e-01 0.000000e+00 0.000000e+00 0.000000e+00
 0.000000e+00 0.000000e+00 0.000000e+00 0.000000e+00 0.000000e+00 0.000000e+00 0.000000e+00 0.000000e+00 0.000000e+00 0.000000e+00 0.000000e+00 0.000000e+00 0.000000e+00 0.000000e+00 5.652174e-01 4.347826e-01 0.000000e+00 0.000000e+00
 0.000000e+00 0.000000e+00 0.000000e+00 0.000000e+00 0.000000e+00 0.000000e+00 0.000000e+00 0.000000e+00 0.000000e+00 0.000000e+00 0.000000e+00 0.000000e+00 0.000000e+00 0.000000e+00 0.000000e+00 8.958333e-01 1.041667e-01 0.000000e+00
 0.000000e+00 0.000000e+00 0.000000e+00 0.000000e+00 0.000000e+00 0.000000e+00 0.000000e+00 0.000000e+00 0.000000e+00 0.000000e+00 0.000000e+00 0.000000e+00 0.000000e+00 0.000000e+00 0.000000e+00 0.000000e+00 8.113208e-01 1.886792e-01
 0.000000e+00 0.000000e+00 0.000000e+00 0.000000e+00 0.000000e+00 0.000000e+00 0.000000e+00 0.000000e+00 0.000000e+00 0.000000e+00 0.000000e+00 0.000000e+00 0.000000e+00 0.000000e+00 0.000000e+00 0.000000e+00 0.000000e+00 0.000000e+00
<ENDHMM>
