~o
<STREAMINFO> 1 15
<VECSIZE> 15<NULLD><MFCC><DIAGC>
~h "Owen"
<BEGINHMM>
<NUMSTATES> 10
<STATE> 2
<MEAN> 15
 -3.365569e+01 -3.026303e+00 -3.125670e-01 -9.072280e-01 -6.850945e-01 1.576786e-01 -6.560384e-01 9.387382e-02 -6.373516e-01 2.324661e-01 -4.334930e-01 -7.758614e-02 -2.507572e-01 8.715715e-02 -3.766487e-01
<VARIANCE> 15
 6.828384e+00 1.858844e+00 1.005429e+00 5.068475e-01 4.053923e-01 3.136272e-01 3.531198e-01 2.493127e-01 1.498363e-01 1.819608e-01 1.409714e-01 1.511316e-01 1.339842e-01 1.273936e-01 1.367062e-01
<GCONST> 1.143121e+01
<STATE> 3
<MEAN> 15
 -1.861966e+01 -1.508645e+00 5.229365e+00 7.644600e-01 -1.771129e+00 -3.943134e-02 -1.795867e+00 -9.098601e-01 -1.175139e+00 2.700694e-01 -9.506123e-01 -1.012962e+00 -3.707540e-01 4.882064e-01 -3.333362e-02
<VARIANCE> 15
 1.916818e+01 4.982704e+00 2.430796e+00 2.200589e+00 1.336352e+00 1.837484e+00 1.131692e+00 7.759097e-01 5.882794e-01 5.229447e-01 5.402617e-01 4.903041e-01 4.770249e-01 3.034443e-01 4.422797e-01
<GCONST> 2.931684e+01
<STATE> 4
<MEAN> 15
 -1.776120e+01 3.327630e+00 1.707267e+00 -8.086938e-01 1.118202e-01 1.276972e+00 -2.418914e+00 -5.115644e-01 -5.333123e-01 -9.033758e-03 -1.681809e+00 -9.220732e-01 -3.203047e-01 1.321064e+00 -1.295628e-01
<VARIANCE> 15
 1.239560e+01 3.225632e+00 2.105169e+00 2.806944e+00 2.354227e+00 2.300768e+00 1.683429e+00 8.018369e-01 9.870930e-01 1.070990e+00 5.937191e-01 6.273847e-01 6.060768e-01 6.224287e-01 3.898403e-01
<GCONST> 3.217372e+01
<STATE> 5
<MEAN> 15
 -2.239186e+01 1.878314e+00 4.642926e+00 9.683900e-01 1.152753e+00 7.488422e-01 -4.885367e-01 -3.594795e-01 -5.884769e-01 -4.453009e-01 -1.451937e+00 -5.573181e-01 -7.685466e-01 3.965180e-01 1.300797e-01
<VARIANCE> 15
 5.819536e+00 2.243495e+00 2.670486e+00 4.871852e-01 3.255151e-01 7.626469e-01 5.393308e-01 3.827600e-01 2.761486e-01 2.062986e-01 2.784207e-01 2.773449e-01 2.639442e-01 4.126982e-01 2.151554e-01
<GCONST> 1.824967e+01
<STATE> 6
<MEAN> 15
 -1.985527e+01 6.799929e-01 2.682256e+00 -4.758763e-01 -1.507918e-01 1.228306e+00 -2.470934e-01 8.521989e-01 2.664769e-01 2.901005e-01 -9.325991e-01 -3.492712e-01 -6.043751e-01 2.937957e-01 -8.088248e-01
<VARIANCE> 15
 4.656330e+00 2.111813e+00 3.122209e+00 1.271660e+00 1.093302e+00 1.321664e+00 1.498251e+00 1.803583e+00 7.768910e-01 5.224457e-01 5.924926e-01 4.591658e-01 3.963429e-01 5.592636e-01 4.490101e-01
<GCONST> 2.808419e+01
<STATE> 7
<MEAN> 15
 -2.506890e+01 -3.696598e-01 2.962524e+00 3.090712e-01 4.679646e-01 1.108729e+00 4.196886e-01 4.390118e-01 -1.327068e-01 8.050988e-01 2.044832e-01 1.027980e-01 -3.755273e-01 7.048258e-02 -3.037592e-02
<VARIANCE> 15
 4.570535e+00 1.763997e+00 1.348673e+00 4.837883e-01 6.329024e-01 4.679689e-01 2.664503e-01 3.890253e-01 3.737919e-01 4.754908e-01 2.325616e-01 2.499520e-01 2.759136e-01 1.996175e-01 2.363896e-01
<GCONST> 1.683106e+01
<STATE> 8
<MEAN> 15
 -3.077329e+01 -3.528717e-01 7.096769e-01 4.005985e-02 3.867377e-01 1.253155e+00 2.500339e-01 6.133068e-01 4.750323e-01 1.246207e+00 1.107339e-01 -1.675881e-01 -9.317935e-02 4.483444e-01 4.054246e-02
<VARIANCE> 15
 6.023639e+00 8.297079e-01 7.068403e-01 2.576650e-01 5.175543e-01 2.555671e-01 2.372571e-01 1.798704e-01 2.437569e-01 2.821411e-01 1.387262e-01 1.786660e-01 1.286122e-01 1.936462e-01 1.344060e-01
<GCONST> 1.022309e+01
<STATE> 9
<MEAN> 15
 -3.220235e+01 -2.313697e+00 5.839755e-01 -9.019286e-01 -6.434863e-01 -8.163987e-02 -7.705966e-01 -6.693493e-02 -4.658962e-01 3.891408e-01 -3.106492e-01 -2.132673e-01 -4.235535e-01 -2.352525e-02 -2.070701e-01
<VARIANCE> 15
 2.919560e+00 1.224951e+00 1.263855e+00 3.232062e-01 2.483201e-01 2.140978e-01 1.701712e-01 2.474789e-01 2.120447e-01 1.859494e-01 1.516633e-01 1.473070e-01 1.344369e-01 1.233150e-01 1.556226e-01
<GCONST> 8.850889e+00
<TRANSP> 10
 0.000000e+00 1.000000e+00 0.000000e+00 0.000000e+00 0.000000e+00 0.000000e+00 0.000000e+00 0.000000e+00 0.000000e+00 0.000000e+00
 0.000000e+00 9.215686e-01 7.843138e-02 0.000000e+00 0.000000e+00 0.000000e+00 0.000000e+00 0.000000e+00 0.000000e+00 0.000000e+00
 0.000000e+00 0.000000e+00 8.717949e-01 1.282051e-01 0.000000e+00 0.000000e+00 0.000000e+00 0.000000e+00 0.000000e+00 0.000000e+00
 0.000000e+00 0.000000e+00 0.000000e+00 8.918919e-01 1.081081e-01 0.000000e+00 0.000000e+00 0.000000e+00 0.000000e+00 0.000000e+00
 0.000000e+00 0.000000e+00 0.000000e+00 0.000000e+00 8.936170e-01 1.063830e-01 0.000000e+00 0.000000e+00 0.000000e+00 0.000000e+00
 0.000000e+00 0.000000e+00 0.000000e+00 0.000000e+00 0.000000e+00 9.004975e-01 9.950249e-02 0.000000e+00 0.000000e+00 0.000000e+00
 0.000000e+00 0.000000e+00 0.000000e+00 0.000000e+00 0.000000e+00 0.000000e+00 9.043062e-01 9.569378e-02 0.000000e+00 0.000000e+00
 0.000000e+00 0.000000e+00 0.000000e+00 0.000000e+00 0.000000e+00 0.000000e+00 0.000000e+00 8.496241e-01 1.503759e-01 0.000000e+00
 0.000000e+00 0.000000e+00 0.000000e+00 0.000000e+00 0.000000e+00 0.000000e+00 0.000000e+00 0.000000e+00 9.307958e-01 6.920416e-02
 0.000000e+00 0.000000e+00 0.000000e+00 0.000000e+00 0.000000e+00 0.000000e+00 0.000000e+00 0.000000e+00 0.000000e+00 0.000000e+00
<ENDHMM>
