~o
<STREAMINFO> 1 20
<VECSIZE> 20<NULLD><MFCC><DIAGC>
~h "Rory"
<BEGINHMM>
<NUMSTATES> 18
<STATE> 2
<MEAN> 20
 -4.063751e+01 -1.019796e+00 -1.681376e+00 4.944145e-01 -1.890019e+00 8.415968e-01 -1.271206e+00 3.139691e-01 -7.625781e-01 2.234736e-01 -2.385311e-01 -3.076574e-01 -4.003245e-01 -2.722822e-01 -8.425729e-02 -1.471155e-01 -1.105885e-01 -2.220325e-01 -2.311894e-03 -3.343248e-01
<VARIANCE> 20
 2.511461e+00 8.691702e-01 5.688959e-01 3.863811e-01 5.948268e-01 3.662319e-01 3.367133e-01 3.269049e-01 2.129159e-01 5.042257e-01 2.098630e-01 2.091809e-01 1.764191e-01 1.195528e-01 1.596628e-01 1.080733e-01 1.199865e-01 1.427595e-01 1.696411e-01 1.232619e-01
<GCONST> 1.108216e+01
<STATE> 3
<MEAN> 20
 -3.813909e+01 1.562089e-01 -3.451361e-01 1.634228e+00 -1.823159e+00 1.952814e+00 -1.845130e+00 6.448122e-01 -8.074422e-01 5.554877e-01 -2.847772e-01 -4.178871e-01 -7.613849e-01 -6.269892e-02 2.751308e-01 1.224375e-01 5.189626e-02 -1.129449e-01 1.630286e-01 -2.745281e-01
<VARIANCE> 20
 2.943020e+00 7.919889e-01 9.601613e-01 7.061423e-01 5.524663e-01 2.956575e-01 3.584094e-01 2.713008e-01 3.409821e-01 3.227045e-01 2.247514e-01 2.615198e-01 3.450585e-01 9.743156e-02 2.684636e-01 2.114879e-01 2.004634e-01 2.311023e-01 2.425482e-01 1.551460e-01
<GCONST> 1.541847e+01
<STATE> 4
<MEAN> 20
 -3.354405e+01 3.304877e+00 1.920202e+00 3.229553e+00 -4.784529e-01 2.426532e+00 -1.488689e+00 7.156407e-01 3.454318e-02 1.388374e+00 -1.451178e-01 -6.853568e-01 -1.118644e+00 -4.961603e-01 1.272444e-01 -2.166398e-01 -1.856880e-01 -3.255334e-01 -4.086559e-02 -3.603264e-01
<VARIANCE> 20
 3.609238e+00 1.080917e+00 4.497437e-01 8.802180e-01 6.984003e-01 3.428724e-01 2.078486e-01 8.633476e-01 1.741515e-01 3.703393e-01 1.659552e-01 4.572389e-01 4.890584e-01 1.189777e-01 3.147678e-01 1.228811e-01 2.600785e-01 1.741117e-01 1.366202e-01 2.247936e-01
<GCONST> 1.605068e+01
<STATE> 5
<MEAN> 20
 -3.029712e+01 1.927372e+00 2.466330e+00 4.082412e+00 -4.177316e-01 1.695053e+00 -8.381575e-01 5.614988e-01 -4.062564e-01 8.755016e-01 -5.669264e-01 -3.353771e-01 -9.851377e-01 -5.363293e-01 -3.238167e-01 -6.216724e-01 -2.504002e-01 -3.856607e-01 1.207946e-01 -4.229744e-01
<VARIANCE> 20
 3.963345e+00 2.143070e+00 6.530203e-01 9.061555e-01 4.919289e-01 4.143828e-01 5.243394e-01 8.065199e-01 4.834875e-01 3.570642e-01 4.043524e-01 3.597110e-01 1.806911e-01 2.450676e-01 2.423886e-01 2.245854e-01 2.567266e-01 1.924364e-01 1.297233e-01 1.361793e-01
<GCONST> 1.916489e+01
<STATE> 6
<MEAN> 20
 -2.891596e+01 2.266093e+00 3.453465e+00 5.111511e+00 -1.600180e+00 2.619412e+00 -1.020231e+00 -8.323419e-01 -2.323554e-01 7.928372e-02 -5.630298e-01 -6.137789e-01 -7.645912e-01 -1.014284e+00 -4.931880e-01 -6.360471e-01 -6.095632e-01 -4.144700e-01 3.426822e-02 -1.382294e-01
<VARIANCE> 20
 3.929097e+00 9.692124e-01 3.948203e-01 1.066185e+00 8.953568e-01 8.089420e-01 7.204931e-01 5.899285e-01 4.016069e-01 3.650881e-01 3.478170e-01 3.184901e-01 4.918060e-01 2.711749e-01 2.152444e-01 1.366497e-01 1.611579e-01 1.176297e-01 1.142658e-01 1.700635e-01
<GCONST> 1.848378e+01
<STATE> 7
<MEAN> 20
 -2.744541e+01 3.071159e+00 3.104964e+00 3.840765e+00 1.134448e-01 1.616849e+00 -5.209376e-01 -7.390328e-01 -3.063515e-01 7.509308e-01 -1.607306e+00 -6.745748e-01 -1.410673e+00 -1.176124e+00 -6.888950e-01 -2.261037e-01 -4.206215e-01 -2.546179e-01 6.330799e-02 -5.025918e-01
<VARIANCE> 20
 1.477422e+00 6.575271e-01 4.955294e-01 6.773792e-01 8.316164e-01 5.867954e-01 7.074665e-01 5.474432e-01 5.080099e-01 5.828424e-01 5.042585e-01 3.383107e-01 2.153579e-01 2.364099e-01 2.810042e-01 2.029386e-01 3.129302e-01 1.063323e-01 1.502632e-01 2.419968e-01
<GCONST> 1.842631e+01
<STATE> 8
<MEAN> 20
 -2.810668e+01 3.194440e+00 2.162802e+00 4.300742e+00 -7.092993e-02 1.468095e+00 -2.246376e-01 -8.209965e-02 -9.190521e-01 9.965094e-01 -2.037388e+00 -1.665969e+00 -5.218932e-01 -1.721883e+00 -7.347258e-01 2.135429e-01 -2.595944e-01 -2.578358e-01 -2.701197e-01 -7.638797e-01
<VARIANCE> 20
 1.134304e+00 9.729756e-01 6.279580e-01 5.513586e-01 9.745355e-01 1.128014e+00 1.489798e+00 6.571143e-01 3.208428e-01 6.671241e-01 3.863589e-01 6.451878e-01 4.761374e-01 5.403528e-01 1.145499e+00 3.587110e-01 2.190022e-01 1.653104e-01 2.239621e-01 2.959782e-01
<GCONST> 2.465880e+01
<STATE> 9
<MEAN> 20
 -2.687305e+01 3.809460e+00 3.193578e+00 3.042804e+00 6.637561e-01 1.757986e+00 -2.002393e+00 4.311351e-01 -1.258435e+00 8.509766e-01 -2.287602e+00 -8.038546e-01 -8.840937e-01 -1.922809e+00 -1.827343e-01 -1.684822e-01 2.199371e-01 -1.935436e-01 -3.763475e-02 -5.684058e-01
<VARIANCE> 20
 4.929050e+00 1.347871e+00 7.399660e-01 9.475607e-01 4.346673e-01 5.801640e-01 7.591637e-01 1.097353e+00 7.626253e-01 9.087085e-01 4.881322e-01 4.618431e-01 2.806880e-01 4.797434e-01 3.656344e-01 3.936659e-01 2.106531e-01 4.521724e-01 1.832945e-01 2.584266e-01
<GCONST> 2.553509e+01
<STATE> 10
<MEAN> 20
 -2.874837e+01 4.350029e+00 3.364047e+00 3.919372e+00 -7.296039e-01 1.397264e+00 -2.022188e+00 -1.235533e+00 -9.264491e-01 2.979354e-01 -6.021642e-01 -6.543580e-01 -6.617077e-01 -8.692750e-01 -2.189154e-01 -6.136839e-01 -4.944145e-01 -4.371064e-01 2.405104e-01 -3.333843e-01
<VARIANCE> 20
 6.251657e+00 1.344584e+00 6.623375e-01 9.048988e-01 8.040680e-01 6.913793e-01 6.394239e-01 1.282510e+00 4.387256e-01 8.963286e-01 2.705873e-01 2.803366e-01 3.379299e-01 1.526443e-01 3.136942e-01 2.313642e-01 1.226400e-01 2.054555e-01 1.664966e-01 1.904466e-01
<GCONST> 2.135695e+01
<STATE> 11
<MEAN> 20
 -2.850263e+01 3.375818e+00 4.019787e+00 3.478341e+00 -2.482481e+00 2.973279e+00 -4.016849e+00 -4.038528e-01 -1.343697e+00 1.370195e+00 9.573290e-01 -1.173299e+00 1.015395e-01 -5.038220e-01 -1.674459e-01 -1.037492e+00 -1.179642e+00 -8.315119e-01 -4.202198e-02 -5.640411e-01
<VARIANCE> 20
 3.768799e+00 1.374787e+00 6.038476e-01 2.973996e+00 8.108601e-01 1.127692e+00 9.786339e-01 1.995162e+00 6.736380e-01 1.860527e+00 7.803812e-01 7.119153e-01 4.808391e-01 4.938767e-01 3.747133e-01 2.577822e-01 2.102461e-01 2.920454e-01 2.552929e-01 1.846763e-01
<GCONST> 2.958599e+01
<STATE> 12
<MEAN> 20
 -2.745293e+01 3.731746e+00 1.612550e+00 9.005198e-01 -1.878639e+00 1.944803e+00 -2.323209e+00 1.169243e+00 1.043821e+00 2.381879e+00 1.184089e+00 -1.758578e+00 -4.419043e-01 -1.199578e+00 -2.228699e-01 -1.244365e+00 -1.151719e+00 -1.832588e-01 -3.140455e-01 -6.068503e-01
<VARIANCE> 20
 4.658456e+00 1.334289e+00 1.165292e+00 1.277555e+00 9.952167e-01 1.875008e+00 1.038180e+00 2.357496e+00 1.083619e+00 6.113833e-01 5.634195e-01 5.671329e-01 4.555801e-01 5.707530e-01 3.432024e-01 2.459517e-01 3.532043e-01 3.872905e-01 1.679424e-01 1.704492e-01
<GCONST> 2.958704e+01
<STATE> 13
<MEAN> 20
 -2.970390e+01 2.284591e+00 5.941377e-01 1.410950e+00 -1.382312e+00 3.201036e+00 -1.218403e+00 2.279082e+00 4.574776e-01 1.305056e+00 -3.450026e-01 -1.596095e+00 3.761087e-01 1.645197e-01 3.430019e-01 -8.666816e-01 -7.118090e-01 -5.196793e-01 -6.824127e-01 -7.036634e-01
<VARIANCE> 20
 3.229636e+00 1.231477e+00 1.368169e+00 5.354295e-01 1.083288e+00 1.468587e+00 7.325163e-01 5.574279e-01 5.319066e-01 4.732383e-01 4.849407e-01 5.417481e-01 1.579034e+00 2.938851e-01 2.618040e-01 2.725934e-01 2.251104e-01 2.828302e-01 2.167631e-01 2.627203e-01
<GCONST> 2.565202e+01
<STATE> 14
<MEAN> 20
 -3.332139e+01 1.120246e+00 1.295360e-01 1.982722e+00 -1.595542e+00 2.798247e+00 -3.194971e-01 2.140945e+00 4.564158e-03 8.907051e-01 -2.284537e-01 -4.890227e-02 6.237243e-01 8.550253e-01 2.073664e-01 -4.953339e-01 -4.906628e-01 -2.968336e-01 -1.655728e-01 -3.876776e-01
<VARIANCE> 20
 1.981884e+00 1.865521e+00 9.517480e-01 9.245523e-01 8.847610e-01 3.191477e-01 4.915074e-01 4.643354e-01 4.500791e-01 4.371917e-01 4.814368e-01 2.230538e-01 3.660084e-01 2.719080e-01 2.222658e-01 3.025067e-01 1.856569e-01 3.824378e-01 1.068668e-01 1.749925e-01
<GCONST> 1.970708e+01
<STATE> 15
<MEAN> 20
 -3.634727e+01 3.051822e-01 -2.441259e-01 1.493410e+00 -1.450392e+00 2.353131e+00 -2.711516e-01 1.727384e+00 -2.062480e-01 9.540718e-01 1.495559e-01 2.277823e-01 2.563468e-01 4.511021e-01 2.597429e-01 -4.222620e-01 -2.224976e-01 -3.227470e-01 1.856626e-01 -2.478431e-01
<VARIANCE> 20
 1.674844e+00 3.670930e-01 4.314302e-01 2.949549e-01 4.509156e-01 2.185237e-01 2.326516e-01 2.497625e-01 1.780170e-01 3.891339e-01 2.259417e-01 1.830106e-01 1.967078e-01 7.852530e-02 2.296914e-01 1.847566e-01 1.919121e-01 2.036478e-01 6.314556e-02 1.349857e-01
<GCONST> 7.854265e+00
<STATE> 16
<MEAN> 20
 -3.887164e+01 -2.231290e-01 -1.249809e+00 1.399848e+00 -1.645738e+00 1.525262e+00 -6.993359e-01 1.064286e+00 -3.382710e-01 4.855050e-01 5.346441e-02 9.489653e-02 -1.135757e-01 -1.072265e-01 7.198938e-02 -4.321043e-01 -4.176080e-01 -3.858515e-01 -1.212465e-01 -3.224907e-01
<VARIANCE> 20
 2.144876e+00 4.658417e-01 2.626301e-01 2.136193e-01 6.294976e-01 3.675931e-01 2.891098e-01 3.772176e-01 1.576746e-01 3.003543e-01 1.074093e-01 1.515862e-01 1.550093e-01 2.509422e-01 1.774751e-01 2.040715e-01 1.330501e-01 1.748095e-01 2.092350e-01 1.421185e-01
<GCONST> 9.187436e+00
<STATE> 17
<MEAN> 20
 -3.953111e+01 -8.097644e-01 -1.656003e+00 5.113907e-01 -1.951418e+00 1.118505e+00 -1.362617e+00 5.379602e-01 -8.582558e-01 5.706103e-01 -9.532271e-02 -1.944896e-01 -3.633900e-01 -2.811992e-01 -6.448257e-02 -4.741471e-01 -3.075483e-01 -3.461824e-01 -6.855884e-02 -2.601005e-01
<VARIANCE> 20
 1.705664e+00 6.309313e-01 2.324639e-01 2.861146e-01 2.489795e-01 2.885152e-01 3.530935e-01 2.316197e-01 2.794116e-01 3.078340e-01 1.697575e-01 1.424592e-01 1.601056e-01 1.461898e-01 1.583336e-01 1.455683e-01 1.652510e-01 1.522829e-01 1.446361e-01 1.185045e-01
<GCONST> 7.534559e+00
<TRANSP> 18
 0.000000e+00 1.000000e+00 0.000000e+00 0.000000e+00 0.000000e+00 0.000000e+00 0.000000e+00 0.000000e+00 0.000000e+00 0.000000e+00 0.000000e+00 0.000000e+00 0.000000e+00 0.000000e+00 0.000000e+00 0.000000e+00 0.000000e+00 0.000000e+00
 0.000000e+00 9.090909e-01 9.090909e-02 0.000000e+00 0.000000e+00 0.000000e+00 0.000000e+00 0.000000e+00 0.000000e+00 0.000000e+00 0.000000e+00 0.000000e+00 0.000000e+00 0.000000e+00 0.000000e+00 0.000000e+00 0.000000e+00 0.000000e+00
 0.000000e+00 0.000000e+00 6.428571e-01 3.571429e-01 0.000000e+00 0.000000e+00 0.000000e+00 0.000000e+00 0.000000e+00 0.000000e+00 0.000000e+00 0.000000e+00 0.000000e+00 0.000000e+00 0.000000e+00 0.000000e+00 0.000000e+00 0.000000e+00
 0.000000e+00 0.000000e+00 0.000000e+00 7.222222e-01 2.777778e-01 0.000000e+00 0.000000e+00 0.000000e+00 0.000000e+00 0.000000e+00 0.000000e+00 0.000000e+00 0.000000e+00 0.000000e+00 0.000000e+00 0.000000e+00 0.000000e+00 0.000000e+00
 0.000000e+00 0.000000e+00 0.000000e+00 0.000000e+00 8.214286e-01 1.785714e-01 0.000000e+00 0.000000e+00 0.000000e+00 0.000000e+00 0.000000e+00 0.000000e+00 0.000000e+00 0.000000e+00 0.000000e+00 0.000000e+00 0.000000e+00 0.000000e+00
 0.000000e+00 0.000000e+00 0.000000e+00 0.000000e+00 0.000000e+00 8.484849e-01 1.515152e-01 0.000000e+00 0.000000e+00 0.000000e+00 0.000000e+00 0.000000e+00 0.000000e+00 0.000000e+00 0.000000e+00 0.000000e+00 0.000000e+00 0.000000e+00
 0.000000e+00 0.000000e+00 0.000000e+00 0.000000e+00 0.000000e+00 0.000000e+00 7.959183e-01 2.040816e-01 0.000000e+00 0.000000e+00 0.000000e+00 0.000000e+00 0.000000e+00 0.000000e+00 0.000000e+00 0.000000e+00 0.000000e+00 0.000000e+00
 0.000000e+00 0.000000e+00 0.000000e+00 0.000000e+00 0.000000e+00 0.000000e+00 0.000000e+00 8.571429e-01 1.428571e-01 0.000000e+00 0.000000e+00 0.000000e+00 0.000000e+00 0.000000e+00 0.000000e+00 0.000000e+00 0.000000e+00 0.000000e+00
 0.000000e+00 0.000000e+00 0.000000e+00 0.000000e+00 0.000000e+00 0.000000e+00 0.000000e+00 0.000000e+00 8.684211e-01 1.315790e-01 0.000000e+00 0.000000e+00 0.000000e+00 0.000000e+00 0.000000e+00 0.000000e+00 0.000000e+00 0.000000e+00
 0.000000e+00 0.000000e+00 0.000000e+00 0.000000e+00 0.000000e+00 0.000000e+00 0.000000e+00 0.000000e+00 0.000000e+00 8.611111e-01 1.388889e-01 0.000000e+00 0.000000e+00 0.000000e+00 0.000000e+00 0.000000e+00 0.000000e+00 0.000000e+00
 0.000000e+00 0.000000e+00 0.000000e+00 0.000000e+00 0.000000e+00 0.000000e+00 0.000000e+00 0.000000e+00 0.000000e+00 0.000000e+00 7.872341e-01 2.127660e-01 0.000000e+00 0.000000e+00 0.000000e+00 0.000000e+00 0.000000e+00 0.000000e+00
 0.000000e+00 0.000000e+00 0.000000e+00 0.000000e+00 0.000000e+00 0.000000e+00 0.000000e+00 0.000000e+00 0.000000e+00 0.000000e+00 0.000000e+00 7.500000e-01 2.500000e-01 0.000000e+00 0.000000e+00 0.000000e+00 0.000000e+00 0.000000e+00
 0.000000e+00 0.000000e+00 0.000000e+00 0.000000e+00 0.000000e+00 0.000000e+00 0.000000e+00 0.000000e+00 0.000000e+00 0.000000e+00 0.000000e+00 0.000000e+00 8.437500e-01 1.562500e-01 0.000000e+00 0.000000e+00 0.000000e+00 0.000000e+00
 0.000000e+00 0.000000e+00 0.000000e+00 0.000000e+00 0.000000e+00 0.000000e+00 0.000000e+00 0.000000e+00 0.000000e+00 0.000000e+00 0.000000e+00 0.000000e+00 0.000000e+00 8.039216e-01 1.960784e-01 0.000000e+00 0.000000e+00 0.000000e+00
 0.000000e+00 0.000000e+00 0.000000e+00 0.000000e+00 0.000000e+00 0.000000e+00 0.000000e+00 0.000000e+00 0.000000e+00 0.000000e+00 0.000000e+00 0.000000e+00 0.000000e+00 0.000000e+00 6.666667e-01 3.333333e-01 0.000000e+00 0.000000e+00
 0.000000e+00 0.000000e+00 0.000000e+00 0.000000e+00 0.000000e+00 0.000000e+00 0.000000e+00 0.000000e+00 0.000000e+00 0.000000e+00 0.000000e+00 0.000000e+00 0.000000e+00 0.000000e+00 0.000000e+00 7.222222e-01 2.777778e-01 0.000000e+00
 0.000000e+00 0.000000e+00 0.000000e+00 0.000000e+00 0.000000e+00 0.000000e+00 0.000000e+00 0.000000e+00 0.000000e+00 0.000000e+00 0.000000e+00 0.000000e+00 0.000000e+00 0.000000e+00 0.000000e+00 0.000000e+00 9.145299e-01 8.547010e-02
 0.000000e+00 0.000000e+00 0.000000e+00 0.000000e+00 0.000000e+00 0.000000e+00 0.000000e+00 0.000000e+00 0.000000e+00 0.000000e+00 0.000000e+00 0.000000e+00 0.000000e+00 0.000000e+00 0.000000e+00 0.000000e+00 0.000000e+00 0.000000e+00
<ENDHMM>
