~o
<STREAMINFO> 1 15
<VECSIZE> 15<NULLD><MFCC><DIAGC>
~h "Rory"
<BEGINHMM>
<NUMSTATES> 10
<STATE> 2
<MEAN> 15
 -3.423612e+01 -1.553763e+00 -2.935225e-01 -3.698843e-01 -7.020716e-01 2.438000e-01 -7.950168e-01 1.216277e-01 -4.658577e-01 3.250182e-01 -5.079746e-01 -2.017530e-01 -3.818737e-01 1.064885e-01 -1.311052e-01
<VARIANCE> 15
 2.581505e+00 9.199799e-01 8.591557e-01 5.145607e-01 3.270829e-01 3.012761e-01 1.966714e-01 1.463496e-01 2.079763e-01 1.945427e-01 1.373533e-01 1.825393e-01 1.291824e-01 1.558898e-01 1.153922e-01
<GCONST> 8.793650e+00
<STATE> 3
<MEAN> 15
 -2.682590e+01 1.562896e+00 3.200882e+00 2.022187e+00 5.179655e-01 9.021293e-01 -6.547114e-01 4.610969e-01 3.249224e-01 6.220177e-01 -7.326436e-01 -5.088865e-01 -7.578821e-01 1.132855e-01 -3.731903e-01
<VARIANCE> 15
 3.640783e+00 1.744997e+00 4.950363e-01 6.626368e-01 3.384149e-01 2.798319e-01 5.480597e-01 3.756544e-01 2.698289e-01 2.476096e-01 2.925509e-01 2.551193e-01 1.522438e-01 2.452421e-01 1.475696e-01
<GCONST> 1.386270e+01
<STATE> 4
<MEAN> 15
 -2.393060e+01 1.549098e+00 4.419704e+00 2.728964e+00 -1.528479e-01 1.674800e+00 -1.321164e+00 -1.887168e-01 2.333402e-02 -3.133885e-01 -7.213607e-01 -6.619503e-01 -1.041377e+00 -4.811606e-01 -4.976629e-01
<VARIANCE> 15
 1.589239e+00 1.045416e+00 5.378085e-01 4.793783e-01 7.393999e-01 5.474144e-01 7.581356e-01 2.392155e-01 3.611671e-01 6.466544e-01 2.449341e-01 2.119415e-01 1.722510e-01 2.249561e-01 1.505794e-01
<GCONST> 1.455207e+01
<STATE> 5
<MEAN> 15
 -2.287556e+01 2.640571e+00 3.387869e+00 2.267628e+00 9.336169e-01 3.877931e-01 -5.485165e-01 -6.145949e-01 1.791156e-01 -4.736539e-01 -1.908691e+00 -2.063606e-01 -1.690228e+00 -4.024042e-01 -3.149017e-02
<VARIANCE> 15
 2.404059e+00 8.370674e-01 7.102529e-01 9.742179e-01 1.267522e+00 5.483028e-01 7.808021e-01 6.846538e-01 5.639576e-01 2.153988e-01 6.347821e-01 2.390382e-01 4.942079e-01 4.631787e-01 2.510321e-01
<GCONST> 2.005881e+01
<STATE> 6
<MEAN> 15
 -2.389520e+01 2.676110e+00 4.636699e+00 1.484308e+00 -8.891298e-02 6.126051e-01 -2.491013e+00 -3.804661e-01 -3.806314e-01 1.269803e+00 -9.570747e-01 -4.206729e-02 -6.366671e-01 -4.506454e-02 -6.888294e-01
<VARIANCE> 15
 3.749137e+00 1.050124e+00 8.692371e-01 1.684195e+00 5.906020e-01 5.203364e-01 1.561995e+00 6.664237e-01 7.394733e-01 1.757997e+00 3.800850e-01 2.764251e-01 2.865191e-01 2.376781e-01 2.086933e-01
<GCONST> 2.193548e+01
<STATE> 7
<MEAN> 15
 -2.372748e+01 1.749103e+00 1.734492e+00 -4.719865e-01 2.239689e-01 1.335516e+00 -8.263800e-01 2.203474e+00 6.630780e-01 1.832034e+00 -1.736316e+00 -1.408948e-01 -2.855270e-01 2.309867e-01 -8.085866e-01
<VARIANCE> 15
 2.594022e+00 1.186371e+00 1.171586e+00 6.502681e-01 7.130032e-01 9.854702e-01 1.209023e+00 6.437806e-01 7.097979e-01 9.914793e-01 6.269746e-01 1.047573e+00 5.355254e-01 3.151139e-01 1.676811e-01
<GCONST> 2.348003e+01
<STATE> 8
<MEAN> 15
 -2.876544e+01 -1.032175e-01 1.307149e+00 1.997172e-01 1.807508e-01 1.524713e+00 4.093414e-01 1.405300e+00 6.398630e-02 6.673785e-01 -5.340186e-01 5.601947e-01 4.532961e-01 4.165686e-01 -5.433056e-01
<VARIANCE> 15
 4.349194e+00 1.211711e+00 5.364574e-01 4.381210e-01 6.462657e-01 3.011454e-01 1.965751e-01 3.091310e-01 2.524506e-01 2.461874e-01 2.998011e-01 1.941803e-01 1.845110e-01 1.460166e-01 1.769006e-01
<GCONST> 1.237669e+01
<STATE> 9
<MEAN> 15
 -3.349638e+01 -1.491910e+00 -3.476044e-01 -3.857421e-01 -6.253486e-01 3.582124e-01 -5.538648e-01 2.654817e-01 -3.350830e-01 5.945359e-01 -3.844907e-01 -1.604889e-02 -4.121214e-01 9.921492e-02 -4.510935e-01
<VARIANCE> 15
 1.570393e+00 4.934474e-01 2.686936e-01 4.254464e-01 2.439571e-01 2.281083e-01 2.229571e-01 2.243053e-01 1.600406e-01 1.442216e-01 1.433812e-01 1.360528e-01 1.181302e-01 1.197250e-01 1.084811e-01
<GCONST> 5.074726e+00
<TRANSP> 10
 0.000000e+00 1.000000e+00 0.000000e+00 0.000000e+00 0.000000e+00 0.000000e+00 0.000000e+00 0.000000e+00 0.000000e+00 0.000000e+00
 0.000000e+00 9.270073e-01 7.299270e-02 0.000000e+00 0.000000e+00 0.000000e+00 0.000000e+00 0.000000e+00 0.000000e+00 0.000000e+00
 0.000000e+00 0.000000e+00 8.888889e-01 1.111111e-01 0.000000e+00 0.000000e+00 0.000000e+00 0.000000e+00 0.000000e+00 0.000000e+00
 0.000000e+00 0.000000e+00 0.000000e+00 9.038461e-01 9.615386e-02 0.000000e+00 0.000000e+00 0.000000e+00 0.000000e+00 0.000000e+00
 0.000000e+00 0.000000e+00 0.000000e+00 0.000000e+00 9.435028e-01 5.649717e-02 0.000000e+00 0.000000e+00 0.000000e+00 0.000000e+00
 0.000000e+00 0.000000e+00 0.000000e+00 0.000000e+00 0.000000e+00 9.090909e-01 9.090909e-02 0.000000e+00 0.000000e+00 0.000000e+00
 0.000000e+00 0.000000e+00 0.000000e+00 0.000000e+00 0.000000e+00 0.000000e+00 8.734177e-01 1.265823e-01 0.000000e+00 0.000000e+00
 0.000000e+00 0.000000e+00 0.000000e+00 0.000000e+00 0.000000e+00 0.000000e+00 0.000000e+00 9.029126e-01 9.708737e-02 0.000000e+00
 0.000000e+00 0.000000e+00 0.000000e+00 0.000000e+00 0.000000e+00 0.000000e+00 0.000000e+00 0.000000e+00 9.324324e-01 6.756756e-02
 0.000000e+00 0.000000e+00 0.000000e+00 0.000000e+00 0.000000e+00 0.000000e+00 0.000000e+00 0.000000e+00 0.000000e+00 0.000000e+00
<ENDHMM>
