~o
<STREAMINFO> 1 15
<VECSIZE> 15<NULLD><MFCC><DIAGC>
~h "Rory"
<BEGINHMM>
<NUMSTATES> 18
<STATE> 2
<MEAN> 15
 -3.472756e+01 -1.694715e+00 -6.235017e-01 -5.190102e-01 -7.573752e-01 1.190465e-01 -6.848928e-01 8.195888e-02 -4.597358e-01 2.952312e-01 -4.836401e-01 -1.631698e-01 -3.695577e-01 4.370604e-02 -1.616218e-01
<VARIANCE> 15
 2.073027e+00 9.124958e-01 5.320663e-01 4.044319e-01 2.326763e-01 2.452239e-01 1.652835e-01 1.127771e-01 2.219287e-01 2.041947e-01 1.264455e-01 1.631732e-01 1.478557e-01 1.279783e-01 9.161264e-02
<GCONST> 6.490639e+00
<STATE> 3
<MEAN> 15
 -3.234399e+01 -9.620560e-01 9.256142e-01 1.676695e-01 -4.851347e-01 6.827438e-01 -1.152922e+00 2.766874e-01 -4.292926e-01 4.605010e-01 -6.010799e-01 -3.238394e-01 -4.263107e-01 3.276701e-01 -6.026800e-02
<VARIANCE> 15
 2.286530e+00 9.273000e-01 7.145269e-01 6.217529e-01 6.295411e-01 3.078922e-01 1.333350e-01 2.331501e-01 2.073809e-01 1.837862e-01 2.096161e-01 2.155709e-01 6.235613e-02 2.171308e-01 1.894952e-01
<GCONST> 1.006697e+01
<STATE> 4
<MEAN> 15
 -2.798288e+01 2.254339e+00 2.875651e+00 1.402801e+00 8.224857e-01 9.951290e-01 -8.964751e-01 7.109698e-01 5.659826e-01 9.103637e-01 -9.422628e-01 -7.536740e-01 -7.838683e-01 3.050699e-01 -2.207738e-01
<VARIANCE> 15
 2.839257e+00 8.672372e-01 3.961137e-01 5.316997e-01 1.996871e-01 1.761866e-01 5.057589e-01 3.449461e-01 3.190118e-01 1.725106e-01 1.993518e-01 3.298347e-01 1.125801e-01 2.344998e-01 1.019397e-01
<GCONST> 1.027881e+01
<STATE> 5
<MEAN> 15
 -2.579454e+01 9.773281e-01 3.363539e+00 2.440675e+00 3.667646e-01 7.395760e-01 -3.359110e-01 2.686718e-01 2.331793e-01 3.240926e-01 -5.558697e-01 -4.310948e-01 -7.478577e-01 -5.343869e-02 -5.476875e-01
<VARIANCE> 15
 2.865510e+00 1.759692e+00 4.312039e-01 3.160558e-01 2.531205e-01 2.940985e-01 4.530644e-01 3.853745e-01 1.594552e-01 1.996661e-01 2.828658e-01 1.086380e-01 1.847748e-01 2.118420e-01 1.536570e-01
<GCONST> 1.080686e+01
<STATE> 6
<MEAN> 15
 -2.441589e+01 1.124440e+00 4.560100e+00 2.885058e+00 -6.136261e-01 1.876310e+00 -1.665397e+00 -1.080564e-01 -1.683893e-01 1.733906e-01 -6.959501e-01 -3.192032e-01 -8.896970e-01 -1.165983e-01 -5.482444e-01
<VARIANCE> 15
 2.657692e+00 7.711962e-01 5.538957e-01 6.254276e-01 6.646426e-01 3.819182e-01 5.872953e-01 2.492411e-01 1.776419e-01 3.836125e-01 2.325264e-01 2.316005e-01 1.799598e-01 9.028850e-02 1.253111e-01
<GCONST> 1.212876e+01
<STATE> 7
<MEAN> 15
 -2.328845e+01 1.985497e+00 4.369637e+00 2.199324e+00 7.580340e-01 1.021151e+00 -9.222597e-01 -5.002647e-01 3.356499e-01 -4.602152e-01 -1.127275e+00 -5.917481e-01 -1.402309e+00 -5.652769e-01 -2.639737e-01
<VARIANCE> 15
 1.596338e+00 5.664048e-01 5.220079e-01 6.991028e-01 1.012130e+00 1.165650e+00 5.385267e-01 2.834141e-01 4.543492e-01 5.159510e-01 3.548490e-01 2.072368e-01 2.477638e-01 2.195892e-01 1.247290e-01
<GCONST> 1.569149e+01
<STATE> 8
<MEAN> 15
 -2.343964e+01 2.210318e+00 3.120309e+00 2.705631e+00 4.747757e-01 8.291965e-01 1.463805e-01 -8.466427e-01 3.649673e-01 -4.447426e-01 -2.360952e+00 -1.584065e-01 -1.423040e+00 -7.451836e-01 7.630279e-02
<VARIANCE> 15
 6.346859e-01 3.574620e-01 4.392551e-01 4.249663e-01 1.364180e+00 3.087081e-01 2.562115e-01 2.902847e-01 2.712853e-01 2.588517e-01 4.815841e-01 2.231804e-01 3.532003e-01 5.513517e-01 2.680866e-01
<GCONST> 1.310385e+01
<STATE> 9
<MEAN> 15
 -2.222147e+01 3.156016e+00 3.166009e+00 1.985951e+00 1.456103e+00 6.387088e-03 -1.149612e+00 -5.826577e-02 -2.640535e-01 -6.321540e-01 -1.667518e+00 -2.044801e-01 -2.179043e+00 -6.231754e-03 -1.846031e-02
<VARIANCE> 15
 4.009015e+00 7.006701e-01 4.713359e-01 1.449443e+00 6.460547e-01 5.287098e-01 3.948182e-01 9.892907e-01 7.366127e-01 1.750850e-01 4.645898e-01 2.677076e-01 4.749029e-01 2.369848e-01 2.670808e-01
<GCONST> 1.856845e+01
<STATE> 10
<MEAN> 15
 -2.393947e+01 3.506589e+00 4.045564e+00 2.454795e+00 -4.560877e-02 6.079682e-01 -1.969124e+00 -8.713999e-01 -9.391405e-02 -1.545486e-01 -8.137534e-01 -5.025253e-01 -9.017159e-01 -2.754703e-01 -4.705814e-01
<VARIANCE> 15
 4.556714e+00 4.855673e-01 4.064815e-01 2.557121e-01 5.137843e-01 2.231899e-01 8.894245e-01 5.510776e-01 4.545107e-01 4.568788e-01 3.289696e-01 2.654671e-01 1.686975e-01 2.353367e-01 1.604149e-01
<GCONST> 1.415335e+01
<STATE> 11
<MEAN> 15
 -2.378576e+01 2.149120e+00 5.087398e+00 1.223972e+00 1.809370e-02 6.061935e-01 -2.753460e+00 -1.144566e-01 -7.269045e-01 1.680736e+00 -1.024412e+00 1.788166e-01 -5.108930e-01 8.593083e-02 -8.294580e-01
<VARIANCE> 15
 2.918128e+00 9.553068e-01 7.418558e-01 1.062200e+00 6.422575e-01 7.147699e-01 1.743723e+00 4.214474e-01 6.553130e-01 9.732322e-01 4.367664e-01 2.745890e-01 3.176880e-01 1.840097e-01 1.999680e-01
<GCONST> 2.024886e+01
<STATE> 12
<MEAN> 15
 -2.316551e+01 2.553969e+00 2.379518e+00 -8.225838e-01 -1.601036e-01 8.167965e-01 -1.540017e+00 1.968791e+00 1.105163e+00 2.645739e+00 -1.410563e+00 -5.417042e-01 -7.781901e-01 -1.522015e-01 -8.147982e-01
<VARIANCE> 15
 3.028658e+00 9.270709e-01 1.877818e+00 8.145365e-01 3.196812e-01 6.665286e-01 1.447371e+00 1.314264e+00 5.356056e-01 1.028603e+00 5.616008e-01 3.671898e-01 4.361446e-01 3.562562e-01 1.739310e-01
<GCONST> 2.233647e+01
<STATE> 13
<MEAN> 15
 -2.470864e+01 1.040824e+00 1.585132e+00 -1.559043e-01 5.483208e-01 1.701945e+00 -2.571199e-01 2.056968e+00 2.411248e-01 1.137467e+00 -1.832558e+00 3.223253e-01 2.315707e-01 4.809133e-01 -7.822768e-01
<VARIANCE> 15
 2.388176e+00 5.205201e-01 7.838211e-01 3.441548e-01 9.510111e-01 8.192905e-01 6.801210e-01 3.584295e-01 3.560203e-01 5.120462e-01 5.852794e-01 1.063602e+00 1.881606e-01 1.545160e-01 1.482328e-01
<GCONST> 1.719146e+01
<STATE> 14
<MEAN> 15
 -2.780899e+01 9.067523e-02 1.502886e+00 2.672362e-01 1.929301e-01 1.598335e+00 4.568110e-01 1.501091e+00 2.579577e-02 6.054943e-01 -6.262140e-01 6.561260e-01 6.170306e-01 4.260738e-01 -5.401716e-01
<VARIANCE> 15
 1.763845e+00 1.361183e+00 4.521160e-01 5.847722e-01 7.010526e-01 3.572826e-01 1.808799e-01 3.219860e-01 2.443521e-01 3.070147e-01 1.854239e-01 1.995172e-01 1.539261e-01 1.671006e-01 1.883467e-01
<GCONST> 1.166920e+01
<STATE> 15
<MEAN> 15
 -3.107690e+01 -6.682902e-01 6.964692e-01 2.232211e-01 -5.023735e-03 1.432068e+00 4.374688e-01 1.051265e+00 -7.813091e-02 8.183544e-01 -8.620412e-02 4.168492e-01 1.671764e-01 3.527250e-01 -5.421519e-01
<VARIANCE> 15
 1.624001e+00 5.537696e-01 3.596319e-01 1.869609e-01 2.579951e-01 2.085690e-01 1.476067e-01 1.392842e-01 2.641108e-01 1.382183e-01 1.043110e-01 1.306124e-01 9.311642e-02 1.415328e-01 1.519261e-01
<GCONST> 4.136068e+00
<STATE> 16
<MEAN> 15
 -3.315515e+01 -1.124845e+00 -3.416231e-03 1.304429e-01 -4.277795e-01 7.636297e-01 -1.970021e-01 6.608827e-01 -2.001014e-01 6.556187e-01 -1.719810e-01 1.891201e-01 -2.246162e-01 2.421426e-01 -2.729087e-01
<VARIANCE> 15
 1.928226e+00 2.930776e-01 3.119450e-01 2.344766e-01 4.033235e-01 1.574781e-01 2.253198e-01 2.355023e-01 1.415700e-01 1.265142e-01 1.177698e-01 1.076500e-01 1.648736e-01 1.430109e-01 1.076788e-01
<GCONST> 4.323089e+00
<STATE> 17
<MEAN> 15
 -3.357106e+01 -1.615649e+00 -4.289828e-01 -5.751300e-01 -6.793731e-01 2.088163e-01 -6.801296e-01 1.449072e-01 -3.546644e-01 5.653368e-01 -4.691479e-01 -7.312996e-02 -4.697296e-01 6.537084e-02 -5.011348e-01
<VARIANCE> 15
 1.583405e+00 5.152589e-01 2.525060e-01 3.578753e-01 2.013746e-01 1.465880e-01 1.578664e-01 1.744031e-01 1.691746e-01 1.473819e-01 1.285650e-01 1.316333e-01 1.024123e-01 1.104748e-01 9.653206e-02
<GCONST> 3.255443e+00
<TRANSP> 18
 0.000000e+00 1.000000e+00 0.000000e+00 0.000000e+00 0.000000e+00 0.000000e+00 0.000000e+00 0.000000e+00 0.000000e+00 0.000000e+00 0.000000e+00 0.000000e+00 0.000000e+00 0.000000e+00 0.000000e+00 0.000000e+00 0.000000e+00 0.000000e+00
 0.000000e+00 9.047619e-01 9.523809e-02 0.000000e+00 0.000000e+00 0.000000e+00 0.000000e+00 0.000000e+00 0.000000e+00 0.000000e+00 0.000000e+00 0.000000e+00 0.000000e+00 0.000000e+00 0.000000e+00 0.000000e+00 0.000000e+00 0.000000e+00
 0.000000e+00 0.000000e+00 7.058824e-01 2.941177e-01 0.000000e+00 0.000000e+00 0.000000e+00 0.000000e+00 0.000000e+00 0.000000e+00 0.000000e+00 0.000000e+00 0.000000e+00 0.000000e+00 0.000000e+00 0.000000e+00 0.000000e+00 0.000000e+00
 0.000000e+00 0.000000e+00 0.000000e+00 7.058824e-01 2.941177e-01 0.000000e+00 0.000000e+00 0.000000e+00 0.000000e+00 0.000000e+00 0.000000e+00 0.000000e+00 0.000000e+00 0.000000e+00 0.000000e+00 0.000000e+00 0.000000e+00 0.000000e+00
 0.000000e+00 0.000000e+00 0.000000e+00 0.000000e+00 8.076923e-01 1.923077e-01 0.000000e+00 0.000000e+00 0.000000e+00 0.000000e+00 0.000000e+00 0.000000e+00 0.000000e+00 0.000000e+00 0.000000e+00 0.000000e+00 0.000000e+00 0.000000e+00
 0.000000e+00 0.000000e+00 0.000000e+00 0.000000e+00 0.000000e+00 8.039216e-01 1.960784e-01 0.000000e+00 0.000000e+00 0.000000e+00 0.000000e+00 0.000000e+00 0.000000e+00 0.000000e+00 0.000000e+00 0.000000e+00 0.000000e+00 0.000000e+00
 0.000000e+00 0.000000e+00 0.000000e+00 0.000000e+00 0.000000e+00 0.000000e+00 8.666667e-01 1.333333e-01 0.000000e+00 0.000000e+00 0.000000e+00 0.000000e+00 0.000000e+00 0.000000e+00 0.000000e+00 0.000000e+00 0.000000e+00 0.000000e+00
 0.000000e+00 0.000000e+00 0.000000e+00 0.000000e+00 0.000000e+00 0.000000e+00 0.000000e+00 8.734177e-01 1.265823e-01 0.000000e+00 0.000000e+00 0.000000e+00 0.000000e+00 0.000000e+00 0.000000e+00 0.000000e+00 0.000000e+00 0.000000e+00
 0.000000e+00 0.000000e+00 0.000000e+00 0.000000e+00 0.000000e+00 0.000000e+00 0.000000e+00 0.000000e+00 8.214286e-01 1.785714e-01 0.000000e+00 0.000000e+00 0.000000e+00 0.000000e+00 0.000000e+00 0.000000e+00 0.000000e+00 0.000000e+00
 0.000000e+00 0.000000e+00 0.000000e+00 0.000000e+00 0.000000e+00 0.000000e+00 0.000000e+00 0.000000e+00 0.000000e+00 8.387097e-01 1.612903e-01 0.000000e+00 0.000000e+00 0.000000e+00 0.000000e+00 0.000000e+00 0.000000e+00 0.000000e+00
 0.000000e+00 0.000000e+00 0.000000e+00 0.000000e+00 0.000000e+00 0.000000e+00 0.000000e+00 0.000000e+00 0.000000e+00 0.000000e+00 8.333333e-01 1.666667e-01 0.000000e+00 0.000000e+00 0.000000e+00 0.000000e+00 0.000000e+00 0.000000e+00
 0.000000e+00 0.000000e+00 0.000000e+00 0.000000e+00 0.000000e+00 0.000000e+00 0.000000e+00 0.000000e+00 0.000000e+00 0.000000e+00 0.000000e+00 7.916667e-01 2.083333e-01 0.000000e+00 0.000000e+00 0.000000e+00 0.000000e+00 0.000000e+00
 0.000000e+00 0.000000e+00 0.000000e+00 0.000000e+00 0.000000e+00 0.000000e+00 0.000000e+00 0.000000e+00 0.000000e+00 0.000000e+00 0.000000e+00 0.000000e+00 8.039216e-01 1.960784e-01 0.000000e+00 0.000000e+00 0.000000e+00 0.000000e+00
 0.000000e+00 0.000000e+00 0.000000e+00 0.000000e+00 0.000000e+00 0.000000e+00 0.000000e+00 0.000000e+00 0.000000e+00 0.000000e+00 0.000000e+00 0.000000e+00 0.000000e+00 8.275862e-01 1.724138e-01 0.000000e+00 0.000000e+00 0.000000e+00
 0.000000e+00 0.000000e+00 0.000000e+00 0.000000e+00 0.000000e+00 0.000000e+00 0.000000e+00 0.000000e+00 0.000000e+00 0.000000e+00 0.000000e+00 0.000000e+00 0.000000e+00 0.000000e+00 7.058824e-01 2.941177e-01 0.000000e+00 0.000000e+00
 0.000000e+00 0.000000e+00 0.000000e+00 0.000000e+00 0.000000e+00 0.000000e+00 0.000000e+00 0.000000e+00 0.000000e+00 0.000000e+00 0.000000e+00 0.000000e+00 0.000000e+00 0.000000e+00 0.000000e+00 7.435898e-01 2.564103e-01 0.000000e+00
 0.000000e+00 0.000000e+00 0.000000e+00 0.000000e+00 0.000000e+00 0.000000e+00 0.000000e+00 0.000000e+00 0.000000e+00 0.000000e+00 0.000000e+00 0.000000e+00 0.000000e+00 0.000000e+00 0.000000e+00 0.000000e+00 9.090909e-01 9.090909e-02
 0.000000e+00 0.000000e+00 0.000000e+00 0.000000e+00 0.000000e+00 0.000000e+00 0.000000e+00 0.000000e+00 0.000000e+00 0.000000e+00 0.000000e+00 0.000000e+00 0.000000e+00 0.000000e+00 0.000000e+00 0.000000e+00 0.000000e+00 0.000000e+00
<ENDHMM>
