~o
<STREAMINFO> 1 15
<VECSIZE> 15<NULLD><MFCC><DIAGC>
~h "Ruaridh"
<BEGINHMM>
<NUMSTATES> 10
<STATE> 2
<MEAN> 15
 -3.166009e+01 -2.710938e+00 1.453564e+00 -4.695970e-01 -6.318700e-01 -5.485665e-01 -8.845546e-01 -6.349701e-01 -6.557606e-01 -1.757001e-01 -4.619266e-01 -2.078625e-01 -2.469160e-01 -1.931639e-02 -1.651172e-01
<VARIANCE> 15
 4.783310e+00 1.978792e+00 1.309598e+00 4.996548e-01 4.113396e-01 1.826430e-01 2.742954e-01 3.345904e-01 2.231122e-01 1.617919e-01 1.969918e-01 2.061192e-01 1.422998e-01 1.579158e-01 2.060717e-01
<GCONST> 1.251424e+01
<STATE> 3
<MEAN> 15
 -1.983123e+01 -2.981099e-01 5.978868e+00 2.286737e+00 -5.746284e-01 -3.736785e-01 -9.765804e-01 -1.400286e+00 -5.396335e-01 4.513163e-01 -9.308288e-02 1.380443e-01 -3.214154e-01 -2.428968e-01 -6.300676e-01
<VARIANCE> 15
 9.022100e+00 1.388104e+00 1.403641e+00 1.762579e+00 1.198034e+00 7.060527e-01 6.811202e-01 6.269438e-01 3.028069e-01 2.577912e-01 2.355559e-01 2.439769e-01 3.105790e-01 1.544809e-01 1.286494e-01
<GCONST> 1.948890e+01
<STATE> 4
<MEAN> 15
 -1.865436e+01 5.315879e-02 4.077191e+00 1.326463e+00 -9.928358e-01 4.873812e-01 -5.757755e-01 5.260463e-01 1.943460e-01 1.058799e+00 4.446248e-01 -5.476332e-01 -1.172559e+00 3.825941e-02 -5.478510e-01
<VARIANCE> 15
 1.636085e+00 1.909893e+00 3.920705e+00 8.119563e-01 8.772297e-01 1.258541e+00 1.191865e+00 1.041580e+00 4.577906e-01 3.660438e-01 4.246342e-01 5.614864e-01 2.453094e-01 1.418403e-01 1.314564e-01
<GCONST> 2.157329e+01
<STATE> 5
<MEAN> 15
 -1.889683e+01 -2.115151e+00 1.788492e+00 1.752135e+00 3.340002e-01 1.902299e+00 1.397959e+00 3.373461e-01 5.517836e-01 3.098936e-01 -7.553898e-01 -3.307781e-01 1.342230e-01 3.349690e-01 -9.895597e-01
<VARIANCE> 15
 2.197493e+00 2.679618e+00 1.151413e+00 8.741047e-01 5.814911e-01 8.319216e-01 3.764927e-01 5.414952e-01 3.381199e-01 3.862487e-01 3.307779e-01 3.188615e-01 3.631808e-01 1.810155e-01 2.162725e-01
<GCONST> 1.849295e+01
<STATE> 6
<MEAN> 15
 -1.984738e+01 -1.164167e+00 1.046294e+00 9.152409e-01 1.129410e+00 6.577339e-01 7.060136e-01 9.701313e-01 4.944852e-03 -2.793002e-01 -2.952791e-01 1.260365e-01 -3.870628e-01 -3.260489e-01 -5.261886e-01
<VARIANCE> 15
 2.620933e+01 1.776436e+00 1.594835e+00 8.460087e-01 6.535801e-01 5.192719e-01 9.842767e-01 5.413153e-01 4.057998e-01 3.706282e-01 1.655788e-01 1.881810e-01 3.794199e-01 3.722595e-01 2.600200e-01
<GCONST> 2.133082e+01
<STATE> 7
<MEAN> 15
 -1.714248e+01 -1.273749e+00 4.689600e+00 1.357912e+00 -1.505788e+00 7.939988e-02 3.617032e-01 -5.535716e-01 -8.928681e-01 7.663579e-01 -8.370592e-02 -3.495632e-01 -5.326700e-01 1.211552e-01 -1.654936e+00
<VARIANCE> 15
 3.638532e+00 1.745283e+00 1.245985e+00 6.477404e-01 8.691327e-01 7.514808e-01 4.500543e-01 7.667456e-01 4.102581e-01 5.056911e-01 3.815756e-01 2.553069e-01 2.233942e-01 2.857521e-01 2.643418e-01
<GCONST> 1.972886e+01
<STATE> 8
<MEAN> 15
 -2.299430e+01 -2.577345e+00 4.348812e+00 5.553624e-01 -9.812171e-01 -7.858786e-01 -3.302471e-01 -1.061065e+00 -1.104996e+00 1.380095e+00 -5.441083e-02 -1.808755e-01 -3.028084e-01 -7.716812e-02 -1.608225e-01
<VARIANCE> 15
 1.144058e+01 1.642680e+00 1.568836e+00 9.591661e-01 4.709497e-01 4.746710e-01 4.939905e-01 3.644761e-01 5.852317e-01 3.795724e-01 3.289897e-01 2.113741e-01 2.572036e-01 2.084629e-01 1.979540e-01
<GCONST> 1.898171e+01
<STATE> 9
<MEAN> 15
 -3.286213e+01 -2.750252e+00 5.148723e-01 -1.078645e+00 -4.580482e-01 -3.399851e-01 -5.872741e-01 -1.912042e-01 -4.332851e-01 2.621643e-01 -2.998968e-01 -1.959614e-01 -4.288678e-01 -1.618674e-01 -2.456280e-01
<VARIANCE> 15
 3.396712e+00 9.531219e-01 5.209246e-01 1.884587e-01 2.809808e-01 2.275387e-01 2.007196e-01 1.818951e-01 1.540096e-01 1.904946e-01 1.310552e-01 1.390489e-01 1.139717e-01 1.134610e-01 9.975154e-02
<GCONST> 6.174741e+00
<TRANSP> 10
 0.000000e+00 1.000000e+00 0.000000e+00 0.000000e+00 0.000000e+00 0.000000e+00 0.000000e+00 0.000000e+00 0.000000e+00 0.000000e+00
 0.000000e+00 8.831169e-01 1.168831e-01 0.000000e+00 0.000000e+00 0.000000e+00 0.000000e+00 0.000000e+00 0.000000e+00 0.000000e+00
 0.000000e+00 0.000000e+00 9.467456e-01 5.325444e-02 0.000000e+00 0.000000e+00 0.000000e+00 0.000000e+00 0.000000e+00 0.000000e+00
 0.000000e+00 0.000000e+00 0.000000e+00 8.392857e-01 1.607143e-01 0.000000e+00 0.000000e+00 0.000000e+00 0.000000e+00 0.000000e+00
 0.000000e+00 0.000000e+00 0.000000e+00 0.000000e+00 9.081632e-01 9.183673e-02 0.000000e+00 0.000000e+00 0.000000e+00 0.000000e+00
 0.000000e+00 0.000000e+00 0.000000e+00 0.000000e+00 0.000000e+00 9.142857e-01 8.571428e-02 0.000000e+00 0.000000e+00 0.000000e+00
 0.000000e+00 0.000000e+00 0.000000e+00 0.000000e+00 0.000000e+00 0.000000e+00 9.174312e-01 8.256882e-02 0.000000e+00 0.000000e+00
 0.000000e+00 0.000000e+00 0.000000e+00 0.000000e+00 0.000000e+00 0.000000e+00 0.000000e+00 9.174312e-01 8.256882e-02 0.000000e+00
 0.000000e+00 0.000000e+00 0.000000e+00 0.000000e+00 0.000000e+00 0.000000e+00 0.000000e+00 0.000000e+00 9.723077e-01 2.769231e-02
 0.000000e+00 0.000000e+00 0.000000e+00 0.000000e+00 0.000000e+00 0.000000e+00 0.000000e+00 0.000000e+00 0.000000e+00 0.000000e+00
<ENDHMM>
