~o
<STREAMINFO> 1 15
<VECSIZE> 15<NULLD><MFCC><DIAGC>
~h "Ruaridh"
<BEGINHMM>
<NUMSTATES> 18
<STATE> 2
<MEAN> 15
 -3.227436e+01 -2.563638e+00 1.031257e+00 -6.087968e-01 -4.793633e-01 -5.551901e-01 -7.888134e-01 -5.690177e-01 -6.737700e-01 -2.163986e-01 -4.986846e-01 -2.586378e-01 -2.342196e-01 -2.882643e-02 -1.194680e-01
<VARIANCE> 15
 3.672456e+00 1.525088e+00 6.360096e-01 3.649547e-01 3.052886e-01 1.826793e-01 2.369621e-01 3.173008e-01 2.064140e-01 1.281974e-01 1.915299e-01 1.662869e-01 9.938458e-02 1.373088e-01 1.428758e-01
<GCONST> 9.037395e+00
<STATE> 3
<MEAN> 15
 -2.858307e+01 -2.444689e+00 3.545477e+00 4.997238e-01 -1.023947e+00 -5.708889e-01 -1.148339e+00 -1.015895e+00 -5.153237e-01 1.275974e-01 -2.431865e-01 -4.174521e-03 -2.437406e-01 6.529248e-02 -3.774485e-01
<VARIANCE> 15
 1.830477e+00 4.238829e+00 5.600550e-01 1.018060e+00 9.330322e-01 3.774325e-01 5.234110e-01 5.005421e-01 3.388163e-01 2.585449e-01 1.769242e-01 2.878189e-01 4.431391e-01 2.126762e-01 3.229185e-01
<GCONST> 1.776741e+01
<STATE> 4
<MEAN> 15
 -2.173127e+01 3.782486e-01 5.352311e+00 2.241276e+00 -9.605827e-02 -8.380526e-01 1.237230e-02 -1.677062e+00 -6.208286e-02 5.128698e-01 -1.523439e-01 3.316821e-02 -7.388973e-01 -6.107811e-02 -5.576857e-01
<VARIANCE> 15
 1.094564e+01 1.463120e+00 7.908974e-01 4.863571e-01 6.561934e-01 1.350736e+00 3.078463e-01 6.693637e-01 2.214989e-01 3.347081e-01 2.076818e-01 1.577467e-01 1.811573e-01 1.445352e-01 1.253661e-01
<GCONST> 1.594655e+01
<STATE> 5
<MEAN> 15
 -1.880869e+01 -1.852328e-01 6.616995e+00 3.113305e+00 -1.201564e+00 -3.782814e-01 -1.247102e+00 -1.700413e+00 -6.935334e-01 4.653442e-01 -8.498213e-02 1.183714e-01 -3.070610e-01 -3.329223e-01 -6.328995e-01
<VARIANCE> 15
 4.215626e+00 8.970185e-01 1.101374e+00 9.570414e-01 6.107693e-01 4.802501e-01 4.400896e-01 3.234804e-01 2.838050e-01 2.816238e-01 2.494970e-01 2.857342e-01 2.949198e-01 1.500476e-01 1.320094e-01
<GCONST> 1.546466e+01
<STATE> 6
<MEAN> 15
 -1.883413e+01 -1.162906e+00 5.729228e+00 8.920552e-01 -7.918149e-02 4.047731e-01 -1.388545e+00 -5.039841e-01 -4.140120e-01 5.394944e-01 4.644384e-02 2.514762e-01 -3.164989e-01 -2.531541e-01 -6.842383e-01
<VARIANCE> 15
 1.104370e+00 1.213496e+00 8.146721e-01 9.145387e-01 1.636018e+00 7.452019e-01 4.316294e-01 2.662697e-01 2.874334e-01 2.748983e-01 2.447890e-01 1.532850e-01 2.936262e-01 8.752894e-02 8.748420e-02
<GCONST> 1.368290e+01
<STATE> 7
<MEAN> 15
 -1.907071e+01 1.163070e+00 3.701730e+00 1.142210e+00 -1.046938e+00 -2.600911e-01 -4.266469e-01 7.836233e-01 3.415279e-01 1.398545e+00 8.090230e-01 -6.680450e-01 -1.440470e+00 3.754999e-02 -6.813161e-01
<VARIANCE> 15
 1.531803e+00 6.797132e-01 6.616133e-01 4.301332e-01 5.233823e-01 5.979055e-01 3.953196e-01 3.869453e-01 4.967928e-01 2.725951e-01 4.655376e-01 4.524029e-01 2.855510e-01 1.420290e-01 1.244668e-01
<GCONST> 1.446661e+01
<STATE> 8
<MEAN> 15
 -1.780195e+01 -1.096800e+00 1.007357e+00 1.974531e+00 1.708938e-01 1.071404e+00 1.377176e+00 1.246012e+00 1.107544e-01 -4.549251e-02 -2.530159e-01 -6.492694e-01 -5.627009e-01 4.847213e-01 -5.810781e-01
<VARIANCE> 15
 3.069787e+00 1.324941e+00 6.685995e-01 5.632948e-01 1.009527e+00 5.832882e-01 4.278815e-01 5.994897e-01 6.273984e-01 7.784827e-01 1.966289e-01 3.488742e-01 2.930943e-01 1.394934e-01 3.199886e-01
<GCONST> 1.837190e+01
<STATE> 9
<MEAN> 15
 -1.965444e+01 -2.450308e+00 2.181007e+00 1.483616e+00 4.371471e-01 2.208670e+00 1.362209e+00 7.387649e-02 7.075667e-01 4.319982e-01 -9.512038e-01 -2.568518e-01 3.288381e-01 2.785546e-01 -1.107718e+00
<VARIANCE> 15
 3.081462e+00 3.172099e+00 1.117416e+00 7.850891e-01 4.764145e-01 7.266661e-01 4.012999e-01 4.572657e-01 1.549963e-01 2.891687e-01 3.286104e-01 2.407108e-01 3.332483e-01 1.666205e-01 1.623181e-01
<GCONST> 1.660948e+01
<STATE> 10
<MEAN> 15
 -2.290292e+01 -1.605476e+00 1.797720e+00 8.616436e-01 1.067861e+00 1.179955e+00 1.131685e+00 8.482140e-01 2.465359e-01 6.416146e-02 -4.429838e-01 2.635682e-01 5.079584e-02 -3.336782e-01 -4.774438e-01
<VARIANCE> 15
 1.664070e+01 9.249032e-01 1.063962e+00 7.009117e-01 4.173862e-01 5.534253e-01 2.484692e-01 2.331926e-01 2.608844e-01 1.646817e-01 1.340548e-01 2.049707e-01 1.167627e-01 1.180106e-01 1.646082e-01
<GCONST> 1.286428e+01
<STATE> 11
<MEAN> 15
 -1.684257e+01 -7.482506e-01 5.157921e-01 8.422900e-01 1.132035e+00 2.975512e-01 4.468659e-03 7.165775e-01 -1.099208e-01 -3.495815e-01 -2.167595e-01 1.021234e-01 -6.476309e-01 -5.537855e-01 -6.547744e-01
<VARIANCE> 15
 1.728634e+01 2.838604e+00 1.448887e+00 1.142758e+00 8.693615e-01 4.033847e-01 9.413896e-01 6.350297e-01 4.024927e-01 2.910041e-01 2.154733e-01 2.059869e-01 4.639818e-01 4.085333e-01 3.005525e-01
<GCONST> 2.227870e+01
<STATE> 12
<MEAN> 15
 -1.599687e+01 -5.953336e-01 3.737499e+00 1.534145e+00 -1.603740e+00 3.728320e-01 1.889400e-01 3.181918e-01 -8.370510e-01 5.263562e-01 -1.457117e-01 -3.683208e-01 -7.854775e-01 -6.460480e-02 -1.534479e+00
<VARIANCE> 15
 1.989746e+00 8.781680e-01 4.790780e-01 3.680894e-01 1.150580e+00 5.891665e-01 2.922534e-01 3.573461e-01 4.237982e-01 4.302444e-01 4.164953e-01 3.105607e-01 2.460501e-01 2.622811e-01 2.161002e-01
<GCONST> 1.572323e+01
<STATE> 13
<MEAN> 15
 -1.780192e+01 -1.732074e+00 5.384571e+00 1.173799e+00 -1.490776e+00 -2.685940e-02 3.979344e-01 -1.103485e+00 -8.467413e-01 8.616194e-01 -5.388827e-02 -3.615560e-01 -3.131087e-01 1.960744e-01 -1.810670e+00
<VARIANCE> 15
 3.701853e+00 1.836858e+00 1.035229e+00 8.438703e-01 6.114318e-01 7.646992e-01 6.414441e-01 2.978158e-01 3.491550e-01 4.670807e-01 3.787512e-01 2.274869e-01 1.627718e-01 2.659105e-01 2.131054e-01
<GCONST> 1.798337e+01
<STATE> 14
<MEAN> 15
 -2.051383e+01 -2.063098e+00 4.860221e+00 1.372620e+00 -8.910308e-01 -7.017400e-01 2.780251e-01 -9.659559e-01 -1.124949e+00 1.412845e+00 1.334360e-01 -1.254486e-02 -3.358054e-01 -3.676943e-02 -2.021169e-01
<VARIANCE> 15
 4.686779e+00 8.124503e-01 4.575541e-01 3.023022e-01 4.759903e-01 2.729947e-01 2.133147e-01 2.022282e-01 7.739617e-01 3.431909e-01 2.714913e-01 1.680669e-01 2.706832e-01 2.285531e-01 2.349829e-01
<GCONST> 1.309905e+01
<STATE> 15
<MEAN> 15
 -2.397633e+01 -3.489869e+00 4.184727e+00 -7.258270e-02 -1.178602e+00 -7.815934e-01 -7.448772e-01 -1.222641e+00 -1.254981e+00 1.540015e+00 -2.160088e-01 -4.255095e-01 -3.253411e-01 -5.195852e-03 -2.405243e-01
<VARIANCE> 15
 5.272202e+00 1.964032e+00 1.539282e+00 5.639763e-01 6.347771e-01 7.015975e-01 1.625518e-01 5.934063e-01 3.125488e-01 4.121346e-01 3.296753e-01 1.372242e-01 2.381408e-01 2.103532e-01 1.582292e-01
<GCONST> 1.663391e+01
<STATE> 16
<MEAN> 15
 -2.995687e+01 -1.568012e+00 1.931418e+00 -6.312818e-01 -7.135467e-01 -8.527842e-01 -9.712139e-01 -6.375853e-01 -6.535636e-01 7.728685e-01 -2.309495e-01 -2.328954e-01 -4.722506e-01 -2.597654e-01 -1.909168e-02
<VARIANCE> 15
 2.568770e+00 5.741168e-01 5.127739e-01 2.152452e-01 3.401203e-01 3.596731e-01 1.367600e-01 1.928927e-01 3.496787e-01 1.941874e-01 1.693907e-01 1.574197e-01 1.321627e-01 1.729097e-01 8.490231e-02
<GCONST> 7.457575e+00
<STATE> 17
<MEAN> 15
 -3.307599e+01 -2.886217e+00 4.058538e-01 -1.113420e+00 -4.360680e-01 -3.031620e-01 -5.508776e-01 -1.599393e-01 -4.247867e-01 2.161935e-01 -3.120606e-01 -1.882483e-01 -4.211638e-01 -1.460381e-01 -2.672051e-01
<VARIANCE> 15
 3.202705e+00 8.186211e-01 4.256782e-01 1.804934e-01 2.613265e-01 2.062712e-01 1.953576e-01 1.769575e-01 1.455464e-01 1.688452e-01 1.276385e-01 1.423726e-01 1.136984e-01 1.090884e-01 9.760167e-02
<GCONST> 5.250011e+00
<TRANSP> 18
 0.000000e+00 1.000000e+00 0.000000e+00 0.000000e+00 0.000000e+00 0.000000e+00 0.000000e+00 0.000000e+00 0.000000e+00 0.000000e+00 0.000000e+00 0.000000e+00 0.000000e+00 0.000000e+00 0.000000e+00 0.000000e+00 0.000000e+00 0.000000e+00
 0.000000e+00 8.548387e-01 1.451613e-01 0.000000e+00 0.000000e+00 0.000000e+00 0.000000e+00 0.000000e+00 0.000000e+00 0.000000e+00 0.000000e+00 0.000000e+00 0.000000e+00 0.000000e+00 0.000000e+00 0.000000e+00 0.000000e+00 0.000000e+00
 0.000000e+00 0.000000e+00 6.086956e-01 3.913043e-01 0.000000e+00 0.000000e+00 0.000000e+00 0.000000e+00 0.000000e+00 0.000000e+00 0.000000e+00 0.000000e+00 0.000000e+00 0.000000e+00 0.000000e+00 0.000000e+00 0.000000e+00 0.000000e+00
 0.000000e+00 0.000000e+00 0.000000e+00 7.352941e-01 2.647059e-01 0.000000e+00 0.000000e+00 0.000000e+00 0.000000e+00 0.000000e+00 0.000000e+00 0.000000e+00 0.000000e+00 0.000000e+00 0.000000e+00 0.000000e+00 0.000000e+00 0.000000e+00
 0.000000e+00 0.000000e+00 0.000000e+00 0.000000e+00 8.977273e-01 1.022727e-01 0.000000e+00 0.000000e+00 0.000000e+00 0.000000e+00 0.000000e+00 0.000000e+00 0.000000e+00 0.000000e+00 0.000000e+00 0.000000e+00 0.000000e+00 0.000000e+00
 0.000000e+00 0.000000e+00 0.000000e+00 0.000000e+00 0.000000e+00 8.448276e-01 1.551724e-01 0.000000e+00 0.000000e+00 0.000000e+00 0.000000e+00 0.000000e+00 0.000000e+00 0.000000e+00 0.000000e+00 0.000000e+00 0.000000e+00 0.000000e+00
 0.000000e+00 0.000000e+00 0.000000e+00 0.000000e+00 0.000000e+00 0.000000e+00 6.250000e-01 3.750000e-01 0.000000e+00 0.000000e+00 0.000000e+00 0.000000e+00 0.000000e+00 0.000000e+00 0.000000e+00 0.000000e+00 0.000000e+00 0.000000e+00
 0.000000e+00 0.000000e+00 0.000000e+00 0.000000e+00 0.000000e+00 0.000000e+00 0.000000e+00 8.500000e-01 1.500000e-01 0.000000e+00 0.000000e+00 0.000000e+00 0.000000e+00 0.000000e+00 0.000000e+00 0.000000e+00 0.000000e+00 0.000000e+00
 0.000000e+00 0.000000e+00 0.000000e+00 0.000000e+00 0.000000e+00 0.000000e+00 0.000000e+00 0.000000e+00 8.500000e-01 1.500000e-01 0.000000e+00 0.000000e+00 0.000000e+00 0.000000e+00 0.000000e+00 0.000000e+00 0.000000e+00 0.000000e+00
 0.000000e+00 0.000000e+00 0.000000e+00 0.000000e+00 0.000000e+00 0.000000e+00 0.000000e+00 0.000000e+00 0.000000e+00 8.200000e-01 1.800000e-01 0.000000e+00 0.000000e+00 0.000000e+00 0.000000e+00 0.000000e+00 0.000000e+00 0.000000e+00
 0.000000e+00 0.000000e+00 0.000000e+00 0.000000e+00 0.000000e+00 0.000000e+00 0.000000e+00 0.000000e+00 0.000000e+00 0.000000e+00 8.043478e-01 1.956522e-01 0.000000e+00 0.000000e+00 0.000000e+00 0.000000e+00 0.000000e+00 0.000000e+00
 0.000000e+00 0.000000e+00 0.000000e+00 0.000000e+00 0.000000e+00 0.000000e+00 0.000000e+00 0.000000e+00 0.000000e+00 0.000000e+00 0.000000e+00 7.804878e-01 2.195122e-01 0.000000e+00 0.000000e+00 0.000000e+00 0.000000e+00 0.000000e+00
 0.000000e+00 0.000000e+00 0.000000e+00 0.000000e+00 0.000000e+00 0.000000e+00 0.000000e+00 0.000000e+00 0.000000e+00 0.000000e+00 0.000000e+00 0.000000e+00 8.571429e-01 1.428571e-01 0.000000e+00 0.000000e+00 0.000000e+00 0.000000e+00
 0.000000e+00 0.000000e+00 0.000000e+00 0.000000e+00 0.000000e+00 0.000000e+00 0.000000e+00 0.000000e+00 0.000000e+00 0.000000e+00 0.000000e+00 0.000000e+00 0.000000e+00 8.474576e-01 1.525424e-01 0.000000e+00 0.000000e+00 0.000000e+00
 0.000000e+00 0.000000e+00 0.000000e+00 0.000000e+00 0.000000e+00 0.000000e+00 0.000000e+00 0.000000e+00 0.000000e+00 0.000000e+00 0.000000e+00 0.000000e+00 0.000000e+00 0.000000e+00 7.692308e-01 2.307692e-01 0.000000e+00 0.000000e+00
 0.000000e+00 0.000000e+00 0.000000e+00 0.000000e+00 0.000000e+00 0.000000e+00 0.000000e+00 0.000000e+00 0.000000e+00 0.000000e+00 0.000000e+00 0.000000e+00 0.000000e+00 0.000000e+00 0.000000e+00 8.085107e-01 1.914894e-01 0.000000e+00
 0.000000e+00 0.000000e+00 0.000000e+00 0.000000e+00 0.000000e+00 0.000000e+00 0.000000e+00 0.000000e+00 0.000000e+00 0.000000e+00 0.000000e+00 0.000000e+00 0.000000e+00 0.000000e+00 0.000000e+00 0.000000e+00 9.693878e-01 3.061225e-02
 0.000000e+00 0.000000e+00 0.000000e+00 0.000000e+00 0.000000e+00 0.000000e+00 0.000000e+00 0.000000e+00 0.000000e+00 0.000000e+00 0.000000e+00 0.000000e+00 0.000000e+00 0.000000e+00 0.000000e+00 0.000000e+00 0.000000e+00 0.000000e+00
<ENDHMM>
