~o
<STREAMINFO> 1 20
<VECSIZE> 20<NULLD><MFCC><DIAGC>
~h "Ruaridh"
<BEGINHMM>
<NUMSTATES> 18
<STATE> 2
<MEAN> 20
 -3.711612e+01 -2.940332e+00 6.669037e-01 8.806788e-02 -1.174645e+00 -4.629129e-02 -1.291271e+00 -3.308652e-01 -1.134551e+00 -2.332014e-01 -6.025258e-01 -3.510528e-01 -5.078606e-01 -1.033298e-01 -1.975803e-01 -3.932147e-02 4.612022e-02 1.653367e-01 1.200216e-01 4.456059e-02
<VARIANCE> 20
 5.666992e+00 1.950628e+00 8.065506e-01 6.542030e-01 5.206949e-01 2.253125e-01 2.428087e-01 3.803349e-01 3.680173e-01 2.194663e-01 2.161236e-01 2.313590e-01 1.674679e-01 1.288699e-01 1.804195e-01 1.721883e-01 1.717933e-01 2.022411e-01 1.684206e-01 1.123849e-01
<GCONST> 1.384968e+01
<STATE> 3
<MEAN> 20
 -3.275158e+01 -2.388712e+00 3.544694e+00 2.164596e+00 -1.691121e+00 1.268118e-02 -1.455682e+00 -7.217208e-01 -1.369261e+00 3.700207e-01 -1.745180e-01 1.198986e-01 -2.635994e-01 -5.606185e-02 -1.273024e-01 -3.978382e-01 1.779942e-02 5.482304e-01 4.536148e-01 5.687323e-01
<VARIANCE> 20
 3.858403e+00 4.569646e+00 1.282899e+00 1.200715e+00 1.868767e+00 5.071491e-01 8.758801e-01 5.249631e-01 6.557257e-01 1.844792e-01 2.236459e-01 2.764560e-01 1.952125e-01 5.426967e-01 2.655722e-01 4.819322e-01 1.657119e-01 2.275982e-01 1.743400e-01 3.575021e-01
<GCONST> 2.397928e+01
<STATE> 4
<MEAN> 20
 -2.690807e+01 -2.534473e-01 5.436017e+00 4.364002e+00 -5.826858e-01 8.544735e-03 -3.365616e-01 -6.869963e-01 -1.592748e+00 9.377034e-01 2.179543e-03 7.462173e-02 -1.893960e-01 -3.149892e-01 -4.100126e-01 -4.863499e-01 -4.127323e-01 -9.424134e-02 -1.821146e-01 5.233217e-02
<VARIANCE> 20
 5.501764e+00 1.245188e+00 1.059719e+00 1.801420e+00 1.367126e+00 6.402400e-01 3.645136e-01 5.927499e-01 4.672228e-01 1.612806e-01 5.382200e-01 4.968796e-01 1.625185e-01 2.539603e-01 3.110612e-01 2.077024e-01 2.670041e-01 1.315889e-01 2.756923e-01 2.317834e-01
<GCONST> 2.173271e+01
<STATE> 5
<MEAN> 20
 -2.143289e+01 -7.474966e-02 6.138968e+00 4.990973e+00 -1.184626e+00 -6.231388e-01 -1.303219e+00 -1.484499e+00 -2.095181e+00 3.997494e-01 -8.689576e-02 1.754757e-01 -3.209224e-01 -3.843635e-01 -5.457587e-01 -6.690607e-01 -8.675337e-01 -4.390822e-01 -4.490065e-01 -1.103589e-01
<VARIANCE> 20
 4.203268e+00 1.300012e+00 1.298600e+00 1.144411e+00 7.636675e-01 9.158263e-01 4.944879e-01 3.901410e-01 4.109026e-01 7.823022e-01 5.813906e-01 3.368246e-01 2.931687e-01 3.494245e-01 1.968356e-01 1.878392e-01 1.879598e-01 2.654192e-01 2.267350e-01 1.935035e-01
<GCONST> 2.238305e+01
<STATE> 6
<MEAN> 20
 -2.185090e+01 -1.642316e+00 5.610416e+00 2.585010e+00 -1.011495e+00 1.123602e+00 -1.555919e+00 -7.564631e-01 -1.055986e+00 2.738468e-01 8.559111e-02 2.088997e-01 -2.634605e-02 -3.243941e-01 -4.712797e-01 -7.161267e-01 -7.591939e-01 -2.251768e-01 -2.111799e-01 -3.148046e-01
<VARIANCE> 20
 1.741189e+00 1.423777e+00 5.726355e-01 2.135819e+00 1.727464e+00 6.474608e-01 4.770145e-01 8.163917e-01 3.912340e-01 2.551702e-01 2.764103e-01 2.256530e-01 3.035128e-01 3.260430e-01 1.365139e-01 1.666713e-01 1.322952e-01 2.961764e-01 2.087222e-01 2.032255e-01
<GCONST> 1.946093e+01
<STATE> 7
<MEAN> 20
 -2.197536e+01 7.423412e-01 2.706278e+00 2.158833e+00 -1.101056e+00 -9.575613e-03 -4.287913e-02 6.018072e-01 4.672711e-01 4.177935e-01 1.350071e+00 -1.130432e-01 -1.274445e+00 -1.288955e+00 2.541577e-01 -9.188950e-01 -1.248715e+00 -1.543151e-01 7.936080e-02 -4.214585e-01
<VARIANCE> 20
 2.050863e+00 1.094483e+00 2.883654e+00 5.045364e-01 5.271676e-01 9.713818e-01 1.780332e+00 5.479315e-01 5.719670e-01 4.659560e-01 5.751817e-01 6.461067e-01 5.924050e-01 3.424673e-01 3.389845e-01 2.368445e-01 3.339761e-01 1.674201e-01 2.185815e-01 2.167933e-01
<GCONST> 2.488412e+01
<STATE> 8
<MEAN> 20
 -1.942540e+01 -1.700926e+00 3.357947e-01 2.309309e+00 9.433402e-01 9.657855e-01 1.390191e+00 1.579827e+00 6.578447e-01 -2.156862e-01 -5.502930e-01 -2.385051e-01 -6.405749e-01 -2.546152e-01 5.218294e-01 -9.380453e-01 -4.070034e-01 -3.915857e-01 -6.283097e-01 -2.589837e-01
<VARIANCE> 20
 5.937728e+00 8.360847e-01 1.261894e+00 8.934287e-01 1.205143e+00 1.143719e+00 4.889460e-01 8.648012e-01 2.727460e-01 6.219766e-01 6.339146e-01 4.980213e-01 4.176604e-01 3.002799e-01 2.496605e-01 4.433620e-01 2.064217e-01 2.248772e-01 2.124571e-01 8.559748e-02
<GCONST> 2.365858e+01
<STATE> 9
<MEAN> 20
 -2.212630e+01 -2.935636e+00 1.633742e+00 2.060844e+00 2.215046e-01 1.834582e+00 1.978185e+00 5.504078e-01 2.792350e-02 7.432178e-01 -3.806091e-01 -9.985198e-01 -7.638356e-02 3.614017e-01 2.222227e-02 -1.193471e+00 -4.041454e-01 -2.997591e-01 -6.041676e-01 -7.181579e-01
<VARIANCE> 20
 2.955415e+00 3.582134e+00 1.442138e+00 1.552383e+00 8.134504e-01 6.485346e-01 4.974221e-01 6.768281e-01 6.182755e-01 6.512738e-01 2.716771e-01 2.484906e-01 3.358110e-01 2.993101e-01 1.798939e-01 3.368345e-01 2.013472e-01 1.370186e-01 1.774981e-01 2.047390e-01
<GCONST> 2.258355e+01
<STATE> 10
<MEAN> 20
 -2.874896e+01 -1.467549e+00 1.805692e+00 1.441275e+00 5.689473e-01 1.436942e+00 8.508497e-01 1.527993e+00 5.151969e-01 3.279145e-01 -4.175542e-01 -2.243185e-01 1.347840e-01 -3.102885e-01 -3.983990e-01 -3.196391e-01 -4.029829e-01 -8.814169e-02 -3.757223e-01 -2.754169e-01
<VARIANCE> 20
 1.199451e+01 1.283721e+00 1.214478e+00 7.452260e-01 3.298621e-01 3.943151e-01 2.317332e-01 3.541474e-01 3.210140e-01 2.815337e-01 1.758212e-01 1.098433e-01 1.989449e-01 3.159266e-01 2.283394e-01 2.755454e-01 1.484586e-01 6.896833e-02 1.610576e-01 1.869281e-01
<GCONST> 1.488386e+01
<STATE> 11
<MEAN> 20
 -2.015292e+01 -7.338673e-01 8.740997e-02 1.083053e+00 6.765134e-01 9.349219e-01 -7.855206e-01 7.562660e-01 -2.918362e-02 2.098436e-01 -5.239522e-01 2.461638e-01 -3.393515e-01 -5.475783e-01 -9.640250e-01 -7.735457e-01 -5.995911e-01 1.813986e-01 -1.161648e-01 -2.680421e-01
<VARIANCE> 20
 1.571151e+01 4.472260e+00 1.627162e+00 1.879205e+00 1.160282e+00 5.453949e-01 1.004861e+00 8.770272e-01 4.880322e-01 3.212324e-01 3.341165e-01 2.972793e-01 4.427754e-01 5.968050e-01 3.537675e-01 3.465297e-01 5.190445e-01 1.765983e-01 1.863683e-01 1.818393e-01
<GCONST> 2.817718e+01
<STATE> 12
<MEAN> 20
 -1.956403e+01 -2.443453e-01 2.770840e+00 3.723880e+00 -2.789023e+00 6.416280e-01 -3.487934e-01 9.539148e-01 -1.337362e+00 1.807158e-01 1.318917e-01 6.096790e-02 -1.031433e+00 -4.393894e-01 -3.653647e-01 -1.636863e+00 -1.537124e+00 -3.042576e-01 -3.760932e-02 -7.347637e-02
<VARIANCE> 20
 3.609425e+00 1.245084e+00 3.374181e-01 1.234843e+00 1.632989e+00 8.324654e-01 3.640428e-01 3.964628e-01 8.981397e-01 5.472407e-01 6.964091e-01 4.111311e-01 5.882803e-01 5.346677e-01 2.863277e-01 3.536355e-01 1.874460e-01 2.927996e-01 2.842897e-01 1.581401e-01
<GCONST> 2.434391e+01
<STATE> 13
<MEAN> 20
 -2.099228e+01 -1.631745e+00 4.663948e+00 3.242993e+00 -1.962162e+00 -3.962194e-02 -3.661006e-01 6.284640e-01 -2.402491e+00 7.405514e-01 1.556887e-01 2.970985e-01 -8.119350e-01 1.643796e-01 -3.217983e-01 -1.552268e+00 -1.436505e+00 -7.538424e-02 -4.691572e-02 6.622695e-02
<VARIANCE> 20
 5.493931e+00 1.590943e+00 7.537087e-01 1.005729e+00 1.036715e+00 9.440256e-01 6.189378e-01 4.889674e-01 6.248348e-01 4.197547e-01 3.693874e-01 1.959664e-01 3.481446e-01 2.701244e-01 3.343317e-01 6.790994e-01 2.639401e-01 3.191016e-01 2.654153e-01 2.679042e-01
<GCONST> 2.450316e+01
<STATE> 14
<MEAN> 20
 -2.444470e+01 -2.642577e+00 4.568927e+00 3.026891e+00 -1.507273e+00 -3.235022e-03 -9.557363e-01 3.617335e-01 -2.295637e+00 7.792699e-01 1.019155e+00 1.249737e-01 -3.870490e-01 -3.054602e-02 -2.910210e-01 -2.205481e-03 -5.062028e-01 -4.500084e-02 -2.526591e-01 -2.123237e-01
<VARIANCE> 20
 5.038027e+00 1.647787e+00 1.474745e+00 4.320955e-01 6.008773e-01 7.601799e-01 4.127008e-01 6.664166e-01 4.522338e-01 1.742611e-01 2.841980e-01 5.469150e-01 4.538291e-01 4.273380e-01 2.447828e-01 4.060336e-01 4.305736e-01 1.033992e-01 1.601538e-01 1.684156e-01
<GCONST> 2.127297e+01
<STATE> 15
<MEAN> 20
 -2.778916e+01 -3.992932e+00 3.850842e+00 1.662454e+00 -2.196119e+00 -3.022410e-01 -1.479275e+00 -2.040694e-01 -2.562459e+00 9.766822e-01 9.196075e-01 -3.122453e-01 -5.894880e-01 -2.793128e-01 -1.579168e-01 -3.235310e-02 -2.831933e-01 2.629642e-01 -5.440067e-02 -2.004172e-01
<VARIANCE> 20
 8.774135e+00 2.479971e+00 1.994072e+00 1.429527e+00 4.362199e-01 8.810062e-01 6.175487e-01 2.584997e-01 7.099136e-01 7.634682e-01 2.847469e-01 3.319535e-01 3.861094e-01 2.414780e-01 2.145073e-01 2.520392e-01 2.887776e-01 3.525495e-01 1.551412e-01 2.800319e-01
<GCONST> 2.441142e+01
<STATE> 16
<MEAN> 20
 -3.520549e+01 -1.801001e+00 1.480113e+00 3.926353e-02 -1.487698e+00 -1.837811e-01 -1.570979e+00 -2.542562e-01 -1.238319e+00 4.026465e-01 3.066101e-01 -2.583934e-01 -5.359803e-01 -4.653909e-01 -3.814881e-01 1.082621e-01 -1.676769e-01 2.722332e-01 9.540735e-03 -8.409693e-02
<VARIANCE> 20
 3.451597e+00 6.059412e-01 5.105321e-01 4.393681e-01 3.955895e-01 4.251696e-01 2.834081e-01 8.512825e-02 4.013132e-01 3.073083e-01 2.263069e-01 1.884188e-01 2.129219e-01 1.476123e-01 2.332739e-01 1.320918e-01 1.912226e-01 2.626193e-01 1.103719e-01 1.506843e-01
<GCONST> 1.121808e+01
<STATE> 17
<MEAN> 20
 -3.822830e+01 -3.255571e+00 1.821251e-02 -6.347650e-01 -1.195998e+00 1.937455e-01 -1.044828e+00 8.618918e-02 -7.366167e-01 8.536936e-02 -1.372113e-01 -2.444015e-01 -3.999006e-01 -3.813033e-01 -2.372698e-01 -2.545127e-01 -3.170830e-01 -5.853172e-02 -1.260640e-01 -1.551134e-01
<VARIANCE> 20
 4.520213e+00 1.054853e+00 5.316122e-01 2.403778e-01 3.090184e-01 2.999019e-01 2.352531e-01 2.358346e-01 2.308889e-01 1.829767e-01 2.022106e-01 1.545323e-01 1.972403e-01 1.410207e-01 1.512225e-01 1.309210e-01 1.465572e-01 1.249296e-01 1.358441e-01 1.285721e-01
<GCONST> 8.809530e+00
<TRANSP> 18
 0.000000e+00 1.000000e+00 0.000000e+00 0.000000e+00 0.000000e+00 0.000000e+00 0.000000e+00 0.000000e+00 0.000000e+00 0.000000e+00 0.000000e+00 0.000000e+00 0.000000e+00 0.000000e+00 0.000000e+00 0.000000e+00 0.000000e+00 0.000000e+00
 0.000000e+00 8.593750e-01 1.406250e-01 0.000000e+00 0.000000e+00 0.000000e+00 0.000000e+00 0.000000e+00 0.000000e+00 0.000000e+00 0.000000e+00 0.000000e+00 0.000000e+00 0.000000e+00 0.000000e+00 0.000000e+00 0.000000e+00 0.000000e+00
 0.000000e+00 0.000000e+00 6.250000e-01 3.750000e-01 0.000000e+00 0.000000e+00 0.000000e+00 0.000000e+00 0.000000e+00 0.000000e+00 0.000000e+00 0.000000e+00 0.000000e+00 0.000000e+00 0.000000e+00 0.000000e+00 0.000000e+00 0.000000e+00
 0.000000e+00 0.000000e+00 0.000000e+00 6.538461e-01 3.461539e-01 0.000000e+00 0.000000e+00 0.000000e+00 0.000000e+00 0.000000e+00 0.000000e+00 0.000000e+00 0.000000e+00 0.000000e+00 0.000000e+00 0.000000e+00 0.000000e+00 0.000000e+00
 0.000000e+00 0.000000e+00 0.000000e+00 0.000000e+00 8.928571e-01 1.071429e-01 0.000000e+00 0.000000e+00 0.000000e+00 0.000000e+00 0.000000e+00 0.000000e+00 0.000000e+00 0.000000e+00 0.000000e+00 0.000000e+00 0.000000e+00 0.000000e+00
 0.000000e+00 0.000000e+00 0.000000e+00 0.000000e+00 0.000000e+00 8.636364e-01 1.363636e-01 0.000000e+00 0.000000e+00 0.000000e+00 0.000000e+00 0.000000e+00 0.000000e+00 0.000000e+00 0.000000e+00 0.000000e+00 0.000000e+00 0.000000e+00
 0.000000e+00 0.000000e+00 0.000000e+00 0.000000e+00 0.000000e+00 0.000000e+00 7.804878e-01 2.195122e-01 0.000000e+00 0.000000e+00 0.000000e+00 0.000000e+00 0.000000e+00 0.000000e+00 0.000000e+00 0.000000e+00 0.000000e+00 0.000000e+00
 0.000000e+00 0.000000e+00 0.000000e+00 0.000000e+00 0.000000e+00 0.000000e+00 0.000000e+00 8.085107e-01 1.914894e-01 0.000000e+00 0.000000e+00 0.000000e+00 0.000000e+00 0.000000e+00 0.000000e+00 0.000000e+00 0.000000e+00 0.000000e+00
 0.000000e+00 0.000000e+00 0.000000e+00 0.000000e+00 0.000000e+00 0.000000e+00 0.000000e+00 0.000000e+00 8.750000e-01 1.250000e-01 0.000000e+00 0.000000e+00 0.000000e+00 0.000000e+00 0.000000e+00 0.000000e+00 0.000000e+00 0.000000e+00
 0.000000e+00 0.000000e+00 0.000000e+00 0.000000e+00 0.000000e+00 0.000000e+00 0.000000e+00 0.000000e+00 0.000000e+00 7.804878e-01 2.195122e-01 0.000000e+00 0.000000e+00 0.000000e+00 0.000000e+00 0.000000e+00 0.000000e+00 0.000000e+00
 0.000000e+00 0.000000e+00 0.000000e+00 0.000000e+00 0.000000e+00 0.000000e+00 0.000000e+00 0.000000e+00 0.000000e+00 0.000000e+00 7.750000e-01 2.250000e-01 0.000000e+00 0.000000e+00 0.000000e+00 0.000000e+00 0.000000e+00 0.000000e+00
 0.000000e+00 0.000000e+00 0.000000e+00 0.000000e+00 0.000000e+00 0.000000e+00 0.000000e+00 0.000000e+00 0.000000e+00 0.000000e+00 0.000000e+00 8.163266e-01 1.836735e-01 0.000000e+00 0.000000e+00 0.000000e+00 0.000000e+00 0.000000e+00
 0.000000e+00 0.000000e+00 0.000000e+00 0.000000e+00 0.000000e+00 0.000000e+00 0.000000e+00 0.000000e+00 0.000000e+00 0.000000e+00 0.000000e+00 0.000000e+00 8.676471e-01 1.323529e-01 0.000000e+00 0.000000e+00 0.000000e+00 0.000000e+00
 0.000000e+00 0.000000e+00 0.000000e+00 0.000000e+00 0.000000e+00 0.000000e+00 0.000000e+00 0.000000e+00 0.000000e+00 0.000000e+00 0.000000e+00 0.000000e+00 0.000000e+00 7.954546e-01 2.045455e-01 0.000000e+00 0.000000e+00 0.000000e+00
 0.000000e+00 0.000000e+00 0.000000e+00 0.000000e+00 0.000000e+00 0.000000e+00 0.000000e+00 0.000000e+00 0.000000e+00 0.000000e+00 0.000000e+00 0.000000e+00 0.000000e+00 0.000000e+00 7.954546e-01 2.045455e-01 0.000000e+00 0.000000e+00
 0.000000e+00 0.000000e+00 0.000000e+00 0.000000e+00 0.000000e+00 0.000000e+00 0.000000e+00 0.000000e+00 0.000000e+00 0.000000e+00 0.000000e+00 0.000000e+00 0.000000e+00 0.000000e+00 0.000000e+00 8.333333e-01 1.666667e-01 0.000000e+00
 0.000000e+00 0.000000e+00 0.000000e+00 0.000000e+00 0.000000e+00 0.000000e+00 0.000000e+00 0.000000e+00 0.000000e+00 0.000000e+00 0.000000e+00 0.000000e+00 0.000000e+00 0.000000e+00 0.000000e+00 0.000000e+00 9.683099e-01 3.169014e-02
 0.000000e+00 0.000000e+00 0.000000e+00 0.000000e+00 0.000000e+00 0.000000e+00 0.000000e+00 0.000000e+00 0.000000e+00 0.000000e+00 0.000000e+00 0.000000e+00 0.000000e+00 0.000000e+00 0.000000e+00 0.000000e+00 0.000000e+00 0.000000e+00
<ENDHMM>
