~o
<STREAMINFO> 1 15
<VECSIZE> 15<NULLD><MFCC><DIAGC>
~h "Ruby"
<BEGINHMM>
<NUMSTATES> 18
<STATE> 2
<MEAN> 15
 -3.450055e+01 -1.879053e+00 -3.227167e-01 -4.100764e-01 -7.337640e-01 6.291434e-02 -6.963801e-01 -4.235585e-02 -6.544715e-01 2.463106e-01 -4.027634e-01 -2.665826e-02 -3.860143e-01 3.380511e-02 -3.065996e-01
<VARIANCE> 15
 1.900322e+00 6.133112e-01 7.005936e-01 3.544138e-01 2.604994e-01 1.636363e-01 2.226967e-01 2.057712e-01 1.490288e-01 1.844401e-01 1.266854e-01 1.159977e-01 9.979175e-02 1.067466e-01 1.227368e-01
<GCONST> 5.636022e+00
<STATE> 3
<MEAN> 15
 -3.111431e+01 -2.237064e+00 1.771581e+00 -2.255174e-01 -8.009686e-01 3.747641e-02 -1.055506e+00 -7.166545e-01 -6.283464e-01 1.367494e-03 -3.442527e-01 -7.504009e-02 -2.953664e-01 1.802332e-01 -3.554498e-01
<VARIANCE> 15
 2.391822e+00 1.652199e+00 9.234074e-01 8.954697e-01 5.062661e-01 5.073193e-01 3.221691e-01 5.003642e-01 2.470801e-01 4.001639e-01 2.610571e-01 2.474869e-01 1.438096e-01 2.107746e-01 1.690170e-01
<GCONST> 1.524050e+01
<STATE> 4
<MEAN> 15
 -2.604882e+01 4.977685e-01 4.068712e+00 1.939606e+00 2.214708e-01 6.915343e-01 -8.902966e-01 -1.973999e-01 -2.537928e-01 4.644276e-01 2.323595e-02 1.513430e-01 -4.514374e-01 1.184554e-01 -2.638945e-01
<VARIANCE> 15
 8.918153e+00 1.936600e+00 1.406336e+00 4.355642e-01 3.968478e-01 5.173861e-01 5.486717e-01 7.198249e-01 5.543686e-01 4.118307e-01 2.394923e-01 1.659913e-01 2.051802e-01 2.700026e-01 1.403707e-01
<GCONST> 1.785610e+01
<STATE> 5
<MEAN> 15
 -2.356246e+01 -2.708348e-02 4.240208e+00 2.855409e+00 -1.145535e+00 1.263294e+00 -6.923817e-01 -3.758338e-01 6.644282e-02 7.677107e-01 -2.196555e-01 3.740227e-01 -5.275719e-01 2.285017e-01 -4.152110e-01
<VARIANCE> 15
 2.915437e+00 2.166435e+00 7.975169e-01 5.222889e-01 6.671208e-01 4.432862e-01 3.937037e-01 5.828483e-01 3.941327e-01 5.926343e-01 2.908305e-01 2.666346e-01 2.639860e-01 2.185879e-01 1.440518e-01
<GCONST> 1.704402e+01
<STATE> 6
<MEAN> 15
 -2.003341e+01 -1.270661e+00 5.962613e+00 1.628710e+00 -8.863243e-01 1.218361e+00 -1.608561e+00 -5.107014e-01 1.895558e-01 6.854178e-01 2.182020e-01 4.745332e-01 -5.520921e-01 1.368750e-01 -5.954514e-01
<VARIANCE> 15
 5.366767e+00 1.327187e+00 1.404766e+00 5.856827e-01 5.567877e-01 6.889807e-01 9.863727e-01 5.852664e-01 2.884604e-01 4.484772e-01 2.888917e-01 3.316629e-01 2.771807e-01 2.484978e-01 2.584401e-01
<GCONST> 1.940988e+01
<STATE> 7
<MEAN> 15
 -1.857024e+01 -9.585634e-01 5.367897e+00 1.402966e+00 -1.478084e+00 9.076234e-01 -1.503099e+00 4.421146e-01 5.080273e-01 1.866564e+00 5.415969e-01 1.162832e-01 -1.189627e+00 -9.949938e-02 -8.449914e-01
<VARIANCE> 15
 3.093941e+00 1.277884e+00 1.164512e+00 9.253628e-01 8.332638e-01 1.605449e+00 1.684986e+00 5.524102e-01 7.108125e-01 3.102928e-01 4.067094e-01 5.125025e-01 4.499726e-01 2.497807e-01 2.151949e-01
<GCONST> 2.243519e+01
<STATE> 8
<MEAN> 15
 -2.116209e+01 2.925338e-01 4.255960e+00 2.725205e-01 -6.823755e-01 1.756043e+00 -1.776502e+00 1.353754e+00 1.208750e+00 1.667777e+00 -9.014764e-02 -2.634236e-01 -7.687532e-01 5.748036e-01 -6.301147e-01
<VARIANCE> 15
 2.679811e+00 8.945550e-01 8.628068e-01 4.593549e-01 6.452903e-01 7.890545e-01 7.843198e-01 8.334714e-01 3.529801e-01 2.531244e-01 2.914016e-01 3.965091e-01 3.497639e-01 3.300671e-01 2.174702e-01
<GCONST> 1.815893e+01
<STATE> 9
<MEAN> 15
 -2.574677e+01 8.177031e-01 2.961879e+00 1.102594e+00 4.133977e-01 7.206398e-01 -2.842945e-01 9.763348e-01 2.497346e-01 9.823046e-01 4.764700e-02 1.076309e-01 -3.782830e-01 3.290604e-01 -1.619154e-01
<VARIANCE> 15
 2.088498e+01 6.489757e-01 1.040195e+00 2.734218e-01 2.321341e-01 6.342692e-01 2.883743e-01 3.554296e-01 2.218900e-01 2.341994e-01 1.530637e-01 1.501829e-01 3.382876e-01 1.234803e-01 1.688647e-01
<GCONST> 1.303970e+01
<STATE> 10
<MEAN> 15
 -2.519106e+01 -1.312981e+00 2.501187e+00 -4.072405e-01 4.155118e-01 5.238298e-01 1.484119e-01 5.988065e-01 2.496109e-01 6.243286e-01 -5.632778e-02 4.820198e-03 -1.241745e-01 1.360361e-01 -3.861436e-01
<VARIANCE> 15
 1.801169e+01 9.817454e-01 1.379511e+00 9.214218e-01 1.162737e+00 7.893130e-01 4.236283e-01 5.280619e-01 3.400668e-01 3.213601e-01 2.580687e-01 1.769076e-01 3.235867e-01 2.138007e-01 2.230951e-01
<GCONST> 1.962577e+01
<STATE> 11
<MEAN> 15
 -2.124779e+01 -1.337166e+00 1.771886e+00 -3.892463e-01 7.234192e-01 3.144403e+00 3.300917e-01 1.737363e+00 8.362215e-01 2.922318e-01 -1.355756e+00 1.072074e-01 1.505538e-01 4.394044e-01 -7.158908e-01
<VARIANCE> 15
 4.911123e+00 2.250677e+00 1.456364e+00 8.008611e-01 1.005453e+00 1.675730e+00 5.425678e-01 1.199566e+00 3.367130e-01 4.494202e-01 5.709242e-01 5.033667e-01 3.326972e-01 2.883391e-01 2.415227e-01
<GCONST> 2.331678e+01
<STATE> 12
<MEAN> 15
 -2.160546e+01 -1.584832e+00 2.673473e+00 4.369617e-01 3.673476e-01 2.163223e+00 1.538246e+00 4.497890e-01 -2.108871e-01 1.061418e+00 -1.198253e+00 -5.330316e-03 4.831958e-01 3.454332e-01 -9.902339e-01
<VARIANCE> 15
 6.602242e+00 1.169830e+00 1.658556e+00 8.791863e-01 8.211973e-01 1.580053e+00 9.290340e-01 7.026148e-01 4.677297e-01 5.896224e-01 6.911994e-01 8.074606e-01 4.645231e-01 3.081120e-01 3.474578e-01
<GCONST> 2.495105e+01
<STATE> 13
<MEAN> 15
 -2.518541e+01 -1.570435e+00 2.134159e+00 8.425888e-01 9.185874e-01 1.809506e+00 1.735559e+00 1.838671e-01 -3.767067e-01 5.335753e-01 -3.833160e-01 2.639242e-01 7.085220e-01 -8.645257e-02 -5.542765e-01
<VARIANCE> 15
 1.931967e+00 9.379953e-01 1.078490e+00 7.286676e-01 6.587535e-01 7.330725e-01 4.979658e-01 4.224561e-01 5.175994e-01 4.084319e-01 4.232587e-01 2.282056e-01 1.784917e-01 2.345353e-01 2.395013e-01
<GCONST> 1.714108e+01
<STATE> 14
<MEAN> 15
 -2.929639e+01 -1.683660e+00 1.807660e+00 3.035538e-01 5.719100e-01 1.696990e+00 9.533390e-01 9.610030e-01 -2.316911e-02 7.664066e-01 1.153884e-01 5.441983e-01 3.428739e-01 6.168281e-02 -2.850240e-01
<VARIANCE> 15
 4.265706e+00 6.563448e-01 1.074993e+00 2.387583e-01 5.066343e-01 4.454153e-01 4.188462e-01 3.383103e-01 3.040044e-01 1.800648e-01 2.264510e-01 2.695173e-01 2.364739e-01 1.794656e-01 1.313286e-01
<GCONST> 1.290371e+01
<STATE> 15
<MEAN> 15
 -2.973434e+01 -2.340043e+00 1.836903e+00 -5.995332e-01 -2.799356e-01 1.084897e-01 -1.157249e-01 1.949460e-01 -4.815235e-01 7.814652e-01 1.540465e-01 1.151442e-01 -5.351956e-02 1.466723e-01 -2.992964e-01
<VARIANCE> 15
 5.925191e+00 1.333812e+00 9.367483e-01 8.267276e-01 9.179558e-01 7.769738e-01 8.660502e-01 9.444873e-01 4.211524e-01 2.555172e-01 2.485740e-01 1.890326e-01 2.219885e-01 1.414313e-01 1.684204e-01
<GCONST> 1.831147e+01
<STATE> 16
<MEAN> 15
 -3.395759e+01 -1.422487e+00 -4.264230e-01 -1.768727e-01 -6.053153e-01 3.939624e-01 -4.050840e-01 3.682112e-01 -2.519941e-01 5.327833e-01 -3.628509e-01 -2.042473e-03 -3.761714e-01 3.946881e-02 -3.820977e-01
<VARIANCE> 15
 1.275752e+00 3.837134e-01 5.020357e-01 2.535392e-01 3.034371e-01 1.851878e-01 2.099101e-01 1.986288e-01 2.547738e-01 1.769271e-01 1.480614e-01 1.390222e-01 1.282947e-01 1.053164e-01 1.115367e-01
<GCONST> 5.255896e+00
<STATE> 17
<MEAN> 15
 -3.276952e+01 -2.623249e+00 4.211109e-01 -9.725966e-01 -4.662018e-01 -2.238426e-01 -6.927001e-01 -1.113789e-01 -4.066992e-01 3.500741e-01 -3.109725e-01 -1.580797e-01 -3.679226e-01 -3.299905e-02 -2.559691e-01
<VARIANCE> 15
 1.784486e+00 4.535337e-01 4.916510e-01 2.437859e-01 2.081990e-01 2.612941e-01 2.379549e-01 1.915674e-01 1.530919e-01 1.811032e-01 1.533104e-01 1.220735e-01 1.349045e-01 1.285002e-01 9.663002e-02
<GCONST> 5.279884e+00
<TRANSP> 18
 0.000000e+00 1.000000e+00 0.000000e+00 0.000000e+00 0.000000e+00 0.000000e+00 0.000000e+00 0.000000e+00 0.000000e+00 0.000000e+00 0.000000e+00 0.000000e+00 0.000000e+00 0.000000e+00 0.000000e+00 0.000000e+00 0.000000e+00 0.000000e+00
 0.000000e+00 8.645161e-01 1.354839e-01 0.000000e+00 0.000000e+00 0.000000e+00 0.000000e+00 0.000000e+00 0.000000e+00 0.000000e+00 0.000000e+00 0.000000e+00 0.000000e+00 0.000000e+00 0.000000e+00 0.000000e+00 0.000000e+00 0.000000e+00
 0.000000e+00 0.000000e+00 7.375000e-01 2.625000e-01 0.000000e+00 0.000000e+00 0.000000e+00 0.000000e+00 0.000000e+00 0.000000e+00 0.000000e+00 0.000000e+00 0.000000e+00 0.000000e+00 0.000000e+00 0.000000e+00 0.000000e+00 0.000000e+00
 0.000000e+00 0.000000e+00 0.000000e+00 7.666667e-01 2.333333e-01 0.000000e+00 0.000000e+00 0.000000e+00 0.000000e+00 0.000000e+00 0.000000e+00 0.000000e+00 0.000000e+00 0.000000e+00 0.000000e+00 0.000000e+00 0.000000e+00 0.000000e+00
 0.000000e+00 0.000000e+00 0.000000e+00 0.000000e+00 7.717391e-01 2.282609e-01 0.000000e+00 0.000000e+00 0.000000e+00 0.000000e+00 0.000000e+00 0.000000e+00 0.000000e+00 0.000000e+00 0.000000e+00 0.000000e+00 0.000000e+00 0.000000e+00
 0.000000e+00 0.000000e+00 0.000000e+00 0.000000e+00 0.000000e+00 8.359375e-01 1.640625e-01 0.000000e+00 0.000000e+00 0.000000e+00 0.000000e+00 0.000000e+00 0.000000e+00 0.000000e+00 0.000000e+00 0.000000e+00 0.000000e+00 0.000000e+00
 0.000000e+00 0.000000e+00 0.000000e+00 0.000000e+00 0.000000e+00 0.000000e+00 8.600000e-01 1.400000e-01 0.000000e+00 0.000000e+00 0.000000e+00 0.000000e+00 0.000000e+00 0.000000e+00 0.000000e+00 0.000000e+00 0.000000e+00 0.000000e+00
 0.000000e+00 0.000000e+00 0.000000e+00 0.000000e+00 0.000000e+00 0.000000e+00 0.000000e+00 8.670886e-01 1.329114e-01 0.000000e+00 0.000000e+00 0.000000e+00 0.000000e+00 0.000000e+00 0.000000e+00 0.000000e+00 0.000000e+00 0.000000e+00
 0.000000e+00 0.000000e+00 0.000000e+00 0.000000e+00 0.000000e+00 0.000000e+00 0.000000e+00 0.000000e+00 7.941176e-01 2.058823e-01 0.000000e+00 0.000000e+00 0.000000e+00 0.000000e+00 0.000000e+00 0.000000e+00 0.000000e+00 0.000000e+00
 0.000000e+00 0.000000e+00 0.000000e+00 0.000000e+00 0.000000e+00 0.000000e+00 0.000000e+00 0.000000e+00 0.000000e+00 7.529412e-01 2.470588e-01 0.000000e+00 0.000000e+00 0.000000e+00 0.000000e+00 0.000000e+00 0.000000e+00 0.000000e+00
 0.000000e+00 0.000000e+00 0.000000e+00 0.000000e+00 0.000000e+00 0.000000e+00 0.000000e+00 0.000000e+00 0.000000e+00 0.000000e+00 8.600000e-01 1.400000e-01 0.000000e+00 0.000000e+00 0.000000e+00 0.000000e+00 0.000000e+00 0.000000e+00
 0.000000e+00 0.000000e+00 0.000000e+00 0.000000e+00 0.000000e+00 0.000000e+00 0.000000e+00 0.000000e+00 0.000000e+00 0.000000e+00 0.000000e+00 8.157895e-01 1.842105e-01 0.000000e+00 0.000000e+00 0.000000e+00 0.000000e+00 0.000000e+00
 0.000000e+00 0.000000e+00 0.000000e+00 0.000000e+00 0.000000e+00 0.000000e+00 0.000000e+00 0.000000e+00 0.000000e+00 0.000000e+00 0.000000e+00 0.000000e+00 7.717391e-01 2.282609e-01 0.000000e+00 0.000000e+00 0.000000e+00 0.000000e+00
 0.000000e+00 0.000000e+00 0.000000e+00 0.000000e+00 0.000000e+00 0.000000e+00 0.000000e+00 0.000000e+00 0.000000e+00 0.000000e+00 0.000000e+00 0.000000e+00 0.000000e+00 7.789474e-01 2.210526e-01 0.000000e+00 0.000000e+00 0.000000e+00
 0.000000e+00 0.000000e+00 0.000000e+00 0.000000e+00 0.000000e+00 0.000000e+00 0.000000e+00 0.000000e+00 0.000000e+00 0.000000e+00 0.000000e+00 0.000000e+00 0.000000e+00 0.000000e+00 6.612903e-01 3.387097e-01 0.000000e+00 0.000000e+00
 0.000000e+00 0.000000e+00 0.000000e+00 0.000000e+00 0.000000e+00 0.000000e+00 0.000000e+00 0.000000e+00 0.000000e+00 0.000000e+00 0.000000e+00 0.000000e+00 0.000000e+00 0.000000e+00 0.000000e+00 8.590604e-01 1.409396e-01 0.000000e+00
 0.000000e+00 0.000000e+00 0.000000e+00 0.000000e+00 0.000000e+00 0.000000e+00 0.000000e+00 0.000000e+00 0.000000e+00 0.000000e+00 0.000000e+00 0.000000e+00 0.000000e+00 0.000000e+00 0.000000e+00 0.000000e+00 8.531469e-01 1.468531e-01
 0.000000e+00 0.000000e+00 0.000000e+00 0.000000e+00 0.000000e+00 0.000000e+00 0.000000e+00 0.000000e+00 0.000000e+00 0.000000e+00 0.000000e+00 0.000000e+00 0.000000e+00 0.000000e+00 0.000000e+00 0.000000e+00 0.000000e+00 0.000000e+00
<ENDHMM>
