~o
<STREAMINFO> 1 20
<VECSIZE> 20<NULLD><MFCC><DIAGC>
~h "Ruby"
<BEGINHMM>
<NUMSTATES> 18
<STATE> 2
<MEAN> 20
 -4.037134e+01 -1.375006e+00 -1.335032e+00 4.807112e-01 -1.729042e+00 6.974548e-01 -1.216544e+00 2.480257e-01 -9.225565e-01 5.264108e-02 -1.897937e-01 -2.179161e-01 -2.621236e-01 -2.990197e-01 -6.282516e-02 -2.919029e-01 -1.126873e-01 -2.079494e-01 1.249165e-02 -1.733452e-01
<VARIANCE> 20
 2.742564e+00 9.660494e-01 1.037048e+00 3.727545e-01 4.717398e-01 2.622345e-01 4.244891e-01 2.982384e-01 2.311882e-01 2.045622e-01 2.019058e-01 1.682418e-01 1.691895e-01 1.226231e-01 1.278784e-01 1.539238e-01 1.416224e-01 1.365035e-01 1.233263e-01 1.222708e-01
<GCONST> 1.024736e+01
<STATE> 3
<MEAN> 20
 -3.620663e+01 -2.139415e+00 1.204002e+00 9.476692e-01 -1.676004e+00 6.815673e-01 -1.316760e+00 -5.074101e-01 -1.158068e+00 6.842228e-02 -3.951919e-01 -9.092540e-02 -3.994479e-01 -9.104203e-02 6.207336e-02 -2.822448e-01 1.202018e-01 1.750989e-01 2.752549e-01 7.577384e-02
<VARIANCE> 20
 3.577076e+00 2.608007e+00 1.594597e+00 1.495945e+00 8.245920e-01 9.365247e-01 6.115941e-01 6.906818e-01 6.132632e-01 6.165144e-01 2.446969e-01 2.776583e-01 2.303864e-01 1.964587e-01 3.012494e-01 2.256083e-01 2.641115e-01 1.936168e-01 1.256799e-01 2.030746e-01
<GCONST> 2.265259e+01
<STATE> 4
<MEAN> 20
 -2.907063e+01 3.210370e-01 4.176798e+00 3.643485e+00 -5.458156e-01 1.111471e+00 -7.136661e-01 -5.631273e-01 -8.338823e-01 2.650346e-01 1.237022e-01 2.533044e-01 -5.749490e-02 -4.955962e-01 -1.878485e-02 -4.737182e-01 -2.903323e-01 3.604505e-02 -2.597134e-01 -1.090536e-01
<VARIANCE> 20
 1.376288e+01 4.064457e+00 2.498559e+00 8.308280e-01 7.273824e-01 8.367723e-01 6.801590e-01 8.204564e-01 6.040111e-01 5.116774e-01 3.556563e-01 2.591960e-01 2.106968e-01 3.541446e-01 3.126286e-01 2.726080e-01 1.647920e-01 3.107359e-01 2.400929e-01 2.293334e-01
<GCONST> 2.594513e+01
<STATE> 5
<MEAN> 20
 -2.849561e+01 6.789564e-01 2.865968e+00 4.883419e+00 -2.166857e+00 2.034538e+00 -8.902500e-01 -6.569736e-02 -6.813920e-01 1.242544e+00 -4.750494e-02 1.274226e-01 -1.986075e-01 -3.715274e-01 1.118875e-01 -3.663434e-01 -4.830630e-01 -6.705059e-01 -3.038665e-01 -7.429773e-01
<VARIANCE> 20
 6.421515e+00 1.901063e+00 2.407747e+00 1.284294e+00 1.448504e+00 1.417327e+00 9.811252e-01 1.472305e+00 3.689750e-01 9.341038e-01 5.215355e-01 3.542542e-01 5.034913e-01 2.642101e-01 3.240683e-01 1.736140e-01 2.099453e-01 2.463156e-01 2.175711e-01 1.553915e-01
<GCONST> 2.747768e+01
<STATE> 6
<MEAN> 20
 -2.301957e+01 -1.133542e+00 5.435248e+00 3.906684e+00 -2.410004e+00 1.789726e+00 -1.722629e+00 -1.079268e+00 -4.642865e-01 8.336408e-01 2.121395e-01 7.932782e-01 1.653274e-02 -6.124870e-01 -7.995364e-02 -8.779728e-01 -6.623449e-01 -6.579878e-01 -3.415038e-01 -4.631386e-01
<VARIANCE> 20
 7.330850e+00 1.672611e+00 1.950843e+00 9.605973e-01 7.980765e-01 1.343883e+00 7.732868e-01 8.662310e-01 5.243520e-01 4.373611e-01 3.734086e-01 2.808424e-01 3.190362e-01 5.496974e-01 3.746151e-01 2.017246e-01 2.338916e-01 3.058249e-01 1.986554e-01 2.016020e-01
<GCONST> 2.565492e+01
<STATE> 7
<MEAN> 20
 -2.203295e+01 -8.986154e-01 4.415647e+00 3.775859e+00 -2.751041e+00 1.681725e+00 -1.529481e+00 -1.451901e-01 4.128705e-02 1.431985e+00 1.389404e+00 3.809520e-01 -4.476372e-01 -1.193298e+00 -4.246496e-02 -9.556953e-01 -7.296826e-01 -6.704159e-01 -3.820733e-01 -2.889912e-01
<VARIANCE> 20
 3.834181e+00 2.086812e+00 1.163918e+00 1.425299e+00 2.582006e+00 2.708640e+00 1.740400e+00 6.578206e-01 8.296239e-01 5.509117e-01 6.052387e-01 6.962708e-01 6.270937e-01 5.963117e-01 3.456007e-01 3.614885e-01 1.759217e-01 3.339837e-01 3.060275e-01 1.588054e-01
<GCONST> 3.085431e+01
<STATE> 8
<MEAN> 20
 -2.536108e+01 1.152951e+00 3.144416e+00 2.689317e+00 -2.903823e+00 3.188330e+00 -2.102505e+00 4.030215e-01 1.112621e+00 1.889266e+00 7.837809e-01 -1.521685e-01 -7.549508e-01 -6.411885e-01 3.767830e-01 -7.918084e-01 -5.273659e-01 -1.176588e+00 -5.674343e-01 -7.764454e-01
<VARIANCE> 20
 3.960782e+00 1.456404e+00 6.794146e-01 1.039353e+00 1.475470e+00 1.145351e+00 8.180752e-01 1.185256e+00 5.059208e-01 5.609705e-01 4.056204e-01 3.756096e-01 4.346229e-01 3.225388e-01 4.183961e-01 2.317811e-01 2.488277e-01 4.356598e-01 3.001454e-01 1.800715e-01
<GCONST> 2.607700e+01
<STATE> 9
<MEAN> 20
 -2.995478e+01 1.071550e+00 2.652240e+00 2.132727e+00 -3.507395e-01 1.357853e+00 -6.756949e-01 8.534856e-01 3.631887e-01 7.876590e-01 7.160301e-01 2.402349e-02 -8.944099e-02 -3.865391e-01 2.798529e-01 -2.862755e-01 -6.967542e-01 -6.657633e-01 -6.402582e-01 -5.721353e-01
<VARIANCE> 20
 3.150991e+01 8.379233e-01 2.291249e+00 4.486047e-01 6.799223e-01 1.186314e+00 4.099447e-01 3.169495e-01 2.274862e-01 4.366570e-01 1.767927e-01 2.000720e-01 1.847158e-01 3.847512e-01 2.149822e-01 2.411941e-01 1.809072e-01 1.769461e-01 1.439482e-01 1.641133e-01
<GCONST> 1.936108e+01
<STATE> 10
<MEAN> 20
 -2.851759e+01 -1.730984e+00 2.908230e+00 4.615291e-01 -4.198985e-01 1.334282e+00 -2.373289e-01 9.020526e-01 -1.548979e-01 8.204423e-01 2.261918e-01 -1.307434e-02 -2.752599e-01 7.768685e-02 4.217785e-02 -4.635584e-01 -7.602652e-01 -3.703794e-01 -2.628517e-01 -2.586755e-01
<VARIANCE> 20
 2.160678e+01 2.265076e+00 3.776031e+00 1.386474e+00 1.967971e+00 1.551936e+00 1.021215e+00 7.438833e-01 3.372047e-01 4.693471e-01 4.457845e-01 5.138133e-01 3.302247e-01 3.529460e-01 2.658489e-01 3.576493e-01 2.109244e-01 2.145542e-01 1.592647e-01 1.984976e-01
<GCONST> 2.877586e+01
<STATE> 11
<MEAN> 20
 -2.492256e+01 -5.348496e-01 6.604851e-01 1.140559e+00 -1.447698e+00 4.164784e+00 2.498756e-01 1.721882e+00 9.718851e-01 1.097259e+00 -8.300278e-01 -1.123890e+00 -9.781379e-02 1.657714e-01 2.430564e-01 -9.369680e-01 -4.721504e-01 -7.725778e-01 -6.940153e-01 -7.470702e-01
<VARIANCE> 20
 8.175143e+00 3.817977e+00 2.248940e+00 7.810443e-01 2.552238e+00 3.170126e+00 1.245916e+00 1.635597e+00 6.455414e-01 4.983551e-01 7.376503e-01 7.391503e-01 6.963530e-01 3.871612e-01 3.911037e-01 3.451207e-01 2.996794e-01 3.680467e-01 2.525502e-01 2.237358e-01
<GCONST> 3.343219e+01
<STATE> 12
<MEAN> 20
 -2.641666e+01 -1.236396e+00 1.459377e+00 1.923732e+00 -9.718606e-01 2.994745e+00 1.243891e+00 1.663054e+00 -8.379801e-01 1.065223e+00 -4.373707e-01 -7.317737e-01 1.650757e-01 6.168472e-01 1.104362e-02 -1.180938e+00 -5.612809e-01 -4.115668e-01 -3.094609e-01 -6.324707e-01
<VARIANCE> 20
 1.516336e+01 1.472842e+00 2.751953e+00 1.072746e+00 1.197433e+00 3.352497e+00 2.059671e+00 7.303028e-01 4.621322e-01 1.015407e+00 1.085310e+00 1.044466e+00 7.628683e-01 6.489852e-01 6.369371e-01 3.602054e-01 3.875876e-01 6.226283e-01 2.700050e-01 3.720870e-01
<GCONST> 3.621830e+01
<STATE> 13
<MEAN> 20
 -3.028414e+01 -1.448461e+00 1.400593e+00 1.965290e+00 -3.991496e-01 2.849880e+00 1.133190e+00 1.700924e+00 -8.188643e-01 9.981697e-01 4.024976e-02 -2.515639e-01 3.864753e-01 8.374741e-01 -2.999321e-01 -2.733427e-01 -4.618861e-01 -5.150533e-01 7.682264e-02 -6.266348e-01
<VARIANCE> 20
 1.411827e+01 1.711811e+00 2.525581e+00 1.023758e+00 1.203802e+00 1.342566e+00 1.455763e+00 5.965632e-01 5.228395e-01 4.363956e-01 4.911141e-01 1.038613e+00 2.905544e-01 2.385552e-01 2.556525e-01 2.417204e-01 2.053244e-01 2.123834e-01 1.647898e-01 1.719396e-01
<GCONST> 2.693141e+01
<STATE> 14
<MEAN> 20
 -3.205545e+01 -2.029013e+00 1.942359e+00 1.072920e+00 3.839379e-02 1.713961e+00 8.690870e-01 1.721337e+00 -7.066714e-01 2.113423e-01 5.411363e-01 4.951206e-01 1.371354e-01 5.209599e-01 -1.195802e-01 -3.251116e-01 -1.953474e-01 1.063000e-01 3.308485e-01 -1.956087e-01
<VARIANCE> 20
 6.865923e+00 2.283311e+00 2.078401e+00 6.456190e-01 1.045985e+00 5.220912e-01 6.637400e-01 5.237171e-01 3.412538e-01 5.071862e-01 1.958802e-01 2.851895e-01 2.412076e-01 1.736757e-01 2.321362e-01 2.152786e-01 1.672984e-01 1.986273e-01 1.360486e-01 1.614442e-01
<GCONST> 2.011175e+01
<STATE> 15
<MEAN> 20
 -3.466119e+01 -1.933980e+00 8.288013e-01 9.094871e-01 -1.762022e+00 1.203805e+00 -1.097728e+00 1.067666e+00 -9.656520e-01 7.162226e-01 3.100907e-01 2.970789e-01 -1.868565e-01 1.057655e-01 -2.807696e-02 -3.308122e-01 -5.906257e-01 -3.928838e-02 -4.211347e-03 -1.433592e-01
<VARIANCE> 20
 1.152289e+01 2.841173e+00 2.665023e+00 1.096411e+00 1.443401e+00 1.494340e+00 1.199845e+00 1.536364e+00 8.758960e-01 5.891337e-01 2.959923e-01 3.478130e-01 3.445800e-01 1.699731e-01 2.013872e-01 2.600446e-01 3.432910e-01 2.066232e-01 2.020855e-01 2.275339e-01
<GCONST> 2.825100e+01
<STATE> 16
<MEAN> 20
 -3.785924e+01 -1.299862e+00 -1.027752e-01 6.371064e-01 -9.772365e-01 1.107855e+00 -5.747259e-01 7.863894e-01 -3.618101e-01 5.105419e-01 2.466857e-01 1.139894e-01 -1.346348e-01 3.468954e-02 -5.029251e-02 -4.882666e-02 -1.944704e-01 -4.566162e-02 4.933494e-02 -2.507352e-01
<VARIANCE> 20
 4.111692e+00 1.704827e+00 1.754758e+00 8.208003e-01 4.671782e-01 6.950372e-01 4.615307e-01 4.184236e-01 2.863407e-01 2.485461e-01 1.780111e-01 1.751043e-01 2.003086e-01 1.404966e-01 1.141106e-01 8.716305e-02 2.028369e-01 2.578805e-01 1.467835e-01 1.469617e-01
<GCONST> 1.522139e+01
<STATE> 17
<MEAN> 20
 -3.907634e+01 -1.814896e+00 -9.505729e-01 1.745759e-01 -1.632564e+00 6.716863e-01 -1.195709e+00 3.450538e-01 -7.044299e-01 3.233338e-01 -8.480492e-02 -2.574234e-01 -3.562265e-01 -3.037429e-01 -7.397158e-02 -3.200257e-01 -2.586488e-01 -1.558523e-01 -1.220007e-01 -1.548133e-01
<VARIANCE> 20
 2.830344e+00 1.473922e+00 1.351168e+00 5.187057e-01 4.264832e-01 3.762586e-01 3.428504e-01 3.762722e-01 2.190407e-01 2.484747e-01 2.115841e-01 1.388564e-01 1.647176e-01 1.449026e-01 1.654255e-01 1.295539e-01 1.149237e-01 1.645942e-01 1.665713e-01 1.491089e-01
<GCONST> 1.227321e+01
<TRANSP> 18
 0.000000e+00 1.000000e+00 0.000000e+00 0.000000e+00 0.000000e+00 0.000000e+00 0.000000e+00 0.000000e+00 0.000000e+00 0.000000e+00 0.000000e+00 0.000000e+00 0.000000e+00 0.000000e+00 0.000000e+00 0.000000e+00 0.000000e+00 0.000000e+00
 0.000000e+00 8.618421e-01 1.381579e-01 0.000000e+00 0.000000e+00 0.000000e+00 0.000000e+00 0.000000e+00 0.000000e+00 0.000000e+00 0.000000e+00 0.000000e+00 0.000000e+00 0.000000e+00 0.000000e+00 0.000000e+00 0.000000e+00 0.000000e+00
 0.000000e+00 0.000000e+00 7.558140e-01 2.441860e-01 0.000000e+00 0.000000e+00 0.000000e+00 0.000000e+00 0.000000e+00 0.000000e+00 0.000000e+00 0.000000e+00 0.000000e+00 0.000000e+00 0.000000e+00 0.000000e+00 0.000000e+00 0.000000e+00
 0.000000e+00 0.000000e+00 0.000000e+00 7.980769e-01 2.019231e-01 0.000000e+00 0.000000e+00 0.000000e+00 0.000000e+00 0.000000e+00 0.000000e+00 0.000000e+00 0.000000e+00 0.000000e+00 0.000000e+00 0.000000e+00 0.000000e+00 0.000000e+00
 0.000000e+00 0.000000e+00 0.000000e+00 0.000000e+00 7.878788e-01 2.121212e-01 0.000000e+00 0.000000e+00 0.000000e+00 0.000000e+00 0.000000e+00 0.000000e+00 0.000000e+00 0.000000e+00 0.000000e+00 0.000000e+00 0.000000e+00 0.000000e+00
 0.000000e+00 0.000000e+00 0.000000e+00 0.000000e+00 0.000000e+00 7.878788e-01 2.121212e-01 0.000000e+00 0.000000e+00 0.000000e+00 0.000000e+00 0.000000e+00 0.000000e+00 0.000000e+00 0.000000e+00 0.000000e+00 0.000000e+00 0.000000e+00
 0.000000e+00 0.000000e+00 0.000000e+00 0.000000e+00 0.000000e+00 0.000000e+00 8.627451e-01 1.372549e-01 0.000000e+00 0.000000e+00 0.000000e+00 0.000000e+00 0.000000e+00 0.000000e+00 0.000000e+00 0.000000e+00 0.000000e+00 0.000000e+00
 0.000000e+00 0.000000e+00 0.000000e+00 0.000000e+00 0.000000e+00 0.000000e+00 0.000000e+00 8.561644e-01 1.438356e-01 0.000000e+00 0.000000e+00 0.000000e+00 0.000000e+00 0.000000e+00 0.000000e+00 0.000000e+00 0.000000e+00 0.000000e+00
 0.000000e+00 0.000000e+00 0.000000e+00 0.000000e+00 0.000000e+00 0.000000e+00 0.000000e+00 0.000000e+00 8.018868e-01 1.981132e-01 0.000000e+00 0.000000e+00 0.000000e+00 0.000000e+00 0.000000e+00 0.000000e+00 0.000000e+00 0.000000e+00
 0.000000e+00 0.000000e+00 0.000000e+00 0.000000e+00 0.000000e+00 0.000000e+00 0.000000e+00 0.000000e+00 0.000000e+00 7.812500e-01 2.187500e-01 0.000000e+00 0.000000e+00 0.000000e+00 0.000000e+00 0.000000e+00 0.000000e+00 0.000000e+00
 0.000000e+00 0.000000e+00 0.000000e+00 0.000000e+00 0.000000e+00 0.000000e+00 0.000000e+00 0.000000e+00 0.000000e+00 0.000000e+00 8.645161e-01 1.354839e-01 0.000000e+00 0.000000e+00 0.000000e+00 0.000000e+00 0.000000e+00 0.000000e+00
 0.000000e+00 0.000000e+00 0.000000e+00 0.000000e+00 0.000000e+00 0.000000e+00 0.000000e+00 0.000000e+00 0.000000e+00 0.000000e+00 0.000000e+00 7.961165e-01 2.038835e-01 0.000000e+00 0.000000e+00 0.000000e+00 0.000000e+00 0.000000e+00
 0.000000e+00 0.000000e+00 0.000000e+00 0.000000e+00 0.000000e+00 0.000000e+00 0.000000e+00 0.000000e+00 0.000000e+00 0.000000e+00 0.000000e+00 0.000000e+00 8.141593e-01 1.858407e-01 0.000000e+00 0.000000e+00 0.000000e+00 0.000000e+00
 0.000000e+00 0.000000e+00 0.000000e+00 0.000000e+00 0.000000e+00 0.000000e+00 0.000000e+00 0.000000e+00 0.000000e+00 0.000000e+00 0.000000e+00 0.000000e+00 0.000000e+00 7.042254e-01 2.957746e-01 0.000000e+00 0.000000e+00 0.000000e+00
 0.000000e+00 0.000000e+00 0.000000e+00 0.000000e+00 0.000000e+00 0.000000e+00 0.000000e+00 0.000000e+00 0.000000e+00 0.000000e+00 0.000000e+00 0.000000e+00 0.000000e+00 0.000000e+00 5.882353e-01 4.117647e-01 0.000000e+00 0.000000e+00
 0.000000e+00 0.000000e+00 0.000000e+00 0.000000e+00 0.000000e+00 0.000000e+00 0.000000e+00 0.000000e+00 0.000000e+00 0.000000e+00 0.000000e+00 0.000000e+00 0.000000e+00 0.000000e+00 0.000000e+00 6.865672e-01 3.134328e-01 0.000000e+00
 0.000000e+00 0.000000e+00 0.000000e+00 0.000000e+00 0.000000e+00 0.000000e+00 0.000000e+00 0.000000e+00 0.000000e+00 0.000000e+00 0.000000e+00 0.000000e+00 0.000000e+00 0.000000e+00 0.000000e+00 0.000000e+00 9.139344e-01 8.606558e-02
 0.000000e+00 0.000000e+00 0.000000e+00 0.000000e+00 0.000000e+00 0.000000e+00 0.000000e+00 0.000000e+00 0.000000e+00 0.000000e+00 0.000000e+00 0.000000e+00 0.000000e+00 0.000000e+00 0.000000e+00 0.000000e+00 0.000000e+00 0.000000e+00
<ENDHMM>
