~o
<STREAMINFO> 1 15
<VECSIZE> 15<NULLD><MFCC><DIAGC>
~h "Ruby"
<BEGINHMM>
<NUMSTATES> 10
<STATE> 2
<MEAN> 15
 -3.344405e+01 -2.020985e+00 3.350276e-01 -3.845761e-01 -7.713452e-01 3.128008e-02 -8.176998e-01 -2.879517e-01 -6.621435e-01 1.465901e-01 -3.889029e-01 -5.197624e-02 -3.620524e-01 7.391798e-02 -3.198215e-01
<VARIANCE> 15
 4.237990e+00 9.422889e-01 1.621557e+00 4.871618e-01 3.189671e-01 2.464871e-01 2.823684e-01 3.837670e-01 1.743193e-01 2.645171e-01 1.733119e-01 1.592064e-01 1.152730e-01 1.390226e-01 1.415609e-01
<GCONST> 1.119613e+01
<STATE> 3
<MEAN> 15
 -2.441468e+01 -6.399794e-02 4.331769e+00 2.296094e+00 -4.520247e-01 9.721800e-01 -7.951390e-01 -3.532844e-01 -1.099280e-01 5.907555e-01 -4.833720e-02 2.906318e-01 -4.694445e-01 1.865011e-01 -3.781282e-01
<VARIANCE> 15
 9.351327e+00 2.534346e+00 1.540649e+00 7.193268e-01 8.940101e-01 5.487750e-01 4.597152e-01 6.374876e-01 4.105135e-01 4.705626e-01 2.829390e-01 1.937209e-01 2.178081e-01 2.561922e-01 1.471993e-01
<GCONST> 1.954693e+01
<STATE> 4
<MEAN> 15
 -1.937737e+01 -9.412473e-01 5.492089e+00 1.316689e+00 -1.328183e+00 1.340815e+00 -1.809700e+00 2.932450e-01 5.791615e-01 1.457189e+00 3.254725e-01 2.366947e-01 -9.529534e-01 5.687668e-02 -7.202358e-01
<VARIANCE> 15
 4.799580e+00 1.218211e+00 1.391768e+00 9.491588e-01 6.988001e-01 1.402429e+00 1.279839e+00 9.704260e-01 7.007637e-01 6.507809e-01 4.184537e-01 5.292101e-01 4.514666e-01 2.999493e-01 2.665739e-01
<GCONST> 2.419477e+01
<STATE> 5
<MEAN> 15
 -2.346429e+01 6.416944e-01 3.535076e+00 6.572129e-01 2.619871e-02 9.974771e-01 -8.168128e-01 1.129712e+00 6.588160e-01 1.325338e+00 -7.410755e-03 -1.439420e-01 -5.460591e-01 4.723510e-01 -4.074096e-01
<VARIANCE> 15
 1.716856e+01 7.435410e-01 1.208788e+00 5.711272e-01 5.251544e-01 7.467199e-01 8.573494e-01 7.069146e-01 4.470426e-01 3.427527e-01 2.256717e-01 2.467023e-01 3.645669e-01 2.508720e-01 2.425106e-01
<GCONST> 1.973484e+01
<STATE> 6
<MEAN> 15
 -2.227486e+01 -1.368851e+00 2.194402e+00 -3.176800e-01 4.341547e-01 2.044581e+00 2.403585e-01 1.206387e+00 4.878202e-01 4.510154e-01 -8.736402e-01 4.615261e-02 1.280562e-02 3.519017e-01 -6.865317e-01
<VARIANCE> 15
 1.321328e+01 1.874022e+00 1.782866e+00 9.870498e-01 1.237932e+00 3.239297e+00 5.313457e-01 1.456563e+00 5.884088e-01 3.923582e-01 8.782097e-01 4.626372e-01 3.103880e-01 2.959780e-01 3.330636e-01
<GCONST> 2.662177e+01
<STATE> 7
<MEAN> 15
 -2.392039e+01 -1.710846e+00 2.295662e+00 5.741127e-01 7.991892e-01 2.241756e+00 1.697837e+00 3.690165e-01 -1.778215e-01 8.113032e-01 -9.321068e-01 1.867681e-01 7.013753e-01 1.322586e-01 -7.242712e-01
<VARIANCE> 15
 5.259675e+00 8.131415e-01 1.263920e+00 7.348367e-01 6.437035e-01 7.781129e-01 6.778355e-01 6.317713e-01 5.302612e-01 6.351442e-01 5.235298e-01 5.795717e-01 3.001384e-01 3.039065e-01 2.677605e-01
<GCONST> 2.141488e+01
<STATE> 8
<MEAN> 15
 -2.975001e+01 -1.734575e+00 1.622625e+00 5.066102e-02 2.837034e-01 1.070706e+00 6.525664e-01 7.056872e-01 -1.820749e-01 7.577549e-01 2.249259e-01 3.424907e-01 2.197143e-01 5.113830e-02 -2.561567e-01
<VARIANCE> 15
 6.100829e+00 1.139603e+00 9.467867e-01 7.020617e-01 6.788689e-01 8.125271e-01 8.387631e-01 4.384990e-01 3.719447e-01 2.294997e-01 2.003120e-01 2.007166e-01 2.080183e-01 1.251469e-01 1.243768e-01
<GCONST> 1.609624e+01
<STATE> 9
<MEAN> 15
 -3.336998e+01 -2.061816e+00 -1.785098e-02 -6.221642e-01 -5.700430e-01 4.992871e-02 -5.783666e-01 9.934693e-02 -3.535192e-01 4.371444e-01 -3.530358e-01 -8.981006e-02 -3.919428e-01 7.794863e-04 -3.223409e-01
<VARIANCE> 15
 1.785560e+00 7.574100e-01 6.833062e-01 3.656565e-01 2.433711e-01 2.973876e-01 2.095256e-01 2.427485e-01 1.976069e-01 1.873340e-01 1.432076e-01 1.332965e-01 1.222153e-01 1.190465e-01 1.058921e-01
<GCONST> 7.148116e+00
<TRANSP> 10
 0.000000e+00 1.000000e+00 0.000000e+00 0.000000e+00 0.000000e+00 0.000000e+00 0.000000e+00 0.000000e+00 0.000000e+00 0.000000e+00
 0.000000e+00 9.082969e-01 9.170306e-02 0.000000e+00 0.000000e+00 0.000000e+00 0.000000e+00 0.000000e+00 0.000000e+00 0.000000e+00
 0.000000e+00 0.000000e+00 9.000000e-01 9.999999e-02 0.000000e+00 0.000000e+00 0.000000e+00 0.000000e+00 0.000000e+00 0.000000e+00
 0.000000e+00 0.000000e+00 0.000000e+00 9.288136e-01 7.118644e-02 0.000000e+00 0.000000e+00 0.000000e+00 0.000000e+00 0.000000e+00
 0.000000e+00 0.000000e+00 0.000000e+00 0.000000e+00 9.078947e-01 9.210525e-02 0.000000e+00 0.000000e+00 0.000000e+00 0.000000e+00
 0.000000e+00 0.000000e+00 0.000000e+00 0.000000e+00 0.000000e+00 9.176471e-01 8.235294e-02 0.000000e+00 0.000000e+00 0.000000e+00
 0.000000e+00 0.000000e+00 0.000000e+00 0.000000e+00 0.000000e+00 0.000000e+00 8.877006e-01 1.122995e-01 0.000000e+00 0.000000e+00
 0.000000e+00 0.000000e+00 0.000000e+00 0.000000e+00 0.000000e+00 0.000000e+00 0.000000e+00 8.670886e-01 1.329114e-01 0.000000e+00
 0.000000e+00 0.000000e+00 0.000000e+00 0.000000e+00 0.000000e+00 0.000000e+00 0.000000e+00 0.000000e+00 9.257951e-01 7.420494e-02
 0.000000e+00 0.000000e+00 0.000000e+00 0.000000e+00 0.000000e+00 0.000000e+00 0.000000e+00 0.000000e+00 0.000000e+00 0.000000e+00
<ENDHMM>
