~o
<STREAMINFO> 1 15
<VECSIZE> 15<NULLD><MFCC><DIAGC>
~h "Sarah"
<BEGINHMM>
<NUMSTATES> 18
<STATE> 2
<MEAN> 15
 -3.344750e+01 -2.638651e+00 -5.303658e-01 -6.808934e-01 -8.754341e-01 -1.474387e-02 -6.448079e-01 4.201493e-02 -6.632358e-01 2.052468e-01 -4.789690e-01 -1.275267e-01 -3.244456e-01 5.239497e-02 -3.493202e-01
<VARIANCE> 15
 5.717990e+00 1.605950e+00 5.692959e-01 6.801506e-01 3.829757e-01 2.720039e-01 3.275459e-01 2.180979e-01 1.959273e-01 1.409880e-01 1.654229e-01 1.654154e-01 1.264518e-01 1.507464e-01 1.267866e-01
<GCONST> 1.072309e+01
<STATE> 3
<MEAN> 15
 -2.745710e+01 -5.613917e+00 2.642902e-01 -8.198361e-01 -9.967805e-01 -4.132704e-01 -8.930709e-01 7.958317e-02 -7.594509e-01 1.634618e-01 -5.013936e-01 -2.441918e-01 -2.846552e-01 -5.675963e-02 -4.584088e-01
<VARIANCE> 15
 9.093161e+00 4.836856e+00 1.513301e+00 1.354272e+00 8.329572e-01 4.189284e-01 6.477695e-01 6.283022e-01 2.889660e-01 2.547773e-01 2.937511e-01 2.189371e-01 2.273043e-01 1.902530e-01 2.142362e-01
<GCONST> 2.008337e+01
<STATE> 4
<MEAN> 15
 -2.200870e+01 -8.254081e+00 4.848718e-01 6.149603e-02 -1.495467e+00 -8.500426e-01 -4.448821e-01 -6.432880e-01 -9.749056e-01 1.401897e-01 -6.764435e-01 1.536893e-02 -1.472387e-01 -1.691822e-01 -7.020035e-01
<VARIANCE> 15
 4.717759e+00 1.522067e+00 3.202020e-01 8.667945e-01 5.360940e-01 4.720581e-01 2.405279e-01 7.265460e-01 2.145867e-01 3.361686e-01 1.854329e-01 3.607486e-01 2.129166e-01 1.546037e-01 1.826133e-01
<GCONST> 1.469138e+01
<STATE> 5
<MEAN> 15
 -1.801094e+01 -9.883398e+00 5.174797e-01 -2.015466e-01 -1.699770e+00 -5.871391e-01 -8.523236e-01 -7.393362e-02 -8.357383e-01 3.815009e-01 -4.954404e-01 1.767506e-02 -2.514242e-01 7.240582e-02 -3.247998e-01
<VARIANCE> 15
 4.726630e+00 7.674226e-01 9.260376e-01 1.162850e+00 7.717189e-01 5.777676e-01 5.747869e-01 5.451813e-01 2.869715e-01 2.362598e-01 2.178318e-01 2.542062e-01 3.042362e-01 2.202457e-01 2.466416e-01
<GCONST> 1.727495e+01
<STATE> 6
<MEAN> 15
 -1.695740e+01 -8.136678e+00 1.915705e+00 -9.345362e-01 -1.063515e+00 -7.574620e-01 -7.577721e-01 -8.520415e-01 -5.405124e-01 -9.309562e-02 -5.194835e-01 2.218912e-01 -4.014427e-01 -6.578733e-01 -4.664000e-01
<VARIANCE> 15
 5.987977e+00 2.548566e+00 1.754814e+00 1.023438e+00 5.871815e-01 8.263805e-01 5.703740e-01 6.572522e-01 3.687113e-01 2.108791e-01 2.301630e-01 4.560390e-01 2.429497e-01 2.613212e-01 2.469710e-01
<GCONST> 2.021095e+01
<STATE> 7
<MEAN> 15
 -1.238058e+01 -1.340462e+00 2.800753e+00 2.192302e+00 -2.019578e+00 -7.833138e-01 2.643600e-01 6.646315e-01 -7.400687e-01 -2.181080e-01 -5.833993e-01 -1.751217e-02 -1.278406e+00 -1.058887e+00 -1.044873e+00
<VARIANCE> 15
 3.862577e+00 1.485995e+00 1.334752e+00 1.213878e+00 6.730906e-01 6.975690e-01 4.669634e-01 5.134714e-01 3.424968e-01 3.608856e-01 2.197431e-01 3.411038e-01 3.050649e-01 2.027405e-01 1.740558e-01
<GCONST> 1.840105e+01
<STATE> 8
<MEAN> 15
 -1.388372e+01 5.350231e-01 2.083457e+00 1.455131e-01 -1.243278e+00 2.357928e-01 -4.531534e-01 5.932487e-01 -7.604957e-01 5.769747e-01 -1.410500e+00 -3.815643e-02 -9.339982e-01 -8.615338e-01 -1.142045e+00
<VARIANCE> 15
 1.853459e+00 7.129806e-01 1.568394e+00 8.803747e-01 9.179105e-01 1.991560e+00 4.556940e-01 6.740968e-01 4.950762e-01 2.628127e-01 3.224936e-01 9.641339e-01 4.728242e-01 2.507671e-01 7.169409e-01
<GCONST> 2.191992e+01
<STATE> 9
<MEAN> 15
 -1.354084e+01 2.177501e+00 4.550022e-01 -1.187220e+00 -1.042499e+00 1.189755e+00 -2.050632e+00 1.010048e+00 -2.200168e-01 7.383107e-01 -2.048615e+00 -4.723828e-01 -1.129794e+00 -4.942866e-01 -1.024584e+00
<VARIANCE> 15
 5.433729e+00 1.269180e+00 1.115615e+00 1.240426e+00 1.329233e+00 1.850524e+00 8.702871e-01 3.481524e-01 5.084828e-01 3.815284e-01 5.871286e-01 9.627309e-01 4.578831e-01 6.868187e-01 2.539015e-01
<GCONST> 2.479201e+01
<STATE> 10
<MEAN> 15
 -1.727562e+01 2.696986e+00 2.914923e+00 1.399830e+00 -1.979966e+00 -1.596641e+00 -5.890540e-01 -2.526699e-01 -2.742834e-01 7.360115e-01 -6.603411e-01 -8.288552e-01 -1.259410e+00 -3.568024e-01 -6.305256e-01
<VARIANCE> 15
 4.529159e+00 1.763298e+00 3.210585e+00 1.834162e+00 7.341672e-01 1.787632e+00 4.555418e-01 1.282772e+00 4.005522e-01 3.710925e-01 7.764971e-01 4.122276e-01 2.812077e-01 4.098631e-01 2.892849e-01
<GCONST> 2.470725e+01
<STATE> 11
<MEAN> 15
 -2.252649e+01 3.769186e+00 3.120751e+00 7.841555e-01 -1.923391e+00 3.113559e-02 -2.428599e+00 2.910617e-02 -1.088208e-01 1.594922e+00 -8.573068e-01 -9.979442e-01 -5.031092e-01 8.965102e-02 -8.619699e-01
<VARIANCE> 15
 6.883774e+00 9.512432e-01 1.260312e+00 1.629758e+00 4.251598e-01 8.161157e-01 5.413986e-01 3.076852e-01 5.287043e-01 5.860846e-01 4.785664e-01 5.534952e-01 2.606115e-01 4.592661e-01 3.090125e-01
<GCONST> 2.151906e+01
<STATE> 12
<MEAN> 15
 -2.154641e+01 1.298510e+00 5.357356e+00 2.754629e+00 -1.741831e+00 -1.670960e+00 -1.502641e+00 -1.044860e+00 -8.660518e-01 9.177135e-01 1.540828e-01 8.845587e-02 -4.945117e-01 -4.647566e-01 -7.546833e-01
<VARIANCE> 15
 4.742781e+00 8.904687e-01 6.578483e-01 8.602188e-01 5.076063e-01 5.068302e-01 3.517622e-01 4.722769e-01 4.020332e-01 4.724391e-01 2.555958e-01 3.192595e-01 2.365432e-01 1.895790e-01 1.933246e-01
<GCONST> 1.637187e+01
<STATE> 13
<MEAN> 15
 -2.291943e+01 -9.814597e-02 5.215253e+00 1.429766e+00 -1.819414e+00 -4.653023e-01 -1.505133e+00 -4.439550e-01 -7.099938e-01 1.610455e+00 -3.746909e-02 -1.300537e-01 -4.769829e-01 -6.693649e-02 -8.222167e-01
<VARIANCE> 15
 2.301018e+00 2.167044e+00 1.839276e+00 8.025206e-01 8.331726e-01 5.715262e-01 9.206731e-01 4.225772e-01 7.040073e-01 6.066688e-01 6.106100e-01 2.376312e-01 3.270236e-01 2.726829e-01 3.326487e-01
<GCONST> 2.157934e+01
<STATE> 14
<MEAN> 15
 -2.520641e+01 1.561289e+00 3.434766e+00 -1.346816e-01 -1.173526e+00 1.192072e-01 -1.924604e+00 5.988914e-01 -2.376162e-01 2.071769e+00 -4.779872e-01 -3.763734e-01 -6.234049e-01 1.456993e-01 -4.998282e-01
<VARIANCE> 15
 1.399454e+00 1.815033e+00 1.274951e+00 7.825327e-01 5.749451e-01 7.037123e-01 5.981077e-01 4.714727e-01 3.564535e-01 4.525380e-01 5.651445e-01 4.221194e-01 3.103024e-01 4.857128e-01 2.758390e-01
<GCONST> 1.988943e+01
<STATE> 15
<MEAN> 15
 -2.856690e+01 -5.350484e-01 2.539011e+00 -5.125461e-01 -8.704877e-01 -2.665601e-01 -9.834280e-01 -2.023456e-01 -4.138199e-01 1.266850e+00 -8.381791e-02 6.279328e-02 -4.563976e-01 5.687080e-03 -1.703199e-01
<VARIANCE> 15
 1.713429e+00 1.257228e+00 7.266496e-01 3.951345e-01 3.943642e-01 5.006543e-01 2.462931e-01 4.213567e-01 2.969632e-01 1.642738e-01 2.157363e-01 2.174763e-01 2.341182e-01 2.922589e-01 2.074313e-01
<GCONST> 1.286516e+01
<STATE> 16
<MEAN> 15
 -3.198483e+01 -7.061280e-01 6.731963e-01 -9.915987e-01 -9.977024e-01 -5.406536e-01 -1.094040e+00 -1.869681e-01 -3.443308e-01 6.872074e-01 -2.862879e-01 -1.371066e-01 -4.677117e-01 -2.328086e-01 -2.972424e-01
<VARIANCE> 15
 1.156012e+00 5.963312e-01 5.335401e-01 3.727893e-01 3.339501e-01 3.464351e-01 1.455249e-01 2.196023e-01 1.627831e-01 2.188404e-01 1.495845e-01 1.271239e-01 1.392715e-01 1.706360e-01 1.350279e-01
<GCONST> 6.941977e+00
<STATE> 17
<MEAN> 15
 -3.408968e+01 -1.456984e+00 -4.733254e-01 -7.174705e-01 -7.120944e-01 -7.396591e-02 -7.197003e-01 -5.609443e-02 -3.790382e-01 4.258572e-01 -3.873090e-01 -1.274867e-01 -4.669337e-01 1.138565e-02 -3.856659e-01
<VARIANCE> 15
 4.040257e-01 7.989371e-01 3.124697e-01 2.994174e-01 2.704599e-01 1.571906e-01 1.567465e-01 1.412125e-01 1.203968e-01 1.640697e-01 1.481037e-01 1.076958e-01 1.422862e-01 1.070919e-01 1.170177e-01
<GCONST> 2.707571e+00
<TRANSP> 18
 0.000000e+00 1.000000e+00 0.000000e+00 0.000000e+00 0.000000e+00 0.000000e+00 0.000000e+00 0.000000e+00 0.000000e+00 0.000000e+00 0.000000e+00 0.000000e+00 0.000000e+00 0.000000e+00 0.000000e+00 0.000000e+00 0.000000e+00 0.000000e+00
 0.000000e+00 8.888889e-01 1.111111e-01 0.000000e+00 0.000000e+00 0.000000e+00 0.000000e+00 0.000000e+00 0.000000e+00 0.000000e+00 0.000000e+00 0.000000e+00 0.000000e+00 0.000000e+00 0.000000e+00 0.000000e+00 0.000000e+00 0.000000e+00
 0.000000e+00 0.000000e+00 7.560976e-01 2.439025e-01 0.000000e+00 0.000000e+00 0.000000e+00 0.000000e+00 0.000000e+00 0.000000e+00 0.000000e+00 0.000000e+00 0.000000e+00 0.000000e+00 0.000000e+00 0.000000e+00 0.000000e+00 0.000000e+00
 0.000000e+00 0.000000e+00 0.000000e+00 7.014925e-01 2.985075e-01 0.000000e+00 0.000000e+00 0.000000e+00 0.000000e+00 0.000000e+00 0.000000e+00 0.000000e+00 0.000000e+00 0.000000e+00 0.000000e+00 0.000000e+00 0.000000e+00 0.000000e+00
 0.000000e+00 0.000000e+00 0.000000e+00 0.000000e+00 9.215686e-01 7.843138e-02 0.000000e+00 0.000000e+00 0.000000e+00 0.000000e+00 0.000000e+00 0.000000e+00 0.000000e+00 0.000000e+00 0.000000e+00 0.000000e+00 0.000000e+00 0.000000e+00
 0.000000e+00 0.000000e+00 0.000000e+00 0.000000e+00 0.000000e+00 7.619048e-01 2.380952e-01 0.000000e+00 0.000000e+00 0.000000e+00 0.000000e+00 0.000000e+00 0.000000e+00 0.000000e+00 0.000000e+00 0.000000e+00 0.000000e+00 0.000000e+00
 0.000000e+00 0.000000e+00 0.000000e+00 0.000000e+00 0.000000e+00 0.000000e+00 8.765432e-01 1.234568e-01 0.000000e+00 0.000000e+00 0.000000e+00 0.000000e+00 0.000000e+00 0.000000e+00 0.000000e+00 0.000000e+00 0.000000e+00 0.000000e+00
 0.000000e+00 0.000000e+00 0.000000e+00 0.000000e+00 0.000000e+00 0.000000e+00 0.000000e+00 6.969697e-01 3.030303e-01 0.000000e+00 0.000000e+00 0.000000e+00 0.000000e+00 0.000000e+00 0.000000e+00 0.000000e+00 0.000000e+00 0.000000e+00
 0.000000e+00 0.000000e+00 0.000000e+00 0.000000e+00 0.000000e+00 0.000000e+00 0.000000e+00 0.000000e+00 8.571429e-01 1.428571e-01 0.000000e+00 0.000000e+00 0.000000e+00 0.000000e+00 0.000000e+00 0.000000e+00 0.000000e+00 0.000000e+00
 0.000000e+00 0.000000e+00 0.000000e+00 0.000000e+00 0.000000e+00 0.000000e+00 0.000000e+00 0.000000e+00 0.000000e+00 8.214286e-01 1.785714e-01 0.000000e+00 0.000000e+00 0.000000e+00 0.000000e+00 0.000000e+00 0.000000e+00 0.000000e+00
 0.000000e+00 0.000000e+00 0.000000e+00 0.000000e+00 0.000000e+00 0.000000e+00 0.000000e+00 0.000000e+00 0.000000e+00 0.000000e+00 8.437500e-01 1.562500e-01 0.000000e+00 0.000000e+00 0.000000e+00 0.000000e+00 0.000000e+00 0.000000e+00
 0.000000e+00 0.000000e+00 0.000000e+00 0.000000e+00 0.000000e+00 0.000000e+00 0.000000e+00 0.000000e+00 0.000000e+00 0.000000e+00 0.000000e+00 8.765432e-01 1.234568e-01 0.000000e+00 0.000000e+00 0.000000e+00 0.000000e+00 0.000000e+00
 0.000000e+00 0.000000e+00 0.000000e+00 0.000000e+00 0.000000e+00 0.000000e+00 0.000000e+00 0.000000e+00 0.000000e+00 0.000000e+00 0.000000e+00 0.000000e+00 8.400000e-01 1.600000e-01 0.000000e+00 0.000000e+00 0.000000e+00 0.000000e+00
 0.000000e+00 0.000000e+00 0.000000e+00 0.000000e+00 0.000000e+00 0.000000e+00 0.000000e+00 0.000000e+00 0.000000e+00 0.000000e+00 0.000000e+00 0.000000e+00 0.000000e+00 8.214286e-01 1.785714e-01 0.000000e+00 0.000000e+00 0.000000e+00
 0.000000e+00 0.000000e+00 0.000000e+00 0.000000e+00 0.000000e+00 0.000000e+00 0.000000e+00 0.000000e+00 0.000000e+00 0.000000e+00 0.000000e+00 0.000000e+00 0.000000e+00 0.000000e+00 7.530864e-01 2.469136e-01 0.000000e+00 0.000000e+00
 0.000000e+00 0.000000e+00 0.000000e+00 0.000000e+00 0.000000e+00 0.000000e+00 0.000000e+00 0.000000e+00 0.000000e+00 0.000000e+00 0.000000e+00 0.000000e+00 0.000000e+00 0.000000e+00 0.000000e+00 8.591549e-01 1.408451e-01 0.000000e+00
 0.000000e+00 0.000000e+00 0.000000e+00 0.000000e+00 0.000000e+00 0.000000e+00 0.000000e+00 0.000000e+00 0.000000e+00 0.000000e+00 0.000000e+00 0.000000e+00 0.000000e+00 0.000000e+00 0.000000e+00 0.000000e+00 8.780488e-01 1.219512e-01
 0.000000e+00 0.000000e+00 0.000000e+00 0.000000e+00 0.000000e+00 0.000000e+00 0.000000e+00 0.000000e+00 0.000000e+00 0.000000e+00 0.000000e+00 0.000000e+00 0.000000e+00 0.000000e+00 0.000000e+00 0.000000e+00 0.000000e+00 0.000000e+00
<ENDHMM>
