~o
<STREAMINFO> 1 20
<VECSIZE> 20<NULLD><MFCC><DIAGC>
~h "Sarah"
<BEGINHMM>
<NUMSTATES> 18
<STATE> 2
<MEAN> 20
 -3.912263e+01 -2.175852e+00 -1.564447e+00 2.435752e-01 -1.949735e+00 6.570328e-01 -1.281562e+00 3.943767e-01 -9.507284e-01 6.565572e-02 -2.910666e-01 -2.799360e-01 -3.679417e-01 -1.638633e-01 -8.035454e-02 -3.091388e-01 -3.452361e-01 -2.126881e-01 -8.326974e-02 -2.003897e-01
<VARIANCE> 20
 7.687273e+00 2.508271e+00 1.287017e+00 8.251671e-01 8.125851e-01 5.789496e-01 4.684097e-01 3.828625e-01 3.319849e-01 2.635231e-01 2.304966e-01 2.176142e-01 2.384353e-01 1.666794e-01 1.840266e-01 1.570753e-01 1.750465e-01 1.241979e-01 1.418434e-01 1.297277e-01
<GCONST> 1.728249e+01
<STATE> 3
<MEAN> 20
 -3.177891e+01 -5.740001e+00 -1.029385e+00 5.558519e-01 -2.377433e+00 4.729003e-01 -1.833139e+00 5.509730e-01 -1.159833e+00 1.273445e-01 -4.536535e-01 -2.339685e-01 -5.703929e-01 -1.199003e-02 -3.842123e-01 -3.733038e-01 -3.307819e-01 -2.942027e-02 -1.674704e-01 -2.204939e-01
<VARIANCE> 20
 1.242421e+01 6.655844e+00 3.978166e+00 2.555539e+00 1.477705e+00 1.213952e+00 9.167898e-01 1.086990e+00 4.280783e-01 2.920276e-01 3.458335e-01 2.768500e-01 3.158986e-01 3.422265e-01 2.696904e-01 2.949222e-01 1.963945e-01 2.228546e-01 2.098912e-01 2.313437e-01
<GCONST> 2.873722e+01
<STATE> 4
<MEAN> 20
 -1.993362e+01 -1.065130e+01 -2.293584e-01 8.651977e-01 -1.700610e+00 -6.324949e-01 -1.575888e+00 -4.461876e-01 -1.448394e+00 4.017189e-02 -2.503994e-01 -1.688988e-01 -1.563237e-01 -1.228131e-01 -3.570707e-01 -4.453517e-01 -2.801040e-01 2.230307e-01 1.315658e-01 1.827308e-01
<VARIANCE> 20
 1.181883e+01 2.339775e+00 3.100830e+00 1.886875e+00 7.296503e-01 1.018163e+00 5.320709e-01 7.034788e-01 3.761438e-01 4.099948e-01 3.448760e-01 3.109733e-01 3.179646e-01 2.925659e-01 1.958190e-01 2.663941e-01 2.746236e-01 2.534746e-01 1.581019e-01 1.736478e-01
<GCONST> 2.487367e+01
<STATE> 5
<MEAN> 20
 -2.284947e+01 -9.318249e+00 -1.982027e+00 2.295262e+00 -4.261412e+00 1.194174e+00 -2.406375e+00 1.606411e+00 -1.853107e+00 8.387769e-01 -7.876484e-01 2.429483e-01 -7.282015e-01 2.869624e-01 -4.146567e-01 4.439993e-02 -3.066954e-01 1.603550e-01 6.645026e-02 -2.797709e-02
<VARIANCE> 20
 8.507701e+00 1.651073e+00 1.588378e+00 1.031266e+00 1.048039e+00 1.174070e+00 7.597942e-01 4.746638e-01 5.839198e-01 5.750307e-01 3.248585e-01 3.213548e-01 3.686487e-01 5.934950e-01 3.956543e-01 3.791150e-01 2.394777e-01 2.327030e-01 1.916357e-01 1.827999e-01
<GCONST> 2.607451e+01
<STATE> 6
<MEAN> 20
 -2.004786e+01 -8.133121e+00 1.278857e+00 3.042925e-01 -2.102995e+00 -1.115512e-01 -1.140043e+00 -5.036711e-02 -1.441756e+00 3.184842e-01 -6.932108e-01 5.266000e-02 2.711250e-01 -4.627936e-01 -1.095824e+00 -2.262279e-01 -3.149348e-01 1.072367e-01 5.090762e-01 2.553850e-01
<VARIANCE> 20
 5.319240e+00 8.415943e+00 4.864709e+00 3.192434e+00 1.486222e+00 1.887571e+00 4.778654e-01 1.910303e+00 3.573047e-01 4.232975e-01 3.190274e-01 2.145548e-01 6.755427e-01 2.760972e-01 4.604646e-01 4.559857e-01 3.098945e-01 1.313490e-01 2.778750e-01 3.488869e-01
<GCONST> 3.089657e+01
<STATE> 7
<MEAN> 20
 -1.637516e+01 -1.763144e+00 1.747342e+00 3.353529e+00 -2.542627e+00 6.351686e-02 -4.484497e-01 1.713232e+00 -7.342246e-01 4.142211e-01 -5.539905e-01 1.366464e-01 -6.435541e-03 -1.249846e+00 -1.407475e+00 -1.086270e+00 -1.147925e+00 -3.138299e-01 5.573074e-01 4.158103e-01
<VARIANCE> 20
 7.321438e+00 3.284148e+00 2.898495e+00 1.348701e+00 9.111198e-01 3.052458e+00 1.174835e+00 4.864243e-01 4.084968e-01 6.725383e-01 3.614640e-01 3.349755e-01 4.418608e-01 6.558756e-01 3.760400e-01 3.283080e-01 2.549732e-01 2.002419e-01 2.887474e-01 3.051478e-01
<GCONST> 2.962645e+01
<STATE> 8
<MEAN> 20
 -1.472112e+01 -1.187102e-01 1.525699e+00 4.011103e+00 -2.379194e+00 -8.104109e-01 -1.013387e+00 1.329203e+00 -7.137867e-01 -3.118345e-01 -7.658445e-01 -2.813748e-01 -5.959324e-01 -1.462327e+00 -1.252666e+00 -1.101938e+00 -7.862611e-01 4.755979e-02 2.295690e-01 1.785461e-01
<VARIANCE> 20
 3.721604e+00 1.872921e+00 1.933813e+00 1.389386e+00 7.622991e-01 1.990415e+00 7.432444e-01 4.649719e-01 5.400434e-01 7.549100e-01 2.310462e-01 3.190901e-01 4.395117e-01 3.751722e-01 2.899564e-01 2.348425e-01 1.702403e-01 2.176749e-01 2.816658e-01 2.040507e-01
<GCONST> 2.489624e+01
<STATE> 9
<MEAN> 20
 -1.739150e+01 3.826313e+00 -1.008791e+00 1.157293e+00 -3.698155e+00 2.746763e+00 -2.590793e+00 9.382210e-01 -6.713799e-01 9.061517e-01 -7.720307e-01 -1.734351e+00 -5.778875e-01 -1.102630e+00 -7.171624e-01 -1.127632e+00 -3.114289e-01 -1.131075e-01 4.915526e-01 -2.056492e-01
<VARIANCE> 20
 6.412842e+00 2.344260e+00 1.661972e+00 1.870022e+00 1.735734e+00 2.534529e+00 9.964146e-01 1.151256e+00 1.139634e+00 4.990851e-01 6.616540e-01 6.814814e-01 1.221041e+00 6.450697e-01 7.534804e-01 5.498064e-01 3.588869e-01 4.066886e-01 2.739557e-01 4.025550e-01
<GCONST> 3.561059e+01
<STATE> 10
<MEAN> 20
 -2.005539e+01 3.281215e+00 2.205596e+00 2.707889e+00 -2.176083e+00 -1.393114e+00 -1.675528e+00 4.236183e-01 -1.125059e+00 7.433283e-01 -1.507050e-01 -6.517807e-01 -1.382551e+00 -1.286038e+00 -3.678966e-01 -6.605458e-01 -1.253497e+00 1.329170e-01 3.791391e-02 -1.180641e-01
<VARIANCE> 20
 8.478914e+00 3.871970e+00 4.382498e+00 1.517253e+00 1.096874e+00 2.328511e+00 5.177872e-01 8.086671e-01 9.223158e-01 7.528716e-01 3.918106e-01 8.453494e-01 5.480212e-01 3.174880e-01 6.002287e-01 2.753809e-01 2.121238e-01 2.490667e-01 3.475991e-01 2.556640e-01
<GCONST> 3.183081e+01
<STATE> 11
<MEAN> 20
 -2.717096e+01 4.906400e+00 2.463206e+00 2.949173e+00 -3.329806e+00 7.654144e-01 -2.851397e+00 -5.401377e-01 -7.108012e-01 1.020257e+00 8.856534e-01 -1.302413e+00 -9.502605e-01 -4.230627e-01 5.226998e-02 -1.114674e+00 -9.130436e-01 -5.840569e-01 -9.347760e-02 -5.516386e-01
<VARIANCE> 20
 8.804681e+00 2.206484e+00 2.077678e+00 2.126860e+00 1.033422e+00 1.651139e+00 7.621349e-01 7.064475e-01 1.413561e+00 6.590031e-01 5.251865e-01 7.570722e-01 9.450135e-01 2.618015e-01 4.319407e-01 3.921878e-01 1.891797e-01 2.313323e-01 2.842753e-01 3.009866e-01
<GCONST> 3.137244e+01
<STATE> 12
<MEAN> 20
 -2.413872e+01 1.839041e+00 4.941030e+00 4.755562e+00 -1.773898e+00 -1.443024e+00 -2.494981e+00 -8.699307e-01 -1.691304e+00 1.584694e-01 4.640943e-01 2.162599e-01 -2.291186e-01 -4.218085e-01 -8.137131e-01 -7.847608e-01 -7.910411e-01 -5.452587e-01 -5.883329e-01 -3.415215e-01
<VARIANCE> 20
 5.671122e+00 1.705400e+00 1.290408e+00 1.169267e+00 6.296347e-01 1.660221e+00 7.918497e-01 5.205413e-01 6.660517e-01 4.543602e-01 2.554615e-01 3.440064e-01 3.470368e-01 2.978271e-01 1.895438e-01 2.228326e-01 2.023900e-01 2.581646e-01 1.894979e-01 1.677291e-01
<GCONST> 2.313456e+01
<STATE> 13
<MEAN> 20
 -2.730784e+01 2.896381e-01 4.520115e+00 3.717147e+00 -2.521823e+00 -5.809334e-01 -1.741254e+00 -5.136240e-01 -1.366166e+00 7.704286e-01 1.158249e+00 1.213614e-01 -3.965652e-01 -4.952214e-01 -4.141921e-01 -7.107533e-01 -3.937186e-01 -2.056910e-03 1.310496e-01 -1.006657e-01
<VARIANCE> 20
 3.300829e+00 2.944349e+00 1.191742e+00 1.380320e+00 8.956042e-01 1.383862e+00 7.749578e-01 8.891345e-01 5.637594e-01 8.128253e-01 4.526108e-01 3.683033e-01 3.679068e-01 4.807814e-01 2.631929e-01 4.492835e-01 3.212582e-01 3.462104e-01 2.440677e-01 2.555561e-01
<GCONST> 2.796148e+01
<STATE> 14
<MEAN> 20
 -3.013040e+01 2.898490e+00 2.320911e+00 2.336609e+00 -3.243591e+00 1.624666e+00 -2.943692e+00 6.315461e-01 -9.120086e-01 1.575696e+00 1.117176e+00 -6.376695e-01 -6.265716e-01 -5.209887e-01 5.701081e-02 -5.431977e-01 -6.042398e-01 -6.054062e-01 -1.446924e-01 -3.459335e-01
<VARIANCE> 20
 2.020816e+00 3.291700e+00 1.189307e+00 1.525733e+00 8.929772e-01 8.836854e-01 8.236953e-01 5.917296e-01 6.212397e-01 7.583574e-01 5.174583e-01 5.440348e-01 5.679101e-01 4.516809e-01 6.043980e-01 3.403472e-01 2.501915e-01 3.098790e-01 2.811905e-01 2.610162e-01
<GCONST> 2.816170e+01
<STATE> 15
<MEAN> 20
 -3.469571e+01 6.072953e-01 8.661966e-01 1.179674e+00 -2.523928e+00 9.990186e-01 -1.971341e+00 6.121672e-01 -1.012303e+00 1.223732e+00 5.599164e-01 4.813776e-02 -2.475506e-01 -3.659793e-01 6.433669e-02 -1.466092e-01 -1.225510e-01 -6.523967e-02 -8.035798e-02 -1.084862e-01
<VARIANCE> 20
 4.669638e+00 2.086909e+00 2.881219e+00 3.910156e-01 6.901958e-01 6.538429e-01 6.253201e-01 4.848434e-01 3.154821e-01 3.414481e-01 3.097805e-01 2.031628e-01 2.876419e-01 2.980562e-01 2.813311e-01 3.025479e-01 2.045373e-01 2.610340e-01 1.911875e-01 1.490095e-01
<GCONST> 2.076197e+01
<STATE> 16
<MEAN> 20
 -3.712229e+01 -9.586163e-01 6.327896e-01 -5.307904e-01 -1.627369e+00 -1.115685e-01 -1.614330e+00 -2.688230e-01 -9.160460e-01 2.667384e-01 1.968628e-01 -2.744372e-01 -3.669361e-01 -4.433473e-01 -4.162790e-01 -1.349461e-01 -1.450945e-01 1.280308e-01 1.861116e-02 1.564049e-02
<VARIANCE> 20
 3.327030e+00 1.086247e+00 9.306504e-01 4.989712e-01 3.199522e-01 3.935332e-01 2.289122e-01 2.454582e-01 2.005581e-01 2.192443e-01 2.190188e-01 2.086556e-01 1.573575e-01 1.440557e-01 2.082728e-01 1.936495e-01 1.697437e-01 1.954083e-01 1.390308e-01 1.217777e-01
<GCONST> 1.163202e+01
<STATE> 17
<MEAN> 20
 -3.983125e+01 -7.241597e-01 -1.459816e+00 1.856722e-01 -1.832228e+00 5.953220e-01 -1.379176e+00 2.387914e-01 -8.019516e-01 4.152533e-01 -8.826450e-02 -2.003007e-01 -3.807975e-01 -3.805878e-01 -6.133638e-02 -4.314044e-01 -2.781448e-01 -2.225291e-01 -1.500265e-02 -2.301416e-01
<VARIANCE> 20
 6.359446e-01 1.227201e+00 5.242818e-01 4.511963e-01 4.017273e-01 3.842101e-01 2.693618e-01 2.455364e-01 2.019939e-01 2.507141e-01 2.343042e-01 1.674286e-01 1.208732e-01 1.856023e-01 1.251238e-01 1.307398e-01 1.365137e-01 1.394679e-01 1.661617e-01 1.548300e-01
<GCONST> 8.730572e+00
<TRANSP> 18
 0.000000e+00 1.000000e+00 0.000000e+00 0.000000e+00 0.000000e+00 0.000000e+00 0.000000e+00 0.000000e+00 0.000000e+00 0.000000e+00 0.000000e+00 0.000000e+00 0.000000e+00 0.000000e+00 0.000000e+00 0.000000e+00 0.000000e+00 0.000000e+00
 0.000000e+00 8.888889e-01 1.111111e-01 0.000000e+00 0.000000e+00 0.000000e+00 0.000000e+00 0.000000e+00 0.000000e+00 0.000000e+00 0.000000e+00 0.000000e+00 0.000000e+00 0.000000e+00 0.000000e+00 0.000000e+00 0.000000e+00 0.000000e+00
 0.000000e+00 0.000000e+00 7.647059e-01 2.352941e-01 0.000000e+00 0.000000e+00 0.000000e+00 0.000000e+00 0.000000e+00 0.000000e+00 0.000000e+00 0.000000e+00 0.000000e+00 0.000000e+00 0.000000e+00 0.000000e+00 0.000000e+00 0.000000e+00
 0.000000e+00 0.000000e+00 0.000000e+00 8.930481e-01 1.069519e-01 0.000000e+00 0.000000e+00 0.000000e+00 0.000000e+00 0.000000e+00 0.000000e+00 0.000000e+00 0.000000e+00 0.000000e+00 0.000000e+00 0.000000e+00 0.000000e+00 0.000000e+00
 0.000000e+00 0.000000e+00 0.000000e+00 0.000000e+00 8.888889e-01 1.111111e-01 0.000000e+00 0.000000e+00 0.000000e+00 0.000000e+00 0.000000e+00 0.000000e+00 0.000000e+00 0.000000e+00 0.000000e+00 0.000000e+00 0.000000e+00 0.000000e+00
 0.000000e+00 0.000000e+00 0.000000e+00 0.000000e+00 0.000000e+00 4.736842e-01 5.263158e-01 0.000000e+00 0.000000e+00 0.000000e+00 0.000000e+00 0.000000e+00 0.000000e+00 0.000000e+00 0.000000e+00 0.000000e+00 0.000000e+00 0.000000e+00
 0.000000e+00 0.000000e+00 0.000000e+00 0.000000e+00 0.000000e+00 0.000000e+00 5.454546e-01 4.545455e-01 0.000000e+00 0.000000e+00 0.000000e+00 0.000000e+00 0.000000e+00 0.000000e+00 0.000000e+00 0.000000e+00 0.000000e+00 0.000000e+00
 0.000000e+00 0.000000e+00 0.000000e+00 0.000000e+00 0.000000e+00 0.000000e+00 0.000000e+00 8.529412e-01 1.470588e-01 0.000000e+00 0.000000e+00 0.000000e+00 0.000000e+00 0.000000e+00 0.000000e+00 0.000000e+00 0.000000e+00 0.000000e+00
 0.000000e+00 0.000000e+00 0.000000e+00 0.000000e+00 0.000000e+00 0.000000e+00 0.000000e+00 0.000000e+00 8.870056e-01 1.129943e-01 0.000000e+00 0.000000e+00 0.000000e+00 0.000000e+00 0.000000e+00 0.000000e+00 0.000000e+00 0.000000e+00
 0.000000e+00 0.000000e+00 0.000000e+00 0.000000e+00 0.000000e+00 0.000000e+00 0.000000e+00 0.000000e+00 0.000000e+00 8.000000e-01 2.000000e-01 0.000000e+00 0.000000e+00 0.000000e+00 0.000000e+00 0.000000e+00 0.000000e+00 0.000000e+00
 0.000000e+00 0.000000e+00 0.000000e+00 0.000000e+00 0.000000e+00 0.000000e+00 0.000000e+00 0.000000e+00 0.000000e+00 0.000000e+00 8.675497e-01 1.324503e-01 0.000000e+00 0.000000e+00 0.000000e+00 0.000000e+00 0.000000e+00 0.000000e+00
 0.000000e+00 0.000000e+00 0.000000e+00 0.000000e+00 0.000000e+00 0.000000e+00 0.000000e+00 0.000000e+00 0.000000e+00 0.000000e+00 0.000000e+00 8.518519e-01 1.481482e-01 0.000000e+00 0.000000e+00 0.000000e+00 0.000000e+00 0.000000e+00
 0.000000e+00 0.000000e+00 0.000000e+00 0.000000e+00 0.000000e+00 0.000000e+00 0.000000e+00 0.000000e+00 0.000000e+00 0.000000e+00 0.000000e+00 0.000000e+00 8.648649e-01 1.351351e-01 0.000000e+00 0.000000e+00 0.000000e+00 0.000000e+00
 0.000000e+00 0.000000e+00 0.000000e+00 0.000000e+00 0.000000e+00 0.000000e+00 0.000000e+00 0.000000e+00 0.000000e+00 0.000000e+00 0.000000e+00 0.000000e+00 0.000000e+00 8.275862e-01 1.724138e-01 0.000000e+00 0.000000e+00 0.000000e+00
 0.000000e+00 0.000000e+00 0.000000e+00 0.000000e+00 0.000000e+00 0.000000e+00 0.000000e+00 0.000000e+00 0.000000e+00 0.000000e+00 0.000000e+00 0.000000e+00 0.000000e+00 0.000000e+00 7.849463e-01 2.150538e-01 0.000000e+00 0.000000e+00
 0.000000e+00 0.000000e+00 0.000000e+00 0.000000e+00 0.000000e+00 0.000000e+00 0.000000e+00 0.000000e+00 0.000000e+00 0.000000e+00 0.000000e+00 0.000000e+00 0.000000e+00 0.000000e+00 0.000000e+00 8.449612e-01 1.550387e-01 0.000000e+00
 0.000000e+00 0.000000e+00 0.000000e+00 0.000000e+00 0.000000e+00 0.000000e+00 0.000000e+00 0.000000e+00 0.000000e+00 0.000000e+00 0.000000e+00 0.000000e+00 0.000000e+00 0.000000e+00 0.000000e+00 0.000000e+00 8.773006e-01 1.226994e-01
 0.000000e+00 0.000000e+00 0.000000e+00 0.000000e+00 0.000000e+00 0.000000e+00 0.000000e+00 0.000000e+00 0.000000e+00 0.000000e+00 0.000000e+00 0.000000e+00 0.000000e+00 0.000000e+00 0.000000e+00 0.000000e+00 0.000000e+00 0.000000e+00
<ENDHMM>
