~o
<STREAMINFO> 1 15
<VECSIZE> 15<NULLD><MFCC><DIAGC>
~h "Sarah"
<BEGINHMM>
<NUMSTATES> 10
<STATE> 2
<MEAN> 15
 -3.182385e+01 -3.430107e+00 -2.674528e-01 -7.505841e-01 -9.037057e-01 -1.152290e-01 -7.076330e-01 2.623882e-02 -6.960020e-01 2.007418e-01 -5.046020e-01 -1.712537e-01 -3.051155e-01 1.521464e-02 -3.944844e-01
<VARIANCE> 15
 1.234003e+01 3.910399e+00 1.007100e+00 8.485396e-01 5.038322e-01 3.352082e-01 4.350764e-01 3.046967e-01 2.262133e-01 1.719414e-01 2.004633e-01 1.867039e-01 1.595909e-01 1.681476e-01 1.598683e-01
<GCONST> 1.550460e+01
<STATE> 3
<MEAN> 15
 -1.921541e+01 -9.495818e+00 3.206303e-01 5.419897e-02 -1.886446e+00 -5.812093e-01 -6.947933e-01 -3.725501e-02 -8.219798e-01 3.821706e-01 -5.617234e-01 4.830039e-02 -2.761020e-01 5.754526e-02 -4.211254e-01
<VARIANCE> 15
 7.767479e+00 1.385760e+00 7.846938e-01 1.087383e+00 5.141445e-01 6.091557e-01 5.164164e-01 6.566779e-01 2.614731e-01 2.535589e-01 2.068559e-01 2.657566e-01 3.001021e-01 2.452203e-01 2.541716e-01
<GCONST> 1.794986e+01
<STATE> 4
<MEAN> 15
 -1.718767e+01 -8.664025e+00 1.664992e+00 -9.872131e-01 -8.407570e-01 -8.113493e-01 -9.226515e-01 -7.966627e-01 -7.314579e-01 -3.914575e-02 -4.341603e-01 8.660276e-02 -2.558144e-01 -4.595132e-01 -3.908159e-01
<VARIANCE> 15
 5.302292e+00 2.820068e+00 1.234447e+00 7.083501e-01 5.209372e-01 6.477965e-01 5.537714e-01 5.761627e-01 4.043715e-01 2.275509e-01 2.451732e-01 4.161469e-01 2.390657e-01 2.324956e-01 2.443815e-01
<GCONST> 1.894295e+01
<STATE> 5
<MEAN> 15
 -1.273639e+01 -6.074989e-01 2.837592e+00 1.992414e+00 -1.881361e+00 -1.080197e+00 1.149300e-01 5.120661e-01 -6.795050e-01 -6.310979e-02 -6.358055e-01 -1.438909e-01 -1.343316e+00 -9.724182e-01 -9.570060e-01
<VARIANCE> 15
 3.420030e+00 2.489607e+00 1.609544e+00 1.191856e+00 7.157953e-01 9.845611e-01 5.189940e-01 6.072495e-01 3.697146e-01 4.086729e-01 2.176611e-01 4.340434e-01 2.781877e-01 2.226890e-01 2.076281e-01
<GCONST> 2.025406e+01
<STATE> 6
<MEAN> 15
 -1.475718e+01 2.269377e+00 8.864458e-01 -7.926859e-01 -1.320113e+00 9.327065e-01 -1.624268e+00 8.270082e-01 -2.895309e-01 8.025060e-01 -1.851335e+00 -5.098689e-01 -1.005402e+00 -4.312065e-01 -1.058618e+00
<VARIANCE> 15
 8.565703e+00 2.486868e+00 1.333466e+00 1.433349e+00 1.404850e+00 1.733669e+00 1.231257e+00 6.703898e-01 5.683239e-01 3.977081e-01 6.138723e-01 1.070716e+00 4.556312e-01 6.783911e-01 4.771794e-01
<GCONST> 2.815234e+01
<STATE> 7
<MEAN> 15
 -2.107273e+01 1.188880e+00 5.065678e+00 2.377239e+00 -1.898837e+00 -1.347664e+00 -1.412705e+00 -8.354574e-01 -7.517609e-01 9.815707e-01 9.602097e-02 -1.969832e-01 -6.362520e-01 -3.280436e-01 -7.340810e-01
<VARIANCE> 15
 5.633029e+00 2.127700e+00 1.796860e+00 9.952281e-01 6.443451e-01 1.082515e+00 5.876724e-01 5.771603e-01 5.965554e-01 4.649110e-01 3.575714e-01 4.893301e-01 3.022212e-01 3.037342e-01 2.317009e-01
<GCONST> 2.231551e+01
<STATE> 8
<MEAN> 15
 -2.498519e+01 1.704890e+00 3.471387e+00 2.461692e-01 -1.384362e+00 -5.658663e-02 -1.861157e+00 1.680101e-01 -2.354712e-01 1.880081e+00 -5.341060e-01 -4.189160e-01 -4.924201e-01 6.486386e-02 -6.027841e-01
<VARIANCE> 15
 4.350398e+00 4.016594e+00 1.337584e+00 1.052373e+00 5.707921e-01 6.019440e-01 9.064682e-01 4.971815e-01 3.753779e-01 4.835155e-01 5.393459e-01 4.831953e-01 3.202312e-01 4.110079e-01 3.240826e-01
<GCONST> 2.269961e+01
<STATE> 9
<MEAN> 15
 -3.279613e+01 -1.079003e+00 2.466497e-01 -8.391057e-01 -8.293902e-01 -3.006841e-01 -8.957052e-01 -1.289992e-01 -3.878471e-01 5.941907e-01 -3.153255e-01 -1.077592e-01 -4.696613e-01 -1.001329e-01 -3.286960e-01
<VARIANCE> 15
 2.779983e+00 8.693078e-01 1.067213e+00 3.455715e-01 3.169316e-01 3.127520e-01 1.795417e-01 1.951603e-01 1.589652e-01 2.188288e-01 1.595786e-01 1.254442e-01 1.378207e-01 1.593144e-01 1.320128e-01
<GCONST> 8.677157e+00
<TRANSP> 10
 0.000000e+00 1.000000e+00 0.000000e+00 0.000000e+00 0.000000e+00 0.000000e+00 0.000000e+00 0.000000e+00 0.000000e+00 0.000000e+00
 0.000000e+00 9.215686e-01 7.843138e-02 0.000000e+00 0.000000e+00 0.000000e+00 0.000000e+00 0.000000e+00 0.000000e+00 0.000000e+00
 0.000000e+00 0.000000e+00 9.270073e-01 7.299270e-02 0.000000e+00 0.000000e+00 0.000000e+00 0.000000e+00 0.000000e+00 0.000000e+00
 0.000000e+00 0.000000e+00 0.000000e+00 8.591549e-01 1.408451e-01 0.000000e+00 0.000000e+00 0.000000e+00 0.000000e+00 0.000000e+00
 0.000000e+00 0.000000e+00 0.000000e+00 0.000000e+00 9.065421e-01 9.345794e-02 0.000000e+00 0.000000e+00 0.000000e+00 0.000000e+00
 0.000000e+00 0.000000e+00 0.000000e+00 0.000000e+00 0.000000e+00 9.130435e-01 8.695652e-02 0.000000e+00 0.000000e+00 0.000000e+00
 0.000000e+00 0.000000e+00 0.000000e+00 0.000000e+00 0.000000e+00 0.000000e+00 9.348534e-01 6.514657e-02 0.000000e+00 0.000000e+00
 0.000000e+00 0.000000e+00 0.000000e+00 0.000000e+00 0.000000e+00 0.000000e+00 0.000000e+00 9.342105e-01 6.578948e-02 0.000000e+00
 0.000000e+00 0.000000e+00 0.000000e+00 0.000000e+00 0.000000e+00 0.000000e+00 0.000000e+00 0.000000e+00 9.404762e-01 5.952381e-02
 0.000000e+00 0.000000e+00 0.000000e+00 0.000000e+00 0.000000e+00 0.000000e+00 0.000000e+00 0.000000e+00 0.000000e+00 0.000000e+00
<ENDHMM>
