~o
<STREAMINFO> 1 15
<VECSIZE> 15<NULLD><MFCC><DIAGC>
~h "sil"
<BEGINHMM>
<NUMSTATES> 10
<STATE> 2
<MEAN> 15
 -3.089804e+01 -2.929960e+00 3.759803e-01 -9.893272e-01 -3.365380e-01 3.205044e-03 -5.501380e-01 1.085768e-02 -4.142923e-01 3.282179e-01 -3.102678e-01 -1.525930e-01 -3.619427e-01 3.398803e-02 -2.235277e-01
<VARIANCE> 15
 5.639243e+01 2.355492e+00 9.858791e-01 6.748106e-01 4.010254e-01 3.518116e-01 2.895509e-01 2.983888e-01 2.062596e-01 2.672907e-01 1.859064e-01 1.716923e-01 1.731636e-01 1.469983e-01 1.265836e-01
<GCONST> 1.556222e+01
<STATE> 3
<MEAN> 15
 -3.428370e+01 -2.844044e+00 -2.771815e-02 -9.400893e-01 -2.416279e-01 -1.968696e-01 -2.862613e-01 -1.732385e-01 -4.449371e-01 1.030186e-01 -3.479773e-01 -1.265161e-01 -2.764511e-01 1.532248e-02 -2.436681e-01
<VARIANCE> 15
 4.753870e-01 3.074943e-01 2.081747e-01 1.543351e-01 1.404137e-01 1.455757e-01 1.428343e-01 1.324351e-01 1.260555e-01 1.214669e-01 1.169729e-01 1.180206e-01 1.117126e-01 1.102287e-01 1.042053e-01
<GCONST> -7.710021e-01
<STATE> 4
<MEAN> 15
 -3.443961e+01 -2.263488e+00 -7.113488e-01 -5.726984e-01 -7.214445e-01 1.934339e-01 -6.282698e-01 1.105955e-01 -5.624307e-01 3.319473e-01 -5.196109e-01 -7.970918e-02 -4.397953e-01 1.297175e-01 -3.140297e-01
<VARIANCE> 15
 1.469629e+00 6.294507e-01 2.777631e-01 2.991045e-01 1.927241e-01 1.542599e-01 1.490266e-01 1.462048e-01 1.407310e-01 1.424723e-01 1.371423e-01 1.210670e-01 1.284756e-01 1.180730e-01 1.113091e-01
<GCONST> 3.268747e+00
<STATE> 5
<MEAN> 15
 -3.524936e+01 -1.902666e+00 -1.026485e+00 -2.323539e-01 -8.576964e-01 1.838012e-01 -6.110899e-01 5.586153e-02 -5.860794e-01 1.885285e-01 -4.265611e-01 -8.355817e-02 -3.454923e-01 5.461107e-02 -2.847708e-01
<VARIANCE> 15
 3.378613e-01 1.631074e-01 1.430000e-01 1.401151e-01 1.335731e-01 1.228452e-01 1.197483e-01 1.152366e-01 1.131074e-01 1.127811e-01 1.103337e-01 1.072151e-01 1.067871e-01 1.052520e-01 1.017767e-01
<GCONST> -3.205758e+00
<STATE> 6
<MEAN> 15
 -3.348451e+01 -2.636676e+00 -7.823671e-01 -6.442730e-01 -8.483381e-01 2.309429e-01 -7.465162e-01 1.055270e-01 -6.270761e-01 3.041731e-01 -4.662466e-01 -9.442700e-02 -3.618874e-01 8.003052e-02 -3.134307e-01
<VARIANCE> 15
 7.689657e+00 2.455883e+00 7.160552e-01 6.299648e-01 3.584365e-01 2.853818e-01 2.619030e-01 2.230640e-01 1.934351e-01 1.892091e-01 1.630283e-01 1.521624e-01 1.412338e-01 1.355527e-01 1.192685e-01
<GCONST> 1.150396e+01
<STATE> 7
<MEAN> 15
 -3.370666e+01 -3.195237e+00 2.537819e-01 -1.063327e+00 -2.837768e-01 -2.581167e-01 -3.944454e-01 -2.134017e-01 -4.858948e-01 9.381224e-02 -3.380518e-01 -1.323163e-01 -2.889951e-01 5.809947e-03 -2.454123e-01
<VARIANCE> 15
 1.467226e+00 7.351159e-01 3.085766e-01 2.217895e-01 1.910705e-01 1.733993e-01 1.839587e-01 1.527120e-01 1.419231e-01 1.294338e-01 1.225345e-01 1.206367e-01 1.180142e-01 1.122120e-01 1.105014e-01
<GCONST> 3.244037e+00
<STATE> 8
<MEAN> 15
 -3.404981e+01 -2.720233e+00 -3.058158e-01 -6.778785e-01 -5.624285e-01 -6.475276e-02 -5.286921e-01 -4.477204e-02 -5.174522e-01 1.544823e-01 -4.155426e-01 -6.247874e-02 -3.056774e-01 6.495256e-02 -2.725449e-01
<VARIANCE> 15
 1.676865e+00 1.018318e+00 6.267819e-01 3.532532e-01 2.817725e-01 2.313760e-01 1.529139e-01 1.823940e-01 1.217722e-01 1.462877e-01 9.447510e-02 1.256398e-01 1.126654e-01 1.178402e-01 1.178936e-01
<GCONST> 5.364408e+00
<STATE> 9
<MEAN> 15
 -3.120566e+01 -3.839033e+00 3.926086e-01 -1.239886e+00 -4.222689e-01 -2.405110e-01 -5.104234e-01 -2.139586e-01 -5.248629e-01 1.522745e-01 -3.366702e-01 -1.021413e-01 -2.686333e-01 1.982869e-02 -3.100289e-01
<VARIANCE> 15
 1.698835e+01 3.342451e+00 1.367302e+00 9.880545e-01 6.392794e-01 4.449420e-01 4.075460e-01 3.216144e-01 2.510071e-01 2.203392e-01 1.944920e-01 1.874141e-01 1.682161e-01 1.680584e-01 1.544236e-01
<GCONST> 1.697832e+01
<TRANSP> 10
 0.000000e+00 1.000000e+00 0.000000e+00 0.000000e+00 0.000000e+00 0.000000e+00 0.000000e+00 0.000000e+00 0.000000e+00 0.000000e+00
 0.000000e+00 9.224893e-01 7.751071e-02 0.000000e+00 0.000000e+00 0.000000e+00 0.000000e+00 0.000000e+00 0.000000e+00 0.000000e+00
 0.000000e+00 0.000000e+00 9.743858e-01 2.561419e-02 0.000000e+00 0.000000e+00 0.000000e+00 0.000000e+00 0.000000e+00 0.000000e+00
 0.000000e+00 0.000000e+00 0.000000e+00 9.526250e-01 4.737502e-02 0.000000e+00 0.000000e+00 0.000000e+00 0.000000e+00 0.000000e+00
 0.000000e+00 0.000000e+00 0.000000e+00 0.000000e+00 9.831429e-01 1.685712e-02 0.000000e+00 0.000000e+00 0.000000e+00 0.000000e+00
 0.000000e+00 0.000000e+00 0.000000e+00 0.000000e+00 0.000000e+00 9.522881e-01 4.771189e-02 0.000000e+00 0.000000e+00 0.000000e+00
 0.000000e+00 0.000000e+00 0.000000e+00 0.000000e+00 0.000000e+00 0.000000e+00 9.655115e-01 3.448848e-02 0.000000e+00 0.000000e+00
 0.000000e+00 0.000000e+00 0.000000e+00 0.000000e+00 0.000000e+00 0.000000e+00 0.000000e+00 0.000000e+00 1.000000e+00 0.000000e+00
 0.000000e+00 0.000000e+00 0.000000e+00 0.000000e+00 0.000000e+00 0.000000e+00 0.000000e+00 0.000000e+00 9.543359e-01 4.566411e-02
 0.000000e+00 0.000000e+00 0.000000e+00 0.000000e+00 0.000000e+00 0.000000e+00 0.000000e+00 0.000000e+00 0.000000e+00 0.000000e+00
<ENDHMM>
