~o
<STREAMINFO> 1 20
<VECSIZE> 20<NULLD><MFCC><DIAGC>
~h "sil"
<BEGINHMM>
<NUMSTATES> 18
<STATE> 2
<MEAN> 20
 -3.105376e+01 -2.574115e+00 1.044609e-01 -2.071785e-01 -1.062508e+00 3.942978e-01 -8.051113e-01 1.600316e-01 -7.063974e-01 1.202000e-01 -1.307914e-01 -1.320753e-01 -3.393885e-01 -1.892576e-01 -1.178397e-01 -1.539003e-01 -1.973573e-01 -5.714881e-02 -1.137618e-01 -1.429179e-01
<VARIANCE> 20
 2.590143e+02 5.321648e+00 2.169239e+00 9.232844e-01 9.230537e-01 5.985458e-01 6.957195e-01 3.925534e-01 4.068703e-01 3.142223e-01 2.646389e-01 2.414955e-01 2.418721e-01 1.887496e-01 1.946359e-01 1.593980e-01 1.626175e-01 1.513669e-01 1.566199e-01 1.450187e-01
<GCONST> 2.393346e+01
<STATE> 3
<MEAN> 20
 -3.862195e+01 -1.303801e+00 -1.383261e+00 4.152443e-01 -1.741197e+00 1.163970e+00 -1.307169e+00 6.215544e-01 -7.592623e-01 4.042047e-01 -6.777062e-02 -1.420809e-01 -4.497991e-01 -2.010484e-01 -8.847000e-02 -2.637584e-01 -2.747032e-01 -2.783689e-01 -4.324153e-02 -3.613355e-01
<VARIANCE> 20
 9.461954e+00 2.078841e+00 1.087637e+00 7.352096e-01 5.233913e-01 1.021195e+00 5.219078e-01 5.230692e-01 2.524837e-01 5.200768e-01 2.251780e-01 1.875325e-01 2.381260e-01 1.887258e-01 1.811337e-01 2.077256e-01 1.573015e-01 1.777537e-01 1.515334e-01 2.327508e-01
<GCONST> 1.908928e+01
<STATE> 4
<MEAN> 20
 -3.910163e+01 -2.289155e+00 -1.619674e+00 2.378119e-01 -2.080266e+00 1.391644e+00 -1.681564e+00 8.498545e-01 -1.176231e+00 7.335289e-01 -5.160155e-01 -1.732360e-02 -6.560721e-01 -1.723279e-01 -6.801697e-02 -1.367281e-01 -1.998135e-01 -2.089280e-01 -1.018814e-01 -2.531040e-01
<VARIANCE> 20
 1.798790e+00 7.857223e-01 4.178046e-01 3.337201e-01 3.600847e-01 3.725814e-01 3.139190e-01 2.580785e-01 2.218882e-01 3.136019e-01 2.177517e-01 2.581117e-01 2.220569e-01 1.911918e-01 1.739601e-01 1.709369e-01 1.435181e-01 1.457089e-01 1.471043e-01 1.486156e-01
<GCONST> 1.070236e+01
<STATE> 5
<MEAN> 20
 -3.818924e+01 -3.583235e+00 4.235935e-02 -5.754281e-01 -1.186572e+00 3.994213e-01 -1.034584e+00 1.585483e-01 -8.218511e-01 3.274094e-02 -1.957227e-01 -2.344181e-01 -4.163705e-01 -2.398731e-01 -1.304782e-01 -2.167130e-01 -2.494766e-01 -8.842731e-02 -1.427377e-01 -1.463305e-01
<VARIANCE> 20
 3.205104e+00 1.700380e+00 6.564245e-01 3.790082e-01 3.360655e-01 2.872006e-01 2.604780e-01 2.419809e-01 2.125861e-01 1.890294e-01 1.859031e-01 1.670602e-01 1.731286e-01 1.610405e-01 1.559722e-01 1.467564e-01 1.410273e-01 1.425810e-01 1.412778e-01 1.364863e-01
<GCONST> 1.006156e+01
<STATE> 6
<MEAN> 20
 -4.059773e+01 -1.526292e+00 -1.952052e+00 4.407095e-01 -1.839125e+00 9.070956e-01 -1.214417e+00 4.726424e-01 -8.991744e-01 2.294849e-01 -2.858937e-01 -2.732305e-01 -3.453036e-01 -2.920705e-01 4.793881e-02 -3.270584e-01 -1.542364e-01 -2.537898e-01 -4.850661e-02 -2.692055e-01
<VARIANCE> 20
 6.127572e-01 3.896304e-01 2.657468e-01 2.343951e-01 2.448506e-01 2.231772e-01 2.066948e-01 1.982491e-01 1.788141e-01 1.902336e-01 1.712118e-01 1.580295e-01 1.497023e-01 1.489662e-01 1.476490e-01 1.363157e-01 1.359549e-01 1.308256e-01 1.304192e-01 1.276753e-01
<GCONST> 3.623432e+00
<STATE> 7
<MEAN> 20
 -3.977387e+01 -3.060077e+00 -4.924462e-01 -5.483246e-01 -9.312877e-01 2.645683e-01 -7.699496e-01 2.126155e-01 -8.058558e-01 7.063799e-02 -2.760491e-01 -2.029110e-01 -3.257883e-01 -1.677853e-01 -9.815837e-02 -2.181247e-01 -2.716405e-01 -9.148710e-02 -1.283728e-01 -1.508109e-01
<VARIANCE> 20
 5.511307e-01 3.681098e-01 2.383970e-01 1.952065e-01 1.803909e-01 1.847774e-01 1.797605e-01 1.688791e-01 1.607732e-01 1.504170e-01 1.442398e-01 1.431832e-01 1.479506e-01 1.345358e-01 1.383408e-01 1.335341e-01 1.338179e-01 1.282825e-01 1.294620e-01 1.280830e-01
<GCONST> 1.524445e+00
<STATE> 8
<MEAN> 20
 -4.118605e+01 -1.310541e+00 -2.114210e+00 5.262867e-01 -1.703030e+00 6.254516e-01 -9.723141e-01 2.177944e-01 -7.166420e-01 -3.636181e-02 -1.766313e-01 -3.024210e-01 -2.606412e-01 -2.767781e-01 -1.310579e-02 -2.983104e-01 -2.158339e-01 -1.959650e-01 -6.701079e-02 -2.043520e-01
<VARIANCE> 20
 2.946740e-01 1.987981e-01 1.812396e-01 1.706570e-01 1.751997e-01 1.636622e-01 1.593543e-01 1.507632e-01 1.440085e-01 1.460009e-01 1.411066e-01 1.354502e-01 1.340097e-01 1.331475e-01 1.316035e-01 1.308581e-01 1.285222e-01 1.296195e-01 1.241574e-01 1.250161e-01
<GCONST> -1.003780e+00
<STATE> 9
<MEAN> 20
 -4.020666e+01 -1.800778e+00 -1.945564e+00 4.697234e-01 -1.893947e+00 8.707533e-01 -1.230483e+00 3.984890e-01 -8.287247e-01 1.168684e-01 -2.259406e-01 -2.947010e-01 -3.003104e-01 -2.584326e-01 -1.245799e-02 -2.744913e-01 -2.064123e-01 -2.025104e-01 -7.022598e-02 -2.006593e-01
<VARIANCE> 20
 2.607832e+00 1.060970e+00 6.765116e-01 4.446060e-01 4.482691e-01 3.715851e-01 3.114924e-01 2.511156e-01 1.951591e-01 2.161091e-01 1.726780e-01 1.695251e-01 1.676367e-01 1.601905e-01 1.459757e-01 1.381106e-01 1.386558e-01 1.323750e-01 1.267814e-01 1.351136e-01
<GCONST> 9.950153e+00
<STATE> 10
<MEAN> 20
 -3.434702e+01 -3.868301e+00 -2.223752e+00 -9.234024e-02 -2.445384e+00 1.267257e+00 -1.760495e+00 6.366418e-01 -1.186077e+00 4.821446e-01 -3.546064e-01 -4.444291e-02 -4.809881e-01 -8.568081e-02 -6.323361e-02 -2.253484e-01 -3.254055e-01 -1.540871e-01 -1.043273e-01 -1.898202e-01
<VARIANCE> 20
 2.197333e+01 6.303762e+00 4.156960e+00 2.527168e+00 2.030731e+00 1.306197e+00 9.935397e-01 7.907644e-01 6.153358e-01 5.893454e-01 4.527104e-01 3.129289e-01 3.277683e-01 2.890769e-01 2.292629e-01 2.169760e-01 2.116103e-01 2.317579e-01 1.860375e-01 1.720336e-01
<GCONST> 2.999176e+01
<STATE> 11
<MEAN> 20
 -3.855411e+01 -3.560305e+00 -1.464683e-01 -5.300019e-01 -1.116924e+00 3.148364e-01 -9.971871e-01 1.631127e-01 -8.921370e-01 6.186578e-02 -2.847116e-01 -1.710600e-01 -3.565037e-01 -1.834608e-01 -1.105567e-01 -2.153347e-01 -2.891632e-01 -1.025167e-01 -1.434436e-01 -1.695634e-01
<VARIANCE> 20
 1.585994e+00 1.136545e+00 4.499352e-01 2.923202e-01 3.064250e-01 2.507916e-01 2.451517e-01 2.256425e-01 1.885408e-01 1.664201e-01 1.667050e-01 1.539790e-01 1.551137e-01 1.492247e-01 1.476395e-01 1.459712e-01 1.365227e-01 1.365726e-01 1.373429e-01 1.330468e-01
<GCONST> 7.145724e+00
<STATE> 12
<MEAN> 20
 -3.884507e+01 -2.126662e+00 -1.888337e+00 6.278147e-01 -2.254040e+00 1.349208e+00 -1.581076e+00 7.277046e-01 -9.805440e-01 3.436942e-01 -2.273781e-01 -1.864975e-01 -3.431228e-01 -2.072254e-01 -6.248114e-02 -2.649652e-01 -2.148501e-01 -1.946092e-01 -3.170113e-02 -2.000381e-01
<VARIANCE> 20
 4.753077e+00 1.814431e+00 1.074906e+00 6.710331e-01 8.918298e-01 8.165823e-01 5.092068e-01 5.247433e-01 3.376934e-01 3.632951e-01 2.694400e-01 2.284336e-01 2.447505e-01 1.892482e-01 1.864126e-01 1.628526e-01 1.665117e-01 1.614984e-01 1.501326e-01 1.644250e-01
<GCONST> 1.817807e+01
<STATE> 13
<MEAN> 20
 -4.133768e+01 -1.323475e+00 -1.900902e+00 4.972154e-01 -1.628877e+00 6.457154e-01 -9.607849e-01 2.270654e-01 -7.118374e-01 -1.183977e-02 -1.454243e-01 -2.783062e-01 -2.625196e-01 -2.429482e-01 -1.871210e-02 -2.678508e-01 -2.339711e-01 -1.816308e-01 -7.979485e-02 -1.929300e-01
<VARIANCE> 20
 8.911788e-01 4.612168e-01 2.507566e-01 2.156324e-01 2.398899e-01 2.140061e-01 2.021319e-01 1.756392e-01 1.570733e-01 1.570516e-01 1.525407e-01 1.441242e-01 1.467333e-01 1.347651e-01 1.341189e-01 1.331968e-01 1.310112e-01 1.297119e-01 1.291234e-01 1.234423e-01
<GCONST> 2.961684e+00
<STATE> 14
<MEAN> 20
 -3.535715e+01 -4.851204e+00 7.361420e-03 -8.282095e-01 -1.465057e+00 3.474985e-01 -1.132726e+00 1.088916e-01 -9.482866e-01 1.081119e-01 -2.357807e-01 -1.330133e-01 -3.662148e-01 -1.728674e-01 -1.561593e-01 -2.696639e-01 -3.240913e-01 -9.858613e-02 -1.499754e-01 -2.072256e-01
<VARIANCE> 20
 1.640753e+01 4.753702e+00 1.559398e+00 1.119872e+00 8.366825e-01 6.352158e-01 5.310065e-01 4.219148e-01 3.363465e-01 3.098023e-01 2.793064e-01 2.380903e-01 2.325470e-01 2.114448e-01 2.079503e-01 1.861337e-01 1.697517e-01 1.723328e-01 1.654365e-01 1.559085e-01
<GCONST> 2.111810e+01
<STATE> 15
<MEAN> 20
 -3.952151e+01 -3.188678e+00 -3.415861e-01 -5.609302e-01 -1.011695e+00 2.800844e-01 -8.872951e-01 2.011714e-01 -8.506542e-01 5.608149e-02 -2.852775e-01 -2.169155e-01 -3.335119e-01 -1.629674e-01 -1.171170e-01 -2.345789e-01 -2.964613e-01 -1.010219e-01 -1.202912e-01 -1.710071e-01
<VARIANCE> 20
 1.652665e+00 1.043247e+00 4.809790e-01 3.384832e-01 2.673135e-01 2.237510e-01 2.405531e-01 1.880634e-01 1.818703e-01 1.653762e-01 1.700412e-01 1.598211e-01 1.547074e-01 1.522614e-01 1.451731e-01 1.389967e-01 1.319889e-01 1.344050e-01 1.346406e-01 1.307535e-01
<GCONST> 6.742270e+00
<STATE> 16
<MEAN> 20
 -3.966450e+01 -2.481341e+00 -1.001025e+00 1.091362e-02 -1.464147e+00 5.344137e-01 -1.026431e+00 2.247465e-01 -8.419436e-01 5.165746e-02 -2.916038e-01 -2.331331e-01 -2.566840e-01 -2.056247e-01 -2.897614e-02 -2.605072e-01 -2.458384e-01 -1.362257e-01 -9.571676e-02 -1.654191e-01
<VARIANCE> 20
 3.006503e+00 2.114251e+00 1.363655e+00 6.587263e-01 4.409008e-01 3.154538e-01 2.739402e-01 2.309669e-01 2.188090e-01 2.086519e-01 1.860750e-01 1.478704e-01 1.498616e-01 1.488950e-01 1.769262e-01 1.498131e-01 1.576521e-01 1.385922e-01 1.432015e-01 1.249402e-01
<GCONST> 1.180711e+01
<STATE> 17
<MEAN> 20
 -3.400626e+01 -3.542232e+00 -5.808288e-01 2.221211e-02 -1.909889e+00 7.275082e-01 -1.357480e+00 3.796333e-01 -1.057036e+00 1.530597e-01 -3.097433e-01 -1.254653e-01 -4.250705e-01 -7.592821e-02 -5.636359e-02 -3.845504e-01 -3.564313e-01 -7.056264e-02 -5.470779e-02 -2.035965e-01
<VARIANCE> 20
 4.562450e+01 7.296626e+00 5.331035e+00 2.717057e+00 2.080538e+00 1.235751e+00 1.064353e+00 8.185337e-01 4.813726e-01 4.911104e-01 4.198406e-01 3.191696e-01 3.516948e-01 2.958007e-01 2.952904e-01 2.766822e-01 2.537832e-01 2.556070e-01 1.981868e-01 1.910048e-01
<GCONST> 3.181568e+01
<TRANSP> 18
 0.000000e+00 1.000000e+00 0.000000e+00 0.000000e+00 0.000000e+00 0.000000e+00 0.000000e+00 0.000000e+00 0.000000e+00 0.000000e+00 0.000000e+00 0.000000e+00 0.000000e+00 0.000000e+00 0.000000e+00 0.000000e+00 0.000000e+00 0.000000e+00
 0.000000e+00 6.865559e-01 3.134441e-01 0.000000e+00 0.000000e+00 0.000000e+00 0.000000e+00 0.000000e+00 0.000000e+00 0.000000e+00 0.000000e+00 0.000000e+00 0.000000e+00 0.000000e+00 0.000000e+00 0.000000e+00 0.000000e+00 0.000000e+00
 0.000000e+00 0.000000e+00 6.284691e-01 3.715309e-01 0.000000e+00 0.000000e+00 0.000000e+00 0.000000e+00 0.000000e+00 0.000000e+00 0.000000e+00 0.000000e+00 0.000000e+00 0.000000e+00 0.000000e+00 0.000000e+00 0.000000e+00 0.000000e+00
 0.000000e+00 0.000000e+00 0.000000e+00 8.723862e-01 1.276138e-01 0.000000e+00 0.000000e+00 0.000000e+00 0.000000e+00 0.000000e+00 0.000000e+00 0.000000e+00 0.000000e+00 0.000000e+00 0.000000e+00 0.000000e+00 0.000000e+00 0.000000e+00
 0.000000e+00 0.000000e+00 0.000000e+00 0.000000e+00 9.160089e-01 8.399109e-02 0.000000e+00 0.000000e+00 0.000000e+00 0.000000e+00 0.000000e+00 0.000000e+00 0.000000e+00 0.000000e+00 0.000000e+00 0.000000e+00 0.000000e+00 0.000000e+00
 0.000000e+00 0.000000e+00 0.000000e+00 0.000000e+00 0.000000e+00 9.264576e-01 7.354244e-02 0.000000e+00 0.000000e+00 0.000000e+00 0.000000e+00 0.000000e+00 0.000000e+00 0.000000e+00 0.000000e+00 0.000000e+00 0.000000e+00 0.000000e+00
 0.000000e+00 0.000000e+00 0.000000e+00 0.000000e+00 0.000000e+00 0.000000e+00 9.722315e-01 2.776849e-02 0.000000e+00 0.000000e+00 0.000000e+00 0.000000e+00 0.000000e+00 0.000000e+00 0.000000e+00 0.000000e+00 0.000000e+00 0.000000e+00
 0.000000e+00 0.000000e+00 0.000000e+00 0.000000e+00 0.000000e+00 0.000000e+00 0.000000e+00 9.782904e-01 2.170957e-02 0.000000e+00 0.000000e+00 0.000000e+00 0.000000e+00 0.000000e+00 0.000000e+00 0.000000e+00 0.000000e+00 0.000000e+00
 0.000000e+00 0.000000e+00 0.000000e+00 0.000000e+00 0.000000e+00 0.000000e+00 0.000000e+00 0.000000e+00 8.457249e-01 1.542751e-01 0.000000e+00 0.000000e+00 0.000000e+00 0.000000e+00 0.000000e+00 0.000000e+00 0.000000e+00 0.000000e+00
 0.000000e+00 0.000000e+00 0.000000e+00 0.000000e+00 0.000000e+00 0.000000e+00 0.000000e+00 0.000000e+00 0.000000e+00 7.278689e-01 2.721311e-01 0.000000e+00 0.000000e+00 0.000000e+00 0.000000e+00 0.000000e+00 0.000000e+00 0.000000e+00
 0.000000e+00 0.000000e+00 0.000000e+00 0.000000e+00 0.000000e+00 0.000000e+00 0.000000e+00 0.000000e+00 0.000000e+00 0.000000e+00 9.418116e-01 5.818844e-02 0.000000e+00 0.000000e+00 0.000000e+00 0.000000e+00 0.000000e+00 0.000000e+00
 0.000000e+00 0.000000e+00 0.000000e+00 0.000000e+00 0.000000e+00 0.000000e+00 0.000000e+00 0.000000e+00 0.000000e+00 0.000000e+00 0.000000e+00 8.560027e-01 1.439972e-01 0.000000e+00 0.000000e+00 0.000000e+00 0.000000e+00 0.000000e+00
 0.000000e+00 0.000000e+00 0.000000e+00 0.000000e+00 0.000000e+00 0.000000e+00 0.000000e+00 0.000000e+00 0.000000e+00 0.000000e+00 0.000000e+00 0.000000e+00 9.516711e-01 4.832887e-02 0.000000e+00 0.000000e+00 0.000000e+00 0.000000e+00
 0.000000e+00 0.000000e+00 0.000000e+00 0.000000e+00 0.000000e+00 0.000000e+00 0.000000e+00 0.000000e+00 0.000000e+00 0.000000e+00 0.000000e+00 0.000000e+00 0.000000e+00 9.199615e-01 8.003857e-02 0.000000e+00 0.000000e+00 0.000000e+00
 0.000000e+00 0.000000e+00 0.000000e+00 0.000000e+00 0.000000e+00 0.000000e+00 0.000000e+00 0.000000e+00 0.000000e+00 0.000000e+00 0.000000e+00 0.000000e+00 0.000000e+00 0.000000e+00 9.131981e-01 8.680192e-02 0.000000e+00 0.000000e+00
 0.000000e+00 0.000000e+00 0.000000e+00 0.000000e+00 0.000000e+00 0.000000e+00 0.000000e+00 0.000000e+00 0.000000e+00 0.000000e+00 0.000000e+00 0.000000e+00 0.000000e+00 0.000000e+00 0.000000e+00 0.000000e+00 1.000000e+00 0.000000e+00
 0.000000e+00 0.000000e+00 0.000000e+00 0.000000e+00 0.000000e+00 0.000000e+00 0.000000e+00 0.000000e+00 0.000000e+00 0.000000e+00 0.000000e+00 0.000000e+00 0.000000e+00 0.000000e+00 0.000000e+00 0.000000e+00 7.724780e-01 2.275219e-01
 0.000000e+00 0.000000e+00 0.000000e+00 0.000000e+00 0.000000e+00 0.000000e+00 0.000000e+00 0.000000e+00 0.000000e+00 0.000000e+00 0.000000e+00 0.000000e+00 0.000000e+00 0.000000e+00 0.000000e+00 0.000000e+00 0.000000e+00 0.000000e+00
<ENDHMM>
