~o
<STREAMINFO> 1 15
<VECSIZE> 15<NULLD><MFCC><DIAGC>
~h "sil"
<BEGINHMM>
<NUMSTATES> 18
<STATE> 2
<MEAN> 15
 -2.806366e+01 -1.829115e+00 1.526255e-01 -4.775761e-01 -2.917644e-01 1.480099e-01 -3.859575e-01 1.158249e-01 -3.372650e-01 3.031770e-01 -2.017304e-01 -6.480259e-02 -2.167395e-01 3.123923e-02 -2.064668e-01
<VARIANCE> 15
 1.710854e+02 2.843560e+00 1.333186e+00 6.629824e-01 4.450314e-01 4.783021e-01 3.632272e-01 4.392087e-01 2.384647e-01 2.792304e-01 2.206543e-01 1.489471e-01 1.892772e-01 1.357068e-01 1.207091e-01
<GCONST> 1.834856e+01
<STATE> 3
<MEAN> 15
 -3.255531e+01 -3.323585e+00 5.328782e-01 -1.173364e+00 -3.932837e-01 -1.830785e-01 -5.952575e-01 -1.488822e-01 -5.028897e-01 1.742963e-01 -3.207852e-01 -2.231883e-01 -3.681077e-01 -1.009124e-02 -2.566683e-01
<VARIANCE> 15
 2.247347e+00 1.326264e+00 5.304707e-01 3.321621e-01 2.408144e-01 2.332087e-01 2.117948e-01 1.739635e-01 1.669771e-01 1.545559e-01 1.418253e-01 1.401251e-01 1.397396e-01 1.371308e-01 1.183510e-01
<GCONST> 7.079179e+00
<STATE> 4
<MEAN> 15
 -3.441316e+01 -2.836148e+00 -1.091466e-01 -9.804410e-01 -2.785133e-01 -2.372599e-01 -2.936754e-01 -2.055501e-01 -4.650591e-01 7.353327e-02 -3.692544e-01 -1.522346e-01 -2.864987e-01 -8.183553e-03 -2.571711e-01
<VARIANCE> 15
 3.828422e-01 2.999366e-01 1.878149e-01 1.449773e-01 1.347838e-01 1.356090e-01 1.348975e-01 1.240327e-01 1.203068e-01 1.175438e-01 1.108141e-01 1.117120e-01 1.051512e-01 1.049712e-01 1.018631e-01
<GCONST> -1.733090e+00
<STATE> 5
<MEAN> 15
 -3.414139e+01 -2.685043e+00 1.266059e-01 -6.879892e-01 -1.124033e-01 2.025400e-02 -1.711351e-01 -2.136745e-02 -3.167679e-01 2.208354e-01 -2.556265e-01 -2.858816e-02 -1.998295e-01 8.958218e-02 -1.846015e-01
<VARIANCE> 15
 5.248389e-01 3.750532e-01 3.149785e-01 1.848143e-01 1.887596e-01 1.547924e-01 1.593569e-01 1.383471e-01 1.231005e-01 1.188263e-01 1.217730e-01 1.217534e-01 1.108326e-01 1.100972e-01 1.037519e-01
<GCONST> 6.435170e-01
<STATE> 6
<MEAN> 15
 -3.320683e+01 -3.002009e+00 -2.741455e-01 -1.159368e+00 -4.520976e-01 1.176129e-01 -6.482779e-01 9.670397e-02 -4.444173e-01 4.922418e-01 -5.972962e-01 -1.299029e-01 -5.545275e-01 1.499251e-01 -2.629682e-01
<VARIANCE> 15
 1.615487e+00 7.924145e-01 2.561247e-01 4.011289e-01 2.156881e-01 1.579889e-01 1.592929e-01 1.588289e-01 1.672882e-01 1.792255e-01 1.468891e-01 1.468586e-01 1.359922e-01 1.342952e-01 1.303579e-01
<GCONST> 5.099612e+00
<STATE> 7
<MEAN> 15
 -3.459589e+01 -2.202528e+00 -7.562265e-01 -5.411160e-01 -7.120472e-01 1.633981e-01 -5.997205e-01 8.218969e-02 -5.584173e-01 2.972478e-01 -5.275644e-01 -6.733327e-02 -4.466417e-01 1.462926e-01 -3.369702e-01
<VARIANCE> 15
 4.831449e-01 3.290866e-01 2.066802e-01 1.989767e-01 1.576102e-01 1.422283e-01 1.316663e-01 1.295547e-01 1.282349e-01 1.280632e-01 1.265251e-01 1.146726e-01 1.199430e-01 1.151801e-01 1.062437e-01
<GCONST> -1.970809e-01
<STATE> 8
<MEAN> 15
 -3.519727e+01 -1.891282e+00 -1.056275e+00 -2.362037e-01 -8.716444e-01 1.910125e-01 -6.191018e-01 4.994434e-02 -5.935490e-01 1.886600e-01 -4.303883e-01 -8.783200e-02 -3.431188e-01 5.521248e-02 -2.854359e-01
<VARIANCE> 15
 2.151476e-01 1.509250e-01 1.340638e-01 1.322794e-01 1.269267e-01 1.195130e-01 1.159900e-01 1.131213e-01 1.117040e-01 1.103952e-01 1.093616e-01 1.044412e-01 1.064634e-01 1.038791e-01 1.013610e-01
<GCONST> -4.074914e+00
<STATE> 9
<MEAN> 15
 -3.407834e+01 -2.533055e+00 -7.521140e-01 -5.124357e-01 -8.190419e-01 2.140958e-01 -7.087473e-01 1.256402e-01 -6.181685e-01 2.855279e-01 -5.026302e-01 -6.796644e-02 -3.824045e-01 8.008303e-02 -2.996130e-01
<VARIANCE> 15
 2.890976e+00 1.175590e+00 4.780570e-01 3.422560e-01 2.623798e-01 2.050829e-01 1.833648e-01 1.591727e-01 1.530434e-01 1.470196e-01 1.335998e-01 1.264232e-01 1.233297e-01 1.144302e-01 1.112187e-01
<GCONST> 6.192760e+00
<STATE> 10
<MEAN> 15
 -3.092139e+01 -3.526418e+00 -5.893116e-01 -1.005439e+00 -7.274444e-01 2.545470e-01 -8.088012e-01 2.275898e-01 -6.060755e-01 4.534545e-01 -4.946348e-01 -3.231356e-02 -3.969358e-01 1.319750e-01 -3.230503e-01
<VARIANCE> 15
 1.356576e+01 4.096324e+00 1.978264e+00 1.172852e+00 9.509930e-01 5.350230e-01 4.474785e-01 4.038478e-01 3.122180e-01 3.508143e-01 2.224670e-01 2.310176e-01 2.017589e-01 1.737825e-01 1.518159e-01
<GCONST> 1.962541e+01
<STATE> 11
<MEAN> 15
 -3.342894e+01 -3.312198e+00 3.200736e-01 -1.091007e+00 -3.177752e-01 -2.848656e-01 -4.476261e-01 -2.253923e-01 -5.265319e-01 9.191547e-02 -3.465754e-01 -1.290276e-01 -3.065737e-01 1.176270e-02 -2.532567e-01
<VARIANCE> 15
 1.091284e+00 7.187374e-01 2.960129e-01 1.958900e-01 1.914524e-01 1.710841e-01 1.782250e-01 1.527790e-01 1.368192e-01 1.296199e-01 1.216425e-01 1.186262e-01 1.168166e-01 1.131094e-01 1.098524e-01
<GCONST> 2.649651e+00
<STATE> 12
<MEAN> 15
 -3.088544e+01 -4.208587e+00 4.506854e-01 -1.424351e+00 -5.995164e-01 -2.904377e-01 -6.073073e-01 -2.493774e-01 -5.701075e-01 1.778474e-01 -3.077058e-01 -1.391542e-01 -3.153671e-01 -1.930025e-02 -3.162988e-01
<VARIANCE> 15
 8.649284e+00 3.016404e+00 1.013323e+00 7.496266e-01 5.064093e-01 4.410197e-01 3.847153e-01 3.165256e-01 2.564656e-01 2.351970e-01 1.938706e-01 1.769736e-01 1.663539e-01 1.646075e-01 1.395866e-01
<GCONST> 1.520276e+01
<STATE> 13
<MEAN> 15
 -3.538662e+01 -1.868792e+00 -9.087502e-01 -2.478398e-01 -8.041598e-01 1.841670e-01 -5.999572e-01 5.153156e-02 -5.769516e-01 2.007216e-01 -3.980917e-01 -8.973750e-02 -3.233749e-01 4.289363e-02 -2.727836e-01
<VARIANCE> 15
 6.622387e-01 3.171590e-01 1.930892e-01 1.703872e-01 1.521096e-01 1.376467e-01 1.366964e-01 1.285091e-01 1.184306e-01 1.243637e-01 1.128707e-01 1.170495e-01 1.056065e-01 1.063676e-01 1.032738e-01
<GCONST> -6.184819e-01
<STATE> 14
<MEAN> 15
 -3.445416e+01 -2.573454e+00 -3.527144e-01 -6.980658e-01 -5.338131e-01 -7.260710e-03 -5.331042e-01 -3.999637e-02 -5.187402e-01 1.643382e-01 -4.138923e-01 -1.190362e-01 -3.155636e-01 2.693414e-02 -3.039781e-01
<VARIANCE> 15
 1.037436e+00 8.476681e-01 5.388528e-01 3.176062e-01 2.640562e-01 2.007298e-01 1.665312e-01 1.471520e-01 1.269877e-01 1.249811e-01 1.536909e-01 1.065011e-01 1.217110e-01 1.277781e-01 1.093324e-01
<GCONST> 4.395536e+00
<STATE> 15
<MEAN> 15
 -3.452559e+01 -2.857353e+00 -7.833312e-03 -9.561176e-01 -2.525917e-01 -2.357902e-01 -3.176690e-01 -1.930396e-01 -4.570727e-01 8.297472e-02 -3.501377e-01 -1.337115e-01 -2.702983e-01 9.222596e-04 -2.465538e-01
<VARIANCE> 15
 6.275133e-01 4.034754e-01 2.456462e-01 1.981385e-01 1.648323e-01 1.491467e-01 1.540566e-01 1.378399e-01 1.239126e-01 1.194054e-01 1.180735e-01 1.169905e-01 1.126474e-01 1.089788e-01 1.051672e-01
<GCONST> 4.663050e-01
<STATE> 16
<MEAN> 15
 -2.835277e+01 -4.177312e+00 4.105463e-01 -1.292439e+00 -6.303750e-01 -7.870302e-02 -6.562297e-01 -1.720634e-01 -5.680255e-01 1.765989e-01 -3.416378e-01 -7.592803e-02 -2.699834e-01 1.165347e-01 -3.897171e-01
<VARIANCE> 15
 3.055009e+01 5.946463e+00 3.096376e+00 2.325424e+00 1.403407e+00 8.848251e-01 7.758808e-01 5.762084e-01 4.247967e-01 3.342890e-01 2.812910e-01 2.972330e-01 2.575679e-01 2.558187e-01 2.285607e-01
<GCONST> 2.552674e+01
<STATE> 17
<MEAN> 15
 -3.260710e+01 -3.509069e+00 2.753161e-01 -1.102925e+00 -3.715258e-01 -1.996739e-01 -4.806146e-01 -1.613207e-01 -5.281961e-01 1.609375e-01 -3.648180e-01 -9.282367e-02 -2.662052e-01 1.939446e-02 -2.810374e-01
<VARIANCE> 15
 7.432188e+00 2.071254e+00 8.144848e-01 4.948413e-01 3.604957e-01 2.827850e-01 2.614593e-01 2.417592e-01 1.906310e-01 1.729637e-01 1.693228e-01 1.456180e-01 1.383731e-01 1.353956e-01 1.298345e-01
<GCONST> 1.121512e+01
<TRANSP> 18
 0.000000e+00 1.000000e+00 0.000000e+00 0.000000e+00 0.000000e+00 0.000000e+00 0.000000e+00 0.000000e+00 0.000000e+00 0.000000e+00 0.000000e+00 0.000000e+00 0.000000e+00 0.000000e+00 0.000000e+00 0.000000e+00 0.000000e+00 0.000000e+00
 0.000000e+00 7.399749e-01 2.600251e-01 0.000000e+00 0.000000e+00 0.000000e+00 0.000000e+00 0.000000e+00 0.000000e+00 0.000000e+00 0.000000e+00 0.000000e+00 0.000000e+00 0.000000e+00 0.000000e+00 0.000000e+00 0.000000e+00 0.000000e+00
 0.000000e+00 0.000000e+00 9.007652e-01 9.923483e-02 0.000000e+00 0.000000e+00 0.000000e+00 0.000000e+00 0.000000e+00 0.000000e+00 0.000000e+00 0.000000e+00 0.000000e+00 0.000000e+00 0.000000e+00 0.000000e+00 0.000000e+00 0.000000e+00
 0.000000e+00 0.000000e+00 0.000000e+00 9.635549e-01 3.644507e-02 0.000000e+00 0.000000e+00 0.000000e+00 0.000000e+00 0.000000e+00 0.000000e+00 0.000000e+00 0.000000e+00 0.000000e+00 0.000000e+00 0.000000e+00 0.000000e+00 0.000000e+00
 0.000000e+00 0.000000e+00 0.000000e+00 0.000000e+00 8.927926e-01 1.072074e-01 0.000000e+00 0.000000e+00 0.000000e+00 0.000000e+00 0.000000e+00 0.000000e+00 0.000000e+00 0.000000e+00 0.000000e+00 0.000000e+00 0.000000e+00 0.000000e+00
 0.000000e+00 0.000000e+00 0.000000e+00 0.000000e+00 0.000000e+00 8.313008e-01 1.686992e-01 0.000000e+00 0.000000e+00 0.000000e+00 0.000000e+00 0.000000e+00 0.000000e+00 0.000000e+00 0.000000e+00 0.000000e+00 0.000000e+00 0.000000e+00
 0.000000e+00 0.000000e+00 0.000000e+00 0.000000e+00 0.000000e+00 0.000000e+00 9.257337e-01 7.426629e-02 0.000000e+00 0.000000e+00 0.000000e+00 0.000000e+00 0.000000e+00 0.000000e+00 0.000000e+00 0.000000e+00 0.000000e+00 0.000000e+00
 0.000000e+00 0.000000e+00 0.000000e+00 0.000000e+00 0.000000e+00 0.000000e+00 0.000000e+00 9.775615e-01 2.243850e-02 0.000000e+00 0.000000e+00 0.000000e+00 0.000000e+00 0.000000e+00 0.000000e+00 0.000000e+00 0.000000e+00 0.000000e+00
 0.000000e+00 0.000000e+00 0.000000e+00 0.000000e+00 0.000000e+00 0.000000e+00 0.000000e+00 0.000000e+00 8.871976e-01 1.128024e-01 0.000000e+00 0.000000e+00 0.000000e+00 0.000000e+00 0.000000e+00 0.000000e+00 0.000000e+00 0.000000e+00
 0.000000e+00 0.000000e+00 0.000000e+00 0.000000e+00 0.000000e+00 0.000000e+00 0.000000e+00 0.000000e+00 0.000000e+00 8.561026e-01 1.438974e-01 0.000000e+00 0.000000e+00 0.000000e+00 0.000000e+00 0.000000e+00 0.000000e+00 0.000000e+00
 0.000000e+00 0.000000e+00 0.000000e+00 0.000000e+00 0.000000e+00 0.000000e+00 0.000000e+00 0.000000e+00 0.000000e+00 0.000000e+00 9.415987e-01 5.840135e-02 0.000000e+00 0.000000e+00 0.000000e+00 0.000000e+00 0.000000e+00 0.000000e+00
 0.000000e+00 0.000000e+00 0.000000e+00 0.000000e+00 0.000000e+00 0.000000e+00 0.000000e+00 0.000000e+00 0.000000e+00 0.000000e+00 0.000000e+00 8.782277e-01 1.217723e-01 0.000000e+00 0.000000e+00 0.000000e+00 0.000000e+00 0.000000e+00
 0.000000e+00 0.000000e+00 0.000000e+00 0.000000e+00 0.000000e+00 0.000000e+00 0.000000e+00 0.000000e+00 0.000000e+00 0.000000e+00 0.000000e+00 0.000000e+00 9.562005e-01 4.379947e-02 0.000000e+00 0.000000e+00 0.000000e+00 0.000000e+00
 0.000000e+00 0.000000e+00 0.000000e+00 0.000000e+00 0.000000e+00 0.000000e+00 0.000000e+00 0.000000e+00 0.000000e+00 0.000000e+00 0.000000e+00 0.000000e+00 0.000000e+00 0.000000e+00 1.000000e+00 0.000000e+00 0.000000e+00 0.000000e+00
 0.000000e+00 0.000000e+00 0.000000e+00 0.000000e+00 0.000000e+00 0.000000e+00 0.000000e+00 0.000000e+00 0.000000e+00 0.000000e+00 0.000000e+00 0.000000e+00 0.000000e+00 0.000000e+00 9.186912e-01 8.130877e-02 0.000000e+00 0.000000e+00
 0.000000e+00 0.000000e+00 0.000000e+00 0.000000e+00 0.000000e+00 0.000000e+00 0.000000e+00 0.000000e+00 0.000000e+00 0.000000e+00 0.000000e+00 0.000000e+00 0.000000e+00 0.000000e+00 0.000000e+00 7.986414e-01 2.013586e-01 0.000000e+00
 0.000000e+00 0.000000e+00 0.000000e+00 0.000000e+00 0.000000e+00 0.000000e+00 0.000000e+00 0.000000e+00 0.000000e+00 0.000000e+00 0.000000e+00 0.000000e+00 0.000000e+00 0.000000e+00 0.000000e+00 0.000000e+00 8.862391e-01 1.137610e-01
 0.000000e+00 0.000000e+00 0.000000e+00 0.000000e+00 0.000000e+00 0.000000e+00 0.000000e+00 0.000000e+00 0.000000e+00 0.000000e+00 0.000000e+00 0.000000e+00 0.000000e+00 0.000000e+00 0.000000e+00 0.000000e+00 0.000000e+00 0.000000e+00
<ENDHMM>
