~o
<STREAMINFO> 1 15
<VECSIZE> 15<NULLD><MFCC><DIAGC>
~h "Sophie"
<BEGINHMM>
<NUMSTATES> 10
<STATE> 2
<MEAN> 15
 -3.223011e+01 -3.068717e+00 -4.019798e-01 -8.167772e-01 -5.530805e-01 -1.312505e-01 -8.829986e-01 -1.090730e-01 -4.510415e-01 1.783845e-01 -4.652701e-01 -1.856775e-01 -2.990311e-01 -7.443377e-02 -4.180656e-01
<VARIANCE> 15
 1.661108e+01 3.123306e+00 6.994992e-01 6.186840e-01 4.912199e-01 5.060245e-01 3.996978e-01 3.191091e-01 1.881622e-01 1.576593e-01 1.758106e-01 1.654950e-01 1.996928e-01 1.693068e-01 1.860969e-01
<GCONST> 1.510483e+01
<STATE> 3
<MEAN> 15
 -1.817381e+01 -8.413764e+00 -6.527529e-01 -1.366460e+00 -1.808571e-02 -4.015993e-01 -1.874976e+00 -1.917434e-01 -2.463327e-01 6.367724e-02 -5.674966e-01 -3.652762e-02 -8.813279e-02 -1.154387e-01 -5.683836e-01
<VARIANCE> 15
 8.545659e+00 2.216454e+00 1.439583e+00 1.112911e+00 7.292227e-01 7.501460e-01 4.301716e-01 7.136428e-01 2.809170e-01 3.476408e-01 2.373258e-01 2.202070e-01 2.301838e-01 3.943939e-01 2.045578e-01
<GCONST> 1.993264e+01
<STATE> 4
<MEAN> 15
 -1.702481e+01 2.338907e+00 7.238342e-01 -2.004938e+00 6.271749e-01 1.344404e+00 -1.166624e+00 1.338561e+00 4.900621e-01 7.548376e-01 -1.151834e+00 -5.047289e-01 -6.434848e-01 4.660340e-01 -1.008305e+00
<VARIANCE> 15
 1.420733e+01 3.366880e+00 1.827817e+00 1.588404e+00 6.035424e-01 8.228427e-01 7.914485e-01 6.600294e-01 5.473506e-01 3.411361e-01 2.833937e-01 5.958374e-01 3.651833e-01 4.003066e-01 3.852880e-01
<GCONST> 2.481897e+01
<STATE> 5
<MEAN> 15
 -1.725587e+01 -3.851115e-01 3.669944e+00 3.063042e-01 -5.613228e-01 -3.135604e-02 3.876037e-02 9.304591e-01 4.433585e-01 1.931691e-01 -3.869282e-01 -2.447653e-01 -9.672229e-01 1.278791e-02 -7.064481e-01
<VARIANCE> 15
 1.701221e+01 1.469063e+00 1.290266e+00 8.778080e-01 7.429634e-01 9.135903e-01 4.309874e-01 4.101627e-01 6.793246e-01 3.447024e-01 3.314606e-01 3.425460e-01 3.451393e-01 2.858053e-01 1.906045e-01
<GCONST> 2.118974e+01
<STATE> 6
<MEAN> 15
 -1.985588e+01 -5.321406e+00 1.031307e+00 -1.991081e+00 -7.427022e-01 1.015514e-01 -2.494429e-01 4.896454e-01 -3.543718e-02 3.316755e-01 -4.551127e-01 -2.398904e-01 -4.248801e-01 -2.889363e-01 -9.959645e-01
<VARIANCE> 15
 5.274469e+00 2.038751e+00 2.178570e+00 8.352640e-01 8.624864e-01 9.061732e-01 4.287241e-01 9.438375e-01 2.760253e-01 4.152440e-01 3.296341e-01 2.658499e-01 2.409329e-01 2.550605e-01 1.649006e-01
<GCONST> 2.019818e+01
<STATE> 7
<MEAN> 15
 -2.214691e+01 -2.524723e-01 -4.535405e-01 -1.435776e+00 1.784143e+00 2.831162e+00 3.440526e-01 1.447489e+00 7.745613e-01 -4.393443e-01 -1.448097e+00 4.773765e-01 2.214952e-01 2.788413e-01 -8.122092e-01
<VARIANCE> 15
 8.176411e+00 2.218110e+00 2.261786e+00 1.322118e+00 1.934862e+00 8.595523e-01 7.244496e-01 6.213154e-01 5.113750e-01 5.114446e-01 5.909995e-01 4.104717e-01 2.953081e-01 3.425195e-01 2.447422e-01
<GCONST> 2.481562e+01
<STATE> 8
<MEAN> 15
 -2.517202e+01 -2.588244e+00 2.065925e+00 1.222589e-01 3.144560e-01 1.871895e+00 1.335511e+00 1.698367e-01 -2.185012e-01 2.785750e-01 -1.593824e-01 4.530969e-01 4.222521e-01 7.351451e-02 -6.108717e-01
<VARIANCE> 15
 9.453083e+00 2.149104e+00 1.922632e+00 1.459264e+00 6.911082e-01 7.835326e-01 9.322026e-01 7.523095e-01 5.176454e-01 3.391508e-01 3.755444e-01 3.286208e-01 2.705357e-01 2.657050e-01 2.209352e-01
<GCONST> 2.266835e+01
<STATE> 9
<MEAN> 15
 -3.346227e+01 -1.639742e+00 -2.162400e-01 -7.725430e-01 -6.367090e-01 1.213672e-02 -6.218303e-01 4.413272e-02 -4.013712e-01 3.656262e-01 -3.558508e-01 -9.157673e-02 -3.334995e-01 3.559447e-02 -2.842684e-01
<VARIANCE> 15
 2.484083e+00 8.239558e-01 5.263976e-01 3.191890e-01 2.494714e-01 3.886706e-01 1.977764e-01 2.804932e-01 1.419037e-01 1.849131e-01 1.461650e-01 1.483192e-01 1.659765e-01 1.430288e-01 1.302216e-01
<GCONST> 8.024475e+00
<TRANSP> 10
 0.000000e+00 1.000000e+00 0.000000e+00 0.000000e+00 0.000000e+00 0.000000e+00 0.000000e+00 0.000000e+00 0.000000e+00 0.000000e+00
 0.000000e+00 8.689655e-01 1.310345e-01 0.000000e+00 0.000000e+00 0.000000e+00 0.000000e+00 0.000000e+00 0.000000e+00 0.000000e+00
 0.000000e+00 0.000000e+00 9.522613e-01 4.773870e-02 0.000000e+00 0.000000e+00 0.000000e+00 0.000000e+00 0.000000e+00 0.000000e+00
 0.000000e+00 0.000000e+00 0.000000e+00 8.789809e-01 1.210191e-01 0.000000e+00 0.000000e+00 0.000000e+00 0.000000e+00 0.000000e+00
 0.000000e+00 0.000000e+00 0.000000e+00 0.000000e+00 8.914286e-01 1.085714e-01 0.000000e+00 0.000000e+00 0.000000e+00 0.000000e+00
 0.000000e+00 0.000000e+00 0.000000e+00 0.000000e+00 0.000000e+00 9.266409e-01 7.335907e-02 0.000000e+00 0.000000e+00 0.000000e+00
 0.000000e+00 0.000000e+00 0.000000e+00 0.000000e+00 0.000000e+00 0.000000e+00 8.707483e-01 1.292517e-01 0.000000e+00 0.000000e+00
 0.000000e+00 0.000000e+00 0.000000e+00 0.000000e+00 0.000000e+00 0.000000e+00 0.000000e+00 9.368771e-01 6.312293e-02 0.000000e+00
 0.000000e+00 0.000000e+00 0.000000e+00 0.000000e+00 0.000000e+00 0.000000e+00 0.000000e+00 0.000000e+00 9.351536e-01 6.484643e-02
 0.000000e+00 0.000000e+00 0.000000e+00 0.000000e+00 0.000000e+00 0.000000e+00 0.000000e+00 0.000000e+00 0.000000e+00 0.000000e+00
<ENDHMM>
