~o
<STREAMINFO> 1 20
<VECSIZE> 20<NULLD><MFCC><DIAGC>
~h "Sophie"
<BEGINHMM>
<NUMSTATES> 18
<STATE> 2
<MEAN> 20
 -3.883926e+01 -2.564337e+00 -1.161218e+00 2.634495e-02 -1.440450e+00 4.589002e-01 -1.254229e+00 5.995591e-02 -8.291762e-01 9.650557e-02 -1.620056e-01 -2.777699e-01 -3.402918e-01 -2.564290e-01 -1.417353e-01 -3.051358e-01 -1.935038e-01 -1.083256e-01 -9.144820e-02 -1.822161e-01
<VARIANCE> 20
 1.799797e+01 4.054227e+00 1.216480e+00 6.570230e-01 7.155649e-01 5.255268e-01 4.388554e-01 4.359055e-01 2.315581e-01 2.120120e-01 1.868985e-01 1.957450e-01 2.281487e-01 1.853998e-01 1.859675e-01 2.193253e-01 1.009663e-01 1.896739e-01 1.481569e-01 1.087644e-01
<GCONST> 1.742351e+01
<STATE> 3
<MEAN> 20
 -2.856725e+01 -6.602166e+00 -5.595333e-01 -1.169866e+00 -1.480186e+00 8.636011e-01 -2.066823e+00 -6.728488e-01 -9.567654e-01 3.131975e-01 -5.403432e-01 -6.207112e-01 -4.678798e-01 1.660114e-01 -5.368785e-01 -8.446714e-01 -4.921771e-01 3.184170e-01 9.883945e-02 -1.450501e-01
<VARIANCE> 20
 2.814205e+01 9.872160e+00 3.528189e+00 2.693403e+00 1.095966e+00 1.942296e+00 6.141512e-01 1.414362e+00 4.866010e-01 3.101302e-01 6.835110e-01 4.834320e-01 3.047837e-01 4.241832e-01 4.159934e-01 3.529895e-01 2.567703e-01 3.518714e-01 3.253736e-01 1.947847e-01
<GCONST> 3.312551e+01
<STATE> 4
<MEAN> 20
 -1.955219e+01 -9.511556e+00 -1.448053e+00 -8.289239e-01 -4.348671e-01 2.515560e-01 -2.430758e+00 -1.053519e+00 -7.925897e-01 -2.065897e-02 -4.470919e-01 -2.917724e-01 -6.533696e-03 -1.557191e-02 -6.326078e-01 -6.061413e-01 -3.524665e-01 4.080546e-01 2.314622e-01 -5.191173e-02
<VARIANCE> 20
 1.474029e+01 3.232436e+00 2.072810e+00 1.330844e+00 9.377866e-01 1.054114e+00 3.635220e-01 7.179419e-01 6.119066e-01 4.630037e-01 3.701937e-01 3.835660e-01 2.528449e-01 3.206485e-01 3.218515e-01 2.367661e-01 3.414660e-01 2.417943e-01 2.228549e-01 1.887103e-01
<GCONST> 2.631841e+01
<STATE> 5
<MEAN> 20
 -2.228614e+01 -8.309599e+00 -2.856797e+00 3.332924e-01 -2.706213e+00 2.074307e+00 -3.261121e+00 8.121393e-01 -8.597341e-01 1.072580e+00 -9.999076e-01 2.288812e-01 -8.120015e-01 4.582815e-01 -3.095295e-01 -1.507612e-01 -5.525435e-01 3.147512e-01 5.000425e-02 -7.838830e-02
<VARIANCE> 20
 1.038496e+01 2.776479e+00 2.006235e+00 1.199486e+00 6.902152e-01 9.653298e-01 7.136623e-01 9.201658e-01 3.913768e-01 3.219227e-01 3.130031e-01 3.262108e-01 4.357666e-01 3.051606e-01 3.970670e-01 3.706533e-01 2.804369e-01 2.503213e-01 2.997395e-01 2.352919e-01
<GCONST> 2.657548e+01
<STATE> 6
<MEAN> 20
 -1.625653e+01 -9.000703e-01 1.350724e+00 2.124035e+00 -2.157766e+00 1.155711e+00 -1.409475e+00 9.186233e-01 -2.001515e-01 -3.104210e-02 -4.578053e-01 -1.397526e-01 -1.352135e-01 -8.416731e-01 -4.535587e-01 -8.695456e-01 -1.852537e+00 -7.221873e-01 3.450047e-01 2.179242e-03
<VARIANCE> 20
 2.196287e+01 2.234449e+00 3.600336e+00 1.212038e+00 7.944092e-01 2.133251e+00 6.957257e-01 5.973139e-01 5.551402e-01 7.223364e-01 3.203497e-01 3.164453e-01 2.573262e-01 6.156220e-01 2.584909e-01 2.701890e-01 4.205502e-01 3.138472e-01 1.722979e-01 1.898914e-01
<GCONST> 2.862192e+01
<STATE> 7
<MEAN> 20
 -1.838093e+01 4.243816e+00 -8.955562e-01 -7.511067e-01 -2.374989e+00 3.571885e+00 -2.321307e+00 8.743457e-01 -1.342387e-01 1.023481e+00 -6.302878e-01 -6.909463e-01 -7.597931e-01 -5.072804e-01 9.110909e-02 -1.315856e+00 -1.930378e+00 -1.022843e+00 5.513514e-01 -4.276083e-01
<VARIANCE> 20
 1.233403e+01 4.526576e+00 3.120934e+00 3.224002e+00 4.767007e-01 2.014944e+00 1.336663e+00 8.296652e-01 6.079907e-01 5.802658e-01 4.815502e-01 4.777507e-01 1.188721e+00 4.392598e-01 3.915794e-01 6.869851e-01 4.138687e-01 4.649636e-01 2.348934e-01 2.510920e-01
<GCONST> 3.419916e+01
<STATE> 8
<MEAN> 20
 -2.339095e+01 3.310120e+00 9.788706e-01 -4.034490e-01 -1.522675e+00 2.869490e+00 -1.618498e+00 1.717060e+00 7.845131e-01 1.603315e+00 -4.147746e-01 -1.101732e+00 -1.258928e+00 -4.723819e-01 5.156502e-01 -8.315855e-01 -1.502945e+00 -1.172936e+00 -2.346531e-01 -6.970422e-01
<VARIANCE> 20
 1.384928e+01 4.610030e+00 2.219618e+00 1.670620e+00 1.108455e+00 1.425042e+00 1.107860e+00 8.974844e-01 3.835216e-01 4.841544e-01 5.990074e-01 4.495941e-01 5.890066e-01 4.536469e-01 4.890425e-01 3.312650e-01 2.544675e-01 3.270003e-01 2.289116e-01 2.628082e-01
<GCONST> 3.124336e+01
<STATE> 9
<MEAN> 20
 -2.191041e+01 -3.722926e-01 4.153157e+00 1.123954e+00 -7.713119e-01 9.277926e-02 -4.003157e-01 1.122084e+00 5.712255e-01 9.869244e-01 -3.170425e-01 -1.123595e-01 -8.600827e-01 -8.385586e-01 4.964166e-02 -8.960541e-01 -1.066204e+00 -6.687014e-01 -2.669046e-01 -4.793695e-01
<VARIANCE> 20
 1.401400e+01 1.676145e+00 1.746267e+00 1.098618e+00 8.822688e-01 1.500706e+00 4.398737e-01 5.629335e-01 4.733446e-01 4.430066e-01 3.666915e-01 3.154341e-01 4.701712e-01 4.075886e-01 3.545368e-01 2.364086e-01 3.208030e-01 2.185551e-01 2.531804e-01 1.977362e-01
<GCONST> 2.594790e+01
<STATE> 10
<MEAN> 20
 -2.161878e+01 -6.287711e+00 1.627408e+00 -1.645108e+00 -1.264730e+00 2.381483e-01 -8.296974e-01 2.515588e-01 -4.547658e-01 3.754719e-01 -1.463977e-01 -1.435707e-01 -4.403293e-01 -2.662104e-01 -5.971998e-01 -1.058884e+00 -6.199867e-01 4.562898e-02 -9.331664e-02 -1.572332e-01
<VARIANCE> 20
 8.419283e+00 4.467474e+00 3.568908e+00 2.053432e+00 9.534113e-01 1.518164e+00 4.518351e-01 6.365430e-01 5.146913e-01 4.905074e-01 4.895443e-01 3.425383e-01 3.074178e-01 2.645457e-01 2.625507e-01 2.174451e-01 2.543808e-01 3.620015e-01 2.196221e-01 1.710632e-01
<GCONST> 2.729915e+01
<STATE> 11
<MEAN> 20
 -2.502511e+01 -4.442004e+00 -1.514165e+00 5.492333e-01 -3.877946e+00 2.242787e+00 -1.768138e+00 2.237663e+00 -5.891222e-01 1.267795e+00 -8.349256e-01 1.027802e-02 -1.072710e+00 -7.935717e-03 -7.150337e-01 -7.601147e-01 -9.826589e-01 -2.393931e-03 -3.036251e-01 -3.727167e-01
<VARIANCE> 20
 6.534139e+00 2.859571e+00 1.981174e+00 1.077778e+00 9.987340e-01 9.496279e-01 7.831328e-01 6.886668e-01 4.133168e-01 5.065962e-01 2.879951e-01 3.897024e-01 5.277372e-01 2.564710e-01 3.504369e-01 2.324664e-01 2.817359e-01 2.058683e-01 2.092136e-01 1.766144e-01
<GCONST> 2.536970e+01
<STATE> 12
<MEAN> 20
 -2.666180e+01 9.642478e-01 -1.791387e+00 -3.105873e-01 -5.361211e-01 4.842607e+00 -2.632399e-01 1.986740e+00 3.924866e-01 1.151759e+00 -1.930539e+00 -5.190351e-01 1.059745e-01 5.253414e-01 -3.717941e-02 -8.596207e-01 -9.104564e-01 -5.168898e-01 -5.372604e-01 -8.957972e-01
<VARIANCE> 20
 9.954175e+00 4.327779e+00 2.691377e+00 2.498163e+00 1.274000e+00 2.514755e+00 1.184971e+00 1.070043e+00 6.976356e-01 6.275626e-01 8.091626e-01 6.483430e-01 5.751474e-01 3.737261e-01 4.418185e-01 3.687747e-01 2.169059e-01 3.641888e-01 2.306734e-01 2.745115e-01
<GCONST> 3.370722e+01
<STATE> 13
<MEAN> 20
 -2.665313e+01 -3.343645e+00 1.993596e+00 1.509493e+00 -3.050215e-01 2.082311e+00 2.286986e+00 8.573005e-01 -5.963737e-01 6.002809e-01 -7.668159e-01 -5.297725e-02 2.279832e-01 6.796241e-01 -2.807869e-01 -8.302182e-01 -3.066363e-01 -4.049352e-02 -6.629595e-01 -1.719283e-01
<VARIANCE> 20
 9.647400e+00 2.763156e+00 2.764405e+00 1.781531e+00 8.599466e-01 1.024080e+00 1.200196e+00 4.621039e-01 4.938793e-01 4.059486e-01 4.052505e-01 4.604561e-01 2.684061e-01 2.926401e-01 3.017477e-01 2.549686e-01 2.310744e-01 3.056049e-01 2.077839e-01 2.559383e-01
<GCONST> 2.693915e+01
<STATE> 14
<MEAN> 20
 -2.975738e+01 -3.053869e+00 2.187548e+00 6.010429e-01 -4.601809e-01 1.976935e+00 1.043140e+00 1.159305e+00 -1.052111e+00 1.019490e-01 3.868263e-01 3.087321e-01 4.163248e-01 5.608022e-01 -2.578570e-01 -2.137565e-01 -3.483750e-01 2.650791e-01 2.815056e-01 -1.129795e-01
<VARIANCE> 20
 7.288665e+00 4.444760e+00 3.072505e+00 8.399039e-01 7.916566e-01 1.746861e+00 7.350061e-01 4.249142e-01 4.097457e-01 2.981807e-01 4.453814e-01 4.187955e-01 2.704978e-01 2.999808e-01 3.125353e-01 2.406491e-01 1.792553e-01 2.924863e-01 2.813748e-01 2.518118e-01
<GCONST> 2.586818e+01
<STATE> 15
<MEAN> 20
 -3.432844e+01 -9.175841e-01 -6.483176e-01 1.028486e+00 -2.152499e+00 2.899069e+00 -7.001208e-01 1.854380e+00 -6.706261e-01 7.182251e-01 -2.348273e-01 7.112422e-01 3.211563e-01 3.448777e-01 -2.933734e-02 -4.118220e-01 -4.054545e-01 -1.524400e-01 -1.839486e-01 -3.885738e-01
<VARIANCE> 20
 6.285346e+00 2.378731e+00 7.056445e-01 5.694644e-01 9.552321e-01 1.202458e+00 6.182212e-01 6.841023e-01 3.973557e-01 3.484958e-01 3.056650e-01 2.986363e-01 4.951066e-01 2.401070e-01 2.692189e-01 1.534566e-01 2.381640e-01 3.049688e-01 2.345403e-01 2.276658e-01
<GCONST> 2.258922e+01
<STATE> 16
<MEAN> 20
 -3.700020e+01 -1.942617e+00 6.062829e-02 -2.071850e-01 -1.526386e+00 2.557606e-01 -1.090937e+00 1.301329e-01 -7.727832e-01 2.000843e-01 1.327262e-01 -2.565065e-02 -2.897669e-01 -2.059165e-02 -5.335863e-02 -6.386123e-02 -2.439702e-01 1.783762e-01 1.152325e-01 -1.162593e-01
<VARIANCE> 20
 3.464205e+00 2.860437e+00 8.351333e-01 5.167244e-01 4.957731e-01 7.191023e-01 4.572359e-01 3.446638e-01 2.169835e-01 3.142989e-01 2.588584e-01 2.100023e-01 2.272746e-01 2.025177e-01 1.390595e-01 1.809090e-01 1.512984e-01 1.520123e-01 1.701984e-01 1.571601e-01
<GCONST> 1.557929e+01
<STATE> 17
<MEAN> 20
 -3.997864e+01 -1.023377e+00 -1.458343e+00 4.380785e-02 -1.642899e+00 6.912356e-01 -1.216033e+00 3.361202e-01 -7.504658e-01 2.974408e-01 -2.016204e-01 -2.729077e-01 -3.804572e-01 -2.806391e-01 -7.143544e-02 -3.158220e-01 -2.404361e-01 -1.573199e-01 -4.830755e-02 -2.718552e-01
<VARIANCE> 20
 1.464925e+00 6.610557e-01 5.220255e-01 4.349248e-01 3.817195e-01 5.551625e-01 3.151093e-01 3.551706e-01 2.338625e-01 2.483855e-01 1.475176e-01 1.130339e-01 2.034207e-01 1.624659e-01 1.540716e-01 1.658992e-01 1.261767e-01 1.697007e-01 1.217991e-01 1.528492e-01
<GCONST> 9.657627e+00
<TRANSP> 18
 0.000000e+00 1.000000e+00 0.000000e+00 0.000000e+00 0.000000e+00 0.000000e+00 0.000000e+00 0.000000e+00 0.000000e+00 0.000000e+00 0.000000e+00 0.000000e+00 0.000000e+00 0.000000e+00 0.000000e+00 0.000000e+00 0.000000e+00 0.000000e+00
 0.000000e+00 8.347826e-01 1.652174e-01 0.000000e+00 0.000000e+00 0.000000e+00 0.000000e+00 0.000000e+00 0.000000e+00 0.000000e+00 0.000000e+00 0.000000e+00 0.000000e+00 0.000000e+00 0.000000e+00 0.000000e+00 0.000000e+00 0.000000e+00
 0.000000e+00 0.000000e+00 6.041667e-01 3.958333e-01 0.000000e+00 0.000000e+00 0.000000e+00 0.000000e+00 0.000000e+00 0.000000e+00 0.000000e+00 0.000000e+00 0.000000e+00 0.000000e+00 0.000000e+00 0.000000e+00 0.000000e+00 0.000000e+00
 0.000000e+00 0.000000e+00 0.000000e+00 9.005235e-01 9.947645e-02 0.000000e+00 0.000000e+00 0.000000e+00 0.000000e+00 0.000000e+00 0.000000e+00 0.000000e+00 0.000000e+00 0.000000e+00 0.000000e+00 0.000000e+00 0.000000e+00 0.000000e+00
 0.000000e+00 0.000000e+00 0.000000e+00 0.000000e+00 8.989362e-01 1.010638e-01 0.000000e+00 0.000000e+00 0.000000e+00 0.000000e+00 0.000000e+00 0.000000e+00 0.000000e+00 0.000000e+00 0.000000e+00 0.000000e+00 0.000000e+00 0.000000e+00
 0.000000e+00 0.000000e+00 0.000000e+00 0.000000e+00 0.000000e+00 6.415094e-01 3.584906e-01 0.000000e+00 0.000000e+00 0.000000e+00 0.000000e+00 0.000000e+00 0.000000e+00 0.000000e+00 0.000000e+00 0.000000e+00 0.000000e+00 0.000000e+00
 0.000000e+00 0.000000e+00 0.000000e+00 0.000000e+00 0.000000e+00 0.000000e+00 7.500000e-01 2.500000e-01 0.000000e+00 0.000000e+00 0.000000e+00 0.000000e+00 0.000000e+00 0.000000e+00 0.000000e+00 0.000000e+00 0.000000e+00 0.000000e+00
 0.000000e+00 0.000000e+00 0.000000e+00 0.000000e+00 0.000000e+00 0.000000e+00 0.000000e+00 7.764706e-01 2.235294e-01 0.000000e+00 0.000000e+00 0.000000e+00 0.000000e+00 0.000000e+00 0.000000e+00 0.000000e+00 0.000000e+00 0.000000e+00
 0.000000e+00 0.000000e+00 0.000000e+00 0.000000e+00 0.000000e+00 0.000000e+00 0.000000e+00 0.000000e+00 8.303571e-01 1.696429e-01 0.000000e+00 0.000000e+00 0.000000e+00 0.000000e+00 0.000000e+00 0.000000e+00 0.000000e+00 0.000000e+00
 0.000000e+00 0.000000e+00 0.000000e+00 0.000000e+00 0.000000e+00 0.000000e+00 0.000000e+00 0.000000e+00 0.000000e+00 8.733333e-01 1.266667e-01 0.000000e+00 0.000000e+00 0.000000e+00 0.000000e+00 0.000000e+00 0.000000e+00 0.000000e+00
 0.000000e+00 0.000000e+00 0.000000e+00 0.000000e+00 0.000000e+00 0.000000e+00 0.000000e+00 0.000000e+00 0.000000e+00 0.000000e+00 8.403361e-01 1.596639e-01 0.000000e+00 0.000000e+00 0.000000e+00 0.000000e+00 0.000000e+00 0.000000e+00
 0.000000e+00 0.000000e+00 0.000000e+00 0.000000e+00 0.000000e+00 0.000000e+00 0.000000e+00 0.000000e+00 0.000000e+00 0.000000e+00 0.000000e+00 8.652482e-01 1.347518e-01 0.000000e+00 0.000000e+00 0.000000e+00 0.000000e+00 0.000000e+00
 0.000000e+00 0.000000e+00 0.000000e+00 0.000000e+00 0.000000e+00 0.000000e+00 0.000000e+00 0.000000e+00 0.000000e+00 0.000000e+00 0.000000e+00 0.000000e+00 8.707483e-01 1.292517e-01 0.000000e+00 0.000000e+00 0.000000e+00 0.000000e+00
 0.000000e+00 0.000000e+00 0.000000e+00 0.000000e+00 0.000000e+00 0.000000e+00 0.000000e+00 0.000000e+00 0.000000e+00 0.000000e+00 0.000000e+00 0.000000e+00 0.000000e+00 7.790698e-01 2.209302e-01 0.000000e+00 0.000000e+00 0.000000e+00
 0.000000e+00 0.000000e+00 0.000000e+00 0.000000e+00 0.000000e+00 0.000000e+00 0.000000e+00 0.000000e+00 0.000000e+00 0.000000e+00 0.000000e+00 0.000000e+00 0.000000e+00 0.000000e+00 7.912088e-01 2.087912e-01 0.000000e+00 0.000000e+00
 0.000000e+00 0.000000e+00 0.000000e+00 0.000000e+00 0.000000e+00 0.000000e+00 0.000000e+00 0.000000e+00 0.000000e+00 0.000000e+00 0.000000e+00 0.000000e+00 0.000000e+00 0.000000e+00 0.000000e+00 7.682927e-01 2.317073e-01 0.000000e+00
 0.000000e+00 0.000000e+00 0.000000e+00 0.000000e+00 0.000000e+00 0.000000e+00 0.000000e+00 0.000000e+00 0.000000e+00 0.000000e+00 0.000000e+00 0.000000e+00 0.000000e+00 0.000000e+00 0.000000e+00 0.000000e+00 9.005235e-01 9.947645e-02
 0.000000e+00 0.000000e+00 0.000000e+00 0.000000e+00 0.000000e+00 0.000000e+00 0.000000e+00 0.000000e+00 0.000000e+00 0.000000e+00 0.000000e+00 0.000000e+00 0.000000e+00 0.000000e+00 0.000000e+00 0.000000e+00 0.000000e+00 0.000000e+00
<ENDHMM>
