~o
<STREAMINFO> 1 15
<VECSIZE> 15<NULLD><MFCC><DIAGC>
~h "Sophie"
<BEGINHMM>
<NUMSTATES> 18
<STATE> 2
<MEAN> 15
 -3.340282e+01 -2.712291e+00 -3.613974e-01 -6.559093e-01 -5.835096e-01 -1.524271e-01 -7.584931e-01 -1.164416e-01 -5.197110e-01 2.262232e-01 -3.909794e-01 -1.314116e-01 -3.359695e-01 -2.091914e-02 -3.248864e-01
<VARIANCE> 15
 1.250971e+01 2.674604e+00 6.631133e-01 4.692330e-01 5.215223e-01 3.331679e-01 3.502143e-01 2.999379e-01 1.486010e-01 1.407929e-01 1.375682e-01 1.590247e-01 1.525474e-01 1.507477e-01 1.472234e-01
<GCONST> 1.252998e+01
<STATE> 3
<MEAN> 15
 -2.485764e+01 -5.755280e+00 -5.016666e-01 -1.710228e+00 -1.854902e-01 3.104152e-03 -1.559367e+00 -2.939883e-01 -1.851494e-01 -1.086406e-01 -8.194266e-01 -2.839176e-01 -1.541502e-01 -2.516814e-01 -7.351887e-01
<VARIANCE> 15
 1.150382e+01 3.390843e+00 1.014856e+00 1.554508e+00 6.218896e-01 1.226944e+00 3.687381e-01 6.646374e-01 2.580091e-01 1.903131e-01 1.876408e-01 1.263696e-01 3.210636e-01 3.711046e-01 2.088717e-01
<GCONST> 1.956213e+01
<STATE> 4
<MEAN> 15
 -1.752747e+01 -8.516026e+00 -6.382599e-01 -1.244504e+00 3.263718e-01 -7.706787e-01 -1.978596e+00 -6.044257e-01 -4.110447e-01 -1.093712e-01 -4.352672e-01 3.399012e-02 -2.208913e-02 -2.843253e-01 -5.929226e-01
<VARIANCE> 15
 8.273338e+00 1.870649e+00 1.881143e+00 1.048869e+00 7.157747e-01 5.247382e-01 5.431523e-01 5.152848e-01 2.259336e-01 4.186931e-01 2.645680e-01 2.118479e-01 2.096952e-01 4.323074e-01 1.552893e-01
<GCONST> 1.923157e+01
<STATE> 5
<MEAN> 15
 -1.806871e+01 -8.686818e+00 -7.191250e-01 -1.430739e+00 -4.374452e-01 -9.187880e-02 -1.803853e+00 3.084820e-01 -8.446592e-02 3.072414e-01 -6.466066e-01 -8.764624e-02 -1.493282e-01 1.049532e-01 -5.022198e-01
<VARIANCE> 15
 6.434755e+00 2.085218e+00 9.948707e-01 8.272256e-01 4.385718e-01 5.677316e-01 2.939695e-01 4.249082e-01 2.892019e-01 1.840420e-01 1.788986e-01 2.350559e-01 2.299185e-01 2.474204e-01 2.540111e-01
<GCONST> 1.616026e+01
<STATE> 6
<MEAN> 15
 -1.367238e+01 -1.199762e+00 2.391567e+00 5.199957e-01 -8.609332e-01 2.793600e-01 -6.793244e-01 9.211332e-01 -3.223374e-01 1.415940e-02 -5.728849e-01 1.749176e-01 -7.530881e-01 -4.152910e-01 -7.903717e-01
<VARIANCE> 15
 1.383436e+01 2.652909e+00 2.134521e+00 8.557915e-01 7.943951e-01 7.918370e-01 4.182851e-01 2.318845e-01 4.903627e-01 2.633785e-01 2.986560e-01 2.528847e-01 3.481860e-01 1.329700e-01 1.792912e-01
<GCONST> 1.955534e+01
<STATE> 7
<MEAN> 15
 -1.690243e+01 2.634260e+00 7.276254e-01 -2.089187e+00 6.145418e-01 1.429674e+00 -1.169083e+00 1.396218e+00 5.563144e-01 7.547035e-01 -1.220714e+00 -6.023429e-01 -7.307991e-01 5.051699e-01 -9.754016e-01
<VARIANCE> 15
 1.319295e+01 2.127687e+00 2.179585e+00 1.620340e+00 6.573650e-01 7.884877e-01 8.330421e-01 6.220738e-01 5.346484e-01 3.615304e-01 2.251543e-01 5.277257e-01 3.789839e-01 3.666731e-01 4.361602e-01
<GCONST> 2.427313e+01
<STATE> 8
<MEAN> 15
 -1.788791e+01 -8.175569e-02 3.999746e+00 1.524547e-01 -3.515487e-01 -1.864200e-01 3.539457e-01 1.097448e+00 9.158973e-01 1.889414e-01 -4.962286e-01 -6.032967e-01 -1.214344e+00 2.403808e-01 -6.485912e-01
<VARIANCE> 15
 9.189531e+00 1.356490e+00 1.317472e+00 1.145364e+00 7.191342e-01 8.400238e-01 2.605104e-01 3.442973e-01 3.309909e-01 3.964880e-01 2.666306e-01 1.891813e-01 2.714089e-01 2.933518e-01 1.761483e-01
<GCONST> 1.830251e+01
<STATE> 9
<MEAN> 15
 -2.117632e+01 -2.058410e+00 3.016974e+00 -6.406587e-01 -1.516170e-01 2.654148e-01 5.312539e-02 7.834555e-01 4.055772e-01 7.309168e-01 -2.663356e-02 5.148900e-02 -3.169949e-01 1.299520e-01 -9.604161e-01
<VARIANCE> 15
 5.758060e+00 4.793210e+00 1.588804e+00 7.002396e-01 5.138023e-01 9.426728e-01 3.113176e-01 7.483579e-01 2.578266e-01 1.360720e-01 2.138878e-01 3.094918e-01 2.325810e-01 1.833529e-01 1.756298e-01
<GCONST> 1.785143e+01
<STATE> 10
<MEAN> 15
 -1.923053e+01 -5.867802e+00 1.044511e+00 -2.188182e+00 -5.974538e-01 -1.514038e-01 -4.240925e-01 2.096181e-01 -1.796530e-01 3.303533e-01 -4.219360e-01 -1.986342e-01 -4.303785e-01 -4.116749e-01 -9.855444e-01
<VARIANCE> 15
 4.733337e+00 1.539054e+00 1.636492e+00 9.622994e-01 6.796051e-01 8.740560e-01 3.764470e-01 8.205280e-01 2.020907e-01 3.651174e-01 3.184057e-01 1.940446e-01 1.685588e-01 2.226984e-01 1.627498e-01
<GCONST> 1.782382e+01
<STATE> 11
<MEAN> 15
 -2.191332e+01 -4.495301e+00 -2.478473e-01 -2.005618e+00 -1.622703e+00 5.493631e-01 7.783216e-02 9.894689e-01 9.429961e-02 -6.925256e-02 -9.163641e-01 -5.988203e-01 -5.327468e-01 -2.118078e-01 -9.145443e-01
<VARIANCE> 15
 8.572474e+00 1.522956e+00 1.080016e+00 1.873497e-01 7.316830e-01 5.248454e-01 3.630960e-01 8.317034e-01 3.238653e-01 4.559879e-01 1.794201e-01 2.287125e-01 3.470727e-01 2.248008e-01 1.830133e-01
<GCONST> 1.703014e+01
<STATE> 12
<MEAN> 15
 -2.187853e+01 -1.161799e-01 -5.653568e-01 -1.567509e+00 1.968384e+00 2.821167e+00 2.814606e-01 1.510792e+00 7.758741e-01 -4.431262e-01 -1.475449e+00 4.774283e-01 1.898715e-01 2.742950e-01 -8.023061e-01
<VARIANCE> 15
 7.725283e+00 2.300910e+00 2.271502e+00 1.178308e+00 1.664988e+00 8.656421e-01 7.230883e-01 5.586075e-01 5.223122e-01 5.198798e-01 5.685136e-01 4.010623e-01 2.796391e-01 3.697450e-01 2.398794e-01
<GCONST> 2.441065e+01
<STATE> 13
<MEAN> 15
 -2.310378e+01 -2.529292e+00 2.008089e+00 9.183229e-01 3.382090e-01 2.228765e+00 2.030800e+00 -2.404823e-01 2.432299e-01 -6.242945e-02 -5.462728e-01 3.364771e-01 5.516539e-01 5.271795e-02 -8.665599e-01
<VARIANCE> 15
 7.447096e+00 1.100496e+00 1.309439e+00 1.147165e+00 7.794826e-01 4.639449e-01 6.129707e-01 5.332681e-01 5.253266e-01 2.837440e-01 4.738980e-01 1.961930e-01 2.584005e-01 2.748685e-01 1.912649e-01
<GCONST> 1.936570e+01
<STATE> 14
<MEAN> 15
 -2.535375e+01 -3.020185e+00 3.044240e+00 -4.612150e-01 6.954659e-01 1.928675e+00 1.101408e+00 2.456405e-01 -5.457140e-01 4.705960e-01 -2.590365e-02 3.396987e-01 5.685958e-01 4.632827e-02 -4.468977e-01
<VARIANCE> 15
 4.690747e+00 3.155679e+00 2.233431e+00 8.705419e-01 4.076160e-01 8.296937e-01 3.587815e-01 5.107404e-01 3.382412e-01 3.860719e-01 2.752546e-01 3.200284e-01 2.412878e-01 2.187784e-01 1.813027e-01
<GCONST> 1.903261e+01
<STATE> 15
<MEAN> 15
 -2.816013e+01 -2.042840e+00 9.439965e-01 -5.612758e-01 -3.913531e-02 1.482909e+00 4.071938e-01 8.311580e-01 -4.636301e-01 4.880676e-01 1.377449e-01 8.022588e-01 9.937679e-02 1.711768e-01 -4.617929e-01
<VARIANCE> 15
 3.853875e+00 2.255325e+00 4.669219e-01 6.034472e-01 5.628378e-01 1.047175e+00 2.772582e-01 6.907117e-01 3.356323e-01 2.164662e-01 1.974559e-01 3.867519e-01 1.782147e-01 2.815498e-01 1.668050e-01
<GCONST> 1.630492e+01
<STATE> 16
<MEAN> 15
 -3.147749e+01 -1.893667e+00 5.355419e-01 -7.304231e-01 -6.462929e-01 1.693718e-01 -5.445726e-01 1.443149e-01 -3.202288e-01 4.981267e-01 -7.141209e-02 5.734988e-02 -1.478398e-01 1.160821e-01 -2.429506e-01
<VARIANCE> 15
 1.587698e+00 1.794986e+00 5.400304e-01 3.497055e-01 3.609758e-01 6.677821e-01 2.704163e-01 4.095809e-01 1.824915e-01 2.183741e-01 1.759307e-01 1.901218e-01 1.411103e-01 1.548044e-01 1.451017e-01
<GCONST> 1.095101e+01
<STATE> 17
<MEAN> 15
 -3.410567e+01 -1.540640e+00 -4.788262e-01 -7.706664e-01 -6.367013e-01 -4.271325e-02 -6.525150e-01 1.821377e-02 -4.283076e-01 3.236853e-01 -4.484393e-01 -1.428631e-01 -4.028727e-01 1.949064e-02 -2.983896e-01
<VARIANCE> 15
 1.190810e+00 4.625319e-01 3.076780e-01 3.065116e-01 2.093804e-01 2.815858e-01 1.845042e-01 2.262953e-01 1.253264e-01 1.631964e-01 1.052829e-01 1.274365e-01 1.606965e-01 1.325025e-01 1.275596e-01
<GCONST> 4.494191e+00
<TRANSP> 18
 0.000000e+00 1.000000e+00 0.000000e+00 0.000000e+00 0.000000e+00 0.000000e+00 0.000000e+00 0.000000e+00 0.000000e+00 0.000000e+00 0.000000e+00 0.000000e+00 0.000000e+00 0.000000e+00 0.000000e+00 0.000000e+00 0.000000e+00 0.000000e+00
 0.000000e+00 8.376068e-01 1.623932e-01 0.000000e+00 0.000000e+00 0.000000e+00 0.000000e+00 0.000000e+00 0.000000e+00 0.000000e+00 0.000000e+00 0.000000e+00 0.000000e+00 0.000000e+00 0.000000e+00 0.000000e+00 0.000000e+00 0.000000e+00
 0.000000e+00 0.000000e+00 7.076923e-01 2.923077e-01 0.000000e+00 0.000000e+00 0.000000e+00 0.000000e+00 0.000000e+00 0.000000e+00 0.000000e+00 0.000000e+00 0.000000e+00 0.000000e+00 0.000000e+00 0.000000e+00 0.000000e+00 0.000000e+00
 0.000000e+00 0.000000e+00 0.000000e+00 9.015544e-01 9.844560e-02 0.000000e+00 0.000000e+00 0.000000e+00 0.000000e+00 0.000000e+00 0.000000e+00 0.000000e+00 0.000000e+00 0.000000e+00 0.000000e+00 0.000000e+00 0.000000e+00 0.000000e+00
 0.000000e+00 0.000000e+00 0.000000e+00 0.000000e+00 8.855422e-01 1.144578e-01 0.000000e+00 0.000000e+00 0.000000e+00 0.000000e+00 0.000000e+00 0.000000e+00 0.000000e+00 0.000000e+00 0.000000e+00 0.000000e+00 0.000000e+00 0.000000e+00
 0.000000e+00 0.000000e+00 0.000000e+00 0.000000e+00 0.000000e+00 6.984127e-01 3.015873e-01 0.000000e+00 0.000000e+00 0.000000e+00 0.000000e+00 0.000000e+00 0.000000e+00 0.000000e+00 0.000000e+00 0.000000e+00 0.000000e+00 0.000000e+00
 0.000000e+00 0.000000e+00 0.000000e+00 0.000000e+00 0.000000e+00 0.000000e+00 8.680556e-01 1.319444e-01 0.000000e+00 0.000000e+00 0.000000e+00 0.000000e+00 0.000000e+00 0.000000e+00 0.000000e+00 0.000000e+00 0.000000e+00 0.000000e+00
 0.000000e+00 0.000000e+00 0.000000e+00 0.000000e+00 0.000000e+00 0.000000e+00 0.000000e+00 7.710843e-01 2.289157e-01 0.000000e+00 0.000000e+00 0.000000e+00 0.000000e+00 0.000000e+00 0.000000e+00 0.000000e+00 0.000000e+00 0.000000e+00
 0.000000e+00 0.000000e+00 0.000000e+00 0.000000e+00 0.000000e+00 0.000000e+00 0.000000e+00 0.000000e+00 7.865168e-01 2.134831e-01 0.000000e+00 0.000000e+00 0.000000e+00 0.000000e+00 0.000000e+00 0.000000e+00 0.000000e+00 0.000000e+00
 0.000000e+00 0.000000e+00 0.000000e+00 0.000000e+00 0.000000e+00 0.000000e+00 0.000000e+00 0.000000e+00 0.000000e+00 8.855422e-01 1.144578e-01 0.000000e+00 0.000000e+00 0.000000e+00 0.000000e+00 0.000000e+00 0.000000e+00 0.000000e+00
 0.000000e+00 0.000000e+00 0.000000e+00 0.000000e+00 0.000000e+00 0.000000e+00 0.000000e+00 0.000000e+00 0.000000e+00 0.000000e+00 6.545454e-01 3.454545e-01 0.000000e+00 0.000000e+00 0.000000e+00 0.000000e+00 0.000000e+00 0.000000e+00
 0.000000e+00 0.000000e+00 0.000000e+00 0.000000e+00 0.000000e+00 0.000000e+00 0.000000e+00 0.000000e+00 0.000000e+00 0.000000e+00 0.000000e+00 8.549618e-01 1.450382e-01 0.000000e+00 0.000000e+00 0.000000e+00 0.000000e+00 0.000000e+00
 0.000000e+00 0.000000e+00 0.000000e+00 0.000000e+00 0.000000e+00 0.000000e+00 0.000000e+00 0.000000e+00 0.000000e+00 0.000000e+00 0.000000e+00 0.000000e+00 8.623188e-01 1.376812e-01 0.000000e+00 0.000000e+00 0.000000e+00 0.000000e+00
 0.000000e+00 0.000000e+00 0.000000e+00 0.000000e+00 0.000000e+00 0.000000e+00 0.000000e+00 0.000000e+00 0.000000e+00 0.000000e+00 0.000000e+00 0.000000e+00 0.000000e+00 7.865168e-01 2.134831e-01 0.000000e+00 0.000000e+00 0.000000e+00
 0.000000e+00 0.000000e+00 0.000000e+00 0.000000e+00 0.000000e+00 0.000000e+00 0.000000e+00 0.000000e+00 0.000000e+00 0.000000e+00 0.000000e+00 0.000000e+00 0.000000e+00 0.000000e+00 7.790698e-01 2.209302e-01 0.000000e+00 0.000000e+00
 0.000000e+00 0.000000e+00 0.000000e+00 0.000000e+00 0.000000e+00 0.000000e+00 0.000000e+00 0.000000e+00 0.000000e+00 0.000000e+00 0.000000e+00 0.000000e+00 0.000000e+00 0.000000e+00 0.000000e+00 7.654321e-01 2.345679e-01 0.000000e+00
 0.000000e+00 0.000000e+00 0.000000e+00 0.000000e+00 0.000000e+00 0.000000e+00 0.000000e+00 0.000000e+00 0.000000e+00 0.000000e+00 0.000000e+00 0.000000e+00 0.000000e+00 0.000000e+00 0.000000e+00 0.000000e+00 9.090909e-01 9.090909e-02
 0.000000e+00 0.000000e+00 0.000000e+00 0.000000e+00 0.000000e+00 0.000000e+00 0.000000e+00 0.000000e+00 0.000000e+00 0.000000e+00 0.000000e+00 0.000000e+00 0.000000e+00 0.000000e+00 0.000000e+00 0.000000e+00 0.000000e+00 0.000000e+00
<ENDHMM>
