~o
<STREAMINFO> 1 20
<VECSIZE> 20<NULLD><MFCC><DIAGC>
~h "Vav"
<BEGINHMM>
<NUMSTATES> 18
<STATE> 2
<MEAN> 20
 -3.753583e+01 -2.693983e+00 8.826024e-03 -2.595839e-01 -1.500371e+00 3.926661e-01 -1.439663e+00 -4.619537e-03 -1.090162e+00 1.491074e-02 -2.857190e-01 -2.032615e-01 -2.392812e-01 4.676415e-02 6.431257e-03 -2.925436e-01 -3.687778e-01 -1.925183e-01 -3.993071e-02 -3.210438e-01
<VARIANCE> 20
 1.736420e+01 5.605042e+00 3.652793e+00 1.005203e+00 5.340698e-01 7.378655e-01 3.510591e-01 4.262633e-01 3.496120e-01 2.576903e-01 2.108701e-01 2.336018e-01 2.646189e-01 2.779742e-01 1.916501e-01 2.101897e-01 2.049355e-01 2.241982e-01 1.565897e-01 1.992703e-01
<GCONST> 2.201898e+01
<STATE> 3
<MEAN> 20
 -3.017977e+01 -2.747691e+00 3.651363e+00 1.346870e+00 -6.439171e-01 1.159599e+00 -9.597737e-01 2.109598e-01 -8.752427e-01 2.048740e-01 6.227564e-02 3.444579e-01 2.411397e-01 4.666628e-01 5.652642e-01 -1.120594e-01 -6.432544e-01 -1.286135e-01 -4.816754e-01 -5.211104e-01
<VARIANCE> 20
 1.808709e+01 4.245958e+00 5.434904e+00 1.077735e+00 1.115844e+00 9.637260e-01 4.769872e-01 3.990120e-01 3.239396e-01 2.380070e-01 1.750306e-01 2.479715e-01 2.593160e-01 1.602278e-01 4.192926e-01 2.447257e-01 1.710658e-01 1.803896e-01 1.960955e-01 1.782663e-01
<GCONST> 2.329051e+01
<STATE> 4
<MEAN> 20
 -2.905625e+01 -1.295732e+00 4.498176e-01 2.777772e+00 -2.798797e+00 2.625303e+00 -1.615481e+00 1.497726e+00 -9.575961e-01 1.107454e+00 -3.126851e-01 5.298318e-01 1.410842e-01 8.742414e-01 2.619360e-01 -3.984132e-01 -9.154076e-01 -3.202286e-01 -2.399550e-01 -8.005398e-01
<VARIANCE> 20
 1.901220e+01 1.970954e+00 1.523810e+00 6.082351e-01 1.158006e+00 7.937145e-01 4.425884e-01 9.720575e-01 4.562491e-01 4.484574e-01 2.547654e-01 3.906715e-01 3.700178e-01 3.005438e-01 2.591229e-01 2.819538e-01 3.209324e-01 2.845291e-01 1.991219e-01 2.323547e-01
<GCONST> 2.520381e+01
<STATE> 5
<MEAN> 20
 -2.607826e+01 -1.852268e+00 -2.741841e-01 1.809219e+00 -3.084999e+00 1.512154e+00 -2.333656e+00 9.993650e-01 -1.379004e+00 5.278366e-01 -8.609475e-01 3.996763e-01 -6.440156e-01 5.796851e-01 -2.037485e-01 -7.154930e-01 -9.233339e-01 -1.742438e-01 -1.287542e-01 -4.407495e-01
<VARIANCE> 20
 4.290168e+01 4.587207e+00 7.992279e+00 1.188929e+00 2.265681e+00 1.132795e+00 6.207443e-01 1.442805e+00 3.366314e-01 4.477562e-01 3.009721e-01 3.571925e-01 3.869284e-01 3.995492e-01 3.374254e-01 4.691069e-01 4.820774e-01 3.783208e-01 1.998919e-01 2.531216e-01
<GCONST> 3.260528e+01
<STATE> 6
<MEAN> 20
 -1.466900e+01 4.339181e-02 2.059034e+00 3.137199e+00 -1.779070e+00 -5.834982e-01 -2.363847e+00 2.567949e-01 -1.725814e+00 -6.284165e-01 -1.092856e+00 -4.974753e-02 -4.378248e-01 3.881622e-01 1.735590e-01 -1.055483e+00 -1.562627e+00 -7.806554e-01 -2.883933e-02 -3.479692e-02
<VARIANCE> 20
 1.560301e+01 3.100615e+00 2.281381e+00 5.141765e-01 8.084602e-01 2.969815e+00 5.126400e-01 3.740843e-01 3.257141e-01 6.869837e-01 3.185096e-01 3.704846e-01 3.192074e-01 3.370417e-01 4.292358e-01 2.784215e-01 1.974109e-01 1.419686e-01 2.531972e-01 5.331861e-01
<GCONST> 2.645547e+01
<STATE> 7
<MEAN> 20
 -1.859436e+01 4.346137e+00 -1.763224e+00 2.841063e+00 -4.035642e+00 1.186835e+00 -2.244135e+00 -2.457805e-01 -1.806700e+00 -2.706053e-02 -4.454423e-01 -1.167090e+00 1.356054e-01 3.501658e-01 4.793703e-01 -1.783701e+00 -1.170815e+00 -1.891132e-01 4.908247e-01 -2.794723e-01
<VARIANCE> 20
 1.005273e+01 1.938468e+00 2.499954e+00 2.225696e+00 1.090268e+00 1.530811e+00 1.036382e+00 7.266224e-01 6.009009e-01 8.367160e-01 8.323392e-01 5.059926e-01 7.580751e-01 4.402397e-01 3.088426e-01 3.269064e-01 4.171213e-01 3.793498e-01 3.399428e-01 3.625125e-01
<GCONST> 3.279213e+01
<STATE> 8
<MEAN> 20
 -1.648644e+01 1.190121e+00 1.352957e+00 4.191067e+00 -2.006377e+00 -2.228651e+00 -1.546070e+00 -3.993776e-01 -1.583165e+00 -3.503353e-01 -8.146237e-01 9.121951e-02 -2.270684e-01 7.118896e-02 -5.135804e-01 -6.184173e-01 -1.176755e+00 -3.457359e-01 7.952274e-02 1.483889e-01
<VARIANCE> 20
 1.007733e+01 2.335679e+00 1.816781e+00 1.200126e+00 1.050908e+00 1.348889e+00 7.745283e-01 6.036051e-01 6.734377e-01 4.338794e-01 7.296474e-01 4.013785e-01 5.646822e-01 4.452539e-01 4.731376e-01 6.325704e-01 3.695031e-01 2.430188e-01 2.442535e-01 2.437976e-01
<GCONST> 3.000773e+01
<STATE> 9
<MEAN> 20
 -2.221918e+01 2.731073e+00 6.311026e-01 3.767113e+00 -3.653686e+00 5.178106e-01 -2.520858e+00 4.226618e-01 -1.973981e+00 -1.238967e-01 -8.161325e-01 -1.914126e-01 -5.501040e-01 6.757945e-01 3.803471e-02 -9.536908e-01 -7.826165e-01 -4.867550e-01 4.802735e-01 -1.853211e-01
<VARIANCE> 20
 6.284728e+00 1.798723e+00 2.221193e+00 1.268240e+00 1.595011e+00 1.618269e+00 1.249575e+00 6.588137e-01 5.307142e-01 4.843695e-01 4.426168e-01 4.895511e-01 4.847517e-01 2.857562e-01 4.229373e-01 6.539690e-01 2.746841e-01 3.378704e-01 2.273636e-01 2.907512e-01
<GCONST> 2.972871e+01
<STATE> 10
<MEAN> 20
 -2.407102e+01 8.848524e-01 3.879009e+00 3.919107e+00 -1.183897e+00 -6.237326e-01 -8.423923e-01 -3.655699e-01 -1.871439e+00 -9.013198e-01 -3.611646e-01 4.919984e-03 -8.069446e-01 6.068083e-01 6.809069e-01 -4.815643e-01 -9.497688e-01 -3.768898e-01 -2.057995e-01 -3.147263e-01
<VARIANCE> 20
 9.491385e+00 2.581605e+00 1.908292e+00 1.009750e+00 9.020557e-01 1.637499e+00 7.606164e-01 4.737561e-01 4.428812e-01 4.507614e-01 3.116115e-01 3.099569e-01 4.361971e-01 3.857407e-01 4.461154e-01 2.603760e-01 3.683594e-01 2.351344e-01 1.816025e-01 2.575779e-01
<GCONST> 2.658934e+01
<STATE> 11
<MEAN> 20
 -2.948713e+01 2.177611e+00 2.796461e+00 3.201614e+00 -1.507342e+00 1.692923e+00 -1.345600e+00 5.061444e-01 -1.434005e+00 -1.003846e-01 -3.785912e-01 -5.707928e-01 -2.307357e-01 4.168906e-01 4.725820e-01 -8.392412e-01 -7.910322e-01 -6.758172e-01 -2.696756e-01 -5.782248e-01
<VARIANCE> 20
 2.824548e+00 2.260967e+00 1.334041e+00 4.942808e-01 1.393527e+00 9.702356e-01 5.210367e-01 4.157915e-01 3.165111e-01 3.771076e-01 2.478383e-01 3.043302e-01 3.974159e-01 2.610232e-01 2.402839e-01 3.336965e-01 2.180917e-01 3.098150e-01 1.410436e-01 2.144075e-01
<GCONST> 2.127456e+01
<STATE> 12
<MEAN> 20
 -3.075356e+01 1.347727e-01 1.938862e+00 2.516098e+00 -1.138415e+00 1.890214e+00 -1.208874e+00 8.385398e-01 -1.186630e+00 1.464999e-01 -3.015406e-01 1.353223e-01 -1.173254e-01 5.686355e-01 2.698182e-01 -6.548614e-01 -4.634340e-01 -3.129517e-01 -7.979991e-02 -1.769303e-01
<VARIANCE> 20
 3.715460e+00 1.887759e+00 3.029607e+00 8.060665e-01 1.130792e+00 1.525428e+00 9.375265e-01 5.654355e-01 3.671657e-01 2.984775e-01 2.022790e-01 1.776179e-01 2.985295e-01 2.075929e-01 1.818163e-01 1.981186e-01 1.816563e-01 4.226726e-01 2.413339e-01 1.955832e-01
<GCONST> 2.224673e+01
<STATE> 13
<MEAN> 20
 -2.687418e+01 -4.817389e+00 1.755220e+00 -7.754910e-01 -9.213763e-01 3.699922e-01 -1.650337e+00 -1.399342e-01 -1.222246e+00 -1.424323e-01 -2.406182e-01 -4.392652e-02 -1.724665e-01 1.155258e-01 -4.115309e-02 -5.976430e-01 -6.927048e-01 8.136510e-02 9.625473e-02 -2.434114e-01
<VARIANCE> 20
 4.308531e+00 3.377863e+00 2.184715e+00 1.754939e+00 1.209052e+00 1.347764e+00 6.050844e-01 7.866757e-01 3.003688e-01 5.559407e-01 2.534934e-01 2.793157e-01 3.066210e-01 2.402901e-01 2.001544e-01 1.367039e-01 2.050563e-01 1.726856e-01 2.036702e-01 2.022105e-01
<GCONST> 2.335048e+01
<STATE> 14
<MEAN> 20
 -2.937471e+01 -3.494045e+00 -1.597512e+00 1.357315e+00 -3.880055e+00 1.912012e+00 -2.665555e+00 1.099411e+00 -1.498898e+00 8.572873e-01 -1.021581e+00 3.285906e-02 -7.267483e-01 2.787029e-01 -3.367166e-01 -5.522499e-01 -7.800165e-01 2.580848e-02 -5.468002e-02 -3.087215e-01
<VARIANCE> 20
 3.484777e+00 1.021782e+00 1.063432e+00 9.033632e-01 1.138554e+00 8.082880e-01 3.676421e-01 4.934387e-01 3.043311e-01 4.927362e-01 2.979788e-01 2.641290e-01 3.971194e-01 1.929248e-01 2.963462e-01 2.151911e-01 2.188597e-01 1.948403e-01 1.575002e-01 2.055996e-01
<GCONST> 1.985134e+01
<STATE> 15
<MEAN> 20
 -3.696512e+01 -1.402126e+00 -1.585975e+00 3.105660e-01 -2.360685e+00 1.251139e+00 -2.037589e+00 6.946157e-01 -1.374175e+00 5.478364e-01 -6.437853e-01 -2.794535e-01 -6.348528e-01 1.178972e-02 1.395782e-01 -2.400111e-01 -3.734120e-01 -3.544638e-01 -2.600224e-02 -1.031725e-01
<VARIANCE> 20
 7.314261e+00 1.093829e+00 1.109698e+00 4.534996e-01 5.349970e-01 5.981530e-01 3.263199e-01 3.237344e-01 2.192308e-01 3.093109e-01 2.296331e-01 2.805880e-01 2.328377e-01 1.582832e-01 2.020768e-01 1.733010e-01 1.862454e-01 1.799237e-01 1.646009e-01 1.721768e-01
<GCONST> 1.571810e+01
<STATE> 16
<MEAN> 20
 -3.609398e+01 -2.332780e+00 7.830312e-01 -6.701648e-01 -1.393177e+00 1.008481e-01 -1.631335e+00 -2.966468e-01 -1.208113e+00 -1.412093e-01 -2.749414e-01 -3.128875e-01 -2.492545e-01 -2.969891e-01 -7.177006e-02 -1.995310e-01 -2.888279e-01 -4.247864e-02 -9.628286e-02 -3.277467e-02
<VARIANCE> 20
 6.150618e+00 2.055348e+00 1.343992e+00 2.774602e-01 3.298510e-01 3.543223e-01 2.270048e-01 2.957471e-01 2.249734e-01 2.037132e-01 2.368404e-01 1.752692e-01 3.138590e-01 1.740311e-01 2.036045e-01 1.497907e-01 1.472323e-01 1.606265e-01 1.808134e-01 1.331065e-01
<GCONST> 1.332705e+01
<STATE> 17
<MEAN> 20
 -4.034630e+01 -1.700680e+00 -1.255949e+00 -2.022147e-01 -1.139345e+00 4.771841e-01 -8.787149e-01 1.427025e-01 -7.356932e-01 1.325906e-01 -2.090932e-01 -2.940401e-01 -3.425606e-01 -2.099839e-01 -5.734239e-02 -2.337213e-01 -2.167979e-01 -1.576440e-02 -8.275826e-02 -1.989595e-01
<VARIANCE> 20
 3.704291e+00 1.055492e+00 1.204421e+00 4.032360e-01 3.289102e-01 2.241853e-01 2.057391e-01 2.149444e-01 1.771345e-01 2.056783e-01 1.618150e-01 2.044246e-01 1.248049e-01 1.692283e-01 1.240620e-01 1.583137e-01 1.467573e-01 1.557444e-01 1.348298e-01 1.271090e-01
<GCONST> 9.319260e+00
<TRANSP> 18
 0.000000e+00 1.000000e+00 0.000000e+00 0.000000e+00 0.000000e+00 0.000000e+00 0.000000e+00 0.000000e+00 0.000000e+00 0.000000e+00 0.000000e+00 0.000000e+00 0.000000e+00 0.000000e+00 0.000000e+00 0.000000e+00 0.000000e+00 0.000000e+00
 0.000000e+00 8.841463e-01 1.158537e-01 0.000000e+00 0.000000e+00 0.000000e+00 0.000000e+00 0.000000e+00 0.000000e+00 0.000000e+00 0.000000e+00 0.000000e+00 0.000000e+00 0.000000e+00 0.000000e+00 0.000000e+00 0.000000e+00 0.000000e+00
 0.000000e+00 0.000000e+00 7.816092e-01 2.183908e-01 0.000000e+00 0.000000e+00 0.000000e+00 0.000000e+00 0.000000e+00 0.000000e+00 0.000000e+00 0.000000e+00 0.000000e+00 0.000000e+00 0.000000e+00 0.000000e+00 0.000000e+00 0.000000e+00
 0.000000e+00 0.000000e+00 0.000000e+00 8.362069e-01 1.637931e-01 0.000000e+00 0.000000e+00 0.000000e+00 0.000000e+00 0.000000e+00 0.000000e+00 0.000000e+00 0.000000e+00 0.000000e+00 0.000000e+00 0.000000e+00 0.000000e+00 0.000000e+00
 0.000000e+00 0.000000e+00 0.000000e+00 0.000000e+00 6.041667e-01 3.958333e-01 0.000000e+00 0.000000e+00 0.000000e+00 0.000000e+00 0.000000e+00 0.000000e+00 0.000000e+00 0.000000e+00 0.000000e+00 0.000000e+00 0.000000e+00 0.000000e+00
 0.000000e+00 0.000000e+00 0.000000e+00 0.000000e+00 0.000000e+00 7.246377e-01 2.753623e-01 0.000000e+00 0.000000e+00 0.000000e+00 0.000000e+00 0.000000e+00 0.000000e+00 0.000000e+00 0.000000e+00 0.000000e+00 0.000000e+00 0.000000e+00
 0.000000e+00 0.000000e+00 0.000000e+00 0.000000e+00 0.000000e+00 0.000000e+00 9.107981e-01 8.920188e-02 0.000000e+00 0.000000e+00 0.000000e+00 0.000000e+00 0.000000e+00 0.000000e+00 0.000000e+00 0.000000e+00 0.000000e+00 0.000000e+00
 0.000000e+00 0.000000e+00 0.000000e+00 0.000000e+00 0.000000e+00 0.000000e+00 0.000000e+00 8.758170e-01 1.241830e-01 0.000000e+00 0.000000e+00 0.000000e+00 0.000000e+00 0.000000e+00 0.000000e+00 0.000000e+00 0.000000e+00 0.000000e+00
 0.000000e+00 0.000000e+00 0.000000e+00 0.000000e+00 0.000000e+00 0.000000e+00 0.000000e+00 0.000000e+00 7.361111e-01 2.638889e-01 0.000000e+00 0.000000e+00 0.000000e+00 0.000000e+00 0.000000e+00 0.000000e+00 0.000000e+00 0.000000e+00
 0.000000e+00 0.000000e+00 0.000000e+00 0.000000e+00 0.000000e+00 0.000000e+00 0.000000e+00 0.000000e+00 0.000000e+00 7.816092e-01 2.183908e-01 0.000000e+00 0.000000e+00 0.000000e+00 0.000000e+00 0.000000e+00 0.000000e+00 0.000000e+00
 0.000000e+00 0.000000e+00 0.000000e+00 0.000000e+00 0.000000e+00 0.000000e+00 0.000000e+00 0.000000e+00 0.000000e+00 0.000000e+00 6.346154e-01 3.653846e-01 0.000000e+00 0.000000e+00 0.000000e+00 0.000000e+00 0.000000e+00 0.000000e+00
 0.000000e+00 0.000000e+00 0.000000e+00 0.000000e+00 0.000000e+00 0.000000e+00 0.000000e+00 0.000000e+00 0.000000e+00 0.000000e+00 0.000000e+00 5.869565e-01 4.130435e-01 0.000000e+00 0.000000e+00 0.000000e+00 0.000000e+00 0.000000e+00
 0.000000e+00 0.000000e+00 0.000000e+00 0.000000e+00 0.000000e+00 0.000000e+00 0.000000e+00 0.000000e+00 0.000000e+00 0.000000e+00 0.000000e+00 0.000000e+00 8.429752e-01 1.570248e-01 0.000000e+00 0.000000e+00 0.000000e+00 0.000000e+00
 0.000000e+00 0.000000e+00 0.000000e+00 0.000000e+00 0.000000e+00 0.000000e+00 0.000000e+00 0.000000e+00 0.000000e+00 0.000000e+00 0.000000e+00 0.000000e+00 0.000000e+00 8.602941e-01 1.397059e-01 0.000000e+00 0.000000e+00 0.000000e+00
 0.000000e+00 0.000000e+00 0.000000e+00 0.000000e+00 0.000000e+00 0.000000e+00 0.000000e+00 0.000000e+00 0.000000e+00 0.000000e+00 0.000000e+00 0.000000e+00 0.000000e+00 0.000000e+00 7.397260e-01 2.602740e-01 0.000000e+00 0.000000e+00
 0.000000e+00 0.000000e+00 0.000000e+00 0.000000e+00 0.000000e+00 0.000000e+00 0.000000e+00 0.000000e+00 0.000000e+00 0.000000e+00 0.000000e+00 0.000000e+00 0.000000e+00 0.000000e+00 0.000000e+00 7.682927e-01 2.317073e-01 0.000000e+00
 0.000000e+00 0.000000e+00 0.000000e+00 0.000000e+00 0.000000e+00 0.000000e+00 0.000000e+00 0.000000e+00 0.000000e+00 0.000000e+00 0.000000e+00 0.000000e+00 0.000000e+00 0.000000e+00 0.000000e+00 0.000000e+00 8.592592e-01 1.407407e-01
 0.000000e+00 0.000000e+00 0.000000e+00 0.000000e+00 0.000000e+00 0.000000e+00 0.000000e+00 0.000000e+00 0.000000e+00 0.000000e+00 0.000000e+00 0.000000e+00 0.000000e+00 0.000000e+00 0.000000e+00 0.000000e+00 0.000000e+00 0.000000e+00
<ENDHMM>
