~o
<STREAMINFO> 1 15
<VECSIZE> 15<NULLD><MFCC><DIAGC>
~h "Vav"
<BEGINHMM>
<NUMSTATES> 18
<STATE> 2
<MEAN> 15
 -3.255276e+01 -2.452524e+00 2.373831e-01 -8.190601e-01 -6.774840e-01 -1.923315e-01 -7.887539e-01 -5.262948e-02 -6.098673e-01 1.805670e-01 -4.107923e-01 -4.103485e-03 -1.783872e-01 1.646789e-01 -2.923773e-01
<VARIANCE> 15
 9.985057e+00 1.992644e+00 1.479079e+00 4.701960e-01 3.449750e-01 3.262706e-01 1.753741e-01 3.643633e-01 1.881634e-01 1.862951e-01 1.433351e-01 2.004152e-01 1.967897e-01 1.676327e-01 1.653116e-01
<GCONST> 1.314845e+01
<STATE> 3
<MEAN> 15
 -2.669828e+01 -2.458014e+00 3.503389e+00 1.066392e-01 1.749370e-01 4.654121e-01 -2.539053e-01 1.578966e-01 -3.281638e-01 4.911892e-01 5.616641e-02 4.453179e-01 2.393119e-01 7.013627e-01 -1.186459e-01
<VARIANCE> 15
 8.824303e+00 2.926362e+00 3.328451e+00 1.029928e+00 5.541669e-01 4.642916e-01 5.239439e-01 4.198754e-01 2.391845e-01 2.093869e-01 1.977787e-01 2.235567e-01 1.445069e-01 2.211750e-01 1.883879e-01
<GCONST> 1.795445e+01
<STATE> 4
<MEAN> 15
 -2.285494e+01 -2.405991e+00 2.336774e+00 2.665908e-01 -7.179072e-01 1.096001e+00 -7.873361e-01 6.021628e-01 -3.197690e-01 6.936356e-01 -2.781612e-01 7.283851e-01 4.818775e-01 6.212809e-01 -6.106162e-01
<VARIANCE> 15
 6.081852e+00 1.802389e+00 8.016462e-01 6.014968e-01 2.474237e-01 5.183865e-01 2.312316e-01 3.320802e-01 2.228220e-01 2.232490e-01 2.262865e-01 1.867620e-01 1.592527e-01 2.445573e-01 1.465428e-01
<GCONST> 1.328203e+01
<STATE> 5
<MEAN> 15
 -2.219025e+01 -2.534725e+00 1.971507e+00 -9.828017e-01 -4.666296e-01 -1.502504e-02 -1.108609e+00 -5.972316e-01 -8.017035e-01 3.451457e-01 -3.696385e-01 -1.983754e-01 5.071961e-01 4.047104e-01 -8.712996e-01
<VARIANCE> 15
 2.096131e+01 1.060158e+01 2.011455e+00 2.221524e+00 4.663824e-01 1.455042e+00 3.475532e-01 4.409450e-01 1.818350e-01 3.563501e-01 3.549902e-01 7.307636e-01 2.605362e-01 3.838964e-01 2.531865e-01
<GCONST> 2.444365e+01
<STATE> 6
<MEAN> 15
 -1.272483e+01 -4.677435e-01 2.970985e+00 8.818819e-01 -1.299382e+00 -3.898298e-01 -1.236212e+00 -4.749503e-01 -1.101574e+00 -3.639150e-01 -5.115159e-01 -2.357617e-01 1.423903e-01 4.154230e-01 -1.414422e+00
<VARIANCE> 15
 1.134879e+01 2.170317e+00 2.815390e+00 7.782919e-01 9.997612e-01 1.419461e+00 3.982871e-01 2.611177e-01 5.563315e-01 2.745584e-01 2.841400e-01 2.078901e-01 1.825347e-01 3.825713e-01 3.368264e-01
<GCONST> 2.118540e+01
<STATE> 7
<MEAN> 15
 -1.443687e+01 2.162890e+00 5.838804e-02 8.249900e-01 -2.550693e+00 4.452520e-01 -1.790465e+00 -3.720105e-01 -1.288047e+00 4.820890e-01 -1.388647e+00 2.305161e-01 1.890485e-01 5.144300e-01 -1.552969e+00
<VARIANCE> 15
 6.522447e+00 8.124318e-01 1.746153e+00 1.909466e+00 1.453231e+00 8.362169e-01 6.018075e-01 4.003050e-01 5.856351e-01 5.720586e-01 2.753012e-01 3.875329e-01 2.936137e-01 1.787196e-01 2.642021e-01
<GCONST> 2.160161e+01
<STATE> 8
<MEAN> 15
 -1.297658e+01 5.007533e-01 2.085987e+00 2.282759e+00 -1.887233e+00 -2.050067e+00 -9.321640e-01 -6.507383e-01 -8.824193e-01 -5.735409e-01 -5.803611e-01 2.553741e-01 -1.602019e-01 -1.648210e-01 -7.414976e-01
<VARIANCE> 15
 6.898756e+00 1.164628e+00 8.669986e-01 1.057948e+00 8.483454e-01 1.231032e+00 4.045812e-01 2.769484e-01 4.374218e-01 3.031449e-01 2.405359e-01 3.644499e-01 3.036647e-01 2.947860e-01 3.377861e-01
<GCONST> 1.946674e+01
<STATE> 9
<MEAN> 15
 -1.712415e+01 4.698415e-01 3.491301e+00 2.674489e+00 -1.996206e+00 -1.324895e+00 -5.265884e-01 -1.117504e+00 -1.298091e+00 -4.050123e-01 5.896618e-02 -3.480583e-01 1.031944e-01 3.915650e-01 -5.002674e-01
<VARIANCE> 15
 8.395077e+00 1.291331e+00 1.084740e+00 1.394928e+00 1.259914e+00 5.930235e-01 3.953573e-01 4.910543e-01 3.557787e-01 4.220847e-01 2.859587e-01 4.085383e-01 2.821960e-01 7.162818e-01 4.274259e-01
<GCONST> 2.194313e+01
<STATE> 10
<MEAN> 15
 -2.010016e+01 1.776087e+00 2.696865e+00 1.336073e+00 -1.365129e+00 -3.610907e-03 -1.268458e+00 -2.395596e-02 -1.613921e+00 3.756004e-01 -9.183609e-01 -1.476270e-01 1.857869e-01 6.993778e-01 -1.029181e+00
<VARIANCE> 15
 8.504412e+00 1.448185e+00 2.154959e+00 1.009057e+00 4.707312e-01 5.765043e-01 6.551022e-01 5.080791e-01 4.979993e-01 6.870950e-01 4.321686e-01 5.006968e-01 2.465912e-01 3.317553e-01 3.628268e-01
<GCONST> 2.233117e+01
<STATE> 11
<MEAN> 15
 -2.400172e+01 7.942185e-01 4.213940e+00 1.339528e+00 -1.066035e-01 3.635861e-01 -7.371213e-01 -2.471557e-01 -1.172592e+00 -3.770470e-03 -5.242004e-01 -2.678732e-01 8.210758e-02 6.657421e-01 -6.030651e-01
<VARIANCE> 15
 3.177743e+00 1.310408e+00 1.165336e+00 9.784393e-01 3.633251e-01 4.088525e-01 4.325885e-01 4.428356e-01 2.133571e-01 4.402544e-01 3.197957e-01 5.505278e-01 1.722163e-01 2.168583e-01 2.037943e-01
<GCONST> 1.658619e+01
<STATE> 12
<MEAN> 15
 -2.572379e+01 -9.952908e-01 2.524979e+00 6.438387e-01 1.233161e-01 5.991752e-01 -5.514293e-01 1.786426e-01 -6.543564e-01 2.873790e-01 -3.631157e-01 2.279889e-01 1.051012e-01 3.782867e-01 -7.100187e-01
<VARIANCE> 15
 2.440963e+00 1.488477e+00 8.811525e-01 4.869585e-01 5.413736e-01 4.268134e-01 3.146210e-01 3.218948e-01 2.332863e-01 2.037318e-01 1.873956e-01 1.633586e-01 1.566830e-01 1.585300e-01 1.433209e-01
<GCONST> 1.208644e+01
<STATE> 13
<MEAN> 15
 -2.330198e+01 -4.438726e+00 2.140071e+00 -1.631211e+00 1.634041e-01 -4.613682e-01 -1.040095e+00 -4.738809e-01 -7.684999e-01 -2.702239e-02 -2.504649e-01 -3.756645e-02 -5.378440e-02 7.455358e-02 -6.455783e-01
<VARIANCE> 15
 2.963043e+00 1.208315e+00 9.845674e-01 1.045137e+00 5.823146e-01 6.516728e-01 8.202411e-01 3.308722e-01 2.315273e-01 3.072278e-01 2.130027e-01 2.134082e-01 1.977395e-01 1.744760e-01 1.304962e-01
<GCONST> 1.546165e+01
<STATE> 14
<MEAN> 15
 -2.405793e+01 -4.634926e+00 5.001494e-01 -1.120435e+00 -1.394692e+00 -4.446112e-02 -1.116393e+00 1.199892e-01 -6.121436e-01 2.506564e-01 -7.043490e-01 -5.982700e-02 -2.727484e-01 1.356437e-01 -7.540426e-01
<VARIANCE> 15
 1.575831e+00 6.707887e-01 3.713146e-01 4.759919e-01 5.115666e-01 7.391384e-01 3.114926e-01 4.443527e-01 3.223200e-01 2.358881e-01 1.686255e-01 1.766611e-01 1.747348e-01 2.159202e-01 1.486882e-01
<GCONST> 1.166707e+01
<STATE> 15
<MEAN> 15
 -2.787265e+01 -3.105863e+00 4.019763e-01 -1.214233e+00 -6.576711e-01 -8.435841e-02 -1.093573e+00 -1.087646e-01 -7.619686e-01 1.639015e-01 -8.028870e-01 -3.366863e-02 -1.615348e-01 4.462717e-01 -4.513626e-01
<VARIANCE> 15
 4.107377e+00 8.405796e-01 4.001502e-01 2.556495e-01 4.768109e-01 5.627042e-01 2.657357e-01 2.059056e-01 2.373435e-01 2.802909e-01 1.008615e-01 1.528906e-01 8.884612e-02 1.425494e-01 1.173397e-01
<GCONST> 8.912375e+00
<STATE> 16
<MEAN> 15
 -3.071512e+01 -2.186898e+00 1.132625e+00 -1.321796e+00 -5.052337e-01 -5.665334e-01 -1.061038e+00 -5.426664e-01 -8.410258e-01 1.007862e-01 -4.637829e-01 2.829689e-03 -3.430926e-01 2.004144e-02 -2.259568e-01
<VARIANCE> 15
 3.147026e+00 1.187018e+00 5.223972e-01 1.512245e-01 2.600847e-01 2.790934e-01 1.950022e-01 2.128034e-01 1.193914e-01 1.903438e-01 1.745751e-01 2.153389e-01 1.371975e-01 1.775133e-01 1.427618e-01
<GCONST> 7.815816e+00
<STATE> 17
<MEAN> 15
 -3.426160e+01 -1.916488e+00 -5.852556e-01 -7.772166e-01 -4.570744e-01 -1.544667e-02 -5.737340e-01 -7.753837e-02 -4.552184e-01 2.369470e-01 -5.047706e-01 -1.976350e-01 -3.530943e-01 9.509774e-02 -2.723097e-01
<VARIANCE> 15
 2.457057e+00 5.523649e-01 5.354874e-01 2.806950e-01 2.658910e-01 1.490508e-01 1.868833e-01 1.596723e-01 1.496291e-01 1.258944e-01 1.919597e-01 1.302642e-01 1.554536e-01 1.081885e-01 1.247221e-01
<GCONST> 5.410944e+00
<TRANSP> 18
 0.000000e+00 1.000000e+00 0.000000e+00 0.000000e+00 0.000000e+00 0.000000e+00 0.000000e+00 0.000000e+00 0.000000e+00 0.000000e+00 0.000000e+00 0.000000e+00 0.000000e+00 0.000000e+00 0.000000e+00 0.000000e+00 0.000000e+00 0.000000e+00
 0.000000e+00 8.855422e-01 1.144578e-01 0.000000e+00 0.000000e+00 0.000000e+00 0.000000e+00 0.000000e+00 0.000000e+00 0.000000e+00 0.000000e+00 0.000000e+00 0.000000e+00 0.000000e+00 0.000000e+00 0.000000e+00 0.000000e+00 0.000000e+00
 0.000000e+00 0.000000e+00 8.224299e-01 1.775701e-01 0.000000e+00 0.000000e+00 0.000000e+00 0.000000e+00 0.000000e+00 0.000000e+00 0.000000e+00 0.000000e+00 0.000000e+00 0.000000e+00 0.000000e+00 0.000000e+00 0.000000e+00 0.000000e+00
 0.000000e+00 0.000000e+00 0.000000e+00 7.888889e-01 2.111111e-01 0.000000e+00 0.000000e+00 0.000000e+00 0.000000e+00 0.000000e+00 0.000000e+00 0.000000e+00 0.000000e+00 0.000000e+00 0.000000e+00 0.000000e+00 0.000000e+00 0.000000e+00
 0.000000e+00 0.000000e+00 0.000000e+00 0.000000e+00 6.200000e-01 3.800000e-01 0.000000e+00 0.000000e+00 0.000000e+00 0.000000e+00 0.000000e+00 0.000000e+00 0.000000e+00 0.000000e+00 0.000000e+00 0.000000e+00 0.000000e+00 0.000000e+00
 0.000000e+00 0.000000e+00 0.000000e+00 0.000000e+00 0.000000e+00 7.031250e-01 2.968750e-01 0.000000e+00 0.000000e+00 0.000000e+00 0.000000e+00 0.000000e+00 0.000000e+00 0.000000e+00 0.000000e+00 0.000000e+00 0.000000e+00 0.000000e+00
 0.000000e+00 0.000000e+00 0.000000e+00 0.000000e+00 0.000000e+00 0.000000e+00 8.983957e-01 1.016043e-01 0.000000e+00 0.000000e+00 0.000000e+00 0.000000e+00 0.000000e+00 0.000000e+00 0.000000e+00 0.000000e+00 0.000000e+00 0.000000e+00
 0.000000e+00 0.000000e+00 0.000000e+00 0.000000e+00 0.000000e+00 0.000000e+00 0.000000e+00 8.592592e-01 1.407407e-01 0.000000e+00 0.000000e+00 0.000000e+00 0.000000e+00 0.000000e+00 0.000000e+00 0.000000e+00 0.000000e+00 0.000000e+00
 0.000000e+00 0.000000e+00 0.000000e+00 0.000000e+00 0.000000e+00 0.000000e+00 0.000000e+00 0.000000e+00 8.571429e-01 1.428571e-01 0.000000e+00 0.000000e+00 0.000000e+00 0.000000e+00 0.000000e+00 0.000000e+00 0.000000e+00 0.000000e+00
 0.000000e+00 0.000000e+00 0.000000e+00 0.000000e+00 0.000000e+00 0.000000e+00 0.000000e+00 0.000000e+00 0.000000e+00 6.833333e-01 3.166667e-01 0.000000e+00 0.000000e+00 0.000000e+00 0.000000e+00 0.000000e+00 0.000000e+00 0.000000e+00
 0.000000e+00 0.000000e+00 0.000000e+00 0.000000e+00 0.000000e+00 0.000000e+00 0.000000e+00 0.000000e+00 0.000000e+00 0.000000e+00 7.285714e-01 2.714286e-01 0.000000e+00 0.000000e+00 0.000000e+00 0.000000e+00 0.000000e+00 0.000000e+00
 0.000000e+00 0.000000e+00 0.000000e+00 0.000000e+00 0.000000e+00 0.000000e+00 0.000000e+00 0.000000e+00 0.000000e+00 0.000000e+00 0.000000e+00 7.076923e-01 2.923077e-01 0.000000e+00 0.000000e+00 0.000000e+00 0.000000e+00 0.000000e+00
 0.000000e+00 0.000000e+00 0.000000e+00 0.000000e+00 0.000000e+00 0.000000e+00 0.000000e+00 0.000000e+00 0.000000e+00 0.000000e+00 0.000000e+00 0.000000e+00 7.816092e-01 2.183908e-01 0.000000e+00 0.000000e+00 0.000000e+00 0.000000e+00
 0.000000e+00 0.000000e+00 0.000000e+00 0.000000e+00 0.000000e+00 0.000000e+00 0.000000e+00 0.000000e+00 0.000000e+00 0.000000e+00 0.000000e+00 0.000000e+00 0.000000e+00 8.538461e-01 1.461539e-01 0.000000e+00 0.000000e+00 0.000000e+00
 0.000000e+00 0.000000e+00 0.000000e+00 0.000000e+00 0.000000e+00 0.000000e+00 0.000000e+00 0.000000e+00 0.000000e+00 0.000000e+00 0.000000e+00 0.000000e+00 0.000000e+00 0.000000e+00 5.365854e-01 4.634146e-01 0.000000e+00 0.000000e+00
 0.000000e+00 0.000000e+00 0.000000e+00 0.000000e+00 0.000000e+00 0.000000e+00 0.000000e+00 0.000000e+00 0.000000e+00 0.000000e+00 0.000000e+00 0.000000e+00 0.000000e+00 0.000000e+00 0.000000e+00 7.710843e-01 2.289157e-01 0.000000e+00
 0.000000e+00 0.000000e+00 0.000000e+00 0.000000e+00 0.000000e+00 0.000000e+00 0.000000e+00 0.000000e+00 0.000000e+00 0.000000e+00 0.000000e+00 0.000000e+00 0.000000e+00 0.000000e+00 0.000000e+00 0.000000e+00 8.978494e-01 1.021505e-01
 0.000000e+00 0.000000e+00 0.000000e+00 0.000000e+00 0.000000e+00 0.000000e+00 0.000000e+00 0.000000e+00 0.000000e+00 0.000000e+00 0.000000e+00 0.000000e+00 0.000000e+00 0.000000e+00 0.000000e+00 0.000000e+00 0.000000e+00 0.000000e+00
<ENDHMM>
