~o
<STREAMINFO> 1 15
<VECSIZE> 15<NULLD><MFCC><DIAGC>
~h "Vav"
<BEGINHMM>
<NUMSTATES> 10
<STATE> 2
<MEAN> 15
 -3.150200e+01 -2.922852e+00 5.472670e-01 -1.020790e+00 -6.275391e-01 -2.767308e-01 -8.385091e-01 -1.657367e-01 -6.484845e-01 1.905753e-01 -3.819086e-01 -2.614401e-02 -1.118373e-01 1.668734e-01 -3.260820e-01
<VARIANCE> 15
 1.427616e+01 2.902653e+00 2.014385e+00 6.476321e-01 3.385336e-01 4.257108e-01 2.112158e-01 4.244940e-01 1.835558e-01 1.880417e-01 1.596421e-01 2.369832e-01 2.102993e-01 1.690478e-01 1.779641e-01
<GCONST> 1.550551e+01
<STATE> 3
<MEAN> 15
 -2.436745e+01 -2.217237e+00 2.985394e+00 3.277203e-01 -2.264155e-01 7.972776e-01 -4.798962e-01 3.467520e-01 -3.257768e-01 5.768816e-01 -8.733881e-02 5.652842e-01 3.858031e-01 6.629454e-01 -4.008758e-01
<VARIANCE> 15
 1.326408e+01 2.075345e+00 2.413589e+00 5.604473e-01 6.515378e-01 5.434409e-01 4.483936e-01 4.308382e-01 2.422846e-01 2.602583e-01 2.449558e-01 2.395323e-01 1.939152e-01 2.305273e-01 2.465243e-01
<GCONST> 1.839559e+01
<STATE> 4
<MEAN> 15
 -1.537737e+01 1.981228e+00 4.585060e-01 7.265834e-01 -2.261269e+00 4.712628e-01 -1.699663e+00 -3.232492e-01 -1.273480e+00 4.722257e-01 -1.273630e+00 1.324162e-01 2.453732e-01 5.696985e-01 -1.529684e+00
<VARIANCE> 15
 9.435586e+00 1.355855e+00 2.070156e+00 1.798052e+00 1.504120e+00 7.366918e-01 6.084098e-01 4.560162e-01 6.170609e-01 5.391098e-01 3.329174e-01 4.781600e-01 2.716646e-01 2.253541e-01 2.836313e-01
<GCONST> 2.326025e+01
<STATE> 5
<MEAN> 15
 -1.456924e+01 2.546727e-01 2.989147e+00 2.324972e+00 -1.820168e+00 -1.629027e+00 -7.847127e-01 -8.141525e-01 -1.129388e+00 -5.091041e-01 -2.643360e-01 -9.298901e-02 -3.347954e-02 1.364824e-01 -6.728562e-01
<VARIANCE> 15
 1.471767e+01 1.529779e+00 1.629100e+00 1.351272e+00 1.053722e+00 9.881546e-01 4.338911e-01 4.256439e-01 4.605511e-01 3.397806e-01 3.285267e-01 4.560127e-01 2.953795e-01 5.844194e-01 3.983002e-01
<GCONST> 2.339236e+01
<STATE> 6
<MEAN> 15
 -2.457308e+01 3.717189e-01 3.518174e+00 1.171115e+00 -1.425605e-01 4.454662e-01 -6.810538e-01 -6.523912e-02 -9.974281e-01 1.114167e-01 -5.153744e-01 -9.622103e-02 9.608217e-02 6.048214e-01 -6.558226e-01
<VARIANCE> 15
 4.937386e+00 2.243830e+00 1.570445e+00 8.944322e-01 5.446085e-01 4.963891e-01 4.086276e-01 4.745251e-01 3.309221e-01 3.833326e-01 3.040191e-01 4.372750e-01 1.626006e-01 1.849024e-01 2.078235e-01
<GCONST> 1.820646e+01
<STATE> 7
<MEAN> 15
 -2.485749e+01 -3.820609e+00 1.889085e+00 -1.465859e+00 8.870789e-02 -6.057706e-01 -9.832536e-01 -5.061926e-01 -8.288015e-01 -1.899911e-02 -3.363890e-01 4.000289e-03 -7.707408e-02 7.742833e-02 -5.241883e-01
<VARIANCE> 15
 7.774960e+00 1.741730e+00 9.900286e-01 9.026702e-01 4.896865e-01 5.954614e-01 6.394459e-01 2.717714e-01 1.941234e-01 2.849100e-01 2.302055e-01 2.179330e-01 1.775960e-01 1.884970e-01 1.890060e-01
<GCONST> 1.612908e+01
<STATE> 8
<MEAN> 15
 -2.483558e+01 -4.357553e+00 5.302199e-01 -1.063261e+00 -1.402181e+00 1.390636e-01 -1.144621e+00 1.429326e-01 -5.815299e-01 2.557144e-01 -7.165108e-01 -5.834791e-02 -2.674635e-01 1.735583e-01 -7.281188e-01
<VARIANCE> 15
 5.203947e+00 1.109581e+00 3.557028e-01 4.510289e-01 3.751569e-01 5.519747e-01 2.839851e-01 3.651233e-01 3.054910e-01 2.392792e-01 1.418551e-01 1.735419e-01 1.635108e-01 2.205703e-01 1.436368e-01
<GCONST> 1.206753e+01
<STATE> 9
<MEAN> 15
 -3.358298e+01 -1.931753e+00 -2.792461e-01 -8.940378e-01 -4.714217e-01 -1.030783e-01 -6.777175e-01 -1.556036e-01 -5.414912e-01 2.363726e-01 -5.029039e-01 -1.628754e-01 -3.642778e-01 9.973309e-02 -2.729095e-01
<VARIANCE> 15
 3.655370e+00 6.574247e-01 7.982399e-01 2.876903e-01 2.645278e-01 2.072006e-01 2.273079e-01 2.116281e-01 1.684492e-01 1.330152e-01 1.934855e-01 1.509074e-01 1.521447e-01 1.210005e-01 1.272995e-01
<GCONST> 7.647312e+00
<TRANSP> 10
 0.000000e+00 1.000000e+00 0.000000e+00 0.000000e+00 0.000000e+00 0.000000e+00 0.000000e+00 0.000000e+00 0.000000e+00 0.000000e+00
 0.000000e+00 9.019608e-01 9.803922e-02 0.000000e+00 0.000000e+00 0.000000e+00 0.000000e+00 0.000000e+00 0.000000e+00 0.000000e+00
 0.000000e+00 0.000000e+00 9.004975e-01 9.950249e-02 0.000000e+00 0.000000e+00 0.000000e+00 0.000000e+00 0.000000e+00 0.000000e+00
 0.000000e+00 0.000000e+00 0.000000e+00 9.227799e-01 7.722008e-02 0.000000e+00 0.000000e+00 0.000000e+00 0.000000e+00 0.000000e+00
 0.000000e+00 0.000000e+00 0.000000e+00 0.000000e+00 9.356913e-01 6.430867e-02 0.000000e+00 0.000000e+00 0.000000e+00 0.000000e+00
 0.000000e+00 0.000000e+00 0.000000e+00 0.000000e+00 0.000000e+00 8.601398e-01 1.398601e-01 0.000000e+00 0.000000e+00 0.000000e+00
 0.000000e+00 0.000000e+00 0.000000e+00 0.000000e+00 0.000000e+00 0.000000e+00 8.611111e-01 1.388889e-01 0.000000e+00 0.000000e+00
 0.000000e+00 0.000000e+00 0.000000e+00 0.000000e+00 0.000000e+00 0.000000e+00 0.000000e+00 8.701299e-01 1.298701e-01 0.000000e+00
 0.000000e+00 0.000000e+00 0.000000e+00 0.000000e+00 0.000000e+00 0.000000e+00 0.000000e+00 0.000000e+00 9.193549e-01 8.064515e-02
 0.000000e+00 0.000000e+00 0.000000e+00 0.000000e+00 0.000000e+00 0.000000e+00 0.000000e+00 0.000000e+00 0.000000e+00 0.000000e+00
<ENDHMM>
