~o
<STREAMINFO> 1 15
<VECSIZE> 15<NULLD><MFCC><DIAGC>
~h "Yan"
<BEGINHMM>
<NUMSTATES> 10
<STATE> 2
<MEAN> 15
 -3.364205e+01 -2.893505e+00 -3.631769e-01 -5.720721e-01 -4.149286e-01 1.999408e-01 -3.672327e-01 -3.088558e-03 -4.624797e-01 -1.057318e-02 -5.621078e-01 -8.291070e-02 -1.198657e-01 1.277330e-01 -3.477856e-01
<VARIANCE> 15
 4.490547e+00 1.553585e+00 6.300899e-01 3.828295e-01 3.011016e-01 2.383031e-01 2.582363e-01 3.404309e-01 1.825243e-01 2.207930e-01 2.139039e-01 1.288433e-01 1.911339e-01 1.616404e-01 1.497716e-01
<GCONST> 1.084410e+01
<STATE> 3
<MEAN> 15
 -2.304805e+01 -2.954295e+00 1.443760e+00 5.617868e-01 1.504553e+00 2.311805e+00 8.766106e-01 5.197397e-01 4.355091e-01 1.729962e-01 -1.166656e+00 1.913915e-01 5.061375e-01 4.068932e-01 -8.442332e-01
<VARIANCE> 15
 1.321300e+01 2.317120e+00 1.475786e+00 1.306601e+00 9.475958e-01 1.375509e+00 1.348728e+00 8.528345e-01 6.761779e-01 3.567487e-01 3.769317e-01 3.786496e-01 4.256329e-01 2.622812e-01 2.591995e-01
<GCONST> 2.513974e+01
<STATE> 4
<MEAN> 15
 -1.505154e+01 -3.205269e-01 9.632665e-01 -8.746634e-02 2.266971e-01 2.028517e+00 9.040723e-01 5.307158e-01 -5.494441e-01 -1.980945e-01 -1.547462e+00 -8.619332e-01 -4.547153e-01 -8.138558e-02 -9.372849e-01
<VARIANCE> 15
 9.029292e+00 9.634319e-01 2.053580e+00 1.292744e+00 1.705502e+00 2.443618e+00 1.232684e+00 6.645226e-01 5.402324e-01 5.536240e-01 4.119951e-01 2.197427e-01 3.558322e-01 2.536923e-01 2.551995e-01
<GCONST> 2.455587e+01
<STATE> 5
<MEAN> 15
 -1.701059e+01 1.020171e+00 5.103787e-02 4.528403e-01 -2.820325e+00 7.200569e-01 -8.782862e-01 -4.492933e-01 -5.527302e-01 1.124766e+00 -5.990326e-01 -1.168793e-01 -9.938474e-01 -2.549163e-01 -1.252413e+00
<VARIANCE> 15
 1.263916e+01 2.423729e+00 1.397676e+00 1.892403e+00 1.055903e+00 1.393422e+00 1.044083e+00 5.423318e-01 4.704688e-01 5.342430e-01 5.544349e-01 5.934733e-01 3.576050e-01 3.189687e-01 3.180993e-01
<GCONST> 2.597147e+01
<STATE> 6
<MEAN> 15
 -1.562066e+01 -2.097372e-01 2.706855e+00 1.941033e+00 -1.075964e+00 -1.733412e+00 -9.725686e-01 -8.872353e-01 -8.508542e-01 3.672114e-01 5.073533e-02 -4.175137e-03 -1.016455e+00 -9.275676e-01 -4.921090e-01
<VARIANCE> 15
 1.334041e+01 1.407204e+00 2.101744e+00 1.133556e+00 7.392629e-01 1.117967e+00 7.950649e-01 2.961427e-01 3.248957e-01 5.161145e-01 3.413984e-01 3.222891e-01 3.095845e-01 3.094391e-01 2.912748e-01
<GCONST> 2.216015e+01
<STATE> 7
<MEAN> 15
 -2.519343e+01 -4.818088e-01 2.428463e+00 5.620006e-01 -8.498406e-01 7.013667e-02 -4.862871e-01 5.784889e-02 -3.501753e-01 1.027914e+00 4.205588e-01 -1.996399e-02 -4.062442e-01 -2.052482e-01 -3.047280e-01
<VARIANCE> 15
 6.635870e+00 1.480659e+00 2.063403e+00 5.456724e-01 1.168587e+00 1.134651e+00 4.345377e-01 3.972766e-01 1.515104e+00 3.640265e-01 2.579053e-01 3.008999e-01 1.741736e-01 2.031495e-01 2.950966e-01
<GCONST> 2.078412e+01
<STATE> 8
<MEAN> 15
 -2.838351e+01 -3.399042e-01 1.453601e+00 -1.209263e+00 -6.074650e-01 1.865176e-01 -3.280587e-01 3.646747e-01 2.027240e-01 1.615335e+00 1.569488e-01 4.223046e-02 -6.796743e-01 1.075861e-01 -4.775491e-01
<VARIANCE> 15
 5.081397e+00 1.955727e+00 1.813188e+00 6.701481e-01 7.674310e-01 7.861116e-01 5.152555e-01 3.268963e-01 9.907017e-01 3.468789e-01 1.211821e-01 2.121890e-01 1.962550e-01 2.148095e-01 1.148359e-01
<GCONST> 1.771331e+01
<STATE> 9
<MEAN> 15
 -3.184703e+01 -2.052785e+00 5.002164e-01 -1.198388e+00 -6.475521e-01 -3.206949e-01 -8.662343e-01 -1.052094e-01 -3.700485e-01 5.986606e-01 -2.585858e-01 -1.755100e-01 -4.859743e-01 -9.099562e-02 -2.870339e-01
<VARIANCE> 15
 4.984664e+00 1.203488e+00 1.237139e+00 5.280145e-01 3.881038e-01 2.811457e-01 2.142061e-01 2.652868e-01 2.476850e-01 2.060568e-01 2.082388e-01 1.357101e-01 1.437683e-01 1.708136e-01 1.108011e-01
<GCONST> 1.140253e+01
<TRANSP> 10
 0.000000e+00 1.000000e+00 0.000000e+00 0.000000e+00 0.000000e+00 0.000000e+00 0.000000e+00 0.000000e+00 0.000000e+00 0.000000e+00
 0.000000e+00 9.000000e-01 9.999999e-02 0.000000e+00 0.000000e+00 0.000000e+00 0.000000e+00 0.000000e+00 0.000000e+00 0.000000e+00
 0.000000e+00 0.000000e+00 9.111111e-01 8.888888e-02 0.000000e+00 0.000000e+00 0.000000e+00 0.000000e+00 0.000000e+00 0.000000e+00
 0.000000e+00 0.000000e+00 0.000000e+00 8.666667e-01 1.333333e-01 0.000000e+00 0.000000e+00 0.000000e+00 0.000000e+00 0.000000e+00
 0.000000e+00 0.000000e+00 0.000000e+00 0.000000e+00 8.895028e-01 1.104972e-01 0.000000e+00 0.000000e+00 0.000000e+00 0.000000e+00
 0.000000e+00 0.000000e+00 0.000000e+00 0.000000e+00 0.000000e+00 8.843931e-01 1.156069e-01 0.000000e+00 0.000000e+00 0.000000e+00
 0.000000e+00 0.000000e+00 0.000000e+00 0.000000e+00 0.000000e+00 0.000000e+00 8.639456e-01 1.360544e-01 0.000000e+00 0.000000e+00
 0.000000e+00 0.000000e+00 0.000000e+00 0.000000e+00 0.000000e+00 0.000000e+00 0.000000e+00 8.924731e-01 1.075269e-01 0.000000e+00
 0.000000e+00 0.000000e+00 0.000000e+00 0.000000e+00 0.000000e+00 0.000000e+00 0.000000e+00 0.000000e+00 9.090909e-01 9.090909e-02
 0.000000e+00 0.000000e+00 0.000000e+00 0.000000e+00 0.000000e+00 0.000000e+00 0.000000e+00 0.000000e+00 0.000000e+00 0.000000e+00
<ENDHMM>
