~o
<STREAMINFO> 1 15
<VECSIZE> 15<NULLD><MFCC><DIAGC>
~h "Yan"
<BEGINHMM>
<NUMSTATES> 18
<STATE> 2
<MEAN> 15
 -3.430077e+01 -2.522292e+00 -5.226907e-01 -5.705733e-01 -5.067540e-01 1.587180e-01 -4.312952e-01 -2.983424e-02 -4.835983e-01 4.617815e-02 -4.786466e-01 -1.164602e-01 -1.881255e-01 9.164633e-02 -3.359107e-01
<VARIANCE> 15
 2.744499e+00 9.598633e-01 5.401458e-01 3.366269e-01 2.518118e-01 1.984219e-01 2.051888e-01 2.632991e-01 1.745810e-01 2.015738e-01 1.726523e-01 1.213671e-01 1.534470e-01 1.277177e-01 1.168623e-01
<GCONST> 7.625898e+00
<STATE> 3
<MEAN> 15
 -2.920223e+01 -4.782723e+00 6.661920e-01 -5.449244e-01 1.864714e-01 7.320724e-01 -4.793061e-02 5.325595e-02 -3.688565e-02 -1.681919e-01 -9.831206e-01 1.521711e-01 3.443835e-01 3.970191e-01 -5.444643e-01
<VARIANCE> 15
 4.796629e+00 1.591862e+00 1.317676e+00 9.894642e-01 4.561047e-01 5.324633e-01 7.250060e-01 8.722590e-01 3.946840e-01 2.592938e-01 3.097600e-01 2.016682e-01 3.057936e-01 2.731126e-01 2.708674e-01
<GCONST> 1.915134e+01
<STATE> 4
<MEAN> 15
 -2.371273e+01 -2.415816e+00 1.568318e+00 1.454414e+00 1.617082e+00 1.941537e+00 1.636027e+00 3.260570e-01 2.537914e-01 5.506005e-01 -1.065594e+00 3.054639e-01 5.287504e-01 4.999522e-01 -8.876666e-01
<VARIANCE> 15
 6.377100e+00 9.657798e-01 4.130670e-01 5.788789e-01 6.545210e-01 5.724114e-01 1.165756e+00 6.640562e-01 7.875007e-01 3.310258e-01 3.064716e-01 2.771098e-01 2.462791e-01 1.694448e-01 2.761584e-01
<GCONST> 1.844375e+01
<STATE> 5
<MEAN> 15
 -2.054703e+01 -2.572439e+00 1.583018e+00 3.456624e-01 1.875188e+00 3.086854e+00 6.619743e-01 8.543136e-01 6.154068e-01 -2.902722e-03 -1.296234e+00 9.391234e-02 4.971834e-01 3.055604e-01 -8.961506e-01
<VARIANCE> 15
 4.958216e+00 1.383568e+00 2.009613e+00 7.436364e-01 6.859689e-01 8.426971e-01 8.775122e-01 6.893635e-01 6.823332e-01 2.546189e-01 3.818262e-01 4.933619e-01 6.026359e-01 3.199142e-01 2.573130e-01
<GCONST> 2.242175e+01
<STATE> 6
<MEAN> 15
 -1.687150e+01 -6.033229e-01 9.109534e-01 1.878593e-01 1.153440e+00 2.490224e+00 1.321645e+00 5.052076e-01 -3.554612e-01 -1.212936e-01 -1.603688e+00 -7.436713e-01 -1.083105e-01 -7.886492e-02 -8.407553e-01
<VARIANCE> 15
 1.901087e+00 5.493589e-01 1.228576e+00 1.212119e+00 8.456292e-01 1.859554e+00 9.693149e-01 6.688566e-01 7.090598e-01 3.868893e-01 3.349700e-01 1.872413e-01 2.325009e-01 2.439055e-01 2.150309e-01
<GCONST> 1.955980e+01
<STATE> 7
<MEAN> 15
 -1.390970e+01 1.061774e+00 -1.196452e-01 -8.676668e-01 -1.638593e+00 2.424959e+00 -1.768765e-01 5.533555e-01 -6.004143e-01 4.469611e-01 -1.696338e+00 -9.168768e-01 -7.288083e-01 8.960615e-02 -1.142061e+00
<VARIANCE> 15
 3.166245e+00 1.738521e+00 1.612563e+00 9.217165e-01 2.174461e+00 1.611236e+00 1.074382e+00 4.591550e-01 2.451317e-01 5.659503e-01 3.470303e-01 3.216259e-01 2.763112e-01 1.565869e-01 3.763070e-01
<GCONST> 2.193156e+01
<STATE> 8
<MEAN> 15
 -1.226034e+01 3.019072e-01 1.662967e+00 3.942526e-01 -1.250312e+00 -1.472133e-01 1.168651e-01 -9.834322e-02 -7.849562e-01 -3.456284e-01 -5.612019e-01 -4.862416e-01 -1.073751e+00 -8.475997e-01 -1.036277e+00
<VARIANCE> 15
 6.714454e+00 2.342007e+00 4.271478e+00 7.910292e-01 1.499556e+00 9.006847e-01 1.300348e+00 5.266827e-01 4.053321e-01 8.737725e-01 3.006631e-01 2.502355e-01 1.828838e-01 2.270092e-01 1.799067e-01
<GCONST> 2.294092e+01
<STATE> 9
<MEAN> 15
 -1.473024e+01 4.536186e-01 1.926298e+00 2.301235e+00 -1.261803e+00 -1.956556e+00 -6.475335e-01 -1.006481e+00 -8.016634e-01 5.314652e-01 -8.386388e-02 8.795399e-02 -1.196678e+00 -1.036137e+00 -4.729848e-01
<VARIANCE> 15
 4.714812e+00 7.288125e-01 1.269794e+00 1.212583e+00 8.972744e-01 1.193756e+00 6.785891e-01 2.367794e-01 2.615020e-01 3.342849e-01 3.525051e-01 3.145238e-01 2.510449e-01 2.266050e-01 2.821164e-01
<GCONST> 1.870591e+01
<STATE> 10
<MEAN> 15
 -1.931370e+01 4.844847e-01 6.034442e-01 1.301938e+00 -2.921082e+00 2.847504e-01 -1.243167e+00 -9.139791e-01 -5.320834e-01 1.464868e+00 -3.121652e-01 2.448814e-01 -1.070729e+00 -1.753353e-01 -1.211582e+00
<VARIANCE> 15
 4.111229e+00 1.806892e+00 1.893637e+00 1.474675e+00 1.185264e+00 9.400800e-01 1.125434e+00 3.379643e-01 6.241503e-01 3.007354e-01 4.417331e-01 5.263083e-01 4.159275e-01 3.068366e-01 4.527966e-01
<GCONST> 2.375915e+01
<STATE> 11
<MEAN> 15
 -1.912131e+01 -1.053577e+00 2.718556e+00 1.214811e+00 -1.361382e+00 -1.081216e+00 -1.545886e+00 -6.101083e-01 -7.550936e-01 6.537805e-01 2.373720e-01 -1.901064e-01 -5.266635e-01 -4.212256e-01 -7.097353e-01
<VARIANCE> 15
 3.739394e+00 1.439973e+00 4.000410e+00 4.964285e-01 1.073717e+00 9.466283e-01 4.815582e-01 2.973092e-01 5.157838e-01 3.081856e-01 2.542342e-01 4.058779e-01 2.228633e-01 3.075725e-01 3.006015e-01
<GCONST> 2.001782e+01
<STATE> 12
<MEAN> 15
 -2.391428e+01 -6.306027e-01 3.239689e+00 7.970375e-01 -3.314515e-01 -5.282716e-01 -6.413412e-01 2.320344e-01 -1.190209e+00 8.777372e-01 3.656599e-01 -6.443092e-02 -4.473391e-01 -3.380808e-01 -6.483600e-02
<VARIANCE> 15
 3.259355e+00 1.181933e+00 1.459911e+00 4.262968e-01 1.208430e+00 5.962217e-01 4.439714e-01 3.878070e-01 8.401925e-01 3.468982e-01 2.770647e-01 2.265749e-01 2.045541e-01 2.041080e-01 2.331186e-01
<GCONST> 1.772226e+01
<STATE> 13
<MEAN> 15
 -2.723215e+01 7.227883e-02 1.236341e+00 -1.196379e-01 -1.239694e+00 8.776306e-01 -7.984547e-02 8.014102e-03 8.192506e-01 1.442326e+00 3.760877e-01 1.617178e-01 -5.398324e-01 1.675903e-01 -5.806398e-01
<VARIANCE> 15
 5.724065e+00 1.987035e+00 7.631547e-01 6.745288e-01 6.181300e-01 6.221070e-01 4.265318e-01 4.018552e-01 4.865193e-01 2.600280e-01 1.640156e-01 2.311729e-01 1.794243e-01 1.744461e-01 1.742090e-01
<GCONST> 1.606454e+01
<STATE> 14
<MEAN> 15
 -2.774429e+01 -4.625875e-01 2.424904e+00 -1.442874e+00 -1.806001e-01 -4.642608e-02 -2.990875e-01 4.687499e-01 -2.303399e-01 1.790096e+00 2.257280e-01 4.960726e-03 -6.662419e-01 -7.181699e-03 -3.625207e-01
<VARIANCE> 15
 1.848993e+00 1.682026e+00 1.538121e+00 8.423900e-01 5.258874e-01 8.487046e-01 3.064607e-01 2.271342e-01 8.539367e-01 3.065164e-01 1.351060e-01 2.721096e-01 2.223962e-01 2.414359e-01 1.129474e-01
<GCONST> 1.574135e+01
<STATE> 15
<MEAN> 15
 -2.958226e+01 -1.292195e+00 1.274194e+00 -1.607462e+00 -3.045595e-01 -5.518109e-01 -9.810064e-01 -2.641741e-01 -6.649541e-01 7.559019e-01 -1.211277e-01 -2.384411e-01 -5.985219e-01 -2.984574e-01 -3.054131e-01
<VARIANCE> 15
 2.610044e+00 1.003625e+00 5.628800e-01 4.894369e-01 6.133101e-01 4.185050e-01 2.316350e-01 3.753046e-01 6.937082e-01 3.288135e-01 1.835490e-01 1.205792e-01 2.093315e-01 1.644235e-01 1.185915e-01
<GCONST> 1.264948e+01
<STATE> 16
<MEAN> 15
 -3.182841e+01 -9.933714e-01 -9.729874e-02 -1.136158e+00 -1.118701e+00 -2.048860e-01 -9.046066e-01 3.679132e-01 1.942308e-01 1.170873e+00 -5.504093e-02 -1.358081e-01 -6.221215e-01 -5.469377e-02 -4.345371e-01
<VARIANCE> 15
 2.494753e+00 6.644698e-01 7.158844e-01 2.165941e-01 4.106845e-01 3.586750e-01 2.546133e-01 2.525705e-01 2.574487e-01 2.742108e-01 1.903061e-01 1.510187e-01 1.487482e-01 1.433546e-01 1.061044e-01
<GCONST> 9.258736e+00
<STATE> 17
<MEAN> 15
 -3.235529e+01 -2.509299e+00 4.178530e-01 -1.037330e+00 -7.204504e-01 -1.734984e-01 -7.694221e-01 -1.016603e-01 -3.526908e-01 4.512473e-01 -3.254668e-01 -1.690405e-01 -4.030479e-01 2.165380e-02 -2.687427e-01
<VARIANCE> 15
 5.964614e+00 1.035912e+00 1.435332e+00 5.591543e-01 2.468021e-01 2.157731e-01 2.123657e-01 2.021502e-01 1.466445e-01 1.591459e-01 2.148781e-01 1.320001e-01 1.170747e-01 1.672293e-01 1.015590e-01
<GCONST> 9.547699e+00
<TRANSP> 18
 0.000000e+00 1.000000e+00 0.000000e+00 0.000000e+00 0.000000e+00 0.000000e+00 0.000000e+00 0.000000e+00 0.000000e+00 0.000000e+00 0.000000e+00 0.000000e+00 0.000000e+00 0.000000e+00 0.000000e+00 0.000000e+00 0.000000e+00 0.000000e+00
 0.000000e+00 8.812500e-01 1.187500e-01 0.000000e+00 0.000000e+00 0.000000e+00 0.000000e+00 0.000000e+00 0.000000e+00 0.000000e+00 0.000000e+00 0.000000e+00 0.000000e+00 0.000000e+00 0.000000e+00 0.000000e+00 0.000000e+00 0.000000e+00
 0.000000e+00 0.000000e+00 7.564102e-01 2.435897e-01 0.000000e+00 0.000000e+00 0.000000e+00 0.000000e+00 0.000000e+00 0.000000e+00 0.000000e+00 0.000000e+00 0.000000e+00 0.000000e+00 0.000000e+00 0.000000e+00 0.000000e+00 0.000000e+00
 0.000000e+00 0.000000e+00 0.000000e+00 7.532468e-01 2.467532e-01 0.000000e+00 0.000000e+00 0.000000e+00 0.000000e+00 0.000000e+00 0.000000e+00 0.000000e+00 0.000000e+00 0.000000e+00 0.000000e+00 0.000000e+00 0.000000e+00 0.000000e+00
 0.000000e+00 0.000000e+00 0.000000e+00 0.000000e+00 8.207547e-01 1.792453e-01 0.000000e+00 0.000000e+00 0.000000e+00 0.000000e+00 0.000000e+00 0.000000e+00 0.000000e+00 0.000000e+00 0.000000e+00 0.000000e+00 0.000000e+00 0.000000e+00
 0.000000e+00 0.000000e+00 0.000000e+00 0.000000e+00 0.000000e+00 7.285714e-01 2.714286e-01 0.000000e+00 0.000000e+00 0.000000e+00 0.000000e+00 0.000000e+00 0.000000e+00 0.000000e+00 0.000000e+00 0.000000e+00 0.000000e+00 0.000000e+00
 0.000000e+00 0.000000e+00 0.000000e+00 0.000000e+00 0.000000e+00 0.000000e+00 7.840909e-01 2.159091e-01 0.000000e+00 0.000000e+00 0.000000e+00 0.000000e+00 0.000000e+00 0.000000e+00 0.000000e+00 0.000000e+00 0.000000e+00 0.000000e+00
 0.000000e+00 0.000000e+00 0.000000e+00 0.000000e+00 0.000000e+00 0.000000e+00 0.000000e+00 7.738096e-01 2.261905e-01 0.000000e+00 0.000000e+00 0.000000e+00 0.000000e+00 0.000000e+00 0.000000e+00 0.000000e+00 0.000000e+00 0.000000e+00
 0.000000e+00 0.000000e+00 0.000000e+00 0.000000e+00 0.000000e+00 0.000000e+00 0.000000e+00 0.000000e+00 8.173077e-01 1.826923e-01 0.000000e+00 0.000000e+00 0.000000e+00 0.000000e+00 0.000000e+00 0.000000e+00 0.000000e+00 0.000000e+00
 0.000000e+00 0.000000e+00 0.000000e+00 0.000000e+00 0.000000e+00 0.000000e+00 0.000000e+00 0.000000e+00 0.000000e+00 8.061225e-01 1.938775e-01 0.000000e+00 0.000000e+00 0.000000e+00 0.000000e+00 0.000000e+00 0.000000e+00 0.000000e+00
 0.000000e+00 0.000000e+00 0.000000e+00 0.000000e+00 0.000000e+00 0.000000e+00 0.000000e+00 0.000000e+00 0.000000e+00 0.000000e+00 6.885246e-01 3.114754e-01 0.000000e+00 0.000000e+00 0.000000e+00 0.000000e+00 0.000000e+00 0.000000e+00
 0.000000e+00 0.000000e+00 0.000000e+00 0.000000e+00 0.000000e+00 0.000000e+00 0.000000e+00 0.000000e+00 0.000000e+00 0.000000e+00 0.000000e+00 7.532468e-01 2.467532e-01 0.000000e+00 0.000000e+00 0.000000e+00 0.000000e+00 0.000000e+00
 0.000000e+00 0.000000e+00 0.000000e+00 0.000000e+00 0.000000e+00 0.000000e+00 0.000000e+00 0.000000e+00 0.000000e+00 0.000000e+00 0.000000e+00 0.000000e+00 8.303571e-01 1.696429e-01 0.000000e+00 0.000000e+00 0.000000e+00 0.000000e+00
 0.000000e+00 0.000000e+00 0.000000e+00 0.000000e+00 0.000000e+00 0.000000e+00 0.000000e+00 0.000000e+00 0.000000e+00 0.000000e+00 0.000000e+00 0.000000e+00 0.000000e+00 7.790698e-01 2.209302e-01 0.000000e+00 0.000000e+00 0.000000e+00
 0.000000e+00 0.000000e+00 0.000000e+00 0.000000e+00 0.000000e+00 0.000000e+00 0.000000e+00 0.000000e+00 0.000000e+00 0.000000e+00 0.000000e+00 0.000000e+00 0.000000e+00 0.000000e+00 7.285714e-01 2.714286e-01 0.000000e+00 0.000000e+00
 0.000000e+00 0.000000e+00 0.000000e+00 0.000000e+00 0.000000e+00 0.000000e+00 0.000000e+00 0.000000e+00 0.000000e+00 0.000000e+00 0.000000e+00 0.000000e+00 0.000000e+00 0.000000e+00 0.000000e+00 7.466667e-01 2.533333e-01 0.000000e+00
 0.000000e+00 0.000000e+00 0.000000e+00 0.000000e+00 0.000000e+00 0.000000e+00 0.000000e+00 0.000000e+00 0.000000e+00 0.000000e+00 0.000000e+00 0.000000e+00 0.000000e+00 0.000000e+00 0.000000e+00 0.000000e+00 8.492063e-01 1.507937e-01
 0.000000e+00 0.000000e+00 0.000000e+00 0.000000e+00 0.000000e+00 0.000000e+00 0.000000e+00 0.000000e+00 0.000000e+00 0.000000e+00 0.000000e+00 0.000000e+00 0.000000e+00 0.000000e+00 0.000000e+00 0.000000e+00 0.000000e+00 0.000000e+00
<ENDHMM>
