~o
<STREAMINFO> 1 20
<VECSIZE> 20<NULLD><MFCC><DIAGC>
~h "Yan"
<BEGINHMM>
<NUMSTATES> 18
<STATE> 2
<MEAN> 20
 -4.005570e+01 -2.216484e+00 -1.413304e+00 1.439549e-01 -1.394079e+00 7.134837e-01 -8.844203e-01 2.824338e-01 -7.890488e-01 3.621165e-02 -4.117864e-01 -2.748146e-01 -2.978627e-01 -8.988754e-02 -3.767643e-02 -3.469050e-01 -2.924944e-01 -2.405963e-01 -4.580590e-02 -1.895821e-01
<VARIANCE> 20
 3.782099e+00 1.843814e+00 1.022535e+00 5.603715e-01 4.489726e-01 3.289081e-01 2.623583e-01 3.313927e-01 2.430378e-01 2.188350e-01 2.924815e-01 1.817330e-01 1.753586e-01 2.055099e-01 1.647208e-01 1.358653e-01 1.545395e-01 2.031388e-01 1.204961e-01 1.309886e-01
<GCONST> 1.318624e+01
<STATE> 3
<MEAN> 20
 -3.418401e+01 -4.762260e+00 -4.623421e-01 6.087000e-01 -1.231658e+00 1.766428e+00 -7.284762e-01 7.355334e-01 -7.649928e-01 6.703498e-01 -1.168312e+00 -3.369632e-01 -1.255480e-01 6.598567e-01 6.809071e-02 -4.285962e-01 -3.232979e-01 -1.324973e-01 -4.353472e-03 1.019618e-02
<VARIANCE> 20
 8.173519e+00 3.963875e+00 2.096553e+00 1.078553e+00 1.067770e+00 1.785482e+00 1.497996e+00 1.113420e+00 5.024456e-01 5.542123e-01 5.300729e-01 3.724040e-01 3.545619e-01 4.676773e-01 3.493991e-01 3.273617e-01 4.584884e-01 3.835342e-01 2.523128e-01 2.317751e-01
<GCONST> 3.076511e+01
<STATE> 4
<MEAN> 20
 -2.561045e+01 -2.969279e+00 1.548569e+00 2.139931e+00 1.143166e+00 2.714702e+00 1.561243e+00 1.317920e+00 -6.769872e-01 8.774022e-01 -4.632569e-01 -5.422289e-01 1.436987e-02 6.359527e-01 4.381660e-01 -1.070930e+00 -6.513450e-01 -3.969732e-01 -3.610945e-01 -2.365589e-01
<VARIANCE> 20
 1.458670e+01 2.634241e+00 1.888713e+00 6.326526e-01 1.235272e+00 1.399948e+00 1.661320e+00 6.989039e-01 8.406611e-01 6.239379e-01 5.887703e-01 3.452941e-01 5.576126e-01 4.594801e-01 2.630238e-01 3.739771e-01 4.820913e-01 3.054408e-01 3.967736e-01 2.726936e-01
<GCONST> 3.122282e+01
<STATE> 5
<MEAN> 20
 -2.580980e+01 -8.930479e-01 -7.384521e-01 2.134017e+00 -5.361829e-01 5.136357e+00 4.033270e-02 1.984097e+00 -2.309329e-02 1.691489e+00 -1.694037e+00 -7.436603e-01 -1.175311e-01 9.611202e-01 -3.583726e-01 -7.550558e-01 -8.097486e-01 -9.973538e-01 -4.794912e-01 -5.118687e-01
<VARIANCE> 20
 9.256403e+00 1.106259e+00 1.361311e+00 8.957888e-01 1.157214e+00 1.178869e+00 1.492844e+00 5.906524e-01 6.931933e-01 8.017241e-01 5.954325e-01 3.068833e-01 7.406871e-01 6.570865e-01 4.637879e-01 2.402459e-01 3.478688e-01 2.584288e-01 2.472872e-01 2.072278e-01
<GCONST> 2.888503e+01
<STATE> 6
<MEAN> 20
 -1.954359e+01 9.552085e-02 -8.997695e-02 1.044738e+00 -5.287532e-01 3.586267e+00 1.042052e+00 1.652016e+00 -6.746764e-01 3.230009e-01 -1.243552e+00 -1.381443e+00 -8.564875e-01 9.250893e-02 -3.234671e-01 -8.896382e-01 -5.970810e-01 -5.686827e-01 -6.587681e-01 -7.036200e-01
<VARIANCE> 20
 3.538584e+00 2.228630e+00 3.544579e+00 6.352232e-01 3.289456e+00 3.885156e+00 1.154024e+00 5.027916e-01 1.012902e+00 4.870963e-01 2.623971e-01 5.047601e-01 4.608628e-01 3.218058e-01 2.927647e-01 3.206377e-01 2.428268e-01 2.791713e-01 2.697501e-01 1.988055e-01
<GCONST> 2.901850e+01
<STATE> 7
<MEAN> 20
 -1.733204e+01 3.029314e+00 -1.918940e+00 1.170666e+00 -4.036790e+00 3.067194e+00 -3.071603e-01 1.096676e+00 -1.023139e+00 4.376727e-01 -7.155071e-01 -1.673634e+00 -1.151402e+00 -5.471578e-01 -1.239124e-02 -1.274552e+00 9.615192e-02 6.726933e-02 2.879317e-01 -6.542224e-01
<VARIANCE> 20
 5.034396e+00 3.622840e+00 3.575266e+00 9.134760e-01 3.485216e+00 2.423227e+00 1.084371e+00 1.016571e+00 6.573115e-01 6.474944e-01 8.121181e-01 3.453013e-01 4.896278e-01 2.473314e-01 1.941652e-01 5.572444e-01 3.743150e-01 4.873019e-01 3.967758e-01 2.497388e-01
<GCONST> 3.260182e+01
<STATE> 8
<MEAN> 20
 -1.412122e+01 2.633035e-01 1.543573e+00 1.826262e+00 -1.273200e+00 -3.028325e-01 -4.134735e-01 4.752608e-01 -1.161609e+00 -3.019173e-01 -8.718160e-01 -3.794731e-01 -1.062603e+00 -1.058972e+00 -1.125475e+00 -7.949949e-01 1.003746e-02 5.261350e-01 5.505209e-02 -3.889031e-02
<VARIANCE> 20
 8.734395e+00 2.682200e+00 4.532447e+00 7.482867e-01 2.289125e+00 1.363322e+00 1.397904e+00 8.573364e-01 4.328616e-01 7.899964e-01 5.904478e-01 3.739499e-01 2.927051e-01 2.295448e-01 2.995167e-01 2.762566e-01 2.300213e-01 2.246688e-01 2.143803e-01 1.670112e-01
<GCONST> 2.838365e+01
<STATE> 9
<MEAN> 20
 -2.022742e+01 3.612387e+00 -1.937965e+00 2.498660e+00 -4.453446e+00 4.516932e-01 -1.086204e+00 2.781869e-01 -1.801224e+00 8.414686e-01 6.702523e-02 1.217610e-01 -4.953828e-01 -1.280588e+00 -5.583992e-01 -1.390765e+00 -2.339585e-01 6.978064e-02 4.252772e-01 -4.869123e-01
<VARIANCE> 20
 1.090802e+01 2.721121e+00 3.150760e+00 1.738010e+00 2.597934e+00 1.241108e+00 1.173918e+00 7.535375e-01 5.934086e-01 5.581045e-01 6.136405e-01 6.934221e-01 4.918157e-01 3.851376e-01 5.494975e-01 3.619763e-01 3.713312e-01 3.955734e-01 3.503723e-01 2.766531e-01
<GCONST> 3.340645e+01
<STATE> 10
<MEAN> 20
 -1.908303e+01 3.952609e-02 2.136312e+00 3.272380e+00 -9.575204e-01 -1.994522e+00 -1.867630e+00 -6.861448e-01 -1.725197e+00 1.347186e-01 4.880709e-01 2.726074e-01 -1.927587e-01 -1.235069e+00 -9.662456e-01 -5.051864e-01 -5.755442e-01 2.346035e-01 -8.317166e-02 4.014743e-02
<VARIANCE> 20
 6.373405e+00 2.384240e+00 3.549889e+00 9.553204e-01 1.409453e+00 1.206065e+00 1.181380e+00 3.031302e-01 3.195088e-01 4.225886e-01 5.429163e-01 2.474104e-01 3.845302e-01 3.625925e-01 4.583618e-01 4.280432e-01 2.377785e-01 2.965595e-01 3.052987e-01 2.025276e-01
<GCONST> 2.715948e+01
<STATE> 11
<MEAN> 20
 -2.481821e+01 1.361095e+00 -8.914570e-01 3.792887e+00 -3.899323e+00 6.599107e-01 -2.206568e+00 -4.747066e-01 -1.604276e+00 1.224327e+00 3.956844e-01 4.684720e-02 -4.888239e-01 -4.746879e-01 -4.437757e-01 -9.581622e-01 -6.368082e-01 -6.680896e-02 -3.641095e-01 -6.964926e-01
<VARIANCE> 20
 3.307070e+00 2.654474e+00 3.575492e+00 9.240462e-01 2.397560e+00 1.133729e+00 7.503091e-01 7.073650e-01 4.050706e-01 8.778938e-01 3.778548e-01 4.386219e-01 1.129125e+00 6.781515e-01 4.444057e-01 4.987051e-01 2.551371e-01 2.650815e-01 1.751010e-01 2.667521e-01
<GCONST> 3.012896e+01
<STATE> 12
<MEAN> 20
 -2.776637e+01 -6.935481e-01 2.971598e+00 1.901440e+00 -8.439695e-01 1.096398e-01 -1.537474e+00 7.374892e-01 -1.134018e+00 -2.883447e-01 9.960916e-01 2.428661e-01 -2.381809e-01 -4.814445e-01 -3.522206e-01 -7.092848e-03 -5.425647e-01 -5.328782e-02 -4.836577e-01 -5.916820e-01
<VARIANCE> 20
 4.958508e+00 2.189999e+00 3.035296e+00 9.217914e-01 1.912558e+00 6.253034e-01 1.195952e+00 5.643337e-01 4.221895e-01 9.898861e-01 4.523350e-01 2.692743e-01 3.391921e-01 2.330158e-01 2.624751e-01 3.036490e-01 2.795302e-01 1.783866e-01 2.217185e-01 1.718120e-01
<GCONST> 2.564589e+01
<STATE> 13
<MEAN> 20
 -3.258272e+01 1.383319e+00 -4.406771e-02 1.554007e+00 -2.860708e+00 1.682938e+00 -8.056170e-01 8.671696e-01 -5.634986e-01 2.220207e+00 5.694185e-01 7.933390e-01 -5.768839e-01 -2.297672e-01 -9.590951e-02 -5.533407e-01 -3.907650e-01 -8.372006e-01 -6.277150e-01 -6.144010e-01
<VARIANCE> 20
 6.067235e+00 2.692480e+00 1.371245e+00 1.187153e+00 7.265691e-01 5.739619e-01 8.389643e-01 6.647995e-01 3.810969e-01 6.822505e-01 3.002714e-01 2.240801e-01 2.381363e-01 2.600112e-01 2.514372e-01 2.557683e-01 2.212806e-01 2.519124e-01 2.637492e-01 2.166394e-01
<GCONST> 2.325858e+01
<STATE> 14
<MEAN> 20
 -3.229271e+01 -1.114627e+00 2.571404e+00 -6.268346e-01 -1.193615e+00 7.236280e-01 -1.709156e+00 9.403463e-01 -1.304652e+00 6.460692e-01 1.101761e+00 1.491723e-01 -2.611465e-01 -5.209511e-01 -2.691841e-01 -2.373532e-01 -3.776622e-01 3.076129e-01 -4.163845e-01 -1.175573e-01
<VARIANCE> 20
 3.554190e+00 2.572780e+00 3.334666e+00 1.164181e+00 1.443925e+00 7.113838e-01 5.439465e-01 9.187366e-01 5.624617e-01 8.657522e-01 3.962109e-01 2.637247e-01 4.662861e-01 2.833186e-01 3.164205e-01 1.476412e-01 1.917166e-01 3.744709e-01 1.971965e-01 1.465489e-01
<GCONST> 2.541624e+01
<STATE> 15
<MEAN> 20
 -3.643039e+01 -6.043646e-03 -1.003234e+00 9.359469e-02 -2.909387e+00 1.267255e+00 -1.985572e+00 1.063001e+00 -5.011843e-01 1.589363e+00 3.313002e-01 1.502116e-01 -7.978414e-01 -3.735856e-01 -2.561629e-01 -3.359937e-01 -1.894893e-01 -3.915190e-01 -8.601794e-02 -3.188725e-01
<VARIANCE> 20
 3.533139e+00 2.051491e+00 1.593150e+00 5.330157e-01 7.610843e-01 6.238592e-01 4.881898e-01 4.726425e-01 3.801255e-01 6.370327e-01 3.975211e-01 1.953043e-01 2.012610e-01 2.309577e-01 2.257793e-01 1.667927e-01 1.995631e-01 1.830421e-01 1.566736e-01 1.943193e-01
<GCONST> 1.924022e+01
<STATE> 16
<MEAN> 20
 -3.928389e+01 -8.507679e-01 -1.432540e+00 2.436291e-01 -2.036817e+00 6.019762e-01 -1.449840e+00 3.714283e-01 -8.000465e-01 5.873215e-01 8.028164e-02 -7.142907e-02 -4.192748e-01 -3.866729e-01 -1.205461e-01 -3.273922e-01 -2.328894e-01 -2.047112e-01 -7.574077e-02 -2.476887e-01
<VARIANCE> 20
 7.094104e+00 7.438886e-01 1.678646e+00 5.475327e-01 3.956734e-01 4.221317e-01 3.514192e-01 2.267315e-01 1.736763e-01 3.369265e-01 3.301216e-01 2.213409e-01 1.695286e-01 2.091354e-01 1.983381e-01 1.217551e-01 1.393464e-01 1.813021e-01 1.704804e-01 1.119860e-01
<GCONST> 1.386249e+01
<STATE> 17
<MEAN> 20
 -3.550641e+01 -2.746233e+00 9.293974e-01 -7.850068e-01 -1.519381e+00 2.026118e-01 -1.566402e+00 -1.299302e-01 -9.769987e-01 2.779985e-01 1.062915e-01 -1.655975e-01 -5.168291e-01 -3.710549e-01 -3.439732e-01 -1.627951e-01 -1.804468e-01 1.130588e-01 -1.290834e-01 -1.066351e-01
<VARIANCE> 20
 5.376277e+00 1.819351e+00 1.266319e+00 5.976249e-01 5.413221e-01 4.752618e-01 3.162839e-01 3.223664e-01 1.949287e-01 2.926484e-01 2.381483e-01 2.780170e-01 1.444404e-01 2.226053e-01 2.158830e-01 1.514086e-01 1.658321e-01 1.361839e-01 1.661175e-01 1.563789e-01
<GCONST> 1.524059e+01
<TRANSP> 18
 0.000000e+00 1.000000e+00 0.000000e+00 0.000000e+00 0.000000e+00 0.000000e+00 0.000000e+00 0.000000e+00 0.000000e+00 0.000000e+00 0.000000e+00 0.000000e+00 0.000000e+00 0.000000e+00 0.000000e+00 0.000000e+00 0.000000e+00 0.000000e+00
 0.000000e+00 8.774194e-01 1.225806e-01 0.000000e+00 0.000000e+00 0.000000e+00 0.000000e+00 0.000000e+00 0.000000e+00 0.000000e+00 0.000000e+00 0.000000e+00 0.000000e+00 0.000000e+00 0.000000e+00 0.000000e+00 0.000000e+00 0.000000e+00
 0.000000e+00 0.000000e+00 7.682927e-01 2.317073e-01 0.000000e+00 0.000000e+00 0.000000e+00 0.000000e+00 0.000000e+00 0.000000e+00 0.000000e+00 0.000000e+00 0.000000e+00 0.000000e+00 0.000000e+00 0.000000e+00 0.000000e+00 0.000000e+00
 0.000000e+00 0.000000e+00 0.000000e+00 8.020833e-01 1.979167e-01 0.000000e+00 0.000000e+00 0.000000e+00 0.000000e+00 0.000000e+00 0.000000e+00 0.000000e+00 0.000000e+00 0.000000e+00 0.000000e+00 0.000000e+00 0.000000e+00 0.000000e+00
 0.000000e+00 0.000000e+00 0.000000e+00 0.000000e+00 8.041237e-01 1.958763e-01 0.000000e+00 0.000000e+00 0.000000e+00 0.000000e+00 0.000000e+00 0.000000e+00 0.000000e+00 0.000000e+00 0.000000e+00 0.000000e+00 0.000000e+00 0.000000e+00
 0.000000e+00 0.000000e+00 0.000000e+00 0.000000e+00 0.000000e+00 7.285714e-01 2.714286e-01 0.000000e+00 0.000000e+00 0.000000e+00 0.000000e+00 0.000000e+00 0.000000e+00 0.000000e+00 0.000000e+00 0.000000e+00 0.000000e+00 0.000000e+00
 0.000000e+00 0.000000e+00 0.000000e+00 0.000000e+00 0.000000e+00 0.000000e+00 7.432432e-01 2.567568e-01 0.000000e+00 0.000000e+00 0.000000e+00 0.000000e+00 0.000000e+00 0.000000e+00 0.000000e+00 0.000000e+00 0.000000e+00 0.000000e+00
 0.000000e+00 0.000000e+00 0.000000e+00 0.000000e+00 0.000000e+00 0.000000e+00 0.000000e+00 7.625000e-01 2.375000e-01 0.000000e+00 0.000000e+00 0.000000e+00 0.000000e+00 0.000000e+00 0.000000e+00 0.000000e+00 0.000000e+00 0.000000e+00
 0.000000e+00 0.000000e+00 0.000000e+00 0.000000e+00 0.000000e+00 0.000000e+00 0.000000e+00 0.000000e+00 7.361111e-01 2.638889e-01 0.000000e+00 0.000000e+00 0.000000e+00 0.000000e+00 0.000000e+00 0.000000e+00 0.000000e+00 0.000000e+00
 0.000000e+00 0.000000e+00 0.000000e+00 0.000000e+00 0.000000e+00 0.000000e+00 0.000000e+00 0.000000e+00 0.000000e+00 8.303571e-01 1.696429e-01 0.000000e+00 0.000000e+00 0.000000e+00 0.000000e+00 0.000000e+00 0.000000e+00 0.000000e+00
 0.000000e+00 0.000000e+00 0.000000e+00 0.000000e+00 0.000000e+00 0.000000e+00 0.000000e+00 0.000000e+00 0.000000e+00 0.000000e+00 7.816092e-01 2.183908e-01 0.000000e+00 0.000000e+00 0.000000e+00 0.000000e+00 0.000000e+00 0.000000e+00
 0.000000e+00 0.000000e+00 0.000000e+00 0.000000e+00 0.000000e+00 0.000000e+00 0.000000e+00 0.000000e+00 0.000000e+00 0.000000e+00 0.000000e+00 7.625000e-01 2.375000e-01 0.000000e+00 0.000000e+00 0.000000e+00 0.000000e+00 0.000000e+00
 0.000000e+00 0.000000e+00 0.000000e+00 0.000000e+00 0.000000e+00 0.000000e+00 0.000000e+00 0.000000e+00 0.000000e+00 0.000000e+00 0.000000e+00 0.000000e+00 8.602941e-01 1.397059e-01 0.000000e+00 0.000000e+00 0.000000e+00 0.000000e+00
 0.000000e+00 0.000000e+00 0.000000e+00 0.000000e+00 0.000000e+00 0.000000e+00 0.000000e+00 0.000000e+00 0.000000e+00 0.000000e+00 0.000000e+00 0.000000e+00 0.000000e+00 6.833333e-01 3.166667e-01 0.000000e+00 0.000000e+00 0.000000e+00
 0.000000e+00 0.000000e+00 0.000000e+00 0.000000e+00 0.000000e+00 0.000000e+00 0.000000e+00 0.000000e+00 0.000000e+00 0.000000e+00 0.000000e+00 0.000000e+00 0.000000e+00 0.000000e+00 7.466667e-01 2.533333e-01 0.000000e+00 0.000000e+00
 0.000000e+00 0.000000e+00 0.000000e+00 0.000000e+00 0.000000e+00 0.000000e+00 0.000000e+00 0.000000e+00 0.000000e+00 0.000000e+00 0.000000e+00 0.000000e+00 0.000000e+00 0.000000e+00 0.000000e+00 7.564102e-01 2.435897e-01 0.000000e+00
 0.000000e+00 0.000000e+00 0.000000e+00 0.000000e+00 0.000000e+00 0.000000e+00 0.000000e+00 0.000000e+00 0.000000e+00 0.000000e+00 0.000000e+00 0.000000e+00 0.000000e+00 0.000000e+00 0.000000e+00 0.000000e+00 8.389831e-01 1.610170e-01
 0.000000e+00 0.000000e+00 0.000000e+00 0.000000e+00 0.000000e+00 0.000000e+00 0.000000e+00 0.000000e+00 0.000000e+00 0.000000e+00 0.000000e+00 0.000000e+00 0.000000e+00 0.000000e+00 0.000000e+00 0.000000e+00 0.000000e+00 0.000000e+00
<ENDHMM>
